svm_type c_svc
kernel_type rbf
gamma 0.50625
nr_class 19
total_sv 246
rho 6.61217 -5.93226 -4.37958 -4.42304 0.938454 -5.55857 4.78381 -1.02573 -1.08867 1.53761 0.170429 -3.75163 -0.427482 1.04511 0.133125 -6.78018 -4.01053 -3.31199 -12.2473 -12.0418 -5.4917 -0.870856 -6.78784 3.82531 -4.22162 1.90343 -0.731818 -8.58408 -10.3984 -14.1252 -4.65708 -6.67237 -9.90286 -6.39201 -10.1463 0.821122 7.19621 2.9734 9.7426 5.65956 0.665669 0.60915 8.46871 11.7515 0.506107 4.37348 5.79342 7.52028 4.34137 5.89785 -4.00599 5.55214 4.92062 4.23746 7.95284 3.87464 2.54708 8.55965 5.38466 -2.63394 1.37481 6.30227 11.4337 -1.51758 6.89899 0.654301 2.96965 3.06307 7.68816 4.81127 5.37177 1.45547 8.04422 2.1563 2.03827 8.10332 3.5623 1.43402 0.432035 -2.54377 -4.22266 2.35335 1.09943 0.683615 -0.306465 -0.937693 0.469908 -2.79905 0.424558 -0.510241 -2.8016 -1.3899 -1.53574 5.55793 5.25255 -0.105207 4.25576 -1.33818 -5.36783 -5.79116 2.95108 0.00424491 -3.10727 -1.68521 -4.02109 -5.19786 -4.09635 -3.67887 0.145423 -6.75535 -5.20117 -6.63635 -4.17576 -8.53508 -2.374 -6.04093 5.21852 -5.474 1.61494 2.05721 0.0332739 1.8062 1.5176 -5.38216 -2.22313 -2.2608 -0.566235 -0.557136 -0.87794 -1.49488 0.785262 -2.59883 -1.98337 0.247497 -0.769401 7.72998 -4.56978 -6.33925 -2.58685 -2.56323 -9.5847 -4.57655 -10.1165 -3.37965 -5.57284 3.57436 -0.588355 -4.54921 -3.99293 -9.34236 -2.40059 9.82384 3.26593 -0.981814 2.67743 -1.07453 5.99212 3.69036 -2.31336 5.23398 -8.90646 -2.1921 -7.76885 -5.85484 -8.21818 -1.46259 -1.05345 -6.28674 0.762653 -2.14481 -4.94718
label 0 1 2 3 4 5 6 7 8 9 10 11 12 13 14 15 16 17 18
probA -0.395906 -1.04634 -0.199462 -0.576891 -0.570953 -0.505862 -0.759753 -0.546817 -1.165 -0.509527 -0.180405 -0.5253 0.0824308 -1.007 -0.458645 -0.142825 0.598845 -0.22073 -0.227831 -0.450527 -0.880525 -1.63119 -0.327262 -1.08584 -0.895038 -1.84014 -0.653923 -0.504765 -0.39778 -0.287739 -0.735157 -1.21576 -0.484024 -0.225921 -0.390442 -0.44973 -0.68971 -1.48858 -0.785238 -1.50194 -1.31734 -1.04954 -0.94396 -0.974684 -1.04276 -1.00512 -0.446986 -1.13543 -1.26979 -0.909132 -0.549719 -0.851047 -1.1904 -0.699574 -1.09323 -1.1881 -1.03791 -0.413364 0.298712 -0.881049 -0.179014 -1.09486 -0.118844 -0.4096 0.207629 -0.830813 -1.36059 -0.418702 -1.63847 -0.804238 -1.00662 -0.687622 -0.203926 -0.524248 -0.822755 -0.71848 -0.746856 -1.26145 -0.752479 -0.785312 -1.6854 -1.21173 -0.247937 -1.04707 -1.22014 -0.869014 -0.966002 -1.24269 -1.29244 -0.949495 -1.55598 -0.925072 -1.65251 -1.79247 -0.769539 -1.44086 -1.06137 -0.079134 -0.562513 -0.495792 -0.448284 -0.583289 -0.160256 -1.17337 -0.753871 -0.0494955 -0.589372 -0.96736 -1.1612 -0.495342 -1.01035 -0.586209 -1.10219 -0.927951 -1.32323 -0.962438 -1.08009 -0.553798 -0.604227 -0.843093 -0.490205 -0.957773 -0.289977 -0.554271 -0.240738 -1.09551 -0.751357 -0.93383 -0.988265 -1.48291 -1.26564 -1.92079 -1.09392 -0.80826 -1.75383 -0.431992 -0.92553 -0.759191 -1.03518 -1.04973 -1.17569 -1.051 -0.819284 -0.727976 0.394031 -1.27468 -1.33075 -0.247887 0.0863383 -0.311052 -1.25174 -0.918444 -0.507797 -0.642324 -0.558347 -1.76308 -0.406678 -1.44365 0.337429 0.21045 -0.453133 -0.384653 -0.236056 -1.0456 -0.137465 -0.944087 -0.400216 -1.50881 -0.0934684 0.291274 -0.891326
probB 0.34591 0.00360979 0.246168 0.123709 0.0735622 0.0864644 -0.103665 0.394669 0.386055 0.175229 0.204247 0.15833 0.269929 0.196928 -0.023994 0.197066 0.430966 0.205806 -0.0924601 -0.0690758 -0.174622 -0.328922 0.0209648 -0.314963 -0.166002 0.480961 -0.117695 -0.097642 -0.00137698 0.0397662 0.000610981 -0.309723 -0.147906 0.0879399 -0.0197605 0.140118 -0.0544063 0.328679 0.084662 0.14821 0.0345554 -0.0410348 0.200239 0.201771 0.0973681 -0.0312372 -0.0295461 0.151145 0.0765954 0.132654 -0.0683408 0.0729709 -0.121604 0.121798 0.212812 0.419491 0.202073 -0.0490512 -0.151406 -0.214224 -0.0747533 0.173274 -0.209043 -0.103061 -0.1349 -0.134531 -0.253245 0.0149785 -0.0521002 0.198263 0.0221117 -0.0155287 0.0698006 -0.0353149 0.0695102 0.0497923 -0.0663052 0.171214 0.017903 -0.00915585 0.166539 0.277849 0.347104 -0.135944 0.262322 0.126721 0.191947 -0.190698 -0.120727 -0.1457 0.0624821 0.015767 -0.0692971 0.125695 0.251475 0.108051 0.152497 0.0303932 -0.035975 0.0244927 -0.177414 -0.197742 -0.0244613 0.0928817 -0.0676912 0.38086 0.0653078 0.18821 0.110207 0.0436417 0.0408334 0.0712485 0.121559 -0.065823 0.187459 0.126987 0.0447027 -0.126306 0.0198845 -0.157939 -0.158331 0.0516302 -0.132783 -0.0914489 0.00150732 -0.0685366 0.167251 0.141373 0.137813 -0.144975 0.223494 -0.0710286 0.0924698 0.142365 -0.109728 -0.129897 -0.0200868 -0.212071 -0.242972 0.00723631 0.145664 0.0698527 -0.0829181 0.0144994 0.12141 0.0748756 -0.223712 -0.00267203 -0.0287924 0.0596395 -0.166891 0.191045 -0.0435017 0.0441006 0.0182067 -0.304724 -0.123263 0.000431276 0.0171447 -0.0407636 0.034195 -0.0410089 0.135545 0.0958653 0.212588 -0.0405698 0.12788 -0.257781 -0.000274215 -0.0350651 0.113875
nr_sv 11 13 14 15 13 9 14 10 15 10 15 14 14 14 11 12 14 14 14
SV
312.5 0 0 0 0 0 0 0 0 0 0 0 35.30496690926155 0 0 46.45703082313249 0 16.34765504251021 0:0.055033296 1:1.9599245e-006 6:0.032283176 7:0.00020956292 8:8.8091525e-005 36:0.0024249998 37:3.8500713e-007 42:0.12351605 43:0.027158188 44:0.00018129362 48:0.042528428 49:0.019319773 50:0.0019937509 51:0.00022647531 78:0.00052923703 79:0.0025197901 80:3.6448438e-007 84:0.028387439 85:0.094963484 86:0.019730469 87:0.000364509 90:0.0076453839 91:0.041216042 92:0.019189058 93:0.0025826185 94:0.0003119428 96:5.7225689e-006 100:2.3668908e-005 101:1.6327915e-006 121:0.00053507125 122:0.0015677413 126:0.00053925382 127:0.028248757 128:0.096568711 129:0.017440563 130:0.00069124787 132:0.00025324398 133:0.0074823773 134:0.047476679 135:0.015523436 136:0.0026970394 137:0.00061524386 139:2.335491e-007 164:0.00088663329 165:0.0025490776 169:0.00083064305 170:0.038901053 171:0.083978437 172:0.0095294314 173:0.00041083831 175:0.00037084808 176:0.011555756 177:0.030969921 178:0.0064401589 179:0.002993234 206:1.9710887e-005 207:0.00099336193 208:0.0021316851 212:0.0015391189 213:0.020068489 214:0.035289157 215:0.0084659969 
0 0 0 0 0 0 4.068123137238316 0 0 312.5 12.52619861858133 0 0 0 0 17.27523972012128 53.27345081360829 0 0:0.026468026 1:0.00043933556 6:0.012734771 7:0.0006352202 36:0.0017706458 37:8.8664543e-005 42:0.07997252 43:0.10434975 44:0.00072720164 48:0.0017026706 49:0.021897521 50:0.00038337961 78:0.00060990587 79:0.0051564351 80:3.7010843e-005 84:0.00077144697 85:0.11449528 86:0.074132316 87:0.0010094368 91:0.0076322416 92:0.020900333 93:0.00084872043 94:5.5291359e-005 115:2.1102707e-005 121:0.0015442721 122:0.0037433433 123:0.00023926677 127:0.0047612241 128:0.1256568 129:0.067962952 130:0.0020026211 134:0.0071779154 135:0.021839235 136:0.0021029266 137:3.8103797e-006 158:6.8359099e-005 164:0.001619536 165:0.005818699 166:0.00017312917 170:0.0040566805 171:0.13283643 172:0.0392408 173:0.0027672325 177:0.010726026 178:0.011826944 179:0.001614419 201:0.00010705872 207:0.0020943368 208:0.0023932178 209:0.00033102289 213:0.0054846033 214:0.04750577 215:0.017462241 
0 0 0 0 0 312.5 0 0 0 134.7622526992839 0 0 0 0 0 0 0 312.5 0:0.040790621 1:0.0022497051 6:0.050710827 7:0.010739413 8:0.00080033118 36:0.0011275446 42:0.097106673 43:0.03629677 44:0.0026955211 48:0.03221393 49:0.043266054 50:0.016505362 51:0.00098729867 78:0.0007471795 79:0.00037921584 84:0.0090933274 85:0.080955483 86:0.030012283 87:0.0025289531 90:0.00033198469 91:0.022754148 92:0.03764949 93:0.013013003 94:0.001045831 121:0.0013568959 122:0.00024025148 127:0.0062545706 128:0.081048422 129:0.02578296 130:0.0022717135 133:0.00019088588 134:0.030510243 135:0.039548703 136:0.017012322 137:0.0020839309 143:4.2420881e-005 163:1.8693996e-005 164:0.0011932923 165:0.00038883492 170:0.010823779 171:0.080051839 172:0.026838128 173:0.0055072266 176:0.00047086767 177:0.020979263 178:0.024067957 179:0.025705831 206:3.8607682e-006 207:0.0022870519 208:0.00018901353 213:0.01099945 214:0.032726035 215:0.017404601 
312.5 0 312.5 101.947059977487 2.353155918418483 139.6014468594754 0 312.5 0 0 312.5 312.5 312.5 0 28.74361697271893 188.4696126332432 312.5 0 0:0.054999497 1:0.0066230297 2:0.0011848055 3:0.00010950012 4:2.5312131e-005 6:0.029684061 7:0.0087116901 8:0.0022694191 9:0.00029791781 10:3.8396424e-006 12:0.00017237563 13:0.00037829342 14:0.00058651221 15:7.4662472e-005 19:1.139655e-006 36:0.0053294683 37:0.0012209102 38:0.00038528454 39:0.00020498002 40:4.4103319e-005 41:4.0788614e-006 42:0.087940618 43:0.029837536 44:0.0070367567 45:0.0012503891 46:0.00019371769 47:1.9595673e-005 48:0.043655016 49:0.025526421 50:0.010626929 51:0.0038633305 52:0.00031571035 53:1.5227132e-005 54:0.00014514485 55:9.5776071e-005 56:0.00032780686 57:0.00080462534 58:6.7009169e-005 59:5.3068547e-006 62:1.3470994e-006 64:8.2346096e-006 72:8.6936932e-005 73:0.00023304368 74:0.00014655058 75:0.00025049865 76:3.2339572e-005 78:0.0016947823 79:0.0033033155 80:0.00094005751 81:0.00050219311 82:0.00010853444 83:1.8946095e-005 84:0.022093326 85:0.05783714 86:0.020618821 87:0.0058928719 88:0.0010461306 89:0.00013319554 90:0.0090264501 91:0.029703427 92:0.019301355 93:0.0083139688 94:0.0041242521 95:0.00045140579 96:4.8915254e-006 97:9.2278387e-005 98:0.000132765 99:0.00025352003 100:0.00088324689 101:0.00027019368 106:6.5911609e-006 107:3.2547145e-005 109:1.0200205e-005 110:1.9183426e-006 111:2.1528173e-005 112:1.1640299e-005 114:0.00011153141 115:0.00016320466 116:0.00015118904 117:9.5574476e-005 118:4.1889572e-005 119:1.2199524e-005 120:0.00014191389 121:0.0010458934 122:0.0022187524 123:0.00056115433 124:0.00023133095 125:6.5210566e-005 126:0.0020260836 127:0.018787311 128:0.051890753 129:0.019708402 130:0.006361173 131:0.001383076 132:0.00059580588 133:0.0083457911 134:0.031037474 135:0.019966358 136:0.01263526 137:0.0083539486 138:7.6147298e-006 139:7.4575578e-006 140:9.863625e-005 141:0.0001105729 142:0.00073334202 143:0.0034069454 151:1.2023854e-006 152:4.3881091e-006 153:9.6455096e-007 154:2.4745482e-006 156:7.8730764e-006 157:5.7205798e-005 158:0.00014701675 159:5.848872e-005 160:2.281468e-005 161:1.8793327e-005 162:1.8289849e-005 163:0.00012008917 164:0.00149631 165:0.0025251647 166:0.00060096657 167:0.00029294594 168:8.4670959e-005 169:0.002192517 170:0.022076489 171:0.049998287 172:0.021356482 173:0.0093520004 174:2.1406361e-006 175:0.00074754993 176:0.010157737 177:0.026467096 178:0.017020915 179:0.026955152 199:2.231894e-005 200:8.641684e-005 201:4.8094156e-005 202:4.7952275e-005 203:6.7238703e-005 205:4.0670325e-006 206:0.00012151089 207:0.0013770052 208:0.0017896189 209:0.00091119844 210:3.4720058e-006 211:3.1856354e-005 212:0.003427201 213:0.022900464 214:0.041692197 215:0.033759266 
312.5 69.17725396710776 275.5330524252003 215.9315775397655 0 0 0 69.45339937514588 0 312.5 312.5 90.98329682210715 312.5 0 0 86.25535927551276 257.4474022030564 0 0:0.074862659 1:0.0016898531 6:0.037045792 7:0.0055331099 8:0.0022432879 9:5.8591348e-005 14:2.6661031e-005 15:8.5966218e-005 36:0.0079779262 37:0.00023525071 42:0.14095293 43:0.031261913 44:0.0024168689 45:1.7362576e-006 48:0.017288432 49:0.019910008 50:0.005020699 51:0.0019011638 52:0.00021615288 57:8.6768938e-005 58:0.00012242211 59:1.5989639e-005 72:0.0016176089 73:1.158208e-005 78:0.0078511341 79:0.0046548932 80:0.00019643262 84:0.016067492 85:0.080360852 86:0.028002849 87:0.0021306255 88:2.1000807e-005 90:0.00047195572 91:0.013428135 92:0.019079292 93:0.0076519609 94:0.005096483 95:0.001350255 99:3.4222978e-007 100:0.00017265028 101:0.00071646069 108:0.0002217506 109:7.0057927e-006 114:0.00038620897 115:0.00091828237 116:2.0518723e-006 120:0.00016470494 121:0.0041293865 122:0.005306236 123:8.3626095e-005 126:0.00011139065 127:0.013379284 128:0.090141624 129:0.027584227 130:0.0038052273 131:0.00011311109 133:0.00041320041 134:0.015947688 135:0.018758943 136:0.0068844282 137:0.0024589445 143:1.1457291e-005 151:9.3184426e-005 152:1.0078579e-006 157:0.00011931291 158:0.0011857622 159:4.0240247e-005 163:0.00020851385 164:0.0062050573 165:0.0051206644 166:0.00016813702 169:0.0001880702 170:0.014815396 171:0.093602255 172:0.021727337 173:0.0010431074 176:0.0002304934 177:0.010307052 178:0.014261962 179:0.0039526671 194:7.9237871e-005 195:2.1501974e-005 200:0.00034865757 201:0.0022352289 202:4.596902e-005 205:1.5083219e-005 206:0.0004216138 207:0.0051389323 208:0.0034089866 212:4.3092328e-005 213:0.0080520362 214:0.054697845 215:0.023556622 
62.57195924558683 34.54530349801343 53.665382664141 34.65370718601211 0 312.5 0 0 0 0 0 0 312.5 149.6179384876817 0 312.5 211.0752058987723 302.6217186142692 0:0.094548427 1:0.0002437465 6:0.083614647 7:0.0012444406 12:0.00022474097 13:2.5686815e-009 36:0.0014078288 37:4.011258e-005 42:0.083285227 43:0.030318733 44:0.0004624596 48:0.038571935 49:0.035849389 50:0.0013697473 54:0.00055542809 55:0.00016753576 72:9.9749659e-006 78:0.00047918342 79:0.00084695971 80:0.0001249683 84:0.0074775354 85:0.048052851 86:0.025768492 87:0.0006303647 90:0.0055637835 91:0.039448008 92:0.035177801 93:0.00132974 96:1.2156988e-005 97:0.00077537296 98:0.00019486692 99:4.5048859e-007 114:1.1176188e-005 115:8.2818169e-006 120:1.4426103e-005 121:0.00063193665 122:0.00075449987 123:0.00016996016 126:0.00063535321 127:0.0070793475 128:0.062225565 129:0.029597992 130:0.00036284435 132:3.4503013e-005 133:0.0054772608 134:0.052609514 135:0.045973968 136:0.0010852873 139:2.3071849e-005 140:0.00073284307 141:0.00012403048 157:1.016214e-005 158:9.6078384e-007 162:4.8741941e-007 163:1.7139842e-005 164:0.001038953 165:0.00099124911 166:0.00010859906 168:2.0507287e-006 169:0.00047313212 170:0.010160106 171:0.071565367 172:0.028406881 173:0.0006074314 175:3.1443764e-005 176:0.0055347341 177:0.031836286 178:0.02734874 179:0.0022043458 200:1.0134902e-005 201:1.7554563e-005 205:2.2636868e-006 206:2.350363e-005 207:0.001058693 208:0.0010237423 209:0.00015693631 211:7.252745e-006 212:0.00076946168 213:0.0049012154 214:0.030510331 215:0.035831995 
222.5251388556495 139.9304362270966 312.5 261.8125469619624 213.6904667715388 84.36962211452681 199.8917199740218 312.5 167.9853448498754 174.6370135605519 159.5651067009117 0 89.56012135067714 115.7204010509054 312.5 251.9095057867188 312.5 312.5 0:0.14548077 1:0.0073533156 2:0.00018117554 6:0.02123373 7:0.0052891239 8:0.0033487712 9:0.00043223551 36:0.013072305 37:0.00059996918 42:0.11325785 43:0.033068042 44:0.0071002245 45:0.00040057508 48:0.013795095 49:0.0085288035 50:0.0046802349 51:0.0029463586 52:0.00015173214 57:9.8968094e-006 58:3.247906e-005 72:0.0012018768 78:0.010741373 79:0.0055139204 80:0.00023148453 84:0.032181956 85:0.074511297 86:0.023816288 87:0.006059079 88:0.00081985467 90:0.0014987531 91:0.015009904 92:0.0089974282 93:0.0054320996 94:0.0056893355 95:0.0007998537 100:2.6278793e-005 101:0.00046934697 108:0.00015214237 114:0.00052463997 115:0.0011558891 116:7.4570031e-005 120:0.00091373594 121:0.0079935351 122:0.0058293738 123:0.00012584915 126:0.00069911667 127:0.032987226 128:0.083440453 129:0.017447578 130:0.011224044 131:0.0026411931 132:3.0847175e-005 133:0.0022890011 134:0.018389955 135:0.0054342868 136:0.0064870189 137:0.012232098 143:1.643157e-005 151:0.00032836094 152:2.6544763e-005 157:0.0010794762 158:0.0024984463 159:2.0064097e-005 162:5.5071232e-005 163:0.00097715692 164:0.013567266 165:0.003396105 166:0.00011882933 167:6.9946647e-005 168:1.1126585e-005 169:0.00062909879 170:0.051932845 171:0.057186604 172:0.01111072 173:0.010294147 175:4.9257746e-005 176:0.0027854654 177:0.00700694 178:0.0012468239 179:0.0040069609 187:2.9692232e-005 188:0.00011877704 193:1.9477158e-005 194:0.00036144856 195:3.1808275e-005 200:0.0016283141 201:0.0016169684 202:2.5470061e-005 206:0.0013240194 207:0.0083722854 208:0.00079603546 209:0.00012809232 212:0.00033878337 213:0.017240554 214:0.012850821 215:0.0026684564 
2.535013850430876 0 258.9919719645071 0 0 294.4273650037137 0 51.76042161202212 0 39.38378831313733 266.0657218716177 312.5 312.5 7.906894295270333 0 197.3906718229217 312.5 165.6851845845915 0:0.023668732 1:0.0050014094 2:0.0002758824 6:0.055511106 7:0.013556794 8:0.0047500897 9:0.00022798877 12:0.0010853703 13:2.9008306e-005 14:9.23318e-005 15:8.4110739e-005 36:0.00036361683 37:8.9044028e-005 42:0.027325643 43:0.04453405 44:0.005642808 45:0.0002946092 48:0.031620581 49:0.059481367 50:0.011042072 51:0.0035408223 52:5.5828048e-005 54:0.00055496633 55:0.0012931285 56:8.8453235e-005 57:0.00016261688 58:1.1929653e-005 78:2.7627273e-005 79:0.00093076262 80:0.00017538856 84:0.0011519523 85:0.030694304 86:0.037277084 87:0.0035326548 88:0.00016669948 90:0.001270452 91:0.034555361 92:0.047993694 93:0.0099838255 94:0.0024976393 95:5.8113008e-005 96:1.0743192e-006 97:0.00040208898 98:0.00073475606 99:6.5527565e-005 100:9.7324133e-005 101:2.6853997e-005 121:6.538965e-005 122:0.0013279159 123:0.00014074762 126:8.1769074e-005 127:0.0012406389 128:0.03132068 129:0.04128259 130:0.0043520327 131:0.00019594135 132:2.8656417e-005 133:0.0011628671 134:0.028349403 135:0.056238454 136:0.011113642 137:0.0042489008 139:2.9841939e-007 140:0.00049705681 141:0.0014225213 142:0.00010537195 143:0.00027608022 163:1.2690791e-006 164:4.768595e-005 165:0.0016963909 166:0.00020021533 168:2.6705866e-005 169:4.2426447e-005 170:0.0011126932 171:0.037885677 172:0.045985717 173:0.004620899 174:2.9652898e-005 175:5.6364996e-005 176:0.0015882979 177:0.05183851 178:0.070109978 179:0.016693911 206:8.9867916e-007 207:7.895485e-005 208:0.0020579586 209:0.00018740149 210:0.0001250038 211:0.00049562386 212:0.00042205071 213:0.0030299993 214:0.060154274 215:0.056032788 
268.5614927796267 312.5 312.5 312.5 19.95506949908122 0 85.34504956047763 97.61898732084866 197.549524244904 312.5 218.2115404748874 272.5767511651101 312.5 138.1965452143521 285.2066298445078 277.6358703321209 312.5 303.6479487724113 0:0.19449328 1:0.003233945 2:5.8289399e-005 6:0.026559429 7:0.0043204362 8:0.00022303137 9:8.2833805e-007 36:0.018204434 37:0.00019510977 42:0.084489882 43:0.03033622 44:0.0016801538 45:3.8913531e-006 48:0.0081638657 49:0.012165716 50:0.0025425637 51:0.00013611662 57:5.5801947e-006 72:0.00028480697 78:0.0069440068 79:0.0074890885 80:2.4138606e-005 84:0.0080161309 85:0.057152141 86:0.022336151 87:0.0015757409 88:1.0314019e-006 90:6.5454791e-005 91:0.0064480333 92:0.011182619 93:0.002317372 94:0.00010508148 114:3.2957265e-005 115:8.6703069e-005 120:0.0001027188 121:0.0065757809 122:0.0069968137 123:1.4241761e-005 126:4.0668006e-006 127:0.0056095966 128:0.052256525 129:0.029114956 130:0.0016001893 131:5.0062549e-006 133:3.0786592e-005 134:0.006602535 135:0.016255299 136:0.003417016 137:0.00013420019 143:1.3237326e-005 157:8.8339759e-005 158:0.00047054654 163:9.0407273e-005 164:0.0082518719 165:0.011562007 166:4.2948654e-005 170:0.0065501863 171:0.10306387 172:0.04957718 173:0.004267219 176:3.3030854e-005 177:0.01180435 178:0.018226191 179:0.005406471 200:6.8210611e-005 201:0.00078532344 206:5.6139845e-005 207:0.015296021 208:0.017103203 209:6.7492903e-005 213:0.010928513 214:0.068972319 215:0.027681017 
22.4118692000317 271.2061606861417 312.5 312.5 312.5 312.5 222.2011273897464 312.5 160.4207884240987 312.5 312.5 312.5 312.5 140.4269793380891 282.6648229238521 312.5 312.5 227.3061710212187 0:0.051266674 1:0.0013038339 6:0.01824495 7:0.0070496225 36:0.0063911108 37:0.0004617353 42:0.031323541 43:0.16250005 44:0.0018572088 48:1.6283251e-005 49:0.021715799 50:0.0026357449 78:2.336837e-005 79:0.015756557 80:0.00038620416 85:0.051105764 86:0.11252825 87:0.0022730709 91:0.00013372769 92:0.0083962148 93:0.0038850291 115:1.3040687e-005 121:0.00040533609 122:0.014520225 123:0.00025682512 127:0.00013443203 128:0.032075543 129:0.11549885 130:0.0040257038 134:2.9368286e-005 135:0.0047231992 136:0.0058908821 158:0.00037702429 164:7.6697186e-005 165:0.010652291 166:0.00015610216 170:0.00015539784 171:0.020945461 172:0.10774808 173:0.0045285439 178:0.0032279757 179:0.0044935588 207:0.00059502735 208:0.0051404047 209:5.1179286e-005 214:0.014410808 215:0.15061329 
250.0769317489189 261.5939880440977 312.5 312.5 213.3694746415235 312.5 312.5 312.5 108.6131249259122 312.5 312.5 312.5 312.5 312.5 180.7942796401615 312.5 312.5 312.5 0:0.034377225 1:0.00072353682 6:0.031313393 7:0.0010876919 36:0.0029541994 37:0.00030072869 42:0.080652989 43:0.10346467 44:0.0035065068 48:0.0060410518 49:0.044560187 50:0.001636403 78:0.0015795666 79:0.0076291068 80:0.0022074895 84:0.0017830824 85:0.086983487 86:0.11270452 87:0.0043094568 91:0.007867883 92:0.044630945 93:0.0012790746 94:4.6478081e-006 115:5.8001133e-005 116:5.1741367e-006 120:6.6581192e-006 121:0.0012931756 122:0.0085526733 123:0.0029797971 127:0.0017852592 128:0.08696828 129:0.082938388 130:0.0033600249 133:8.0601676e-006 134:0.0073657408 135:0.020813541 136:0.001337714 137:9.9982981e-006 157:7.7589621e-006 158:8.6767992e-005 159:1.5889553e-005 163:1.8230332e-006 164:0.0015949286 165:0.0058677224 166:0.0022733053 170:0.0025150089 171:0.033478603 172:0.051137302 173:0.0045715007 176:7.7302848e-006 177:0.00177521 178:0.0035378579 179:0.0011458492 201:1.9104491e-005 202:1.9108197e-006 206:5.3166827e-005 207:0.00088481157 208:0.0014869858 209:0.0032236711 213:0.00087817822 214:0.0044485698 215:0.081906192 
-126.7772243260648 0 0 25.47623032117605 0 0 92.66288659201872 7.112660362986105 0 23.91449087263121 0 0 0 0 71.07991901345979 0 22.02166160206565 0 0:0.010918396 1:1.6636008e-005 6:0.0055767396 7:4.913197e-005 8:3.4304601e-006 12:3.9723636e-005 36:0.0065490692 37:0.00013876414 38:8.3489986e-006 39:1.4866346e-006 42:0.14341478 43:0.013577428 44:0.0010846813 45:0.00016414281 46:2.9454166e-006 48:0.021042746 49:0.0061747003 50:0.00081934896 51:0.00014586402 52:2.9927151e-006 54:2.4363671e-005 55:4.5641729e-005 56:4.8139208e-007 72:8.7063527e-005 73:1.3874945e-005 74:6.658309e-007 78:0.036165971 79:0.0089455452 80:0.00048372679 81:0.00011690678 82:1.2152752e-005 84:0.082319282 85:0.079090454 86:0.0093716048 87:0.0020677694 88:0.00028415254 89:2.1093278e-007 90:0.0065233139 91:0.013552354 92:0.0053236242 93:0.0010361753 94:0.00022308376 95:0.00024892794 96:1.715315e-008 97:2.3851369e-006 98:4.2562569e-005 99:7.9685719e-007 100:1.2158781e-005 101:0.00021488268 108:2.1497481e-006 114:0.0007345599 115:0.00049980532 116:5.2232019e-005 120:0.0057858177 121:0.018194122 122:0.0056625805 123:0.0003231272 124:1.7743829e-005 126:0.0086146099 127:0.050439835 128:0.074452512 129:0.0079368176 130:0.0014092092 131:0.00019290984 132:0.00096223981 133:0.0093547348 134:0.015566425 135:0.0050775399 136:0.0025769614 137:0.001711975 140:1.3160541e-005 141:3.0928146e-005 142:8.9896084e-006 143:7.7211253e-006 150:2.6688433e-006 151:4.973479e-006 156:2.3483764e-005 157:0.00043484787 158:0.00029297758 159:3.0324645e-005 162:0.00014208718 163:0.0039802906 164:0.025651451 165:0.0081628831 166:0.00028635518 167:4.5887223e-006 168:0.00049899216 169:0.016571712 170:0.07811217 171:0.084491558 172:0.011917918 173:0.0032024141 174:6.1902488e-006 175:0.0012103519 176:0.004475072 177:0.0097834868 178:0.0033097989 179:0.0024523593 193:2.2664236e-007 194:1.9819529e-007 195:7.1448812e-007 199:1.9500498e-005 200:0.0008006065 201:0.0004530455 202:2.5296564e-005 204:2.2672727e-007 205:0.00012996864 206:0.0059103305 207:0.02478653 208:0.0045742309 209:0.00019782328 211:0.00012305474 212:0.0022288007 213:0.017611438 214:0.015812758 215:0.0067059249 
-0 0 165.6924117197924 93.65667969698131 0 141.9191380090468 0 0 0 0 78.32764708571287 11.00090314647368 192.2652383015444 82.66382297535104 76.30300449667588 31.64200797854007 123.1724768616382 0 0:0.15363397 1:0.0043151104 2:0.00067181577 3:0.00011807409 4:7.4006975e-006 5:6.4893976e-007 6:0.051224582 7:0.0029022673 8:0.00073996768 9:0.00034862131 10:7.4544332e-005 11:2.3384405e-006 12:0.0013493433 13:0.00020208368 14:0.00018522987 15:0.0001565829 16:9.3066774e-005 17:1.3649724e-005 18:4.8782126e-006 19:8.7179745e-007 20:3.1943987e-006 21:1.288983e-005 22:1.3688223e-005 23:8.0760474e-006 28:8.242709e-007 29:7.3498302e-007 36:0.012024007 37:0.001420339 38:0.00016816215 39:1.7156914e-005 40:1.1180827e-007 42:0.06984999 43:0.013509138 44:0.002081967 45:0.000212057 46:4.7031343e-005 47:1.7420773e-006 48:0.039138045 49:0.0060964306 50:0.0016145548 51:0.00049387477 52:0.00028270631 53:8.4849715e-005 54:0.0016815353 55:0.00051830342 56:0.00014561045 57:0.00017296236 58:0.00016888483 59:0.00022018739 60:8.9738542e-006 61:9.4120251e-006 62:1.4018553e-006 63:7.7793838e-006 64:2.0496334e-005 65:7.6771947e-005 71:2.1801347e-006 72:0.0016004987 73:0.00017669429 74:1.1986843e-005 75:4.0903215e-006 76:5.5758477e-007 78:0.0065656379 79:0.0026932335 80:0.0007568585 81:9.4186333e-005 82:9.8218579e-006 83:3.5652351e-007 84:0.031739961 85:0.015025931 86:0.0074591786 87:0.0012013289 88:0.0001752009 89:4.9126898e-005 90:0.027318785 91:0.011109165 92:0.0040208283 93:0.0010833285 94:0.00049802288 95:0.00061870733 96:0.0023298329 97:0.0016285978 98:0.00065699784 99:0.00015481244 100:0.00028394797 101:0.0013183265 102:1.1495319e-005 103:1.4441112e-005 104:1.5409176e-005 105:8.2155833e-007 106:1.8944729e-005 107:9.8640034e-005 108:0.00012599767 109:1.8236287e-005 110:1.5618182e-006 114:0.0010845709 115:0.00062369154 116:0.00011313499 117:1.0340254e-005 118:9.3933249e-007 120:0.0025356838 121:0.002713029 122:0.0017075462 123:0.0005111518 124:5.6169487e-005 125:1.1387086e-005 126:0.012733999 127:0.013947532 128:0.011698072 129:0.0059870877 130:0.0011050826 131:0.00026638384 132:0.018867208 133:0.018149473 134:0.011360449 135:0.0041203573 136:0.0014025439 137:0.0016478017 138:0.0015312351 139:0.0024016649 140:0.0017810733 141:0.00070858188 142:0.00024594422 143:0.0014160461 144:3.3037647e-006 145:9.5902692e-007 150:8.2491861e-005 151:8.9085981e-005 152:1.6393531e-005 153:8.2027617e-007 156:0.00025854915 157:0.00071386795 158:0.0004948834 159:0.00010722838 160:8.6772425e-006 161:2.1654555e-006 162:0.00058877358 163:0.0017918837 164:0.0026083514 165:0.0017267045 166:0.00049168442 167:7.6572906e-005 168:0.004862804 169:0.010835403 170:0.015129487 171:0.013055525 172:0.0073331031 173:0.0016595767 174:0.0096666617 175:0.020510133 176:0.021875674 177:0.013496306 178:0.005301204 179:0.0032234138 186:3.6344011e-006 187:4.3233576e-006 188:1.1900049e-006 192:1.8182132e-005 193:9.7512311e-005 194:0.00011563109 195:2.6191394e-005 196:6.6709038e-007 198:2.2507837e-005 199:0.00027097025 200:0.0010922055 201:0.00085313554 202:0.00015274795 203:8.9585728e-006 204:0.00013797115 205:0.00072694407 206:0.0027103801 207:0.0045270198 208:0.0031781597 209:0.00082968146 210:0.0024890155 211:0.011837482 212:0.03383512 213:0.053871222 214:0.06315463 215:0.080232419 
-312.5 312.5 222.9672630325292 312.5 39.58328794562097 312.5 299.6130653910681 276.2534767780571 73.16258012216503 312.5 312.5 234.4460869246141 312.5 312.5 283.2793667515131 312.5 312.5 312.5 0:0.16260676 1:0.00035687877 6:0.047957461 7:0.0011668679 36:0.00076370389 42:0.11273605 43:0.04675984 44:0.0017164174 48:0.021785013 49:0.035577979 50:0.0048164604 51:0.0004397255 79:0.0010056398 80:5.4738473e-005 84:0.0041918401 85:0.098405726 86:0.053373348 87:0.0030720048 90:0.00012153068 91:0.018796377 92:0.040308192 93:0.0033552372 94:0.0017750226 95:0.0009912065 100:5.1593304e-007 101:5.7890989e-005 122:0.0020512284 127:0.0038897695 128:0.12229379 129:0.042520832 130:0.0036338465 131:0.00031051456 133:7.8333687e-005 134:0.031875499 135:0.02293114 136:0.0061807032 137:0.0042785481 164:2.6439272e-007 165:0.0021326027 166:2.6753238e-005 170:0.0040480415 171:0.053240065 172:0.017558025 173:0.002109325 177:0.0011493445 178:0.0038840869 179:0.0016589945 208:0.0015790727 214:0.0049117482 215:0.005465236 
-260.8805401955804 179.5763519232 288.8116316286419 213.3226849285285 70.30015162166225 312.5 265.6248296762943 129.1400623075685 25.94117780634658 312.5 312.5 312.5 312.5 312.5 94.56950912224662 312.5 312.5 312.5 0:0.0034977237 6:0.032597069 7:0.00039699601 12:1.0316656e-006 36:7.3903248e-005 42:0.041320484 43:0.075781628 44:0.00048867142 48:0.0047858045 49:0.10482304 50:0.0015261133 55:2.8702307e-005 56:1.4433118e-006 78:5.1206848e-006 79:0.00036997258 80:0.00020990048 84:5.8767055e-006 85:0.06030095 86:0.084839351 87:0.0014324966 91:0.0041901683 92:0.080687463 93:0.0024367422 98:2.4003468e-005 121:6.9598568e-006 122:0.00063743215 123:0.00048239133 127:2.2539027e-005 128:0.044566624 129:0.081596769 130:0.0015189255 134:0.0023879239 135:0.065657094 136:0.0025087413 165:0.00058633677 166:0.00039555438 170:1.7309299e-005 171:0.037545342 172:0.088688724 173:0.0019025133 177:0.00063722057 178:0.045065973 179:0.0019372638 208:0.0003356323 209:0.00086386793 214:0.024542239 215:0.09827207 
-312.5 312.5 312.5 78.08168174189964 0 0 0 0 0 312.5 129.203743142114 0 312.5 0 56.3920521704439 0 16.88884430862904 82.97021244289324 0:0.19652191 1:0.00039867678 6:0.017518112 7:0.00076314044 36:0.01582198 37:1.0994468e-005 42:0.10502949 43:0.020395711 44:0.00045667557 48:0.0084440419 49:0.0057724984 50:0.0010546313 51:0.00011775245 72:4.3590517e-006 78:0.0071527823 79:0.0040182718 80:3.5020763e-005 84:0.024616206 85:0.046945192 86:0.030060457 87:0.00048420575 90:0.0012060561 91:0.0053579118 92:0.0065031294 93:0.00089406542 94:2.7500955e-005 114:7.2289404e-005 115:2.3027855e-009 120:0.00095494615 121:0.0041673766 122:0.0065830848 123:4.4798755e-005 126:0.00081670872 127:0.015396795 128:0.066923656 129:0.030818958 130:0.00045326335 132:2.6038566e-005 133:0.00099984265 134:0.0070688166 135:0.0083638141 136:0.00082361442 137:5.8520083e-005 157:2.589846e-005 163:0.0005963794 164:0.0070249811 165:0.0080460012 166:6.8388006e-005 168:1.9734871e-006 169:0.0008034918 170:0.025764953 171:0.092022471 172:0.027324107 173:0.00099483167 175:5.9471254e-006 176:0.0014555723 177:0.010263273 178:0.0081532951 179:0.0032590306 200:1.7525168e-005 206:0.0012105322 207:0.0085609499 208:0.0049661202 209:1.1958729e-006 212:0.00084152265 213:0.031177219 214:0.094703972 215:0.029526984 
-0 0 0 12.37639995975865 95.89469972730331 39.98232059761548 0 118.6930598995396 117.3661806254417 0 80.52613911444166 0 26.15256689176064 49.29760076292609 43.10237551831358 60.95736998614922 0 21.35201323135633 0:0.085426189 1:0.0012451523 6:0.027044611 7:0.0003102429 36:0.017155945 37:0.00053959514 42:0.16330263 43:0.034991689 44:0.0026513233 48:0.019752184 49:0.0074263639 50:0.0005977003 54:4.4142771e-006 72:0.00014971584 73:3.8745588e-006 78:0.015870672 79:0.007408753 80:0.00069108617 84:0.049305797 85:0.090054184 86:0.028660079 87:0.0030160467 88:1.0674464e-006 90:0.004819856 91:0.016719976 92:0.0030321581 93:0.00039322642 97:6.4427741e-006 108:2.5967649e-005 114:0.00028625655 115:0.00036491215 116:1.9683632e-005 120:0.0027587118 121:0.015345815 122:0.005158545 123:0.00069805619 124:4.720259e-007 126:0.0042455168 127:0.058902852 128:0.052244026 129:0.024334138 130:0.0025993038 132:0.00015162519 133:0.0039969268 134:0.006213706 135:0.0020073506 136:0.00031405568 137:2.1185008e-006 144:9.4083416e-006 150:7.6385026e-005 151:5.4497592e-005 156:3.2158168e-005 157:0.00057252299 158:0.00028067132 162:0.00048633211 163:0.0041069379 164:0.011558702 165:0.0042680562 166:0.00055957789 168:0.00013050894 169:0.0049231672 170:0.028371906 171:0.02818824 172:0.031871159 173:0.0040121553 176:0.00058179727 177:0.0012512566 178:0.0015590512 179:0.00072950195 180:4.6287378e-006 186:3.3406232e-005 187:6.2573483e-005 193:1.8052184e-005 194:1.7818599e-007 198:1.2486679e-006 199:6.4731903e-005 200:0.00016532549 201:4.2106836e-005 204:2.730131e-005 205:0.00045014865 206:0.002617873 207:0.0047011795 208:0.0034717582 209:0.0014325189 211:3.6497015e-005 212:0.00066452246 213:0.0064692218 214:0.010631119 215:0.085230716 
-0 0 276.839287140957 0 0 0 86.15964753921887 140.1711590690451 0 0 0 312.5 83.87646228575943 0 88.11376796735419 0 312.5 0 0:0.11243261 1:0.0020791499 2:0.00050160935 3:0.00013161749 4:2.3184861e-005 5:9.4878988e-007 6:0.019169761 7:0.0019921593 8:0.00033768598 9:7.2928982e-005 10:1.3075174e-006 12:5.2532869e-005 13:3.3750464e-005 14:5.1070048e-005 15:2.1580565e-005 16:1.6895672e-007 20:1.7407128e-006 21:2.8352231e-006 22:3.4736661e-007 36:0.031860732 37:0.0014246213 38:0.00025751584 39:9.2495204e-005 40:4.0415143e-005 41:6.4773312e-006 42:0.072206646 43:0.02266695 44:0.00149595 45:0.00044567088 46:9.8288903e-005 47:8.1227408e-006 48:0.0078513725 49:0.0069431984 50:0.0010201242 51:0.00030613359 52:0.00010776321 53:9.7901857e-006 54:1.1015947e-005 55:2.2461147e-005 56:1.7806347e-005 57:3.0749543e-005 58:2.6548583e-005 59:9.0816911e-007 63:3.5104927e-006 64:3.4385114e-006 65:3.9578998e-007 72:0.0054668724 73:0.00079141156 74:7.3437994e-005 75:7.5304706e-006 76:3.5116502e-006 78:0.017262088 79:0.011176294 80:0.00096261065 81:0.00018378392 82:6.147111e-005 83:2.8746455e-005 84:0.016153296 85:0.038824864 86:0.014511516 87:0.0011851398 88:0.00045403355 89:0.0001163414 90:0.0012728025 91:0.0052726241 92:0.0052986345 93:0.00085082045 94:0.00043379876 95:0.00021971075 96:8.6409716e-007 97:9.7217844e-006 98:4.4943856e-005 99:3.8136779e-005 100:5.80792e-005 101:6.5982313e-005 106:5.7006275e-007 108:0.00078431703 109:0.00056629139 110:0.0001039143 111:1.2962637e-006 114:0.0015551088 115:0.0019854882 116:0.00055677828 117:4.1341918e-005 118:3.2173584e-006 119:4.2693617e-007 120:0.0031167509 121:0.010695308 122:0.0079281032 123:0.00066937524 124:0.00013460504 125:7.4012001e-005 126:0.001445125 127:0.013253693 128:0.03666494 129:0.014456263 130:0.0013014718 131:0.00071169774 132:7.8966426e-005 133:0.0012428411 134:0.0064075883 135:0.0068144416 136:0.001241083 137:0.0011126572 139:1.7459217e-006 140:2.1498723e-005 141:7.5375123e-005 142:4.7784826e-005 143:0.00016421515 144:0.00013886405 145:0.00020991225 146:0.00010037525 147:6.7589331e-006 150:0.00010668842 151:0.00028146079 152:0.00045709097 153:7.9021644e-005 154:7.8654256e-007 156:0.0002105693 157:0.00084840914 158:0.0013308421 159:0.00050284457 160:3.9040231e-005 161:1.5453687e-006 162:0.00031737765 163:0.0024263998 164:0.01052968 165:0.0086731119 166:0.00068326149 167:0.00015013643 168:9.1839058e-005 169:0.0013524534 170:0.015690953 171:0.048650872 172:0.021855671 173:0.0022276617 174:1.2171014e-006 175:6.6645276e-005 176:0.0016038264 177:0.0095963031 178:0.010406133 179:0.0032919194 180:2.4667615e-005 181:7.7429868e-005 182:6.2895539e-005 183:7.3337114e-006 186:1.3703499e-005 187:5.3002612e-005 188:0.00019693655 189:0.0001418207 190:1.1636149e-005 192:1.0494716e-005 193:6.3229469e-005 194:0.00029938691 195:0.0006512517 196:0.00022710406 197:8.2888246e-006 198:7.2026858e-005 199:0.00013919445 200:0.00094724848 201:0.0017757273 202:0.0011691079 203:0.00019305604 204:0.00010523255 205:0.00034148956 206:0.0025147521 207:0.01431605 208:0.015089031 209:0.0024322663 210:3.7398873e-005 211:0.00014866551 212:0.0018196886 213:0.026367273 214:0.11464545 215:0.15615399 
-0 312.5 269.9552897263303 26.23628806231528 0 312.5 0 0 0 0 172.5160475992086 167.8547830260056 312.5 29.94448489178863 0 236.7221533556636 217.5756672703726 150.3972224564969 0:0.29329705 1:0.00068974629 6:0.039711881 7:0.0039107632 12:2.889686e-005 36:0.0055562905 37:1.9901614e-005 42:0.037359811 43:0.053562567 44:0.00028804564 48:0.0039167302 49:0.019406915 50:0.0023027146 54:1.4981613e-005 55:3.8965289e-005 78:0.00015253085 79:0.0030849264 80:3.6342124e-007 84:0.00044040036 85:0.019259531 86:0.029727731 87:0.00013514281 90:4.0173094e-005 91:0.0030702462 92:0.014041788 93:0.0013103455 97:3.5140762e-005 98:5.2544925e-005 121:9.3072376e-005 122:0.0018082153 127:0.00024206864 128:0.016103765 129:0.025810162 130:0.00011420668 133:4.4927234e-005 134:0.0033205724 135:0.018445441 136:0.0015406248 140:3.5113841e-005 141:8.6132655e-005 164:0.00010631853 165:0.003111338 170:0.00025352259 171:0.025096618 172:0.035380464 173:0.00020808366 176:6.7855268e-005 177:0.0052011809 178:0.026711635 179:0.0019729875 207:0.00013869038 208:0.004597601 213:0.00067487196 214:0.05196397 215:0.24541447 
-0 0 0 0 0 0 0 206.0262450871483 0 0 0 0 0 11.50600086340313 0 0 132.9943581495184 0 0:0.010826069 1:5.4281841e-006 6:0.018924674 7:0.0010051242 8:2.0609575e-006 12:0.00022805677 13:0.00041506375 14:3.4171862e-005 36:0.003322972 37:1.7766262e-006 42:0.10362806 43:0.0096567562 44:0.00029322368 45:1.9407482e-006 48:0.061440524 49:0.014684748 50:0.0025833233 51:3.525888e-005 54:0.00023214589 55:0.0001017195 56:0.0001855367 57:3.129134e-005 72:9.7464479e-005 78:0.013071665 79:0.0029713267 80:0.0002564895 81:1.5805391e-006 84:0.078299195 85:0.065661274 86:0.012922358 87:0.0008211314 88:1.2429676e-007 90:0.018676778 91:0.028797086 92:0.0089281471 93:0.0033204472 94:7.6907309e-005 96:9.5455296e-005 97:0.00012931798 98:2.2513537e-005 99:7.7454279e-005 100:7.4859658e-005 108:8.8973839e-006 114:0.00036910581 115:7.5962402e-005 116:4.8209534e-009 120:0.0048778527 121:0.011948345 122:0.0031492114 123:0.00010753273 124:7.5039185e-007 126:0.0092234472 127:0.053691085 128:0.047672093 129:0.010378616 130:0.00087481271 131:6.9569501e-006 132:0.0054122093 133:0.019648092 134:0.020538619 135:0.0049128397 136:0.0046275957 137:0.0025677446 138:8.0701711e-006 139:9.2541872e-005 140:6.2136744e-005 141:1.7756724e-005 142:0.00018289566 143:0.00019474095 150:5.911013e-006 151:9.3089466e-006 152:6.1624363e-008 156:8.2978142e-005 157:0.00049945875 158:0.00011272595 162:0.00013348623 163:0.0049401885 164:0.01300518 165:0.0021354556 166:8.354702e-005 167:2.9457074e-006 168:0.00076405727 169:0.017024772 170:0.060230937 171:0.031973414 172:0.013049328 173:0.0052068923 174:0.00023555188 175:0.0079759415 176:0.019582566 177:0.010513811 178:0.0063254656 179:0.011972212 187:9.4102916e-007 192:7.1800764e-007 193:2.0064075e-005 194:1.2863246e-005 198:3.1055324e-006 199:0.00010388882 200:0.00045459505 201:3.7556903e-005 204:9.2122133e-007 205:0.00027768733 206:0.006651008 207:0.010283994 208:0.0017287307 209:0.00020929436 210:2.3434025e-007 211:0.0014723412 212:0.022850798 213:0.0425287 214:0.018973757 215:0.025931181 
-191.0138372034565 0 205.8951269473544 0 0 185.0025626775504 0 23.16075968386582 0 0 65.77726440999987 218.7622832935252 267.2971477999481 23.93765683408458 0 236.9566764348902 273.069109694123 84.82753870114087 0:0.027078776 1:3.1821521e-006 6:0.059822518 7:1.6612443e-005 36:0.001312193 37:2.7323154e-005 42:0.11251253 43:0.010417425 48:0.10116579 49:0.010065156 78:0.00058831152 79:0.00084751839 80:6.3075437e-005 84:0.044245716 85:0.066510357 86:0.0072485399 90:0.028882204 91:0.071402162 92:0.0073990687 96:6.0603907e-006 97:7.3698997e-005 120:5.2871992e-006 121:0.00077344396 122:0.0011332752 123:4.1318813e-006 126:0.0022749437 127:0.051203985 128:0.05250074 129:0.0075902548 132:0.00095649593 133:0.039508421 134:0.061840996 135:0.0039862934 158:5.1620586e-006 163:0.00022028357 164:0.0001791346 165:0.00033856175 166:5.5642965e-007 169:0.003340435 170:0.043516859 171:0.031154295 172:0.008306887 173:4.375459e-006 175:0.0014581095 176:0.022269625 177:0.025919868 178:0.0041369428 179:1.27152e-006 206:4.5180303e-005 207:2.308401e-006 208:0.0016718209 212:0.0021571191 213:0.021565823 214:0.039744962 215:0.022493865 
-312.5 0 0 14.65630869163017 0 0 0 0 0 0 141.9648170064478 0 122.3264022025237 0 0 285.8232059074231 0 312.5 0:0.058152642 1:0.00030367449 6:0.041116226 7:0.0033685605 8:8.4808344e-005 36:0.0048535252 42:0.14117874 43:0.024095379 44:0.0017042323 48:0.029222701 49:0.016253404 50:0.0059518409 51:0.00042716772 72:9.3197843e-005 78:0.0051444615 79:0.00071207882 84:0.048860203 85:0.071352623 86:0.019913116 87:0.001702616 90:0.0035896886 91:0.022770794 92:0.013189291 93:0.0049541839 94:0.00059988961 120:0.0002785828 121:0.0034311553 122:0.00088656112 126:0.001873991 127:0.043091249 128:0.074657641 129:0.017876748 130:0.0021538166 132:1.4448416e-005 133:0.00573412 134:0.024128903 135:0.0097064162 136:0.0077314391 137:0.0013421838 157:0.00010529566 158:5.195869e-005 163:0.00023220864 164:0.005667544 165:0.00095277705 168:1.5543521e-006 169:0.0034393377 170:0.058768198 171:0.068875067 172:0.022489216 173:0.0059881229 175:3.2157266e-005 176:0.0038088732 177:0.010919437 178:0.010253685 179:0.0070925923 200:0.00011437051 201:3.9758092e-008 206:0.00066974427 207:0.0070078797 208:0.0016018322 211:6.3964552e-007 212:0.0018977165 213:0.026090207 214:0.039134279 215:0.012302944 
-0 3.858198398060846 0 0 30.71456081078059 89.14188932934715 13.35564097636803 0 0 125.5684122637367 0 0 0 121.8744365913415 158.2884241002172 0 0 0 0:0.33384669 1:0.00057834049 6:0.026003279 7:0.00050286658 12:7.6968934e-007 36:0.011934734 37:0.00029963383 42:0.031522106 43:0.048452061 44:0.00020585157 48:0.0012765635 49:0.01315639 50:0.0003340228 55:3.0511644e-006 72:0.00012594287 78:0.0049690707 79:0.0036193097 80:5.8723621e-005 84:0.00082431815 85:0.02086495 86:0.045938924 87:0.00017757149 91:0.0008235983 92:0.016787803 93:0.0002483142 98:2.1102173e-006 114:0.00013749968 115:2.0476999e-005 120:0.0004921346 121:0.001536833 122:0.0018538947 123:4.3905646e-005 126:6.8800233e-007 127:0.00033045773 128:0.020182976 129:0.036299136 130:0.00013268372 134:0.0011357549 135:0.013140942 136:0.00028390973 157:5.665276e-005 158:1.4602811e-005 163:0.00020639875 164:0.0012865057 165:0.0012548245 166:2.3277948e-005 169:9.1899403e-007 170:0.00032061926 171:0.018594988 172:0.034229532 173:0.0001994114 177:0.00073392619 178:0.0097795092 179:0.00026572318 199:1.2194834e-006 200:5.3191889e-005 201:6.643877e-006 206:0.00055351801 207:0.0035308884 208:0.0032657362 209:3.6398385e-005 213:0.0024050118 214:0.039414942 215:0.24561726 
-250.0108039551425 268.5195485984895 312.5 292.5852603118447 50.97871763964385 36.24499025179204 0 0 141.310021436759 312.5 261.1850666266474 312.5 312.5 0 0 162.2622218265838 218.7750782149439 231.505195084135 0:0.081009105 1:0.00059805304 2:5.2440711e-005 6:0.019568577 7:0.00082954462 8:0.0003013383 9:1.105267e-006 12:3.8476192e-006 14:3.3856818e-006 36:0.020104321 37:0.00028850359 38:5.977121e-006 42:0.14520951 43:0.044161163 44:0.0024533819 45:0.00045850952 48:0.011309485 49:0.0094660996 50:0.0011297227 51:0.00061628205 57:7.8411324e-007 58:2.6113257e-006 72:2.988449e-005 78:0.0033576952 79:0.012775731 80:0.00030205393 81:1.3301025e-005 84:0.011295684 85:0.081143297 86:0.028369937 87:0.0017543938 88:0.00031606018 89:4.6100803e-007 90:0.00063721236 91:0.0075407578 92:0.0070304684 93:0.00092901837 94:0.00040080631 95:1.0279336e-005 100:4.2643941e-007 115:2.8089988e-005 120:4.1351332e-006 121:0.0015917724 122:0.0087953825 123:0.00016060197 124:6.6179418e-006 125:1.3953834e-006 126:6.1444727e-005 127:0.0081686499 128:0.073460229 129:0.028004562 130:0.0022971525 131:0.00052742811 132:3.3924653e-006 133:0.00072193058 134:0.0094752321 135:0.007246824 136:0.0013211585 137:0.00143749 143:5.7583725e-006 151:6.5668323e-006 157:1.2687246e-006 158:2.1753427e-005 162:3.5962529e-007 163:7.0937253e-006 164:0.0020494233 165:0.011035573 166:0.00028079431 167:3.1679829e-005 169:8.9568071e-005 170:0.0091960477 171:0.079540558 172:0.03843331 173:0.0057055675 175:3.3276956e-006 176:0.00054767 177:0.0050208983 178:0.0064336597 179:0.0016078955 200:4.7871981e-006 201:2.4074452e-006 206:1.6200143e-005 207:0.0022694571 208:0.015697336 209:0.00046725976 212:1.0392613e-005 213:0.0043633808 214:0.090380117 215:0.089975305 
-312.5 -0 166.1642776523945 169.7431024497272 312.5 55.00529100247388 123.7237178868792 312.5 0 312.5 312.5 312.5 27.72700209666577 0 215.4942155468178 312.5 312.5 186.6222423661569 0:0.072668858 1:0.00034695005 6:0.010402018 7:0.0016568947 36:0.0069750361 37:0.00024082797 42:0.076034702 43:0.13003758 44:0.00018011106 48:0.002234339 49:0.012123008 50:0.00076028303 78:6.5491477e-005 79:0.014618626 80:0.0001422544 84:0.0015292516 85:0.089309759 86:0.10331473 87:0.00029524005 90:2.1074271e-005 91:0.0029925136 92:0.010671492 93:0.00024109088 121:0.00011779203 122:0.014553959 123:2.6086085e-005 127:0.0013874326 128:0.085091777 129:0.077587038 133:0.0001215098 134:0.0038508475 135:0.0095109297 164:2.5722524e-005 165:0.012054275 166:2.1166702e-006 169:1.0499136e-005 170:0.0018590721 171:0.075080499 172:0.056245744 176:3.4092664e-005 177:0.0023410588 178:0.0042228964 208:0.015212703 212:2.5965925e-005 213:0.0011111327 214:0.048430994 215:0.054233674 
-0 -0 312.5 312.5 0 90.16092954516051 0 0 109.4185070682776 232.8489540728523 312.5 0 312.5 112.3253525404934 186.0566350618627 0 20.8982550478589 98.63028102811219 0:0.1655554 1:0.0096002631 2:0.00046729107 6:0.012315169 7:0.015596247 8:0.0005663216 36:0.0066018584 37:0.0017006459 42:0.03364512 43:0.11656076 44:0.013527424 45:0.00021861933 48:0.0035752286 49:0.015361508 50:0.017869335 51:0.0016577672 52:4.5847275e-005 78:9.3055336e-005 79:0.0096305814 80:0.00097205816 84:0.00085667981 85:0.04428849 86:0.086893126 87:0.012411253 88:0.00047526235 91:0.0061340132 92:0.014224672 93:0.01163532 94:0.0017861992 95:5.8758444e-005 121:0.0011422368 122:0.0076536452 123:0.00011398354 127:0.0029442047 128:0.048831582 129:0.053612173 130:0.007243332 131:0.00096606859 133:0.00011029725 134:0.009898751 135:0.012244862 136:0.004686329 137:0.0035966861 158:1.2818361e-005 164:0.0016818863 165:0.0064402944 166:0.00092538731 170:0.0044397293 171:0.054356277 172:0.036748495 173:0.0068290331 176:0.00041907778 177:0.011022288 178:0.011522114 179:0.0052733659 201:4.0405419e-005 207:0.0024763476 208:0.0094372518 209:7.0256538e-005 212:1.9078521e-005 213:0.0054594702 214:0.040039122 215:0.045419119 
-185.3233995258149 -186.9575557372914 312.5 312.5 239.1754912977891 312.5 166.1523869198759 257.4159281490157 232.3691943959991 145.9122258340424 312.5 312.5 312.5 312.5 312.5 312.5 312.5 312.5 0:0.1536303 1:0.0083763776 2:1.9895733e-005 6:0.042777203 7:0.048801001 8:0.0042759175 9:1.3186026e-005 12:0.0007280861 13:0.0051288554 14:0.005464633 15:0.0005155637 16:1.5055089e-005 18:3.741914e-006 19:7.898578e-005 20:0.00015188637 21:0.00029148714 22:3.4250519e-005 36:0.012599171 37:0.0025692908 38:2.9746834e-005 42:0.047546063 43:0.049407005 44:0.0067204386 45:6.590852e-005 48:0.0080150012 49:0.020273468 50:0.019772902 51:0.0021577643 52:3.255955e-005 54:0.00014360582 55:0.00070319464 56:0.0010800216 57:0.0017816102 58:0.0003372654 59:2.1191641e-005 61:1.541787e-006 62:4.0910827e-006 63:3.2111158e-005 64:8.8806286e-005 72:0.00094184617 73:0.00017794616 74:1.4801773e-006 78:0.013409322 79:0.010567181 80:0.0030196595 81:5.735557e-005 84:0.018788643 85:0.036008455 86:0.031199697 87:0.0053314157 88:9.5881864e-005 90:0.0014370453 91:0.0072801998 92:0.0080032442 93:0.012880615 94:0.0028496673 95:4.8371217e-005 96:1.8095016e-005 97:0.00023395404 98:0.00021549301 99:0.00055391836 100:0.0015110533 101:0.00037112986 107:2.0627611e-005 108:7.4061769e-005 109:8.082804e-006 114:0.0010004186 115:0.00067287521 116:0.00016155952 117:7.528316e-006 120:0.0053924276 121:0.0091158273 122:0.0068253926 123:0.0022749507 124:4.1457875e-005 126:0.0028831321 127:0.010596456 128:0.016025241 129:0.022742637 130:0.0075362516 131:0.00011257669 132:0.00013353046 133:0.0014913343 134:0.0014265554 135:0.0048339618 136:0.01768196 137:0.0051074345 139:1.1570139e-005 140:2.9906681e-007 141:1.0577506e-005 142:0.00013683031 143:0.00082178036 144:7.3347856e-006 145:2.6313951e-006 150:6.2183586e-005 151:2.1438642e-005 152:1.3396958e-006 156:0.00049292727 157:0.00061057392 158:0.00040033457 159:0.00012790755 160:2.4577932e-006 162:0.001605297 163:0.0026775876 164:0.0040846844 165:0.003811934 166:0.0013814576 167:1.7192624e-005 168:0.00086790766 169:0.0021542173 170:0.0032317422 171:0.010606399 172:0.03399064 173:0.014803725 174:4.2267504e-005 175:0.00016146689 176:0.00011292306 177:0.000552807 178:0.0044740383 179:0.027795503 186:3.0080705e-006 192:1.9346156e-005 193:2.2130946e-005 194:1.9897136e-005 195:6.4065698e-006 198:0.00016725091 199:0.00022111634 200:0.00024203515 201:0.00016358407 202:5.2707757e-005 204:0.00062622235 205:0.00082619936 206:0.001173518 207:0.0025007196 208:0.0065341932 209:0.0022278659 210:0.00029258939 211:0.00028906501 212:0.00057794841 213:0.0018757366 214:0.013788194 215:0.13843124 
-0 -92.43794959373483 123.2477869414067 0 0 312.5 50.61601362508583 0 0 118.2696118464649 312.5 219.0519821341052 312.5 312.0903539034136 0 312.5 153.9060322964018 289.0424488538095 0:0.1855634 1:0.0022919101 6:0.058735903 7:0.0072068963 8:0.00037977032 12:0.00016341604 13:5.0251306e-006 36:0.001006372 37:8.6715863e-006 42:0.020652378 43:0.075441912 44:0.0009462224 48:0.001667456 49:0.029704908 50:0.0052798409 51:0.0002114597 55:1.271976e-006 56:1.2516331e-005 57:3.4023098e-005 58:0.00080870738 59:5.4341381e-005 65:7.5545962e-008 79:0.0001956966 80:8.9762625e-006 84:2.1470785e-005 85:0.013821603 86:0.062170491 87:0.0010504609 91:0.0011582432 92:0.027923733 93:0.0065339645 94:0.0013889362 95:4.8563124e-005 98:2.1990885e-005 99:3.8569873e-005 100:8.9396264e-005 101:6.9205402e-005 122:0.00016341744 123:3.1571359e-005 127:1.4284729e-005 128:0.011292695 129:0.068692334 130:0.0016234516 134:0.0014930345 135:0.040360875 136:0.0068958537 137:0.00070039893 141:3.4189143e-005 143:0.00012884637 164:2.1378728e-006 165:0.00098499318 166:7.1255417e-005 171:0.016419973 172:0.088254027 173:0.0015290403 177:0.0014268899 178:0.047417544 179:0.0085935583 208:0.00078793737 209:2.4041841e-005 214:0.021960767 215:0.17637907 
-0 -0 0 51.95992064301078 0 0 0 0 153.2369813526225 92.8884129301866 0 0 0 19.12632067602643 0 0 0 0 0:0.29357171 1:0.0017840182 6:0.012420691 7:0.0051907948 8:6.6695342e-005 36:0.0014419868 37:2.0491238e-005 42:0.098059759 43:0.10379839 44:0.002032629 48:0.00065722672 49:0.00877662 50:0.0037715135 51:0.00021203404 78:0.00047576195 79:0.0010336182 84:0.0020131548 85:0.082370304 86:0.1049445 87:0.0010966084 88:0.00011149406 91:0.00067845528 92:0.008459107 93:0.0030924757 94:0.0022299276 95:0.00094372727 121:0.00051961065 122:0.0018625576 127:0.0029077865 128:0.07528352 129:0.084898159 130:0.0048289378 131:0.00030826541 135:0.0074125142 136:0.0049480689 137:0.00078892999 164:0.00022639062 171:0.041119702 172:0.028216226 173:0.0014127281 178:0.00017168259 179:0.0011308991 208:0.00088048988 214:0.0031159904 215:0.00071388332 
-0 -312.5 0 0 0 0 0 0 0 0 0 0 0 0 0 0 0 0 0:0.17230168 1:9.1607044e-006 6:0.038177326 7:2.2357592e-006 36:0.00046792877 37:2.2362776e-005 42:0.11780984 43:0.046507228 44:0.00018553277 48:0.0068485602 49:0.021765042 50:0.00027337935 78:4.3594715e-005 79:0.00031079541 84:0.0011020324 85:0.094098561 86:0.041587155 87:0.00010894585 90:6.2546846e-005 91:0.0060779024 92:0.02069905 93:0.00020454035 121:9.7695527e-005 122:0.000522808 126:3.3616718e-005 127:0.0012973307 128:0.086560093 129:0.037800815 130:5.9278198e-005 133:0.00012956053 134:0.0061500156 135:0.018849911 136:7.8655299e-005 164:9.7946366e-005 165:0.00027771769 166:1.4172247e-005 169:2.4885649e-005 170:0.001800762 171:0.081476703 172:0.031830095 173:8.7538217e-005 176:0.00010026246 177:0.0049508526 178:0.018836915 179:0.00023935373 207:9.7126485e-006 208:0.00020831742 213:0.00089375069 214:0.086551152 215:0.052354693 
-120.2971658435041 -312.5 312.5 0 0 0 0 9.237260692372054 3.545860474283288 312.5 107.6940174067889 100.7883481489444 100.6619082940393 0 0 0 196.4195372332634 194.0160915682256 0:0.15087645 1:5.0331029e-005 6:0.031288709 7:7.3410694e-005 36:0.0017165598 37:4.5905119e-005 42:0.11537629 43:0.046160232 44:2.8026048e-005 48:0.0071035656 49:0.019816555 50:9.5400224e-005 55:4.3227078e-006 78:0.00033947118 79:0.0015772647 80:9.5288084e-007 84:0.0025961867 85:0.09752275 86:0.043290783 87:0.00020730835 90:7.9121099e-005 91:0.0061647701 92:0.018461995 93:0.00020886117 121:0.00038041547 122:0.0011899238 123:3.558167e-005 126:2.348146e-005 127:0.0027797904 128:0.08696799 129:0.0392012 130:0.00013542741 133:0.00024166192 134:0.0065402701 135:0.017739499 136:0.00028286525 163:0.00014827857 164:0.00085844862 165:0.00069446227 166:1.2144586e-005 169:2.7996808e-005 170:0.0030907069 171:0.083697818 172:0.038650811 173:0.00037044188 176:0.00010725758 177:0.0054769744 178:0.015055004 179:0.0001948631 200:3.2119995e-005 206:0.0001161204 207:0.00087639544 208:0.00057160674 209:3.7379073e-006 213:0.0020144356 214:0.086592503 215:0.062804401 
-0 -0 0 0 0 0 41.30368011616468 0 0 29.64914953650462 0 0 96.96242338551561 0 0 0 0 36.71073430932071 0:0.23003365 6:0.033883717 7:3.5863453e-005 36:3.5036694e-005 42:0.059111848 43:0.14584219 48:8.77532e-005 49:0.027698675 78:0.00015265131 79:0.00017624862 84:5.0550701e-005 85:0.046884052 86:0.12364207 91:8.2415616e-005 92:0.024758378 121:0.000174869 122:0.000149067 127:9.9400539e-005 128:0.046022903 129:0.12623423 135:0.013770023 164:0.00057730998 165:0.00015180257 170:0.00053407333 171:0.032920327 172:0.051401794 178:0.0051454962 207:0.00018383318 214:0.0060550994 215:0.024104662 
-0 -177.4680352009218 312.5 0 0 0 0 0 0 77.15223484684029 0 0 0 32.21486995153202 125.1615518592299 0 0 0 0:0.23679246 1:0.012267143 6:0.013538192 7:0.019189605 8:0.0013807153 14:1.901181e-005 15:5.4396291e-006 36:0.006648914 37:0.00025438724 42:0.068157569 43:0.046751916 44:0.0036498294 48:0.0021568846 49:0.0054587051 50:0.0094154794 51:0.0005905971 52:1.0275447e-005 56:5.7374109e-007 57:0.00010017358 58:0.0001256072 78:0.0023330331 79:0.002065547 80:4.3575285e-005 84:0.011002867 85:0.027216703 86:0.040172774 87:0.0032599389 90:3.7323756e-005 91:0.0011224605 92:0.00652176 93:0.0081652692 94:0.0022353532 95:1.2809943e-006 99:1.2540341e-005 100:0.00029031816 101:9.6681477e-005 120:0.00011456849 121:0.0012716632 122:0.0021619878 123:0.00015730265 126:8.7135275e-005 127:0.005752949 128:0.041343402 129:0.048099797 130:0.0054118941 133:8.518311e-006 134:0.0027197814 135:0.0099319201 136:0.014273571 137:0.0024640048 143:0.00022602908 163:2.1621912e-005 164:0.0021952728 165:0.0020517926 166:2.8678463e-007 169:7.0880305e-005 170:0.013796946 171:0.057494242 172:0.052254368 173:0.0079823704 176:5.1166055e-005 177:0.0023674963 178:0.0084491195 179:0.022208845 206:0.00010942406 207:0.003173955 208:0.003268355 212:3.7466034e-005 213:0.010308724 214:0.046432901 215:0.10260931 
-312.5 -250.5099264668465 312.5 312.5 0 312.5 0 148.5426708852229 0 84.88587607480405 312.5 202.9361287680201 312.5 284.9467107802726 312.5 312.5 312.5 312.5 0:0.12682535 1:0.00071365118 6:0.071969897 7:0.0084234197 8:5.4842048e-006 12:8.2062215e-005 36:0.0029723961 37:3.8331924e-005 42:0.0920128 43:0.078120962 44:0.0015737053 48:0.0089992601 49:0.035380028 50:0.0073651741 54:4.305342e-005 55:4.1719817e-005 78:0.00047322345 79:0.0011558669 80:1.4771001e-005 84:0.0044748178 85:0.051910885 86:0.059035078 87:0.00081844302 90:0.00027325028 91:0.0081693996 92:0.034757346 93:0.0041051516 97:4.3075841e-005 98:8.2254461e-005 120:3.4484139e-005 121:0.00040573027 122:0.0014505358 123:4.2870677e-005 126:3.3487653e-005 127:0.0041722595 128:0.06505537 129:0.049064472 130:0.00033641912 133:0.00033477231 134:0.010170565 135:0.031942684 136:0.0035034004 140:1.0115841e-005 141:2.7327998e-005 163:3.9026876e-005 164:0.00066804403 165:0.0013085158 166:1.8166791e-005 169:3.6868107e-005 170:0.005793253 171:0.054536767 172:0.037435185 173:0.00056606694 175:3.7260065e-007 176:0.00014816367 177:0.0045789042 178:0.016694831 179:0.0058082081 206:3.014432e-005 207:0.00056970539 208:0.00067792484 209:7.4113013e-006 212:1.1428378e-005 213:0.0026875704 214:0.019300509 215:0.082617626 
-0 -0 0 0 0 0 312.5 0 0 312.5 0 126.3746685276306 0 0 0 0 0 0 0:0.17000501 1:0.00050126226 6:0.0084182071 7:0.0007431042 36:0.019845996 37:0.00014872289 42:0.08194457 43:0.11658299 44:0.00054308516 48:0.0015777432 49:0.0061271745 50:0.00091553706 78:0.00033180678 79:0.01747299 80:0.00011311032 84:0.00043163146 85:0.063493513 86:0.097795434 87:0.00016228603 91:0.0011124138 92:0.0061632162 93:4.8837421e-005 121:0.00039043132 122:0.014924709 123:7.221858e-005 127:0.00048685461 128:0.059848405 129:0.073797509 133:1.9202553e-005 134:0.0013309006 135:0.0046451115 164:0.00039384665 165:0.014070366 166:7.5047996e-005 169:3.5563235e-006 170:0.00040862447 171:0.050139748 172:0.056209199 177:0.00042841941 178:0.0013339726 207:0.00036990547 208:0.015001181 213:0.00021880357 214:0.04607464 215:0.065278687 
-0 -0 0 0 0 0 0 0 0 0 0 0 0 274.986011415506 68.97298056819749 0 0 0 0:0.23080148 1:0.0013732621 6:0.032289933 7:0.0071190358 36:0.00031740248 37:2.9284583e-006 42:0.029934514 43:0.1283453 44:0.0011266994 48:0.00019647383 49:0.018594842 50:0.0041500637 78:4.5567518e-008 79:0.00022812781 84:7.312522e-006 85:0.017137935 86:0.06508027 87:0.00036749439 91:0.00019151048 92:0.011575054 93:0.0017777605 122:0.00026269184 123:5.2168421e-009 127:1.1298722e-005 128:0.0135123 129:0.062641606 130:0.0002993274 134:8.7609194e-005 135:0.013520967 136:0.0019866196 165:0.0001773868 171:0.012796767 172:0.089956492 173:0.0010538711 177:3.6446563e-006 178:0.016902484 179:0.0062614284 207:3.9130362e-005 208:0.00012343038 209:1.0035501e-006 214:0.011681377 215:0.21806309 
-0 -57.08063192095575 86.35081068472475 223.7204656761063 0 188.4821627005892 0 0 0 126.1305056954235 0 0 312.5 0 0 191.3760382639792 0 312.5 0:0.21081984 1:8.6785876e-005 6:0.044714712 7:0.0015590856 8:0.00035649366 14:2.2982551e-005 15:7.7345227e-005 16:6.121038e-006 36:0.00011849314 42:0.082838096 43:0.048216797 44:4.6204419e-005 48:0.0091055548 49:0.032426964 50:0.0015440461 51:0.001003981 52:0.00017913639 56:2.4776429e-005 57:0.00045913886 58:0.0012927746 59:0.00017354159 79:0.00014916537 84:0.00088671257 85:0.078593023 86:0.048394743 87:0.00024510297 91:0.0057048867 92:0.030651223 93:0.0043203668 94:0.0015077777 95:8.9994879e-005 100:0.00014042591 101:0.0001099206 122:2.5635158e-005 127:0.00091035076 128:0.081877992 129:0.035843529 130:0.00034480062 134:0.009031618 135:0.026273737 136:0.0015908566 137:0.0006778753 143:0.0001147874 165:0.00011610532 170:0.0011839292 171:0.064348899 172:0.036115956 173:0.0010040828 177:0.0049324683 178:0.019731112 179:0.0044037784 207:4.7581336e-005 208:8.9057048e-006 213:0.000276406 214:0.05348761 215:0.051785663 
-158.3325770531383 -0 154.192695630649 312.5 68.18334249896887 85.1021835619845 0 73.21281803706791 312.5 312.5 257.1397299938975 0 96.93513005068716 0 0 62.18297054016896 87.10716546883874 0 0:0.12987895 1:0.00032160897 6:0.019455083 7:0.00047684662 8:3.0334388e-005 36:0.014220444 37:9.9772158e-005 42:0.097448222 43:0.13367087 44:0.00079023367 45:1.1125923e-005 48:3.4474357e-005 49:0.013522314 50:0.00061501685 51:0.00010314804 52:7.0151573e-006 55:1.5155919e-008 78:7.184608e-005 79:0.014876643 80:9.677701e-005 84:4.0664072e-006 85:0.070790529 86:0.10612401 87:0.00069690874 88:2.7434431e-005 91:6.4771775e-005 92:0.015219017 93:0.00043043346 94:3.5913985e-005 115:5.7716329e-006 121:6.4752552e-005 122:0.012195638 123:2.9560511e-005 128:0.065045156 129:0.086606495 130:0.00017018305 134:5.2261861e-005 135:0.008535671 136:2.0151643e-005 158:7.2241983e-006 164:0.00014496414 165:0.013652013 166:0.0001456567 171:0.051882196 172:0.054397047 173:4.0279629e-005 177:5.9193659e-005 178:0.0016726136 179:1.7701745e-005 201:2.211378e-005 207:0.00014505268 208:0.015406061 209:5.0014535e-007 214:0.044630919 215:0.025926756 
-0 -0 -0 26.06060816970197 0 16.03895696442239 0 0 15.79134030123806 0 38.44320159978738 0 0 0 312.5 0 0 4.455599832321763 0:0.14393084 1:0.072854899 2:0.021314614 6:0.00296344 7:0.0075543527 8:0.023856832 9:0.0057402859 15:0.00010764514 36:0.016807558 37:0.0022069733 38:5.7490022e-005 42:0.04669876 43:0.079533584 44:0.022885067 45:0.0074787466 48:0.00032565551 49:0.0018613079 50:0.005845489 51:0.018832833 52:0.011330891 58:0.0001681588 59:9.0947094e-007 78:0.00035178888 79:0.012741228 80:0.0014435841 81:7.3329415e-006 84:0.00015356799 85:0.037705332 86:0.063019291 87:0.022378916 88:0.0079118107 89:5.6075573e-006 90:6.9877028e-006 91:0.00094676629 92:0.0019785548 93:0.0049456866 94:0.020642821 95:0.012633811 100:1.3851703e-005 101:0.0013053562 121:0.00033945189 122:0.012361754 123:0.001222193 124:1.2736174e-005 126:1.4223044e-006 127:0.00027761399 128:0.039796662 129:0.05637572 130:0.02075167 131:0.0089430567 134:0.00085533026 135:0.00084573083 136:0.0044662911 137:0.032995649 143:0.00014217557 164:0.00055392762 165:0.012862086 166:0.00084402197 167:4.5478168e-006 170:0.00043823032 171:0.033369072 172:0.033509966 173:0.017414209 176:4.858058e-007 177:0.00015168136 178:0.00043207238 179:0.0092498967 207:0.00047874334 208:0.0076629436 209:0.00047756292 213:0.00013430763 214:0.011681244 215:0.010799201 
-312.5 -312.5 -312.5 312.5 0 312.5 225.1503720376838 15.19819773894853 0 312.5 312.5 312.5 312.5 312.5 199.067777980197 312.5 312.5 312.5 0:0.1619084 6:0.043100458 7:0.00074252248 36:0.0063072527 42:0.071669735 43:0.066846326 44:0.00087561214 48:0.0063952333 49:0.03313097 50:0.00208237 78:0.00014994656 79:0.0088846935 80:3.5845372e-007 84:0.0017675274 85:0.061512977 86:0.060283687 87:0.0003026693 90:2.4007368e-005 91:0.0060192654 92:0.032538004 93:0.0010821391 121:0.00031171588 122:0.009164487 127:0.0019181265 128:0.065844335 129:0.062938206 130:0.00036544894 133:3.6269306e-005 134:0.0076136026 135:0.030397477 136:0.0013092423 164:0.00029913668 165:0.007606368 166:2.1902369e-007 170:0.0021049085 171:0.057230059 172:0.052892789 173:0.00033866707 176:1.2256859e-005 177:0.0032080326 178:0.026800083 179:0.0016229966 208:0.002908817 209:2.5037005e-005 213:0.00052800344 214:0.025081223 215:0.073818021 
-77.06860236149518 -167.5415578433651 -0 263.1787522904713 236.495740885564 0 300.2282381660889 312.5 312.5 312.5 0 312.5 0 0 312.5 0 217.7459030386967 0 0:0.070834555 1:0.0063723959 2:0.00071983202 6:0.0052095335 7:0.0070451046 8:0.011088847 9:0.00010727044 14:0.00015420183 36:0.019485032 37:9.8355282e-005 42:0.10402077 43:0.066112056 44:0.017639294 45:0.00065880659 48:0.0010284499 49:0.0068584117 50:0.017012209 51:0.019895991 52:0.00022192548 57:0.0032299892 58:0.00014206661 72:6.5618278e-006 78:0.014161348 79:0.02148049 80:0.00071542972 84:0.0066868369 85:0.078739956 86:0.050108325 87:0.023618598 88:0.0015667215 91:0.00099660887 92:0.0039817346 93:0.01579579 94:0.01935466 95:0.0013911064 100:0.00032284035 101:0.00037418085 115:0.00010040994 120:9.4838811e-005 121:0.013787984 122:0.016093688 123:0.00040646363 126:6.0963457e-006 127:0.0074970042 128:0.063988701 129:0.028748117 130:0.015809096 131:0.0027882538 134:0.00041324185 135:0.0018073282 136:0.0069291322 137:0.011794716 157:0.00015341626 158:0.00013180573 163:0.00030647297 164:0.018464338 165:0.016198158 166:0.00045894698 169:6.9371436e-006 170:0.0043030353 171:0.045053568 172:0.016847281 173:0.0038376513 178:0.00025965204 179:0.0016868439 200:0.00013647407 201:6.1486418e-005 206:0.00041236612 207:0.019624859 208:0.016917046 209:0.00062211358 212:2.7613326e-006 213:0.0039137392 214:0.052037202 215:0.031062366 
-296.5255943598938 -312.5 -0 35.83952297458512 0 51.09616129456136 0 1.856111651178763 0 0 206.6893751921896 121.6071711053693 312.5 0 0 227.2607979604736 312.5 4.869293140392862 0:0.052040663 6:0.069485672 7:0.00012259959 12:5.4414486e-005 36:0.0023748402 37:2.2957133e-006 42:0.087789975 43:0.0055213748 48:0.094072297 49:0.013216356 50:0.00021168505 54:0.00036195372 55:9.7018137e-006 78:0.00081575726 79:0.0012765593 84:0.02936705 85:0.042126972 86:0.0061694891 90:0.014670085 91:0.053145938 92:0.015208912 93:0.00091608946 94:2.8746661e-005 96:0.00012960438 97:9.9598336e-005 98:1.1952442e-006 114:8.3995707e-007 115:3.9041893e-006 120:1.274509e-005 121:0.00035834877 122:0.00074580475 126:0.00024930391 127:0.022760864 128:0.038332988 129:0.0066087656 130:0.00011337102 132:0.0001491666 133:0.011267232 134:0.056616206 135:0.00884041 136:0.00038540567 137:3.3168541e-005 139:4.455535e-006 140:0.00015243483 157:1.4389285e-006 163:6.9427195e-005 164:0.00040588898 165:0.00081698707 166:3.3880544e-005 169:0.00031029564 170:0.030243566 171:0.040673781 172:0.0040257024 173:6.6298031e-005 175:1.2649839e-005 176:0.011983048 177:0.065998159 178:0.012891077 179:0.0005921626 206:1.587965e-005 207:0.00068228866 208:0.00016159497 209:4.5768215e-006 212:0.00031566081 213:0.044308707 214:0.11377049 215:0.036761314 
-0 -312.5 -312.5 228.9678838605 0 0 0 0 142.0463373841118 312.5 312.5 307.3804296491149 312.5 0 4.864435231345256 142.4805513382569 212.0673573695745 96.48395860922247 0:0.20217648 1:0.00016603341 6:0.017287016 7:0.00054602418 36:0.0049144737 37:3.4146124e-005 42:0.073457189 43:0.063067302 44:0.00022033553 48:0.0040759421 49:0.0097947977 50:0.00048699483 51:3.9660605e-005 78:0.00053086114 79:0.0030486484 80:3.1628424e-005 84:0.0050196005 85:0.049996678 86:0.046265833 87:0.00044711769 90:0.0002542049 91:0.0034856845 92:0.009646304 93:0.00087160274 94:3.916871e-005 120:7.6429686e-005 121:0.00022336293 122:0.0024833845 123:1.02497e-005 126:0.00021440961 127:0.0071038534 128:0.046838421 129:0.054225091 130:0.00085084781 131:2.6990062e-006 133:0.00018560767 134:0.0046037519 135:0.0097279716 136:0.00099642167 137:0.00024775925 163:6.4915635e-005 164:0.00063655886 165:0.0038596434 166:1.4814216e-005 169:0.00037829153 170:0.0079155825 171:0.055830609 172:0.076272786 173:0.0016850901 176:0.00030170174 177:0.0039679543 178:0.0090547241 179:0.0019495585 205:8.2969382e-007 206:0.00010930085 207:0.00064758578 208:0.0062137824 209:2.5354289e-005 212:0.00047331228 213:0.0072988831 214:0.06139319 215:0.13821146 
-312.5 -312.5 -312.5 312.5 40.2411978315029 215.7341401978755 45.36118887276064 312.5 0 86.10507810442832 312.5 106.3237063912509 312.5 166.7651867513612 312.5 312.5 312.5 312.5 0:0.11767624 1:0.0071541443 2:2.0599346e-005 6:0.023420578 7:0.0038404658 8:0.00035883251 12:2.1220949e-005 13:4.9731834e-006 36:0.0060268873 37:0.0021071211 38:0.00022136136 42:0.11313416 43:0.073143885 44:0.0046819816 45:0.00016524922 46:2.3217755e-005 48:0.01293428 49:0.013390355 50:0.0034037426 51:0.00012284212 54:2.9648997e-006 78:0.0021203684 79:0.0050113546 80:0.0014754838 81:0.00012362907 84:0.028563516 85:0.060450472 86:0.048380692 87:0.0046562636 88:0.00051848224 89:0.00027244544 90:0.0060950089 91:0.0077612395 92:0.0080446871 93:0.0020933717 94:0.00014133059 96:1.7733444e-005 100:2.2717029e-005 120:0.00044686161 121:0.0013991913 122:0.0042626071 123:0.00055880292 124:0.00022106581 126:0.0077639166 127:0.021609057 128:0.061918482 129:0.037269045 130:0.0052989521 131:0.0011826116 132:0.0026507413 133:0.0051287771 134:0.007966795 135:0.0072147511 136:0.0029844248 137:0.00051413249 142:2.9892904e-006 162:8.9611276e-005 163:0.00047897908 164:0.0019320293 165:0.0031614478 166:0.00057561771 167:0.00027052648 168:0.0018987596 169:0.0068786177 170:0.026060652 171:0.041030135 172:0.036604792 173:0.0081600938 174:0.0014082281 175:0.0015619462 176:0.0038359207 177:0.0036647054 178:0.0041769277 179:0.0070469296 204:9.5914831e-005 206:0.00024111099 207:0.0015285647 208:0.002578699 209:0.0013358035 210:0.0003794989 211:0.0010565678 212:0.0051736999 213:0.011090946 214:0.021732105 215:0.079954244 
-276.1425271516301 -0 -312.5 312.5 0 312.5 52.1213014651862 312.5 232.0641960173115 274.2590409683371 312.5 91.81436657360294 312.5 134.4605092503682 312.5 312.5 312.5 312.5 0:0.15598832 1:0.0059566223 2:5.0126278e-006 6:0.033444144 7:0.019200161 8:0.0010770676 9:1.3029541e-005 12:0.00017006631 13:0.00074246532 14:0.00051780086 15:8.9130976e-005 16:1.1659379e-005 19:2.7213007e-005 20:4.8821283e-005 21:5.1728148e-005 36:0.011776816 37:0.0015583506 42:0.045747772 43:0.074005559 44:0.0048781205 45:5.1613938e-006 48:0.0082338499 49:0.027847221 50:0.013802988 51:0.0010005505 52:1.9401799e-005 54:8.7850989e-005 55:0.00033899912 56:0.00049813837 57:0.00072129705 58:9.1293678e-006 62:1.5314352e-005 72:0.00068511005 73:4.377673e-005 78:0.0038234012 79:0.0097958427 80:0.0012708199 84:0.0054620486 85:0.04018756 86:0.06521441 87:0.0049380418 90:0.00044158619 91:0.0084530199 92:0.03037017 93:0.014805032 94:0.001714688 97:8.2171879e-005 98:0.00026633742 99:0.00043480218 100:0.00032354391 114:0.00050477625 115:0.0010345073 116:3.8668324e-005 120:0.0003456735 121:0.003796177 122:0.0080709197 123:0.00077279285 126:0.00035070622 127:0.008065965 128:0.046034351 129:0.058183502 130:0.0048518768 132:6.4957472e-005 133:0.0018218815 134:0.012249716 135:0.027156586 136:0.012270169 137:0.00056266238 139:2.5173396e-005 140:0.00010473133 141:3.0534244e-005 142:0.00014925782 143:0.00017979273 151:1.9639101e-005 152:1.7643264e-005 157:0.00037247609 158:0.00063759735 159:0.00014158222 162:6.6241402e-005 163:0.0010047406 164:0.0055229883 165:0.010082179 166:0.0015333721 168:4.610762e-005 169:0.0018521943 170:0.014575541 171:0.048955698 172:0.045856044 173:0.0033797775 175:0.00022700621 176:0.0011102931 177:0.0047458047 178:0.010038782 179:0.005672616 194:2.0490555e-005 199:8.897332e-006 200:0.0002514901 201:0.00080924021 202:0.00010457006 204:5.6139456e-006 205:0.00021470273 206:0.0014307264 207:0.0069453805 208:0.0095730871 209:0.0014013435 211:8.0003912e-005 212:0.000576597 213:0.0037688743 214:0.011753364 215:0.024329854 
-312.5 -0 -0 0 0 0 0 0 0 253.2328470656349 98.35061170205346 0 297.6218881070621 0 20.04615997182282 64.13401709630514 312.5 0 0:0.054963734 1:0.0096201664 2:0.00095014425 6:0.019680336 7:0.01397041 8:0.012069415 9:0.0018141419 13:2.6425132e-006 14:1.6245129e-005 15:7.6907745e-005 36:0.0051855575 37:0.0001792026 42:0.077938907 43:0.070488505 44:0.010998693 45:0.0021065734 46:2.3429991e-005 48:0.0071659205 49:0.017436504 50:0.012285686 51:0.013682216 52:0.0024973759 53:4.0433026e-008 55:1.483978e-007 57:4.6590543e-005 58:0.00023121703 72:3.5179055e-005 78:0.0026708331 79:0.0041748616 80:0.00017761067 84:0.010561453 85:0.062097248 86:0.056515228 87:0.0092451358 88:0.0012351732 89:2.3425346e-007 90:0.00025895605 91:0.0065890765 92:0.017277427 93:0.013678407 94:0.014106167 95:0.0020649787 100:0.00011084224 101:0.00040083486 114:8.6472821e-005 115:6.2848834e-005 116:5.4752336e-006 120:0.00014193376 121:0.0024377552 122:0.0034288981 123:0.00013314311 126:0.00023698536 127:0.010110387 128:0.069868736 129:0.053258169 130:0.014004579 131:0.0015010408 133:0.00027864685 134:0.0083630979 135:0.013795354 136:0.017144114 137:0.027730789 143:0.00025876827 157:3.8765636e-005 158:5.9588387e-005 159:8.2896304e-007 163:0.00017363386 164:0.0029839713 165:0.0048418189 166:0.00015522462 169:0.00025625652 170:0.013935675 171:0.065662652 172:0.038544554 173:0.011392202 176:0.00039422294 177:0.0040832679 178:0.0075866901 179:0.015994867 194:1.2049042e-006 200:8.0456819e-005 201:8.0586629e-005 205:1.1175e-006 206:0.00045440672 207:0.0056751021 208:0.0062605781 209:0.00019698522 212:0.00030929156 213:0.0090212561 214:0.035313185 215:0.019024337 
-0 -312.5 -312.5 0 0 0 0 0 0 205.9305275544767 68.27103968637648 0 95.0272111352614 0 0 0 0 312.5 0:0.2223864 1:0.0031041268 6:0.030815847 7:0.011392013 8:0.00024320641 12:5.1556808e-006 13:1.0955435e-005 36:0.0055287201 37:1.4007656e-005 42:0.075797446 43:0.028370073 44:0.0026617295 48:0.0065911976 49:0.012072601 50:0.0085014785 51:0.00048252661 78:0.0012909105 79:0.0029113088 80:2.1003372e-005 84:0.0079445885 85:0.03729042 86:0.020603377 87:0.0022942214 90:0.0006553242 91:0.0047887331 92:0.0089717936 93:0.0057884324 94:0.00044938223 99:5.2094163e-007 120:6.2032188e-005 121:0.00070962874 122:0.002701852 123:5.0243434e-005 126:0.00032953857 127:0.0047867289 128:0.04116689 129:0.022517256 130:0.0020934767 132:0.00016571973 133:0.00096361991 134:0.0062955036 135:0.01252369 136:0.0069195624 137:0.0011914022 143:1.2645049e-005 163:4.6420635e-005 164:0.00093327888 165:0.0033713165 166:1.7188353e-005 168:2.0189558e-005 169:0.00053280382 170:0.0083084581 171:0.061364476 172:0.034234393 173:0.0042969175 175:0.00015276512 176:0.00069688749 177:0.0092764469 178:0.017133282 179:0.021567363 206:0.000101296 207:0.0018595945 208:0.0035132424 209:3.1688443e-005 211:9.9402787e-006 212:0.00022125071 213:0.012167022 214:0.096462406 215:0.12020396 
-60.43363633110305 -245.7801520463267 -71.37531346426947 1.679564408644269 0 249.0424973270311 0 21.8530163126669 0 0 301.3081016309444 312.5 287.2904732875777 79.60188523382676 0 128.5173664298735 299.2840583264239 0 0:0.048503563 1:0.0002495131 6:0.063004844 7:0.013075224 8:0.0012894579 12:0.00060383498 13:0.0003698887 14:0.00075659429 36:0.0023312669 37:0.00013373826 42:0.060186177 43:0.025469765 44:0.0011887887 48:0.030279974 49:0.042138245 50:0.024980994 51:0.0016049253 54:0.00026082859 55:0.00032006326 56:0.00031400277 57:0.0011217705 78:0.00043887945 79:0.003281381 80:0.00012536562 84:0.0036493673 85:0.035027158 86:0.022861866 87:0.0010970803 90:0.0011557508 91:0.01630407 92:0.025806502 93:0.017534917 94:0.00045925018 96:9.9930394e-006 97:0.00016260041 98:0.00017937376 99:0.00019013174 100:0.00028826436 120:9.3588196e-006 121:0.00055599207 122:0.0023168889 123:0.00011071499 126:1.6076285e-005 127:0.003107934 128:0.031205283 129:0.020329302 130:0.00048518405 132:4.990105e-006 133:0.0010083632 134:0.017394055 135:0.024948915 136:0.0093583092 137:0.00040943504 139:4.0856298e-006 140:0.00024396984 141:0.00027218697 142:0.00018021693 143:0.00057592656 163:3.7718007e-006 164:0.00059778331 165:0.0023659202 166:0.00011237831 169:4.1168765e-005 170:0.0033228775 171:0.038265064 172:0.019834734 173:0.00044473365 176:0.0010348763 177:0.024693189 178:0.040570926 179:0.033096198 206:3.7605318e-005 207:0.00051194732 208:0.0027220359 209:8.0623708e-005 212:3.7946284e-005 213:0.0047813808 214:0.11051399 215:0.15763822 
-0 -0 -0 0 0 0 0 24.9035764555817 0 0 0 151.7552063839306 0 118.6605499101291 312.5 0 0 0 0:0.01227274 1:0.0018862482 6:0.0058078724 7:0.0093188286 8:0.0055420385 36:0.00039944088 37:7.5625197e-005 42:0.0091985539 43:0.059120264 44:0.045656517 45:9.82451e-006 48:0.00098300248 49:0.0096156718 50:0.055500764 51:0.019734465 78:0.00015413681 79:0.0035234496 80:0.00052727264 84:0.00037106156 85:0.021611275 86:0.09643326 87:0.043458153 88:4.1130792e-005 91:0.0006391771 92:0.0086889472 93:0.036516577 94:0.0093392385 115:3.5468249e-005 116:2.5023413e-005 121:0.00044042635 122:0.0031303365 123:0.00022191512 127:0.0003133381 128:0.016748464 129:0.068362862 130:0.027076881 131:6.8674242e-005 134:0.0008082877 135:0.0082790582 136:0.028965425 137:0.012221861 151:1.4276318e-006 152:6.6621315e-006 158:3.2866807e-005 159:3.480852e-005 164:0.00043324515 165:0.0024198033 166:0.00026338125 170:0.0003899202 171:0.018011648 172:0.066545933 173:0.039091699 177:0.00068227638 178:0.0050518033 179:0.066832542 194:2.8061479e-006 201:7.9952579e-006 202:3.4334749e-005 207:0.00065866648 208:0.0037086036 209:0.00022987447 213:0.0002493347 214:0.015535888 215:0.15665078 
-0 -0 -257.6063383949548 214.6624258950739 235.1765633604501 0 0 0 312.5 0 275.3132951632933 0 13.13343973423382 102.4184961292242 312.5 0 0 0 0:0.16246322 1:0.020864021 2:0.0012417557 6:0.021981776 7:0.030165123 8:0.017709134 9:0.0027286685 14:0.00018221473 15:0.00044724095 36:0.0017413941 37:0.0010476528 42:0.028733177 43:0.11188935 44:0.018356394 45:0.0021195412 49:0.016517781 50:0.030284792 51:0.016919738 52:0.0027152086 53:4.0941577e-005 57:0.00016843899 58:0.00089736964 59:0.000144376 79:0.0058304332 80:0.00041525709 85:0.03067708 86:0.11619865 87:0.016660927 88:0.0012390908 92:0.020009337 93:0.028245186 94:0.023671161 95:0.005893277 100:0.00011126225 101:0.0025769337 121:3.3290107e-005 122:0.0077861696 123:0.00021451255 128:0.031239754 129:0.07827583 130:0.012990147 131:0.0014476419 135:0.0075670346 136:0.017113449 137:0.01826629 143:0.0017388222 164:3.9245774e-006 165:0.0064350995 166:0.0013909768 171:0.012456011 172:0.026864965 173:0.0034933409 178:0.0044956896 179:0.015382549 208:0.0035749681 209:0.00034406624 214:0.0028037685 215:0.0051937699 
-190.5200468497264 -0 -66.3752624647445 270.6844481098992 266.6383033093558 312.5 260.9113130162154 312.5 0 312.5 312.5 312.5 312.5 312.5 34.71088163388334 312.5 114.9044533031638 312.5 0:0.037123892 1:0.0028214979 6:0.020529315 7:0.0064438316 36:0.00092644006 37:0.00046272302 42:0.019075075 43:0.10128628 44:0.0061154626 48:0.00081597856 49:0.039846897 50:0.0094722202 51:1.5022727e-005 78:1.1691396e-005 79:0.0016954237 80:0.0013649081 84:9.6116302e-005 85:0.035240617 86:0.13967633 87:0.0071656555 90:1.1945144e-005 91:0.0031707571 92:0.040976606 93:0.0096853105 94:9.6314725e-006 97:0.00070900266 98:4.2545114e-005 121:1.6429236e-005 122:0.0018280766 123:0.0012626529 127:0.00072056393 128:0.036076196 129:0.12000628 130:0.0065852199 133:0.00082295376 134:0.014285852 135:0.0246037 136:0.0088668121 137:2.5660102e-006 140:6.066047e-005 141:8.2785646e-006 164:0.00010659475 165:0.0015735143 166:0.00079492416 170:0.0010244865 171:0.02493215 172:0.097463332 173:0.0084436685 176:0.00021862793 177:0.0029645709 178:0.012031512 179:0.0087018469 207:8.8414665e-005 208:0.00053400348 209:0.0010428436 213:8.299551e-005 214:0.0064833253 215:0.13357565 
-0 -0 -0 312.5 305.1494589055278 249.7269424184052 0 123.7344735083648 0 0 312.5 0 0 0 312.5 0 133.7736290890564 182.681298736904 0:0.073467173 1:0.020921074 2:0.00015360418 6:0.01919738 7:0.02272027 8:0.010277185 36:0.0043802597 37:0.00033821038 38:2.7058506e-006 42:0.067929961 43:0.074493453 44:0.030252673 45:0.00054756703 48:0.0049380837 49:0.012758219 50:0.019140476 51:0.011228831 52:1.1975178e-006 57:6.3378559e-007 72:1.6025903e-007 73:4.1247245e-006 78:0.00053111103 79:0.0036652391 80:0.00056358124 81:1.7151342e-006 84:0.0063475911 85:0.047949001 86:0.053374168 87:0.024476118 88:0.00054626935 90:0.00085684325 91:0.0051957876 92:0.0094451504 93:0.017197197 94:0.0097022392 95:3.2703294e-006 100:2.0274955e-007 101:1.4900999e-007 114:3.2030482e-007 115:1.7006865e-007 116:1.0811888e-006 120:5.115489e-005 121:0.00053432462 122:0.0024992086 123:0.00037004941 124:1.1057127e-006 126:0.00065264397 127:0.0086215334 128:0.037330545 129:0.044672832 130:0.029440621 131:0.00074983126 132:6.2995663e-005 133:0.0010750151 134:0.0033620656 135:0.0073776422 136:0.022216389 137:0.021641059 156:6.3602471e-008 157:2.1250584e-007 159:2.5622253e-007 162:6.3498514e-006 163:9.4958115e-005 164:0.00039781482 165:0.0018512505 166:0.00024350417 167:9.0237677e-007 168:1.4840754e-005 169:0.00060886104 170:0.003944525 171:0.025622338 172:0.041217424 173:0.050607435 174:5.5925394e-008 175:8.1035842e-006 176:0.00013793158 177:0.0010944781 178:0.0059064012 179:0.03455786 199:8.1137136e-007 204:3.6327515e-007 205:1.2328163e-005 206:4.639462e-005 207:0.00020008539 208:0.0023426726 209:0.00063569995 211:3.9029419e-006 212:0.00013561359 213:0.0012547398 214:0.020748075 215:0.075034238 
-312.5 -79.33930030591357 -134.5986565852061 71.08833117068242 0 0 0 312.5 0 312.5 312.5 312.5 312.5 0 0 312.5 312.5 234.8861772865637 0:0.039987814 1:0.004359222 2:4.7902195e-005 6:0.014040482 7:0.0053862086 8:0.0025412433 36:0.0033551361 37:4.1920201e-005 42:0.10994124 43:0.069569677 44:0.0087605277 45:0.00029456563 48:0.0097543485 49:0.018245824 50:0.010281499 51:0.0065344139 52:1.34491e-005 78:0.0010166534 79:0.0049607838 80:6.3421641e-005 84:0.0097427871 85:0.11284211 86:0.057141725 87:0.010873775 88:0.00070395583 90:0.0003114242 91:0.010560336 92:0.014888442 93:0.0095786834 94:0.0061791572 115:3.3909075e-006 120:2.2128213e-005 121:0.0010260086 122:0.0052902172 123:3.2782653e-005 126:6.557443e-005 127:0.010066338 128:0.090970539 129:0.043550614 130:0.013406933 131:0.00049837277 133:0.00028352794 134:0.0082182512 135:0.011066178 136:0.011382253 137:0.0095674079 158:3.5145624e-007 163:1.4367543e-005 164:0.0011018317 165:0.0044803191 166:5.5540781e-006 169:6.3995241e-005 170:0.0065104621 171:0.067803144 172:0.033915143 173:0.020462887 176:7.3910582e-005 177:0.0055877687 178:0.0081659826 179:0.018100929 201:1.1292537e-006 206:6.8941426e-006 207:0.001116455 208:0.0036551284 212:5.9436061e-006 213:0.0033637502 214:0.047535639 215:0.030559193 
-0 -0 -0 -0 0 0 1.42573758639462 0 18.07288457249425 0 0 1.07554725472589 0 0 0 0 0 0 0:0.1005148 1:0.0016641838 6:0.011341442 7:0.0025033234 8:4.6221354e-005 12:0.00061358971 13:5.7473449e-006 14:5.4325915e-007 15:6.2995037e-005 36:0.080850877 37:0.01105572 42:0.017815661 43:0.028371107 44:0.0016613359 48:0.0072439322 49:0.0037295939 50:0.003241766 51:0.00050796312 52:3.0616312e-007 54:1.6707023e-005 55:0.00031577548 56:6.1205133e-006 57:5.0966024e-005 58:2.5798796e-005 72:0.0023782752 73:0.01017585 78:0.0036982866 79:0.062493969 80:0.013826963 84:0.0022212155 85:0.01092628 86:0.028010905 87:0.0019978669 90:0.0003618793 91:0.0064228196 92:0.0045698923 93:0.0025582223 94:0.00065425067 98:0.00014036668 115:0.0014657691 116:0.0096226279 120:4.0234163e-006 121:0.0018874784 122:0.067107312 123:0.019973757 126:2.5244197e-005 127:0.0026425214 128:0.013208685 129:0.029324923 130:0.0031896518 133:0.00067505497 134:0.0051669595 135:0.0017762347 136:0.00239412 137:2.9698854e-006 158:0.001086254 159:0.0079545872 160:6.3160319e-006 164:0.0018261861 165:0.07234291 166:0.018289082 169:5.3524596e-005 170:0.0030038385 171:0.012637715 172:0.044482287 173:0.0032129074 176:0.0001381452 177:0.0014537215 178:0.0010161462 179:0.0010653988 201:0.0018246188 202:0.010860312 206:1.5908456e-005 207:0.0034739177 208:0.1085982 209:0.034248199 213:0.0011618107 214:0.018258169 215:0.072439089 
-122.1451011925552 -0 -9.939798445779323 -2.592766443495937 0 25.07570794856228 278.7242050539071 51.58870647603948 49.52709194278477 236.6696596233079 0 312.5 25.50973750742848 0 95.43156277088046 300.6342029427936 0 0 0:0.057480186 1:0.00029702709 6:0.0089380313 7:0.00016110264 36:0.022492401 37:4.0575742e-005 42:0.11029635 43:0.055904314 44:0.00046785828 48:0.0016417623 49:0.0047352617 50:0.00055009034 72:0.00064584555 78:0.01842225 79:0.041162979 80:0.00032927375 84:0.0033180434 85:0.086500295 86:0.066660836 87:0.00055097783 90:1.695279e-005 91:0.0020964202 92:0.0036503798 93:0.00051959103 108:4.5071706e-006 114:0.00011758033 115:0.00099624158 120:3.6894638e-005 121:0.01678402 122:0.039266463 123:0.00057031866 126:1.3981008e-005 127:0.0055938154 128:0.067806646 129:0.064878821 130:0.00039677322 133:1.4953702e-005 134:0.00044946279 135:0.0033489892 136:0.00037385747 150:4.7156482e-005 151:0.00016809734 156:1.121189e-006 157:0.00017695362 158:0.000777309 163:7.1660608e-005 164:0.010592996 165:0.030947218 166:0.00045813134 169:3.4796087e-006 170:0.00084661052 171:0.044369061 172:0.065559551 173:0.00071452709 177:4.438106e-005 178:0.0019619765 179:0.00092818087 186:5.8793548e-006 187:3.6103595e-006 193:6.1908222e-006 194:4.4523022e-006 199:1.5078382e-006 200:0.00010138963 201:0.00019859686 207:0.0019724292 208:0.024934776 209:0.00055147702 213:0.00014923442 214:0.02182292 215:0.10504692 
-0 -0 -0 -0 150.7317449376352 0 22.03157728445374 150.5430316232089 0 0 0 0 0 0 8.556700536526289 0 0 0 0:0.042149745 1:0.0089675626 2:0.00076432677 6:0.00092249544 7:0.0036675921 8:0.0043360121 9:0.00016444093 36:0.053763103 37:0.018067909 38:4.9172886e-005 42:0.043616537 43:0.065122239 44:0.017455939 45:0.0014568707 48:0.00014364721 49:0.00063009659 50:0.0015093458 51:0.0050853412 52:0.0010619179 72:0.0011042132 73:0.0037682769 74:9.9887009e-005 78:0.010350569 79:0.075685635 80:0.022186406 81:0.00022020168 84:0.0023401417 85:0.037930265 86:0.051371481 87:0.02311638 88:0.0018440402 91:0.00061072048 92:0.00038259636 93:0.0035645678 94:0.006640661 95:0.0001014062 109:5.0325696e-005 110:5.5261164e-005 114:0.00074708124 115:0.0024964749 116:0.0038046364 117:0.00010422451 120:9.9984114e-005 121:0.0078371074 122:0.064732291 123:0.023385605 124:0.0005035288 126:7.7528084e-006 127:0.0027337894 128:0.030276885 129:0.048045147 130:0.015268032 131:0.0003120433 135:5.1315921e-005 136:0.00073199568 137:0.00025608929 151:1.1823265e-005 152:6.8317095e-005 153:1.4936399e-005 157:0.00071175839 158:0.001906033 159:0.0038767573 160:0.00011184858 163:0.00024471033 164:0.0081584053 165:0.064022675 166:0.024355497 167:0.00051580888 169:5.583038e-005 170:0.0012780587 171:0.017817048 172:0.032052938 173:0.0061168922 178:6.8739057e-005 179:8.6184875e-005 194:2.279941e-005 195:2.8249789e-005 196:2.6303842e-005 200:0.0009210417 201:0.0019927134 202:0.0039222674 203:9.6913143e-005 206:1.714843e-005 207:0.0034989035 208:0.044959359 209:0.017711494 213:0.00015974152 214:0.0087080169 215:0.044709157 
-94.07869104160746 -0 -0 -255.0528748298763 248.3140585992251 172.2176373060336 224.0380077145887 312.5 275.5176455506882 182.3187639946184 176.367421362807 0 0 0 134.9809950070277 0 187.5413558018098 5.574038804385349 0:0.1006484 1:0.0043257303 6:0.0080037406 7:0.0072517265 8:0.00021156184 13:5.5061741e-006 36:0.032724876 37:0.00060253858 42:0.085405521 43:0.078579366 44:0.010958008 48:0.0010135483 49:0.0044841222 50:0.014530233 51:0.00052735797 55:6.3639682e-006 56:3.755893e-006 57:8.5428537e-006 72:0.00020511601 78:0.013894698 79:0.020957418 80:0.00089106039 84:0.0049769101 85:0.049795061 86:0.061420225 87:0.014302663 90:3.4633349e-006 91:0.00073670741 92:0.0029369139 93:0.014732672 94:0.0011992864 100:1.2790697e-005 114:0.000184527 115:0.0001550069 120:0.00058786082 121:0.012311558 122:0.015196129 123:0.00086176634 126:9.7178425e-005 127:0.0035251405 128:0.033538837 129:0.074945822 130:0.026481943 131:1.0550025e-005 134:0.00030616336 135:0.0037325649 136:0.034029406 137:0.002211614 142:1.3126524e-005 143:4.5486653e-005 156:6.4639562e-006 157:0.00011428888 158:0.00010860495 159:3.3058486e-006 162:1.8741457e-005 163:0.00046220055 164:0.0063645779 165:0.012086092 166:0.0019104041 169:4.9024246e-005 170:0.0014164244 171:0.02177231 172:0.1013887 173:0.027257944 177:4.699895e-005 178:0.0025950016 179:0.014143264 199:1.3208971e-005 200:0.00010042463 201:3.5673576e-005 206:0.00017194953 207:0.0016590179 208:0.0072430177 209:0.0014898162 213:0.00055458868 214:0.011438586 215:0.043958765 
-0 -0 -210.453229274449 -89.60432372766964 0 312.5 12.16670915350754 0 0 9.458931616934562 312.5 312.5 312.5 312.5 0 312.5 312.5 312.5 0:0.162086 1:0.0081377234 2:0.00011837786 6:0.075053617 7:0.021518903 8:0.0020558129 9:2.3525556e-006 12:0.0007246646 13:0.0020292355 14:0.00050629466 15:4.2445845e-005 19:2.4352479e-005 20:8.881947e-006 36:0.0032469793 37:0.0028435087 42:0.016288286 43:0.058903631 44:0.0045419 45:7.334246e-005 48:0.0030848158 49:0.051289927 50:0.014525848 51:0.0021279939 52:8.5091388e-006 54:2.2638098e-005 55:0.00096151145 56:0.001630388 57:0.00072413991 58:4.7668735e-005 63:3.7061907e-006 64:2.4526261e-007 72:4.414057e-006 73:1.7338147e-006 78:1.8284798e-005 79:0.0039681955 80:0.0023627272 84:1.15642e-005 85:0.010616634 86:0.043936972 87:0.0027378409 88:1.156487e-005 90:2.1878855e-005 91:0.0021441502 92:0.045891508 93:0.013232194 94:0.0018900612 95:3.954804e-006 97:7.0045039e-006 98:0.0010088211 99:0.0021702761 100:0.00082681829 101:0.00013526389 105:2.6617026e-006 106:1.0848962e-005 107:1.6880233e-006 115:8.0947839e-006 116:2.1699265e-005 121:0.00012746218 122:0.0053908387 123:0.0021115728 127:1.2465953e-005 128:0.010562276 129:0.044883534 130:0.0017831533 131:3.7604033e-005 133:1.739801e-005 134:0.002270852 135:0.051523238 136:0.015020703 137:0.0042544082 140:5.5711248e-006 141:0.00093120144 142:0.002878377 143:0.0028473376 158:3.1216929e-005 159:1.4073339e-005 164:7.6857446e-005 165:0.0077777845 166:0.0017336283 170:4.0932946e-006 171:0.012528055 172:0.048971795 173:0.0028572874 177:0.0025381837 178:0.054305602 179:0.030882534 201:3.6138488e-005 202:8.7251392e-006 207:6.7083798e-005 208:0.0098228017 209:0.0010532815 214:0.016420202 215:0.1025321 
-76.37037708925845 -0 -312.5 -261.1022330461479 113.8234795310501 11.03316323953138 127.880708303234 0 64.03861795608238 302.4475804876361 312.5 51.54125974086723 179.8823518515546 67.50026614462941 202.4482926810458 87.44957204387794 126.489903688397 130.7063951708628 0:0.2410396 1:0.0077762641 6:0.026178811 7:0.028493004 8:0.0014552585 36:0.0011332509 37:0.0010490865 42:0.012972217 43:0.18192318 44:0.015334624 49:0.022078862 50:0.017541075 51:0.0016807501 79:0.00070613774 80:0.00028138739 85:0.011628496 86:0.12083167 87:0.010784187 92:0.010410444 93:0.0083612548 94:0.00042656634 122:0.0011239196 123:0.00050196867 128:0.0079982374 129:0.065648809 130:0.0088059139 135:0.0066157798 136:0.013384611 137:0.0036248676 165:0.00061943952 166:0.00018699314 171:0.0059673637 172:0.066763684 173:0.03258092 178:0.0018337078 179:0.021412889 214:0.00090813538 215:0.039936651 
-312.5 -294.1363090867137 -44.9434437347554 -312.5 225.1528028379915 312.5 0 312.5 0 312.5 312.5 312.5 312.5 306.2512146517056 312.5 312.5 312.5 312.5 0:0.034970753 1:0.0026848875 2:5.8491856e-005 6:0.038394701 7:0.016271913 8:0.0024180685 9:4.2441618e-005 12:0.00030912517 13:0.00039451575 14:0.0011730058 15:0.00022967937 36:0.0041745151 37:0.00050657144 38:7.6935949e-006 42:0.070859358 43:0.064901836 44:0.0082395496 45:0.00019354383 48:0.014043856 49:0.03427634 50:0.015326398 51:0.0022969281 52:2.1152917e-005 54:0.00015414011 55:0.00013324492 56:0.00018765529 57:0.00045160277 58:8.3720282e-005 59:1.9843681e-006 60:1.1042444e-007 65:5.5992427e-007 72:2.4941892e-005 73:8.9847736e-006 78:0.0011169842 79:0.0075453916 80:0.0018538372 81:9.8338591e-005 82:1.4412434e-006 84:0.0026727405 85:0.045200218 86:0.046310198 87:0.0067196158 88:7.8080331e-005 90:0.0010508922 91:0.010368322 92:0.025698377 93:0.0086317882 94:0.0014766104 95:2.0357988e-005 96:2.9015955e-005 97:0.00019549656 98:0.00010518471 99:0.00011672467 100:0.00048269521 101:0.00017775239 114:1.0694371e-005 115:0.00010140977 116:6.7908702e-005 117:2.677305e-006 120:2.0967303e-005 121:0.0010612521 122:0.0056429203 123:0.0014993791 124:5.5822667e-005 126:3.1266914e-005 127:0.0021539775 128:0.046000876 129:0.047125459 130:0.0053118765 131:8.6876724e-005 132:4.4121578e-005 133:0.0014081699 134:0.012971878 135:0.030214228 136:0.013920635 137:0.0037804951 138:3.3905021e-006 139:8.0184691e-005 140:0.00029588959 141:0.00012998423 142:0.00011892334 143:0.0013714435 152:6.1932064e-007 157:7.528241e-006 158:4.7360318e-005 159:5.7541576e-005 160:7.6743407e-007 163:1.6525348e-005 164:0.00066502194 165:0.0048385761 166:0.0010184482 167:2.8381472e-005 168:5.465223e-007 169:4.0258423e-005 170:0.0026298871 171:0.046557389 172:0.062056053 173:0.013246151 174:5.9081793e-007 175:7.0392278e-005 176:0.0015797351 177:0.0099561671 178:0.025963893 179:0.032933414 200:4.0675832e-006 201:5.4895667e-005 202:1.3767505e-005 206:1.5170241e-005 207:0.00096029218 208:0.0070724422 209:0.0025124899 212:0.00010514011 213:0.0020893097 214:0.029482288 215:0.10966975 
-140.8613571512003 -204.8022374654369 -312.5 -202.9769920173499 0 0 117.3366374852929 0 310.7082190122582 312.5 0 312.5 66.49826587776938 0 0 44.13947554037743 0 167.380590210405 0:0.15252973 1:0.0004080933 6:0.016640417 7:0.00011583218 36:0.031297036 37:0.0056302305 42:0.085276216 43:0.060722597 44:0.00030234159 48:0.0031131126 49:0.015712528 50:0.00033839498 72:8.8832945e-005 73:0.0038631291 74:0.00016383229 78:0.00093155028 79:0.028542951 80:0.006045022 84:0.0021713385 85:0.079102971 86:0.057100266 87:0.00040553036 91:0.003212332 92:0.011574461 93:0.00030958513 110:1.187223e-005 115:5.0515682e-005 116:0.0027350034 117:0.00012576122 121:0.00079214532 122:0.028133662 123:0.0052895062 127:0.0021256066 128:0.071860559 129:0.049265109 130:0.00024208154 133:6.4004911e-007 134:0.0022619688 135:0.0086529106 136:0.00017515389 153:4.4114866e-005 158:0.00010956135 159:0.0030731112 160:7.0707742e-005 164:0.00094222272 165:0.026058376 166:0.0055428827 170:0.0015483687 171:0.053063359 172:0.045663405 173:0.00056336075 177:0.0011418713 178:0.0044272053 179:0.00046261953 201:1.4460339e-005 202:0.0027560743 207:0.00032874718 208:0.019031895 209:0.0065373164 213:0.00029433708 214:0.031119384 215:0.059885591 
-312.5 -130.5642587791866 -312.5 -312.5 253.8583190082701 210.4987798337076 312.5 312.5 184.3095969046464 312.5 312.5 290.1807306917312 253.6608713395005 179.361442746204 214.0953875357841 312.5 312.5 255.4016331072589 0:0.087155938 1:5.4095908e-005 6:0.017210018 7:0.00012481184 36:0.014257553 37:0.0002967976 42:0.11474045 43:0.10383419 44:0.00053637999 48:0.0033418876 49:0.021542951 50:0.00010035082 73:4.6796576e-005 78:0.0023747259 79:0.021138063 80:0.0020168393 84:0.0062192236 85:0.10727815 86:0.092304163 87:0.00099016295 90:6.8530251e-005 91:0.0050474252 92:0.020241477 93:6.4971158e-005 115:9.6560099e-005 116:0.00019211837 120:3.9377669e-006 121:0.0030125377 122:0.019845001 123:0.002627637 126:1.2424936e-005 127:0.0075866971 128:0.10046388 129:0.067546085 130:0.00050960307 133:0.00011427009 134:0.003926449 135:0.011347955 136:2.7685721e-005 158:0.00016075133 159:0.00033858814 164:0.0033293571 165:0.020393182 166:0.002057649 169:2.1752276e-005 170:0.0051406692 171:0.042274509 172:0.028727457 173:0.0006738329 176:1.3591961e-005 177:0.0004082314 178:0.001516468 179:5.7441081e-005 200:4.5219434e-007 201:0.00029537547 202:0.0003687244 207:0.0021238821 208:0.010853334 209:0.001303923 213:0.00016113266 214:0.0076372903 215:0.0338437 
-0 -0 -0 -0 146.1807782082659 0 0 155.9821949857779 312.5 0 167.3880644747566 0 0 0 0 0 41.03449042963484 0 0:0.13985842 1:0.0013137702 6:0.039766662 7:0.0048489873 8:0.00089604879 36:0.01885616 37:0.0027209574 42:0.10677463 43:0.096724473 44:0.0053146086 48:0.0049221427 49:0.032824364 50:0.0060036271 51:0.00080850394 78:0.00081678777 79:0.029151663 80:0.0084204832 81:0.00022751752 84:0.00052683917 85:0.087975524 86:0.088148132 87:0.0086351056 88:8.0408514e-005 91:0.0061206901 92:0.021913983 93:0.0057735667 94:0.002958267 95:0.00026523555 100:2.3059209e-005 101:8.3785435e-006 115:1.7849941e-007 116:0.00074484886 117:0.00012413722 121:0.00059687649 122:0.039715379 123:0.012558737 124:0.00026283856 127:0.0010960702 128:0.065490521 129:0.044807229 130:0.014786148 131:0.00070183049 134:0.0030416991 135:0.004492098 136:0.00727404 137:0.003405856 158:3.4898455e-006 159:0.00092696561 160:0.00010713243 164:0.00062632526 165:0.0098006008 166:0.0010242405 167:6.4296211e-005 170:0.0010055017 171:0.014565311 172:0.0091163218 173:0.0029803792 177:4.2530217e-005 178:0.00036029558 179:0.00059083669 208:0.00045570533 214:0.015571836 215:0.020980623 
-114.8356149096008 -126.8887283827976 -92.48216580905061 -312.5 0 312.5 0 190.2921290846817 34.98766033238003 0 312.5 25.50188912281851 312.5 312.5 312.5 221.1630882635619 312.5 312.5 0:0.15590169 1:0.011079292 2:0.00023476142 3:7.3269817e-005 6:0.068520665 7:0.019850381 8:0.0075148209 9:0.00079587253 12:0.00016231721 13:0.00040425383 14:0.00041812824 15:0.00039117591 16:1.3491888e-005 36:0.0069933855 37:0.00020492446 42:0.060772609 43:0.054723863 44:0.006628585 45:0.00089653488 46:6.4696274e-006 48:0.014474279 49:0.03185264 50:0.012806709 51:0.0080792448 52:0.0029907974 53:0.00056219456 54:7.3344097e-005 55:7.3224073e-005 56:8.388346e-005 57:0.00042782977 58:0.0022459915 59:0.0020252638 72:0.00013465145 78:0.0014450074 79:0.0048312708 80:0.00030667661 81:4.8903835e-006 84:0.0024218897 85:0.052724481 86:0.049782347 87:0.012313319 88:0.0030155231 89:0.00045178234 90:0.00067660742 91:0.022131365 92:0.036538951 93:0.014518376 94:0.022582188 95:0.014853194 97:4.4155327e-006 98:7.6643002e-005 99:0.00012860686 100:0.00063764141 101:0.0048462618 114:0.00039431517 115:7.7059594e-005 120:0.00066522323 121:0.0012557892 122:0.0042044902 123:0.00029015966 126:2.900204e-005 127:0.0036679648 128:0.041893113 129:0.031302691 130:0.007588773 131:0.0038368162 133:0.00095038122 134:0.01162679 135:0.0071191406 136:0.0046083578 137:0.015754361 142:1.2367685e-005 143:0.0010949856 150:1.2411675e-005 156:0.00052053179 157:0.0017873042 158:5.2832282e-005 162:3.7457885e-006 163:0.0020485744 164:0.001572245 165:0.0049706446 166:0.00015392429 169:0.00011266264 170:0.00068940542 171:0.016775513 172:0.025154972 173:0.0011097917 176:4.6847992e-005 177:0.00016281595 178:0.0018546092 179:0.0010894529 193:3.6661124e-005 194:6.9514704e-006 198:2.0447728e-006 199:0.0016675532 200:0.0012091413 201:7.8799058e-006 205:5.3768876e-005 206:0.0030127142 207:0.0025809628 208:0.0076143281 209:0.00027279669 212:1.3502668e-006 213:0.0008689877 214:0.013518349 215:0.058948547 
-66.05375028100468 -0 -92.83541107294067 -300.8323468150181 145.5613477033329 312.5 107.1615962098932 193.2292128430781 0 0 250.7455586394596 228.9879053512461 114.0186480041458 52.60113949894723 312.5 58.69189759084167 64.51303608729104 0 0:0.055797361 1:0.011414614 2:9.362046e-005 6:0.0072730882 7:0.0040608691 8:0.0024162591 9:4.6826667e-006 12:5.2255677e-006 14:7.8111145e-005 36:0.011221864 37:0.01416742 38:9.8378059e-006 42:0.015397821 43:0.092248276 44:0.02467436 45:0.00036465286 48:0.0016356888 49:0.0043182657 50:0.0057420181 51:0.0049019344 52:1.573378e-005 54:8.3703208e-006 55:1.18794e-006 57:0.00027669992 58:7.4263776e-006 72:0.00012468814 73:5.1369978e-005 78:0.0005610729 79:0.019055452 80:0.02365274 81:7.9008525e-005 84:0.00049245771 85:0.013315001 86:0.093115412 87:0.021819951 88:0.0001593073 90:2.1482889e-005 91:0.0012468945 92:0.0045410879 93:0.0050140521 94:0.004206677 97:5.3846161e-006 100:0.000479952 101:5.3933447e-005 108:3.0448015e-005 109:6.6730254e-006 114:9.2611263e-005 115:0.00016249194 116:4.8039974e-006 120:6.1361658e-005 121:0.00052470434 122:0.017179983 123:0.02291248 124:4.082088e-005 126:8.4783005e-006 127:0.00039825315 128:0.012636992 129:0.075063989 130:0.015724555 131:0.00025180058 133:0.00011936278 134:0.0014728968 135:0.0051782667 136:0.0051021366 137:0.0056984969 143:0.0012833888 150:4.1741455e-006 151:5.2536558e-005 152:1.2828517e-005 157:6.9258509e-005 158:0.0001166229 159:1.1773925e-005 160:3.5464634e-006 163:2.4505978e-005 164:0.0004439865 165:0.01468568 166:0.019254737 167:1.8040233e-005 169:8.1563649e-006 170:0.00055761117 171:0.013333352 172:0.078226089 173:0.017124074 176:9.3279661e-005 177:0.0013162905 178:0.0045278622 179:0.021809502 193:2.8481857e-006 194:3.5377016e-005 200:6.3742715e-005 201:0.00023011658 202:2.8662935e-005 206:6.6274806e-005 207:0.00097416958 208:0.020467792 209:0.031912167 212:1.1724524e-005 213:0.00061293435 214:0.013995658 215:0.15181826 
-312.5 -312.5 -307.269440431869 -312.5 0 274.3016045367443 0 102.0695705807662 35.29688060810535 312.5 312.5 182.0895325679073 312.5 0 126.4157945347624 178.7009119838399 312.5 312.5 0:0.12694633 1:0.0037344194 2:0.00010002155 6:0.049794547 7:0.0034032965 8:0.0019092804 9:2.7638904e-005 14:5.4205193e-005 36:0.0049973633 37:1.7916873e-005 42:0.1283616 43:0.023614142 44:0.0021795954 45:5.6693494e-005 48:0.02003081 49:0.015345444 50:0.0034076767 51:0.0015466566 52:1.5055764e-005 57:7.0535003e-005 58:2.5546602e-005 72:1.2572555e-005 73:1.1069524e-008 78:0.0011459793 79:0.0033717107 80:2.432144e-005 84:0.012032588 85:0.069280237 86:0.020760294 87:0.0016813524 88:6.6696542e-005 90:0.00021153051 91:0.015376281 92:0.017240742 93:0.0034477697 94:0.0015975792 95:1.9321813e-005 98:1.8750319e-006 100:7.8090401e-005 101:1.3635148e-005 115:1.9230267e-005 116:9.8042046e-006 120:3.3816182e-006 121:0.0013988592 122:0.0038796752 123:7.2070679e-006 126:0.0001417046 127:0.0086655142 128:0.087531075 129:0.025325036 130:0.0021109523 131:0.00011508272 133:0.00031956867 134:0.019547369 135:0.019842733 136:0.0039317734 137:0.0029482034 142:1.3693082e-006 143:0.00035726937 151:4.6761061e-006 152:1.7617511e-005 157:6.5448357e-006 158:1.282166e-005 159:1.451966e-006 163:1.0033352e-005 164:0.0025966302 165:0.0056255404 169:0.00017105354 170:0.016095107 171:0.10925248 172:0.022169515 173:0.0027417196 176:0.00074616418 177:0.015774058 178:0.015011969 179:0.0083583891 188:4.7821959e-006 194:3.5600235e-006 195:2.7687787e-005 200:1.0491e-006 201:7.0522721e-005 206:2.3039718e-005 207:0.0035170789 208:0.0052143624 212:0.00049535942 213:0.017125582 214:0.054151651 215:0.012612323 
