svm_type c_svc
kernel_type rbf
gamma 0.50625
nr_class 19
total_sv 246
rho 1.80914 0.526054 2.07367 1.34186 1.08598 1.00528 0.612282 1.67263 2.44237 0.541027 1.70516 0.855538 2.87545 2.5821 2.26015 3.20155 -0.634527 0.765162 -0.493583 0.94878 -0.172407 -0.550149 -0.814432 -0.0128101 0.226431 0.558409 -0.597592 0.550336 -0.268303 0.716234 1.20819 -0.976816 0.66402 -0.199032 -0.6503 0.695044 0.207109 0.132889 -0.329503 0.227683 0.724189 0.26476 0.197519 1.85574 0.0446602 -0.128257 1.71689 0.00702346 0.645888 -0.48807 -0.636654 -1.28013 -1.26424 -1.91842 -0.961574 -1.99291 -0.742266 -1.78473 -0.252743 -1.56969 -0.416111 -0.374149 -0.859533 -0.83729 -0.818026 -1.69783 -0.901104 -1.17963 0.60334 1.41523 0.756652 -0.062581 0.821947 0.226666 0.611839 2.30129 0.287132 0.556468 -1.25033 0.00934374 -0.514156 0.0050228 1.72945 1.19861 -0.0388234 0.952452 -0.156106 0.858479 2.13311 1.13613 1.27126 -0.712061 -0.341743 0.553301 2.06689 1.30521 0.36919 1.55938 1.01738 1.6318 2.96628 1.65545 2.47306 -0.290423 0.712206 0.399264 -0.578446 -1.07726 0.497937 -0.664633 0.206949 -0.746831 0.290119 -0.208229 -0.467094 0.0639576 0.532751 -2.28611 -0.085852 -0.491941 -0.707037 -0.202991 -0.196692 -0.57872 -1.8202 -1.04169 -1.86671 0.133679 -0.735632 0.306387 -0.332382 -0.532773 -1.07634 -2.3653 -1.20392 0.636328 0.184972 0.537116 1.33138 0.639567 1.17626 -0.508399 0.00870947 -0.0738378 -0.193631 0.976604 -0.96713 0.253652 -0.733877 -1.58805 0.500108 1.49079 1.47118 0.370625 0.147134 -0.525758 0.840229 -1.29261 -0.128037 -1.7881 -0.858419 -0.856574 -0.489391 -2.09482 -2.28172 1.13637 -0.84691 -1.75115 -1.78033 -1.2137 -0.0260649
label 0 1 2 3 4 5 6 7 8 9 10 11 12 13 14 15 16 17 18
probA -2.03403 -1.96787 -3.47355 -2.45605 -2.01286 -2.85413 -2.21129 -2.40841 -1.12544 -2.43269 -2.32664 -2.52647 -0.56054 -0.614614 -2.18633 -1.7621 -1.23852 -1.77237 -1.26884 -2.66693 -1.13293 -1.6302 -1.71193 -2.36952 -1.87361 -3.23507 -2.51324 -1.11032 -2.82716 -1.51097 -1.09064 -1.18303 -1.5963 -1.51671 -2.26635 -2.98289 -2.41456 -2.65951 -2.3891 -2.10848 -2.38863 -2.90837 -2.68302 -0.923649 -2.71364 -2.4646 -2.56393 -2.52389 -2.39205 -3.11339 -2.00148 -2.98142 -3.10292 -2.69308 -2.88709 -1.60808 -2.98351 -3.66115 -2.35545 -2.54615 -2.79188 -3.84747 -1.74687 -2.6211 -2.74727 -3.3541 -0.892066 0.491868 -2.12785 -1.1289 -1.65911 -1.98715 -1.22108 -2.97959 -0.0641591 -1.59123 -2.85182 -0.628537 -0.472439 -2.58998 -0.836705 -2.56722 -1.85594 -3.23991 -2.46267 -1.50668 -2.39092 0.724909 -1.08607 -1.25034 0.386611 -0.226221 -1.90509 -2.0141 -1.24459 -1.02906 -1.96433 -1.82643 -2.50042 -0.12804 -1.69128 -0.764059 -0.604588 -1.7231 -2.85609 -2.68699 -1.40876 -1.87413 -2.45008 -2.40586 -1.87352 -2.00555 -2.18805 -1.90148 -2.1131 -2.70928 -0.972056 -1.30923 -2.17393 -1.83008 -1.4915 -2.01578 -1.43346 -2.00346 -1.51772 -1.78918 -2.41197 -2.27421 -2.268 -0.244589 -1.56165 -1.45113 -0.43977 -1.56127 -2.88332 -2.66819 -2.87317 -1.73864 -2.0506 -2.48398 -2.00391 -2.18875 -2.63984 -2.96593 -1.86988 -0.406559 0.301008 -1.52039 -2.90979 -1.9954 -2.41233 -3.26668 -1.29333 -2.48636 -2.34321 -2.72233 -1.22852 -1.18677 -0.698182 -0.264813 -2.18945 0.0753161 -1.00213 -1.41586 -2.07758 -1.14855 -1.09706 -2.48015 -1.86856 -3.15216 -2.58536
probB 0.0588908 0.162354 0.413714 0.167576 0.164822 0.108918 0.0722319 0.389019 0.0818842 0.354963 0.336527 0.1014 0.181459 0.0230641 0.33177 0.294453 0.0759427 0.111504 0.257422 0.705311 0.175575 -0.0593608 0.0490224 0.190762 0.236798 0.0629474 0.00742339 0.0611016 0.00620878 0.228111 0.0225158 0.00647274 0.0170489 0.0858472 0.0390311 0.260763 0.0578257 0.254355 0.11555 -0.0114198 -0.050399 -0.220888 -0.124053 0.0622479 0.194473 -0.232079 0.431407 -0.145464 0.202228 -0.166471 -0.077031 -0.194232 -0.118804 -0.177744 -0.288938 -0.206942 -0.361247 -0.935642 -0.279147 -0.0794233 -0.0704756 -0.493642 -0.0767539 -0.132741 -0.00279487 -0.36953 -0.1704 0.14224 0.0492118 0.0160269 -0.316042 -0.0957736 0.0268937 -0.263452 -0.00289203 -0.111222 -0.0730792 -0.0463355 -0.0345832 0.0785747 0.061331 -0.0748973 0.230358 0.20489 -0.162982 0.0933342 -0.205397 0.508752 0.25606 0.179252 0.441814 0.247775 -0.192478 -0.0579313 0.196712 -0.208785 0.0121754 0.324452 0.183299 0.00889827 0.20105 -0.0051536 0.0171343 0.196492 0.0174803 0.0125522 -0.140296 -0.0198414 0.0707678 -0.119357 0.00817758 -0.211143 0.188334 0.0685184 0.0965103 0.00892003 -0.182001 -0.283292 0.0447571 0.0727647 -0.0860859 0.0576445 0.0871516 -0.113885 -0.204792 -0.0376334 -0.279501 0.277279 -0.363805 0.285063 0.186373 0.0549097 0.251682 -0.0960962 -0.402426 0.199842 0.0468079 0.082618 0.200007 0.334999 0.00304403 0.0159175 -0.0728357 -0.176749 -0.187878 -0.174531 -0.142261 -0.178773 -0.191883 -0.00153806 0.0887098 0.414143 0.0505953 -0.0544743 0.0611695 -0.20726 -0.0446132 -0.138405 -0.0920702 -0.00760655 0.0377541 0.0892599 -0.0257078 0.0778689 -0.34231 0.134297 0.0288795 -0.102602 -0.104584 -0.20558 -0.0230832
nr_sv 11 13 14 15 14 10 14 10 15 10 15 14 12 14 11 12 14 14 14
SV
0.08381052661948413 6.007988561233817 0 0 4.721948666395016 11.71503104779879 0 0 5.242316324172585 5.490216121982585 9.018397684810363 2.165370977140315 15.17699703991618 0 5.948327618072721 6.350921377207331 10.9583070629048 11.51179411823891 0:0.072155021 1:0.061977167 2:0.066377513 3:0.084123433 4:0.062891357 5:0.073578544 6:0.087198801 7:0.067179151 8:0.059049439 9:0.08111465 10:0.081410021 11:0.071599141 12:0.04136971 13:0.075794883 14:0.068582118 15:0.067942813 16:0.07017421 17:0.066696972 18:0.070566043 19:0.081109412 20:0.072641462 21:0.074275233 22:0.079186089 23:0.058065128 24:0.062184379 25:0.084416434 26:0.080408506 27:0.070952944 28:0.043458439 29:0.0772449 30:0.075876378 31:0.073151425 32:0.065730654 33:0.070212059 34:0.078128375 35:0.084236383 36:0.071169317 37:0.07756526 38:0.077627808 39:0.057739645 40:0.064028382 41:0.087978929 42:0.082857013 43:0.072089337 44:0.039009497 45:0.075806357 46:0.078885794 47:0.073233962 48:0.06683363 49:0.076957703 50:0.087662421 51:0.090167165 52:0.07411176 53:0.088625461 54:0.078830779 55:0.064107634 56:0.066506289 57:0.087877475 58:0.084783666 59:0.07636188 60:0.038451552 61:0.074490875 62:0.082510389 63:0.075595774 64:0.06829007 65:0.079484679 66:0.086492226 67:0.089676686 68:0.077212483 69:0.08950527 70:0.082591809 71:0.079045236 72:0.069584094 73:0.079518676 74:0.076888159 75:0.09480793 76:0.044900879 77:0.067325965 78:0.079555042 79:0.088313065 80:0.064135998 81:0.081259713 82:0.079301454 83:0.08893954 84:0.067257039 85:0.087212428 86:0.087420024 87:0.076843776 88:0.060186803 89:0.07444948 90:0.075803101 91:0.089960925 92:0.037742358 93:0.067752533 94:0.077128239 95:0.077562548 96:0.06420023 97:0.075519823 98:0.073614024 99:0.089825504 100:0.059741896 101:0.085038655 102:0.081141941 103:0.066250168 104:0.057800703 105:0.071133427 106:0.069884561 107:0.064632066 108:0.035221733 109:0.067933783 110:0.075838551 111:0.067331269 112:0.06811823 113:0.066974871 114:0.066246599 115:0.083394714 116:0.061242957 117:0.076775797 118:0.083179899 119:0.068243377 120:0.060461655 121:0.075496212 122:0.075208977 123:0.063361302 124:0.037882559 125:0.06599208 126:0.071926832 127:0.064565636 128:0.068604827 129:0.061325073 130:0.065897323 131:0.079906091 132:0.057493269 133:0.069798455 134:0.079073302 135:0.066647522 136:0.052041255 137:0.072565146 138:0.072388478 139:0.062732391 140:0.046047579 141:0.075243056 142:0.065155417 143:0.056022137 144:0.067501947 145:0.063385211 146:0.066094972 147:0.067015797 148:0.065545388 149:0.070733339 150:0.074691288 151:0.052073758 152:0.056544904 153:0.074307635 154:0.070205629 155:0.065060772 156:0.047007762 157:0.076550297 158:0.071776003 159:0.058247562 160:0.05985773 161:0.065712735 162:0.071700998 163:0.073146187 164:0.061899152 165:0.06917046 166:0.072141767 167:0.047094576 168:0.061732683 169:0.077014349 170:0.071773179 171:0.059859619 172:0.036627099 173:0.068308212 174:0.070744187 175:0.065020628 176:0.059416026 177:0.071663596 178:0.079302266 179:0.077154942 180:0.066940263 181:0.090113297 182:0.070064262 183:0.053283922 184:0.065229274 185:0.07591933 186:0.074159145 187:0.065107316 188:0.03654971 189:0.066132054 190:0.071223386 191:0.069742896 192:0.061887123 193:0.067615196 194:0.071120635 195:0.072563268 196:0.072639301 197:0.082981214 198:0.071985111 199:0.077571556 200:0.071224198 201:0.064758241 202:0.07188601 203:0.089504875 204:0.044307042 205:0.060295064 206:0.071052194 207:0.08975184 208:0.059126195 209:0.064176582 210:0.065011807 211:0.075001292 212:0.056854956 213:0.069332823 214:0.071629785 215:0.07120005 216:0.053941164 217:0.062374547 218:0.060120519 219:0.086743139 220:0.032476157 221:0.06039872 222:0.070151612 223:0.072659642 224:0.05800857 225:0.072498173 226:0.060283467 227:0.077700987 228:0.055726908 229:0.069679685 230:0.073393188 231:0.059448004 232:0.050573096 233:0.057099521 234:0.061827596 235:0.058840517 236:0.029542474 237:0.059825949 238:0.065023229 239:0.05885753 240:0.062447943 241:0.06395594 242:0.063959576 243:0.078203969 244:0.054944206 245:0.072868951 246:0.081855714 247:0.066425756 248:0.052490342 249:0.06476023 250:0.066815339 251:0.05770991 252:0.036788709 253:0.065589592 254:0.061594822 255:0.052450925 256:0.073133789 257:0.056516077 258:0.070149288 259:0.075299174 260:0.065649398 261:0.060507786 262:0.065859757 263:0.057966188 264:0.046360172 265:0.071793474 266:0.062977858 267:0.063889451 268:0.062201563 269:0.078762919 270:0.076844104 271:0.057094079 272:0.059154179 273:0.07046137 274:0.056241158 275:0.063441463 276:0.063242875 277:0.060471289 278:0.05820065 279:0.04068169 280:0.057522904 281:0.073089831 282:0.060944926 283:0.062941872 284:0.055284247 285:0.088875756 286:0.070376761 287:0.062898904 288:0.054213427 289:0.078497447 290:0.062810302 291:0.05899585 292:0.052614499 293:0.074732035 294:0.064962626 295:0.039131109 296:0.072328657 297:0.070487961 298:0.062885016 299:0.053390004 300:0.039243057 301:0.083883688 302:0.064964049 303:0.073017262 304:0.06081491 305:0.072630852 306:0.07297311 307:0.064886428 308:0.058442827 309:0.097067922 310:0.061786994 311:0.056079619 312:0.072595976 313:0.07278192 314:0.069632523 315:0.060951974 316:0.042287435 317:0.076324798 318:0.064693466 319:0.071211591 320:0.065024711 321:0.061226867 322:0.058024962 323:0.059349265 324:0.07469251 325:0.086541466 326:0.06492316 327:0.075993896 328:0.071837492 329:0.058007319 330:0.075845651 331:0.10003351 332:0.046388816 333:0.059151981 334:0.06978973 335:0.084447905 336:0.056278586 337:0.047408592 338:0.055115964 339:0.062775396 340:0.064727664 341:0.064188957 342:0.063165367 343:0.065415069 344:0.067538433 345:0.051106382 346:0.052683931 347:0.08686164 348:0.037319127 349:0.065263189 350:0.07158795 351:0.081141248 352:0.05572604 353:0.059539109 354:0.065383054 355:0.074413493 356:0.059159625 357:0.071275495 358:0.072874814 359:0.057204928 360:0.050410111 361:0.053096581 362:0.050453272 363:0.054443959 364:0.038353428 365:0.063872017 366:0.061141361 367:0.058213413 368:0.071122557 369:0.056106821 370:0.068030693 371:0.068907291 372:0.059649128 373:0.073892385 374:0.074110746 375:0.066625267 376:0.043492522 377:0.05649047 378:0.061347529 379:0.060149692 380:0.049969912 381:0.065297179 382:0.060161248 383:0.046633996 384:0.084099732 385:0.063918591 386:0.062540449 387:0.052008957 388:0.062629819 389:0.057677239 390:0.052909959 391:0.048770599 392:0.041278992 393:0.05076069 394:0.047898341 395:0.048106711 396:0.07820449 397:0.07597553 398:0.074935332 399:0.051700674 400:0.058051825 401:0.070114829 402:0.056661185 403:0.053322006 404:0.044682566 405:0.054725543 406:0.053091001 407:0.030799085 408:0.050851937 409:0.056714013 410:0.059090707 411:0.053461328 412:0.077479035 413:0.085218638 414:0.065265879 415:0.060245875 416:0.044242483 417:0.076379322 418:0.049076341 419:0.046466339 420:0.038768549 421:0.055544831 422:0.067246437 423:0.028664004 424:0.049435891 425:0.081992127 426:0.063477762 427:0.054209724 428:0.047207873 429:0.085070491 430:0.069364183 431:0.083621293 432:0.04693098 433:0.065127045 434:0.056978829 435:0.071142197 436:0.056758892 437:0.078090452 438:0.066652901 439:0.053999014 440:0.061379671 441:0.098726541 442:0.062176626 443:0.051305506 444:0.038416363 445:0.056527369 446:0.052956142 447:0.072801948 448:0.055054568 449:0.069815695 450:0.056718506 451:0.077408522 452:0.10134273 453:0.09599901 454:0.058153439 455:0.072051711 456:0.064491853 457:0.055974271 458:0.079277851 459:0.11850482 460:0.059549715 461:0.050348449 462:0.058550373 463:0.084511153 464:0.052732356 465:0.053169541 466:0.06377247 467:0.078343756 468:0.08534018 469:0.074860118 470:0.060261376 471:0.064214334 472:0.053190611 473:0.045511406 474:0.049138859 475:0.092600852 476:0.049164578 477:0.069514409 478:0.086113706 479:0.07075873 480:0.06032772 481:0.0668521 482:0.081217006 483:0.08761505 484:0.058741771 485:0.090704024 486:0.076364465 487:0.060483232 488:0.054831348 489:0.047926661 490:0.045994122 491:0.071602285 492:0.066180125 493:0.061512541 494:0.073366739 495:0.049762975 496:0.088877954 497:0.074777044 498:0.074747868 499:0.060710553 500:0.05812801 501:0.093307495 502:0.0645658 503:0.060654432 504:0.043368842 505:0.04066677 506:0.037002269 507:0.071792632 508:0.065936156 509:0.052726272 510:0.069889367 511:0.059885923 
4.163370658311803 8.595570750658208 0 15.66805990645659 14.77889456355304 7.328244484039562 0 0 3.401640442880192 0 12.38278986521389 4.450555396814926 9.949646741965902 11.99788867543208 9.40733150439911 0 7.710787173556902 11.55414623528205 0:0.059381139 1:0.081283659 2:0.093271561 3:0.085556418 4:0.073778853 5:0.086194508 6:0.0780086 7:0.082977861 8:0.069756746 9:0.075401045 10:0.068707541 11:0.08200755 12:0.031270396 13:0.061530337 14:0.069016159 15:0.059394248 16:0.058333647 17:0.073741302 18:0.087750606 19:0.078890584 20:0.071833715 21:0.078873858 22:0.07872083 23:0.083265781 24:0.069761492 25:0.072615631 26:0.065918475 27:0.087728515 28:0.034239586 29:0.064765692 30:0.073607028 31:0.056999195 32:0.053784791 33:0.070159853 34:0.087290749 35:0.080643751 36:0.073970467 37:0.079682462 38:0.079227574 39:0.076977305 40:0.068891853 41:0.073232278 42:0.072014302 43:0.076611727 44:0.036511052 45:0.069983587 46:0.069744915 47:0.055428956 48:0.05612731 49:0.073737048 50:0.090474725 51:0.078792676 52:0.072348945 53:0.079990499 54:0.085948959 55:0.077186123 56:0.070899889 57:0.080953702 58:0.075656146 59:0.07060881 60:0.036975797 61:0.066681504 62:0.070516944 63:0.058447301 64:0.060907654 65:0.080228642 66:0.085568272 67:0.083197899 68:0.075596496 69:0.086500458 70:0.085480794 71:0.079051495 72:0.073417984 73:0.087061033 74:0.074121736 75:0.071094498 76:0.041652184 77:0.068741038 78:0.072482437 79:0.066088095 80:0.057466645 81:0.077779174 82:0.090091705 83:0.081516646 84:0.075225905 85:0.085474618 86:0.085765511 87:0.078211315 88:0.074167691 89:0.075134337 90:0.070467971 91:0.067601338 92:0.035498306 93:0.060195561 94:0.071211994 95:0.060831606 96:0.057788152 97:0.073847145 98:0.093199216 99:0.079500139 100:0.077613838 101:0.080179036 102:0.083531506 103:0.079946637 104:0.068734936 105:0.069722414 106:0.068138368 107:0.061978731 108:0.032213874 109:0.056278527 110:0.065993682 111:0.061050922 112:0.06133664 113:0.079683974 114:0.091666088 115:0.084007472 116:0.072754018 117:0.083940633 118:0.079920232 119:0.079730093 120:0.070995659 121:0.072128579 122:0.065952793 123:0.070295416 124:0.032105945 125:0.05914494 126:0.064531922 127:0.061614782 128:0.054123532 129:0.080725469 130:0.10086679 131:0.079873212 132:0.076323316 133:0.093022004 134:0.080178745 135:0.081935145 136:0.075534798 137:0.08442162 138:0.077888943 139:0.090677597 140:0.030178223 141:0.065142594 142:0.06849587 143:0.058359068 144:0.052891087 145:0.075469539 146:0.089267917 147:0.078646488 148:0.069122687 149:0.085645996 150:0.080828846 151:0.085688338 152:0.075382046 153:0.08012946 154:0.074117407 155:0.10607424 156:0.036916096 157:0.065603331 158:0.077517226 159:0.055244219 160:0.05118265 161:0.067047641 162:0.088254802 163:0.086594 164:0.070729233 165:0.074961133 166:0.08380954 167:0.08697211 168:0.076578364 169:0.087324686 170:0.082908615 171:0.088775083 172:0.039962862 173:0.076270655 174:0.073832139 175:0.052426141 176:0.055859596 177:0.076999865 178:0.08199428 179:0.083155878 180:0.083883546 181:0.085553139 182:0.08929196 183:0.076118857 184:0.07462427 185:0.093338519 186:0.081333511 187:0.071691759 188:0.043224249 189:0.069601342 190:0.073327914 191:0.057237219 192:0.060897581 193:0.077338152 194:0.082266919 195:0.080427252 196:0.081011735 197:0.092410587 198:0.088076055 199:0.078982666 200:0.084040739 201:0.09804593 202:0.087364838 203:0.076401837 204:0.048287392 205:0.068848573 206:0.072277136 207:0.066833116 208:0.056654315 209:0.070655912 210:0.083229415 211:0.081393056 212:0.082602851 213:0.091857664 214:0.082859904 215:0.077245533 216:0.08068905 217:0.08303231 218:0.079964504 219:0.065325856 220:0.038782373 221:0.067487016 222:0.069327317 223:0.064866722 224:0.050051071 225:0.075176179 226:0.094615519 227:0.075241745 228:0.093663022 229:0.088375531 230:0.08832287 231:0.081008725 232:0.071156777 233:0.072987348 234:0.075842738 235:0.059142448 236:0.031458728 237:0.06012439 238:0.067328267 239:0.060486317 240:0.054829177 241:0.078849047 242:0.10113631 243:0.081992969 244:0.082162388 245:0.089596182 246:0.083782151 247:0.076673694 248:0.077373326 249:0.079299465 250:0.074942447 251:0.069302119 252:0.031675685 253:0.057686608 254:0.063468315 255:0.056301359 256:0.044307604 257:0.064748839 258:0.083535209 259:0.076166809 260:0.077536546 261:0.095425017 262:0.074857943 263:0.080336548 264:0.071944281 265:0.10223613 266:0.077952318 267:0.084817834 268:0.029047772 269:0.068690717 270:0.063003004 271:0.061742034 272:0.045088384 273:0.061160866 274:0.074062631 275:0.069348641 276:0.070527665 277:0.094512053 278:0.074970081 279:0.078128368 280:0.074276865 281:0.089584157 282:0.064385407 283:0.10877548 284:0.046771459 285:0.068815224 286:0.06422095 287:0.052325021 288:0.047677249 289:0.062673301 290:0.068971552 291:0.072208919 292:0.062894352 293:0.079550907 294:0.080431916 295:0.078322992 296:0.079881333 297:0.070518099 298:0.072541781 299:0.086245723 300:0.045068234 301:0.072219513 302:0.06617967 303:0.043569263 304:0.047811773 305:0.080689579 306:0.060355138 307:0.08061742 308:0.064840771 309:0.082571879 310:0.09093371 311:0.065104268 312:0.07933972 313:0.06604708 314:0.083283372 315:0.073573522 316:0.048997108 317:0.070126414 318:0.070077322 319:0.055035774 320:0.059132203 321:0.075959973 322:0.060381696 323:0.069705583 324:0.059163988 325:0.087402038 326:0.071054876 327:0.061757989 328:0.082070202 329:0.068821959 330:0.078432851 331:0.072478324 332:0.050974801 333:0.062110964 334:0.071819961 335:0.071932264 336:0.050278779 337:0.061613645 338:0.076589026 339:0.060953647 340:0.071973458 341:0.090924129 342:0.068360649 343:0.06716089 344:0.071801312 345:0.078058362 346:0.069553196 347:0.063728154 348:0.039248403 349:0.066431165 350:0.067047089 351:0.070057325 352:0.042480301 353:0.078112729 354:0.089791246 355:0.076039709 356:0.081784815 357:0.080719881 358:0.081486098 359:0.066950805 360:0.059737638 361:0.07530871 362:0.07233806 363:0.0658096 364:0.030645441 365:0.065304182 366:0.074893884 367:0.060191434 368:0.045993753 369:0.071664684 370:0.081672452 371:0.086311124 372:0.076848768 373:0.080010504 374:0.073173821 375:0.073139414 376:0.061577551 377:0.077857025 378:0.086240575 379:0.079166941 380:0.029575031 381:0.061440717 382:0.058211524 383:0.054096151 384:0.048767112 385:0.070386782 386:0.080786735 387:0.063391075 388:0.072486654 389:0.096316531 390:0.0596384 391:0.07517188 392:0.072520226 393:0.11143418 394:0.068047419 395:0.089268811 396:0.049223997 397:0.091534317 398:0.058625087 399:0.060065012 400:0.033840556 401:0.065902747 402:0.064697705 403:0.065410294 404:0.06919457 405:0.090103507 406:0.06593664 407:0.072536804 408:0.090796433 409:0.092600897 410:0.057404049 411:0.091782957 412:0.069474749 413:0.089529216 414:0.055349246 415:0.056656029 416:0.035233084 417:0.052639771 418:0.041950535 419:0.051797036 420:0.068297349 421:0.062170323 422:0.079977438 423:0.068051703 424:0.073368214 425:0.053218979 426:0.05851071 427:0.065416224 428:0.053186022 429:0.053537183 430:0.050155893 431:0.051158924 432:0.037982073 433:0.067637451 434:0.033981625 435:0.044748016 436:0.05413818 437:0.074525028 438:0.087970093 439:0.057153005 440:0.074129 441:0.043510418 442:0.067007564 443:0.068332657 444:0.056495789 445:0.05617132 446:0.045703135 447:0.049577523 448:0.042970397 449:0.060754795 450:0.042735763 451:0.058100991 452:0.051824264 453:0.054555457 454:0.054254141 455:0.051335856 456:0.073026389 457:0.0519397 458:0.079804711 459:0.073096946 460:0.068033218 461:0.057194773 462:0.066377632 463:0.081340745 464:0.036260307 465:0.049050808 466:0.053076006 467:0.057753511 468:0.060925648 469:0.044681191 470:0.058933705 471:0.068105228 472:0.055300668 473:0.065508731 474:0.068863273 475:0.066960029 476:0.042807754 477:0.057303905 478:0.072868221 479:0.067811027 480:0.035048034 481:0.04993071 482:0.058668163 483:0.058122981 484:0.079619966 485:0.053515304 486:0.051516559 487:0.061307706 488:0.055772211 489:0.071180053 490:0.073637873 491:0.073379621 492:0.039087925 493:0.065824538 494:0.08719983 495:0.073197454 496:0.054684754 497:0.068530999 498:0.05101791 499:0.061992686 500:0.0942645 501:0.059333447 502:0.056928948 503:0.059124809 504:0.059736811 505:0.077309661 506:0.07352531 507:0.065692976 508:0.040082291 509:0.0596908 510:0.059755675 511:0.051489748 
21.84336149593602 13.80902504257445 8.639912122288774 11.4581434579504 15.4210374766006 8.342245786871475 0 7.749549286693492 4.750387896321337 8.752785923420712 13.2104914810534 10.08065321097163 18.83421068872208 15.87537070506752 15.82458324688866 13.16105911178852 14.30964823922425 16.81218731780264 0:0.072714165 1:0.045864221 2:0.059290346 3:0.075901911 4:0.091371402 5:0.10560644 6:0.083311073 7:0.078968853 8:0.080805235 9:0.088709995 10:0.089305796 11:0.091114327 12:0.085561387 13:0.071993321 14:0.073834591 15:0.077088945 16:0.077572048 17:0.043269191 18:0.060014755 19:0.061951529 20:0.096307829 21:0.11347444 22:0.093706243 23:0.073909581 24:0.083170451 25:0.089825712 26:0.089711852 27:0.089365691 28:0.086126253 29:0.077665128 30:0.076976061 31:0.079587571 32:0.077129982 33:0.044789225 34:0.062112082 35:0.053372808 36:0.10501897 37:0.10920551 38:0.10372169 39:0.074615002 40:0.083687842 41:0.096042015 42:0.10056173 43:0.088720709 44:0.086050324 45:0.080588073 46:0.089047365 47:0.080923066 48:0.073483072 49:0.04467231 50:0.064266585 51:0.053209215 52:0.10010147 53:0.096376665 54:0.10211162 55:0.074955694 56:0.087606363 57:0.094467707 58:0.095205553 59:0.084682509 60:0.080663435 61:0.073034853 62:0.088485233 63:0.081759989 64:0.072378881 65:0.051449724 66:0.065472007 67:0.064373791 68:0.094419099 69:0.094503053 70:0.096621983 71:0.081089318 72:0.081800446 73:0.091441303 74:0.087832637 75:0.083173171 76:0.070479155 77:0.076436564 78:0.092136145 79:0.088249393 80:0.073745832 81:0.046849389 82:0.06253279 83:0.06249956 84:0.10228924 85:0.095082745 86:0.098706 87:0.086019352 88:0.085789703 89:0.095093794 90:0.094472259 91:0.085483216 92:0.073560253 93:0.075199805 94:0.085787833 95:0.085923098 96:0.074965574 97:0.050810099 98:0.067960069 99:0.059442695 100:0.10115848 101:0.10594155 102:0.097660489 103:0.084083289 104:0.087353632 105:0.10004211 106:0.096598364 107:0.08789973 108:0.080032311 109:0.078903235 110:0.08311861 111:0.077964954 112:0.073673062 113:0.052450955 114:0.059996635 115:0.062104378 116:0.099576175 117:0.10611435 118:0.092163153 119:0.07630688 120:0.084285393 121:0.089010619 122:0.096684001 123:0.087303445 124:0.07934577 125:0.072148338 126:0.075949848 127:0.069945 128:0.070619203 129:0.052725133 130:0.060836297 131:0.096602149 132:0.083923012 133:0.10621362 134:0.072617784 135:0.076023772 136:0.079098545 137:0.089579865 138:0.079768218 139:0.092699602 140:0.075546831 141:0.076360337 142:0.076830484 143:0.08752618 144:0.075291127 145:0.041039523 146:0.057993609 147:0.075418435 148:0.087634474 149:0.10318676 150:0.079019874 151:0.070343561 152:0.076083876 153:0.08386682 154:0.080342278 155:0.079739839 156:0.076240085 157:0.080567673 158:0.073696554 159:0.081629492 160:0.067796029 161:0.041829493 162:0.051631674 163:0.050721556 164:0.082553938 165:0.085969441 166:0.085747406 167:0.066921003 168:0.071722671 169:0.080025807 170:0.082617588 171:0.072568387 172:0.079518251 173:0.071625657 174:0.076670304 175:0.063497968 176:0.068230532 177:0.050813049 178:0.055050451 179:0.045185383 180:0.08701057 181:0.085735559 182:0.0909876 183:0.077071279 184:0.074878544 185:0.084693931 186:0.074781761 187:0.069722578 188:0.085024588 189:0.069852322 190:0.080228887 191:0.066513628 192:0.07136032 193:0.056009449 194:0.053437419 195:0.063186586 196:0.083260089 197:0.08463157 198:0.090618663 199:0.08939404 200:0.071132205 201:0.085036114 202:0.080585659 203:0.071342438 204:0.07714048 205:0.078304797 206:0.085915282 207:0.082639895 208:0.071701683 209:0.046937376 210:0.049672764 211:0.058852021 212:0.08100906 213:0.075771667 214:0.085309729 215:0.078741223 216:0.071904011 217:0.073390193 218:0.078719676 219:0.07151071 220:0.073105715 221:0.067671202 222:0.079846315 223:0.071908176 224:0.079072624 225:0.048386104 226:0.049335532 227:0.054423422 228:0.078057677 229:0.075229675 230:0.08798556 231:0.074296467 232:0.073366068 233:0.073653191 234:0.076167352 235:0.0732297 236:0.071105883 237:0.06314037 238:0.074251629 239:0.066998668 240:0.077024832 241:0.053356517 242:0.050432127 243:0.066878408 244:0.079675481 245:0.084573098 246:0.082097806 247:0.071356423 248:0.083215326 249:0.084694214 250:0.084502324 251:0.080597021 252:0.068668112 253:0.065360367 254:0.066603303 255:0.066854648 256:0.058596466 257:0.058720779 258:0.060679369 259:0.087798469 260:0.079958186 261:0.086856037 262:0.049267426 263:0.067305632 264:0.063449755 265:0.064886488 266:0.063471317 267:0.10482243 268:0.066201687 269:0.079295941 270:0.070088074 271:0.078629769 272:0.062577061 273:0.052077916 274:0.054764424 275:0.070174456 276:0.068829209 277:0.071836859 278:0.060188517 279:0.075773649 280:0.061390523 281:0.061658524 282:0.066181697 283:0.088694237 284:0.068952322 285:0.083661161 286:0.063837409 287:0.070877261 288:0.065156028 289:0.044990357 290:0.046976611 291:0.059302177 292:0.066170171 293:0.065764628 294:0.079622291 295:0.071745127 296:0.057135906 297:0.067043364 298:0.065696977 299:0.075195573 300:0.075470179 301:0.075766876 302:0.067758463 303:0.058978662 304:0.055938303 305:0.041079611 306:0.045396492 307:0.050290607 308:0.066391893 309:0.068396091 310:0.074454822 311:0.088391095 312:0.055603281 313:0.082714356 314:0.067720197 315:0.056976542 316:0.094197094 317:0.057431187 318:0.066200033 319:0.061785087 320:0.061863028 321:0.046508323 322:0.039985899 323:0.060981806 324:0.07565555 325:0.070260949 326:0.085556716 327:0.092386611 328:0.05890248 329:0.065344967 330:0.071163639 331:0.075693794 332:0.083306186 333:0.062644944 334:0.081459031 335:0.078824088 336:0.055742871 337:0.048159424 338:0.044888381 339:0.060429256 340:0.059299044 341:0.072200201 342:0.072516315 343:0.072865389 344:0.066430956 345:0.053985868 346:0.069221884 347:0.062807426 348:0.069962941 349:0.055692665 350:0.08160764 351:0.068498179 352:0.0607026 353:0.054933511 354:0.039305948 355:0.057913274 356:0.053661738 357:0.082148813 358:0.080909528 359:0.05887663 360:0.064088441 361:0.060119256 362:0.064040862 363:0.07191655 364:0.07415951 365:0.046332251 366:0.062927261 367:0.059517298 368:0.060153276 369:0.056774326 370:0.042972486 371:0.072981082 372:0.060890667 373:0.080753326 374:0.067975253 375:0.069435604 376:0.068361975 377:0.070512772 378:0.068280473 379:0.086049475 380:0.067425318 381:0.059651826 382:0.051995851 383:0.064082414 384:0.068750128 385:0.075720586 386:0.070656501 387:0.07123822 388:0.048355389 389:0.071799532 390:0.043406386 391:0.07101582 392:0.067208692 393:0.063220546 394:0.046913117 395:0.10591038 396:0.068846531 397:0.090881303 398:0.087380335 399:0.062435258 400:0.083079569 401:0.068457618 402:0.058119755 403:0.086339124 404:0.068813451 405:0.063051879 406:0.043840736 407:0.093252212 408:0.067931905 409:0.056233227 410:0.05817965 411:0.095425591 412:0.054442991 413:0.089935437 414:0.070742816 415:0.050411433 416:0.078169785 417:0.048778657 418:0.042683121 419:0.060124815 420:0.057950713 421:0.048096869 422:0.056274131 423:0.061811477 424:0.058575019 425:0.048621304 426:0.057214335 427:0.086127862 428:0.073382504 429:0.075003639 430:0.063758112 431:0.052224729 432:0.057409547 433:0.039273825 434:0.04471913 435:0.046293784 436:0.04906157 437:0.042650007 438:0.063985154 439:0.072694041 440:0.048168018 441:0.053413581 442:0.061145399 443:0.057817362 444:0.11374328 445:0.053709731 446:0.048532803 447:0.074686266 448:0.055446349 449:0.037542991 450:0.037348125 451:0.048027944 452:0.054531332 453:0.037207238 454:0.082537815 455:0.073220819 456:0.057191916 457:0.047400504 458:0.060125578 459:0.063388117 460:0.098678015 461:0.062603116 462:0.059902161 463:0.10330021 464:0.047517125 465:0.054000333 466:0.041808058 467:0.066288047 468:0.044732582 469:0.050635155 470:0.068823844 471:0.08263538 472:0.073634394 473:0.04306395 474:0.058319252 475:0.060585979 476:0.084157348 477:0.066188157 478:0.057200864 479:0.092693932 480:0.04838872 481:0.069063127 482:0.040413808 483:0.050523404 484:0.039659854 485:0.080801852 486:0.048960406 487:0.066271409 488:0.066009365 489:0.066273846 490:0.075950325 491:0.055419978 492:0.058763228 493:0.050653227 494:0.053965386 495:0.068720959 496:0.049564373 497:0.07382077 498:0.061850473 499:0.052423611 500:0.043192938 501:0.08661329 502:0.05177616 503:0.075210378 504:0.074860387 505:0.072826065 506:0.05281968 507:0.081361927 508:0.066389158 509:0.069555178 510:0.054202702 511:0.09398029 
15.24567590908398 0 12.29802387189494 16.22048326819837 7.683032032053019 23.50969700087682 8.184492993496912 15.85560348663672 26.3839207878278 15.55441676737502 3.919869155062516 18.23822535760837 11.96363383532358 24.29205078593972 23.49041377325439 20.07289400787109 14.12965414728681 10.19212429993534 0:0.09059605 1:0.085175343 2:0.082220532 3:0.077229418 4:0.093113288 5:0.10259037 6:0.10132184 7:0.08328218 8:0.070589378 9:0.092713155 10:0.093349129 11:0.085810944 12:0.064117961 13:0.081563294 14:0.090936311 15:0.092073016 16:0.088372186 17:0.088226363 18:0.08092697 19:0.070094332 20:0.084216297 21:0.09930595 22:0.09692549 23:0.077944592 24:0.06588836 25:0.087920807 26:0.090487257 27:0.082539298 28:0.064353481 29:0.084655367 30:0.092009753 31:0.089437582 32:0.085122615 33:0.092269681 34:0.080708086 35:0.071531519 36:0.081699595 37:0.09134119 38:0.089209758 39:0.073507167 40:0.065043822 41:0.093307108 42:0.089710362 43:0.076913066 44:0.064285867 45:0.083298728 46:0.094364762 47:0.097572595 48:0.080902055 49:0.096738458 50:0.083345495 51:0.07769224 52:0.086407132 53:0.090657786 54:0.089226872 55:0.071347713 56:0.070073374 57:0.089655802 58:0.086706229 59:0.079524226 60:0.066390455 61:0.086764835 62:0.094111197 63:0.10349131 64:0.08688882 65:0.096675843 66:0.082253188 67:0.07740885 68:0.09065745 69:0.089030273 70:0.090163037 71:0.074848458 72:0.077054977 73:0.089385308 74:0.086401738 75:0.082794182 76:0.066105656 77:0.088704355 78:0.097066194 79:0.10083152 80:0.086449288 81:0.089911669 82:0.084949486 83:0.074959688 84:0.084510788 85:0.089299999 86:0.094305597 87:0.072329663 88:0.071791187 89:0.090869665 90:0.09666764 91:0.079953939 92:0.062373269 93:0.087917946 94:0.100892 95:0.10046424 96:0.081289709 97:0.082419284 98:0.089450888 99:0.073677145 100:0.082297966 101:0.085819006 102:0.095358521 103:0.073969863 104:0.071220867 105:0.085970856 106:0.10041942 107:0.077134848 108:0.06325379 109:0.088863105 110:0.089942507 111:0.096006602 112:0.08846692 113:0.080799267 114:0.084970042 115:0.077084623 116:0.089246839 117:0.094823182 118:0.099529758 119:0.080472194 120:0.075779311 121:0.092792928 122:0.099715255 123:0.082393311 124:0.062523492 125:0.088569291 126:0.086884595 127:0.093312733 128:0.072149336 129:0.057866566 130:0.059811611 131:0.061086308 132:0.065078713 133:0.084189244 134:0.084445365 135:0.068714656 136:0.055103131 137:0.075925425 138:0.069456562 139:0.069686949 140:0.046989266 141:0.063964866 142:0.069845363 143:0.069295444 144:0.061774038 145:0.059450332 146:0.053314179 147:0.051019523 148:0.062633745 149:0.077877738 150:0.076621756 151:0.064393446 152:0.050311383 153:0.072095312 154:0.058816131 155:0.064911745 156:0.055149395 157:0.061518531 158:0.069241494 159:0.065833598 160:0.064491898 161:0.062300231 162:0.059138488 163:0.053214166 164:0.058611229 165:0.074179403 166:0.064317867 167:0.0588875 168:0.056086358 169:0.067788623 170:0.059882686 171:0.054877758 172:0.058606368 173:0.057531834 174:0.073585302 175:0.077647597 176:0.062439583 177:0.062210809 178:0.061682533 179:0.061616413 180:0.058882523 181:0.076765306 182:0.063968353 183:0.055428438 184:0.058985785 185:0.068099812 186:0.066193275 187:0.056246471 188:0.060190782 189:0.06125338 190:0.069520243 191:0.080777921 192:0.073753297 193:0.062276248 194:0.064716756 195:0.064753652 196:0.069723479 197:0.066023201 198:0.068382904 199:0.065914489 200:0.072764091 201:0.068019934 202:0.066694073 203:0.067694783 204:0.057270486 205:0.062479109 206:0.075187065 207:0.080455743 208:0.070569418 209:0.057649344 210:0.067156866 211:0.059073713 212:0.066726036 213:0.062766418 214:0.071457066 215:0.063744366 216:0.06076239 217:0.065417223 218:0.075431511 219:0.059098747 220:0.046226107 221:0.058451902 222:0.070291631 223:0.075264707 224:0.066384107 225:0.054218292 226:0.063192204 227:0.054308236 228:0.06287691 229:0.061200939 230:0.076227307 231:0.061047375 232:0.052992489 233:0.067572713 234:0.085067257 235:0.056734253 236:0.04645066 237:0.062719695 238:0.070151538 239:0.080256596 240:0.070783079 241:0.055400375 242:0.067607477 243:0.059850488 244:0.066992171 245:0.065667041 246:0.080159999 247:0.067299835 248:0.055731319 249:0.075725175 250:0.092125438 251:0.060657259 252:0.045682304 253:0.067748308 254:0.069003589 255:0.069877297 256:0.065746605 257:0.033429503 258:0.045681488 259:0.054047946 260:0.052555576 261:0.087060809 262:0.076025568 263:0.063317724 264:0.04737325 265:0.077579439 266:0.061568055 267:0.064926095 268:0.051618639 269:0.060275733 270:0.057291236 271:0.06168576 272:0.063869819 273:0.040816225 274:0.039833281 275:0.043226425 276:0.050730251 277:0.069203533 278:0.073422953 279:0.06404078 280:0.042363845 281:0.061459698 282:0.042320363 283:0.059014216 284:0.063443482 285:0.055816047 286:0.066628426 287:0.057397943 288:0.069914207 289:0.048374768 290:0.053849969 291:0.050898284 292:0.046057124 293:0.060540464 294:0.054549892 295:0.063092597 296:0.054964937 297:0.060751028 298:0.047753125 299:0.052396998 300:0.067530386 301:0.04830692 302:0.066015869 303:0.062747546 304:0.058234494 305:0.047153428 306:0.051946789 307:0.066900551 308:0.050966796 309:0.065672308 310:0.057651576 311:0.058375437 312:0.063303098 313:0.055665269 314:0.064799704 315:0.051967204 316:0.064147808 317:0.048257347 318:0.066635773 319:0.059982449 320:0.060320698 321:0.05491386 322:0.051944524 323:0.07401859 324:0.063198313 325:0.060732905 326:0.061796803 327:0.068445213 328:0.067309193 329:0.062351979 330:0.061877917 331:0.070068337 332:0.059669845 333:0.047658809 334:0.070550621 335:0.065164082 336:0.057682786 337:0.043744829 338:0.059663437 339:0.064415842 340:0.061415449 341:0.061156381 342:0.058903303 343:0.054099645 344:0.049504101 345:0.064943716 346:0.058828656 347:0.051544525 348:0.042161789 349:0.046020448 350:0.0627167 351:0.075788483 352:0.059064578 353:0.042410638 354:0.055840656 355:0.065067992 356:0.064886384 357:0.060932528 358:0.06457559 359:0.058073048 360:0.050094835 361:0.065290377 362:0.066601627 363:0.061122902 364:0.045435384 365:0.051623698 366:0.051160317 367:0.089790985 368:0.065202117 369:0.035077136 370:0.057104528 371:0.054971192 372:0.064711668 373:0.069411226 374:0.074572623 375:0.058139145 376:0.056231435 377:0.078191772 378:0.077668831 379:0.06104121 380:0.04929411 381:0.059214815 382:0.050756197 383:0.059796922 384:0.064580776 385:0.03192158 386:0.046179093 387:0.058716897 388:0.057330217 389:0.064444833 390:0.05889735 391:0.087172396 392:0.05178085 393:0.063865557 394:0.060206428 395:0.088530757 396:0.056945212 397:0.032757681 398:0.053202186 399:0.0601306 400:0.05654081 401:0.034502909 402:0.046722513 403:0.044466868 404:0.034603801 405:0.04761117 406:0.072027728 407:0.063288465 408:0.04138983 409:0.056698553 410:0.028937198 411:0.065981895 412:0.073721401 413:0.040464226 414:0.056066837 415:0.04890395 416:0.069011018 417:0.039885983 418:0.060559571 419:0.051339138 420:0.046515349 421:0.049427893 422:0.038978826 423:0.052718405 424:0.051112808 425:0.053265233 426:0.040253706 427:0.042890768 428:0.060624339 429:0.044191472 430:0.055938642 431:0.054353047 432:0.061756864 433:0.057313532 434:0.055663683 435:0.073820248 436:0.055124611 437:0.047051217 438:0.036302868 439:0.061883718 440:0.060329314 441:0.054518413 442:0.051484507 443:0.041859947 444:0.058585405 445:0.041778669 446:0.086650968 447:0.056127012 448:0.07380756 449:0.067506276 450:0.046181068 451:0.066850841 452:0.073796332 453:0.046026189 454:0.059518207 455:0.075010538 456:0.0726142 457:0.045307532 458:0.047209259 459:0.068010598 460:0.070971914 461:0.042088959 462:0.085000418 463:0.054203432 464:0.070018865 465:0.045366995 466:0.040981762 467:0.07874126 468:0.058481093 469:0.05988162 470:0.046507075 471:0.060070068 472:0.042127192 473:0.049261305 474:0.03843445 475:0.050764937 476:0.046701621 477:0.044775832 478:0.060793556 479:0.066676587 480:0.069150455 481:0.04145043 482:0.049346462 483:0.090423696 484:0.05543806 485:0.050304022 486:0.036323421 487:0.072705105 488:0.044899441 489:0.054014362 490:0.052728396 491:0.075981319 492:0.053825069 493:0.063596994 494:0.043973058 495:0.079456396 496:0.066804789 497:0.026855869 498:0.035542231 499:0.059459329 500:0.050078064 501:0.053446781 502:0.04400656 503:0.064294524 504:0.047292713 505:0.057784613 506:0.071846396 507:0.077178895 508:0.052133206 509:0.051129002 510:0.03999773 511:0.063219585 
0 5.759418933814436 0 0 0 0 1.025394651280125 0 0 0 0 0 0 0 0 0 0 0 0:0.086185411 1:0.098698132 2:0.096379839 3:0.10347807 4:0.076608442 5:0.092999533 6:0.097013488 7:0.10133919 8:0.081723027 9:0.088180393 10:0.099936806 11:0.099275947 12:0.015209337 13:0.050029006 14:0.068558082 15:0.090053208 16:0.08485309 17:0.099729866 18:0.10425342 19:0.10331275 20:0.075594731 21:0.097030461 22:0.096168861 23:0.098097809 24:0.079398803 25:0.092532791 26:0.098158106 27:0.096106902 28:0.013697417 29:0.0462492 30:0.064924717 31:0.089695178 32:0.087501295 33:0.10307113 34:0.11062035 35:0.10176405 36:0.077346273 37:0.10023965 38:0.099723823 39:0.10297447 40:0.076921061 41:0.095629022 42:0.098690517 43:0.097769663 44:0.012754348 45:0.042554546 46:0.06849502 47:0.090703517 48:0.085698552 49:0.10358825 50:0.11073425 51:0.099246338 52:0.074790604 53:0.09669207 54:0.10148562 55:0.1021364 56:0.080587655 57:0.097781964 58:0.10962044 59:0.097915709 60:0.015062143 61:0.045263059 62:0.071677811 63:0.095301002 64:0.081347272 65:0.10263394 66:0.10591415 67:0.10295496 68:0.076026641 69:0.099823646 70:0.097507812 71:0.10239357 72:0.085483745 73:0.092234105 74:0.10784154 75:0.10008067 76:0.019269658 77:0.048932102 78:0.075793304 79:0.097391725 80:0.080958255 81:0.098967053 82:0.10183164 83:0.10210919 84:0.080348946 85:0.09522444 86:0.096599966 87:0.095670097 88:0.085312635 89:0.092397138 90:0.10437348 91:0.09819366 92:0.016632183 93:0.046991963 94:0.070087686 95:0.1097131 96:0.079429708 97:0.097942285 98:0.098816827 99:0.098522455 100:0.078812994 101:0.09487097 102:0.090364397 103:0.093113966 104:0.086815707 105:0.092693098 106:0.098149091 107:0.099754892 108:0.014027041 109:0.051097263 110:0.068592101 111:0.11129105 112:0.083378434 113:0.099921376 114:0.091898091 115:0.097003877 116:0.079827622 117:0.090248466 118:0.09681762 119:0.096600063 120:0.086153202 121:0.094298527 122:0.095581196 123:0.098222457 124:0.014384186 125:0.050771624 126:0.067778088 127:0.094856799 128:0.071488656 129:0.088417836 130:0.09303847 131:0.089136198 132:0.06852413 133:0.074365437 134:0.08045654 135:0.077455521 136:0.063965723 137:0.078223124 138:0.076059885 139:0.084090538 140:0.013140367 141:0.044371922 142:0.064983815 143:0.065567128 144:0.06494388 145:0.081632987 146:0.092383616 147:0.087603062 148:0.07282833 149:0.071767844 150:0.08052367 151:0.083358578 152:0.06167727 153:0.085514933 154:0.071406379 155:0.074884221 156:0.011521608 157:0.035311807 158:0.062447362 159:0.065081805 160:0.065752253 161:0.07770922 162:0.090625875 163:0.079183258 164:0.059989091 165:0.079856731 166:0.072876655 167:0.081973463 168:0.06292592 169:0.072204731 170:0.079382487 171:0.076246753 172:0.011389902 173:0.031939145 174:0.061490864 175:0.065731712 176:0.063561983 177:0.07613571 178:0.086931609 179:0.076625153 180:0.061039485 181:0.081142411 182:0.079859689 183:0.086444758 184:0.069524445 185:0.074938521 186:0.084907018 187:0.075030848 188:0.013725463 189:0.033295047 190:0.054285198 191:0.070756614 192:0.06216618 193:0.084995069 194:0.084676586 195:0.078901023 196:0.05980457 197:0.081528172 198:0.072671987 199:0.088131331 200:0.073155023 201:0.070677578 202:0.08451625 203:0.079979397 204:0.021054709 205:0.039137818 206:0.060568262 207:0.077458538 208:0.055996172 209:0.080046281 210:0.089845955 211:0.086255141 212:0.058142018 213:0.083172411 214:0.071485899 215:0.077529877 216:0.071301252 217:0.074858934 218:0.074565619 219:0.081899092 220:0.014699935 221:0.0407371 222:0.054510545 223:0.083932348 224:0.055026267 225:0.079455219 226:0.080934756 227:0.074645966 228:0.067259565 229:0.085788406 230:0.075972915 231:0.073247738 232:0.072128125 233:0.078770287 234:0.082371071 235:0.080061384 236:0.013030607 237:0.046319783 238:0.05785048 239:0.082118154 240:0.061304975 241:0.084119096 242:0.081719033 243:0.086047553 244:0.069757208 245:0.076825239 246:0.070283957 247:0.07982339 248:0.072815016 249:0.085401006 250:0.078844301 251:0.079699829 252:0.014299846 253:0.043675646 254:0.063215367 255:0.073280953 256:0.055776376 257:0.082822263 258:0.068842217 259:0.082323655 260:0.068396963 261:0.080018885 262:0.066528641 263:0.067610368 264:0.058818486 265:0.073638096 266:0.067043886 267:0.069533654 268:0.017510833 269:0.044422433 270:0.063976288 271:0.061492454 272:0.062511623 273:0.077983424 274:0.071006112 275:0.072727144 276:0.0654618 277:0.0726161 278:0.063551366 279:0.067414813 280:0.055011235 281:0.083676338 282:0.061747354 283:0.070050634 284:0.015518949 285:0.033060916 286:0.058871675 287:0.063397221 288:0.059954058 289:0.072391734 290:0.07310313 291:0.06212344 292:0.046532713 293:0.071366474 294:0.055345152 295:0.061881881 296:0.058209013 297:0.062897652 298:0.07025221 299:0.072606519 300:0.012928238 301:0.027767496 302:0.053641137 303:0.064234167 304:0.047322497 305:0.054308292 306:0.066558614 307:0.064858481 308:0.047612254 309:0.074707709 310:0.067536071 311:0.07452032 312:0.064907409 313:0.072921775 314:0.069949433 315:0.077414155 316:0.017084671 317:0.03010124 318:0.039872963 319:0.0715186 320:0.05830415 321:0.06157333 322:0.083409704 323:0.074855156 324:0.062012207 325:0.067065969 326:0.069040917 327:0.08192198 328:0.071336925 329:0.065479405 330:0.066107117 331:0.062136229 332:0.026228799 333:0.029023452 334:0.043187872 335:0.066911489 336:0.051222865 337:0.056516904 338:0.10583119 339:0.071581572 340:0.058267254 341:0.082494587 342:0.067945927 343:0.069090813 344:0.068048947 345:0.063297331 346:0.073234297 347:0.060042977 348:0.018392308 349:0.035619378 350:0.054174118 351:0.073345669 352:0.053834226 353:0.070096441 354:0.077677123 355:0.060893998 356:0.064878985 357:0.083179586 358:0.086808212 359:0.06498298 360:0.065012157 361:0.064181864 362:0.071639277 363:0.069270656 364:0.014693558 365:0.041883547 366:0.058823872 367:0.070866846 368:0.051499926 369:0.078508206 370:0.078721367 371:0.080019996 372:0.062733941 373:0.074787676 374:0.076998442 375:0.057826411 376:0.069505081 377:0.065101206 378:0.070051707 379:0.064579614 380:0.015071884 381:0.035506867 382:0.064953536 383:0.062960528 384:0.050415542 385:0.077669196 386:0.073754437 387:0.077173382 388:0.070262328 389:0.084706567 390:0.099148802 391:0.065314628 392:0.047375992 393:0.053426921 394:0.065460235 395:0.056279492 396:0.024096342 397:0.064991742 398:0.083752356 399:0.048812281 400:0.052211128 401:0.054579392 402:0.057224981 403:0.07763233 404:0.070133403 405:0.063822486 406:0.054503683 407:0.066217013 408:0.053566758 409:0.055514574 410:0.066380836 411:0.070609361 412:0.020682301 413:0.044787675 414:0.056881413 415:0.0614256 416:0.045153573 417:0.045739058 418:0.057686675 419:0.073480293 420:0.040207177 421:0.061845973 422:0.04626203 423:0.046510063 424:0.059421007 425:0.071953103 426:0.07077726 427:0.077788495 428:0.0179404 429:0.029419152 430:0.048345439 431:0.065845937 432:0.05222347 433:0.03944863 434:0.051068325 435:0.079648465 436:0.036972538 437:0.071736254 438:0.075191356 439:0.082639851 440:0.062216219 441:0.072177157 442:0.045024555 443:0.073672831 444:0.023171037 445:0.035548002 446:0.054491978 447:0.06130844 448:0.047413241 449:0.051363286 450:0.056957886 451:0.061998475 452:0.054726277 453:0.079599865 454:0.069567718 455:0.12675013 456:0.062637396 457:0.056152202 458:0.060999982 459:0.071500778 460:0.034198541 461:0.034516685 462:0.044265345 463:0.045745276 464:0.046935122 465:0.052425407 466:0.088376589 467:0.050401118 468:0.051894885 469:0.081723467 470:0.06691736 471:0.066968232 472:0.055886306 473:0.06837485 474:0.079058319 475:0.064117558 476:0.023385758 477:0.032934241 478:0.048277367 479:0.053494144 480:0.06183818 481:0.077213652 482:0.089965306 483:0.067791738 484:0.049999408 485:0.076497443 486:0.0680314 487:0.0570633 488:0.057439867 489:0.059010446 490:0.057384443 491:0.046471402 492:0.019769831 493:0.045257766 494:0.053777471 495:0.076795399 496:0.055280693 497:0.076989062 498:0.065947115 499:0.079828732 500:0.05672615 501:0.068850361 502:0.09254723 503:0.051186677 504:0.059176151 505:0.058557622 506:0.066015474 507:0.05144107 508:0.01965878 509:0.046640053 510:0.074110873 511:0.064800523 
14.67206318783332 22.17320222965161 0 15.60376740361104 1.447345617526028 10.70209427457198 4.865934250921863 0 7.723425672975772 0 18.0531162455958 4.062514933407116 3.038848468088303 13.96631519368447 10.6482446592233 4.859222034661614 4.275756810034156 9.425109343359736 0:0.091128841 1:0.11218741 2:0.11344984 3:0.10072027 4:0.11479966 5:0.11122591 6:0.10878219 7:0.11415596 8:0.10273591 9:0.10385311 10:0.11297713 11:0.11485355 12:0.047898784 13:0.084465481 14:0.092422359 15:0.096124358 16:0.095210887 17:0.11391647 18:0.11194167 19:0.094904587 20:0.11277288 21:0.10887645 22:0.109506 23:0.11543853 24:0.10128035 25:0.10158999 26:0.10758575 27:0.10395674 28:0.044232525 29:0.090248063 30:0.094724774 31:0.086171307 32:0.092562072 33:0.10852303 34:0.11055638 35:0.096172273 36:0.10274807 37:0.10877854 38:0.10960595 39:0.10653226 40:0.10173523 41:0.094615661 42:0.1035006 43:0.10080826 44:0.042823311 45:0.084558569 46:0.094208665 47:0.09020067 48:0.088487528 49:0.11091292 50:0.10559204 51:0.097122185 52:0.0995773 53:0.11177059 54:0.10197631 55:0.1071106 56:0.09951473 57:0.10125112 58:0.10086776 59:0.098437056 60:0.042410702 61:0.086700134 62:0.093877196 63:0.091548972 64:0.092477292 65:0.10500085 66:0.10129248 67:0.096489616 68:0.10383888 69:0.10277697 70:0.10255384 71:0.103934 72:0.094736464 73:0.099384055 74:0.10345812 75:0.098491259 76:0.045386262 77:0.084800862 78:0.1067818 79:0.092429429 80:0.094254501 81:0.10460093 82:0.10312184 83:0.092700005 84:0.105749 85:0.10796925 86:0.10145351 87:0.096715048 88:0.096763492 89:0.097856782 90:0.10121529 91:0.099509813 92:0.044331942 93:0.089756802 94:0.095503964 95:0.088224545 96:0.090456694 97:0.10736202 98:0.1045483 99:0.093670018 100:0.10726963 101:0.10826607 102:0.10463575 103:0.09669321 104:0.10179552 105:0.10222249 106:0.10732773 107:0.10426302 108:0.046181086 109:0.087142937 110:0.091934241 111:0.08575888 112:0.09115918 113:0.10995361 114:0.10473628 115:0.094594762 116:0.1089154 117:0.11065082 118:0.11075758 119:0.10286758 120:0.10049726 121:0.10483142 122:0.10607829 123:0.11401859 124:0.043879122 125:0.080634311 126:0.091996901 127:0.092439584 128:0.067031212 129:0.074795485 130:0.073869467 131:0.07490243 132:0.07932353 133:0.078265049 134:0.07287506 135:0.082453199 136:0.077212736 137:0.075929798 138:0.08074718 139:0.090745144 140:0.045503668 141:0.066045024 142:0.067513429 143:0.067499101 144:0.072758406 145:0.080537975 146:0.073138356 147:0.071444526 148:0.080326125 149:0.075257577 150:0.073344059 151:0.081956856 152:0.075354494 153:0.072281353 154:0.080498107 155:0.082479224 156:0.040037617 157:0.068486415 158:0.06909626 159:0.06711825 160:0.076223373 161:0.080240339 162:0.076883644 163:0.073180988 164:0.075320572 165:0.082130939 166:0.07773795 167:0.080064774 168:0.076692849 169:0.074812792 170:0.085363835 171:0.078275442 172:0.039062731 173:0.065247089 174:0.067710154 175:0.072868794 176:0.075056255 177:0.083142214 178:0.072270155 179:0.083934799 180:0.081984527 181:0.083939373 182:0.07601063 183:0.08005286 184:0.078515999 185:0.083514728 186:0.080177873 187:0.081069998 188:0.038821455 189:0.064597227 190:0.080254503 191:0.079579413 192:0.078072414 193:0.083442934 194:0.072022319 195:0.09092658 196:0.083683752 197:0.079249755 198:0.080807224 199:0.077815309 200:0.077057101 201:0.077777363 202:0.087828457 203:0.085288256 204:0.043392316 205:0.061784357 206:0.093298763 207:0.078589156 208:0.072473131 209:0.0849474 210:0.077968806 211:0.085964561 212:0.083758086 213:0.08359015 214:0.075198933 215:0.08184167 216:0.06907171 217:0.068557166 218:0.087402932 219:0.086530536 220:0.046003859 221:0.060968269 222:0.075587906 223:0.069772497 224:0.072322145 225:0.078257523 226:0.081805043 227:0.078750163 228:0.076795243 229:0.07727202 230:0.077754952 231:0.07684949 232:0.074837871 233:0.070387073 234:0.079365373 235:0.088595644 236:0.053018138 237:0.060485777 238:0.071731098 239:0.067581415 240:0.066691212 241:0.073876582 242:0.080569379 243:0.08004234 244:0.072039947 245:0.07543315 246:0.080969401 247:0.078993917 248:0.078776956 249:0.0728807 250:0.080370508 251:0.084893785 252:0.045185186 253:0.057666391 254:0.069980957 255:0.067545421 256:0.059774425 257:0.057365034 258:0.053145561 259:0.072535321 260:0.076870427 261:0.060929153 262:0.064700693 263:0.064990282 264:0.071330629 265:0.066380203 266:0.072128065 267:0.067834444 268:0.046675339 269:0.057885878 270:0.052881304 271:0.054963667 272:0.05470103 273:0.066240266 274:0.06082312 275:0.066021122 276:0.077605918 277:0.053079825 278:0.061915021 279:0.066787019 280:0.055431459 281:0.063472107 282:0.079866566 283:0.06929899 284:0.039384048 285:0.066686668 286:0.062450789 287:0.055262312 288:0.070798703 289:0.072520114 290:0.070108794 291:0.064322442 292:0.083818942 293:0.074023597 294:0.06588883 295:0.070035048 296:0.061775465 297:0.068535514 298:0.078422099 299:0.080938227 300:0.034456652 301:0.061735637 302:0.065832548 303:0.057607286 304:0.079645529 305:0.066081896 306:0.056067996 307:0.081681289 308:0.07419847 309:0.07072252 310:0.072850339 311:0.070416942 312:0.055516973 313:0.068914056 314:0.068982296 315:0.073362015 316:0.034865722 317:0.053816464 318:0.067391865 319:0.059779376 320:0.068833239 321:0.064954408 322:0.068362147 323:0.089083038 324:0.063561045 325:0.062422965 326:0.075720102 327:0.06600596 328:0.062219452 329:0.059388664 330:0.077489808 331:0.072082661 332:0.054735947 333:0.043241683 334:0.082436688 335:0.077071123 336:0.056027476 337:0.073745251 338:0.070651308 339:0.094513513 340:0.052341107 341:0.075562082 342:0.072260253 343:0.071833283 344:0.062820569 345:0.049084034 346:0.064992331 347:0.083109379 348:0.051841188 349:0.04856113 350:0.076958448 351:0.07273598 352:0.057463117 353:0.068905622 354:0.072778471 355:0.080310263 356:0.049130287 357:0.070647478 358:0.064308159 359:0.067609198 360:0.065293789 361:0.049572509 362:0.057746861 363:0.073456652 364:0.05573513 365:0.046122514 366:0.06673231 367:0.060700536 368:0.052911811 369:0.058394197 370:0.072049275 371:0.081392311 372:0.057683762 373:0.059783418 374:0.073272511 375:0.06946703 376:0.076297745 377:0.058338542 378:0.073323332 379:0.064805962 380:0.049400784 381:0.051188383 382:0.062957197 383:0.058889255 384:0.076629393 385:0.060276423 386:0.052145965 387:0.09038619 388:0.055879042 389:0.050958507 390:0.048532471 391:0.069026522 392:0.072549291 393:0.071213089 394:0.062503643 395:0.059234485 396:0.056985497 397:0.04496789 398:0.054973364 399:0.055336457 400:0.056481525 401:0.071173504 402:0.05908053 403:0.085881688 404:0.057512149 405:0.044061594 406:0.064922191 407:0.066385709 408:0.052310139 409:0.055628572 410:0.071978368 411:0.066805065 412:0.047160365 413:0.0402334 414:0.048436437 415:0.059789602 416:0.071358107 417:0.06208951 418:0.05916708 419:0.069600984 420:0.086343788 421:0.063405842 422:0.070094571 423:0.075276479 424:0.043465283 425:0.065956198 426:0.061632663 427:0.067228943 428:0.037723992 429:0.047463272 430:0.047363225 431:0.054474629 432:0.075888366 433:0.049020138 434:0.043661337 435:0.093188681 436:0.076599315 437:0.068716742 438:0.06099195 439:0.059306141 440:0.043554258 441:0.072106093 442:0.06895043 443:0.069880649 444:0.041219633 445:0.049753398 446:0.046782158 447:0.050979279 448:0.059841271 449:0.049414493 450:0.059260584 451:0.087510109 452:0.052925177 453:0.06912481 454:0.079859078 455:0.059323803 456:0.038142771 457:0.042986285 458:0.078432463 459:0.076556548 460:0.047267664 461:0.039745141 462:0.043477084 463:0.061109494 464:0.051697165 465:0.051579814 466:0.067329817 467:0.075468227 468:0.043148488 469:0.07638935 470:0.069716007 471:0.045348696 472:0.052676 473:0.04252227 474:0.050623689 475:0.069882743 476:0.039675694 477:0.046155952 478:0.065418571 479:0.057391785 480:0.042223331 481:0.057696659 482:0.080010548 483:0.055195015 484:0.03529682 485:0.055127945 486:0.062426712 487:0.048571926 488:0.050821863 489:0.043663524 490:0.04236187 491:0.061590791 492:0.049045652 493:0.035472013 494:0.05363242 495:0.048322871 496:0.061870951 497:0.057239648 498:0.074817337 499:0.090570226 500:0.039238971 501:0.043966476 502:0.057284974 503:0.053329773 504:0.064755552 505:0.058714546 506:0.065303408 507:0.05609484 508:0.056527447 509:0.047067214 510:0.076425649 511:0.054931395 
5.197549986204162 10.25607553225209 2.062202095581751 1.076751416383659 5.454657527250829 2.197886669816663 0 4.660480242116792 2.133565992637326 0 4.298692857763792 0 14.28021167647152 2.065618063931106 11.30820942485019 0 13.88846260359285 7.577161054311878 0:0.0072011892 1:0.05933528 2:0.072329856 3:0.084440932 4:0.075206161 5:0.089484319 6:0.081322804 7:0.090152211 8:0.078437716 9:0.094951555 10:0.08411482 11:0.096522346 12:0.021276224 13:0.054381803 14:0.078289568 15:0.088809267 16:0.0063583092 17:0.061262779 18:0.072704084 19:0.089147054 20:0.086838782 21:0.093617886 22:0.086438991 23:0.092255905 24:0.078811221 25:0.09626741 26:0.086492792 27:0.10108276 28:0.018237181 29:0.057510715 30:0.079764746 31:0.091718189 32:0.0060697584 33:0.064599223 34:0.081190079 35:0.090005711 36:0.091485545 37:0.10372514 38:0.090617545 39:0.099370889 40:0.089430541 41:0.11097046 42:0.097221449 43:0.10212304 44:0.017324682 45:0.059630908 46:0.083388478 47:0.10097846 48:0.008374799 49:0.061169744 50:0.077410825 51:0.090046845 52:0.079003051 53:0.098830782 54:0.08309333 55:0.091107249 56:0.086059257 57:0.10060311 58:0.090985365 59:0.094513848 60:0.020703487 61:0.053865101 62:0.082057811 63:0.087200984 64:0.010744712 65:0.059959177 66:0.072110079 67:0.087787285 68:0.07260336 69:0.090822317 70:0.086463764 71:0.084767491 72:0.081903845 73:0.089845106 74:0.086568043 75:0.088818103 76:0.024559405 77:0.054896757 78:0.080408543 79:0.081372097 80:0.0086334916 81:0.063413784 82:0.074399501 83:0.094219834 84:0.076124161 85:0.092075728 86:0.094741382 87:0.090724319 88:0.083602041 89:0.096211679 90:0.090186112 91:0.091710769 92:0.023555959 93:0.059129748 94:0.084897757 95:0.090349056 96:0.0068695019 97:0.065033227 98:0.08692991 99:0.096302584 100:0.083153732 101:0.098496437 102:0.092077434 103:0.092202492 104:0.088620476 105:0.10253851 106:0.09826526 107:0.095973603 108:0.020774605 109:0.056609921 110:0.084467053 111:0.093024641 112:0.006555737 113:0.059109893 114:0.07906457 115:0.087526031 116:0.07903596 117:0.088594332 118:0.084686399 119:0.092608266 120:0.08106973 121:0.10176785 122:0.091468684 123:0.094084911 124:0.020625023 125:0.05187922 126:0.083949432 127:0.090127297 128:0.0093556931 129:0.06670852 130:0.090568684 131:0.085693963 132:0.081233464 133:0.094635777 134:0.089192748 135:0.097880498 136:0.09344624 137:0.10043708 138:0.096870616 139:0.10898844 140:0.026750904 141:0.062705532 142:0.079794087 143:0.093674198 144:0.0095815491 145:0.062916212 146:0.08660797 147:0.091052659 148:0.098189637 149:0.097876087 150:0.089054905 151:0.10030764 152:0.084730819 153:0.09724962 154:0.095830955 155:0.11436645 156:0.021590799 157:0.061809789 158:0.076432802 159:0.098693743 160:0.0098153614 161:0.063263513 162:0.084868997 163:0.10144249 164:0.10027782 165:0.095379308 166:0.099285528 167:0.095320098 168:0.086653337 169:0.10703275 170:0.1077202 171:0.11238685 172:0.019818781 173:0.064871609 174:0.090563722 175:0.10805742 176:0.011590829 177:0.065810263 178:0.084558368 179:0.096189342 180:0.085259996 181:0.10236921 182:0.09518858 183:0.090408325 184:0.086110882 185:0.10248962 186:0.10568604 187:0.099666238 188:0.024236875 189:0.059736978 190:0.09135589 191:0.099512279 192:0.014560898 193:0.066441968 194:0.082363017 195:0.092110865 196:0.088925771 197:0.10175703 198:0.099100761 199:0.096132927 200:0.093662888 201:0.09590295 202:0.099312693 203:0.095113374 204:0.031575553 205:0.06431938 206:0.088932186 207:0.097066455 208:0.0108829 209:0.066383511 210:0.088290997 211:0.096660882 212:0.077477254 213:0.094862655 214:0.10603467 215:0.10910927 216:0.09229733 217:0.090314463 218:0.10435881 219:0.10264152 220:0.031315789 221:0.071257703 222:0.091795817 223:0.094039187 224:0.0088364091 225:0.072168164 226:0.087848254 227:0.0948845 228:0.093138978 229:0.092486978 230:0.10002682 231:0.09775354 232:0.096822761 233:0.098530501 234:0.10357401 235:0.099872805 236:0.029148776 237:0.061736297 238:0.091089174 239:0.084212817 240:0.0080708684 241:0.065839939 242:0.091194257 243:0.093884818 244:0.087574825 245:0.09546876 246:0.085609183 247:0.088148221 248:0.091914043 249:0.11642936 250:0.094420575 251:0.10103737 252:0.025393855 253:0.057076398 254:0.089108646 255:0.095578022 256:0.013785143 257:0.061131515 258:0.10379155 259:0.079662248 260:0.08538226 261:0.10726685 262:0.096754521 263:0.099541202 264:0.086420603 265:0.094218597 266:0.092888154 267:0.093965158 268:0.027449287 269:0.062819473 270:0.080865592 271:0.088817887 272:0.013325617 273:0.061859034 274:0.10068072 275:0.090468951 276:0.088704705 277:0.10570905 278:0.10059844 279:0.095090538 280:0.076255634 281:0.097730361 282:0.11736727 283:0.10289921 284:0.02326059 285:0.053032737 286:0.088129647 287:0.11918257 288:0.013395604 289:0.06197777 290:0.091502234 291:0.097595759 292:0.10664629 293:0.082859226 294:0.095861599 295:0.08533363 296:0.078742392 297:0.12125248 298:0.10611823 299:0.096956715 300:0.021923814 301:0.050119516 302:0.098387226 303:0.1060812 304:0.015049925 305:0.066763937 306:0.089224242 307:0.10546165 308:0.086513482 309:0.094295233 310:0.093062602 311:0.076633207 312:0.077768281 313:0.10498919 314:0.11648878 315:0.081143744 316:0.021210972 317:0.047340523 318:0.09858723 319:0.10331066 320:0.022795506 321:0.077455148 322:0.073399626 323:0.09603779 324:0.093649097 325:0.094684035 326:0.11127041 327:0.082197703 328:0.082020655 329:0.091642037 330:0.1020276 331:0.079353631 332:0.036511723 333:0.058358964 334:0.089917883 335:0.093014121 336:0.014556171 337:0.069352716 338:0.081662513 339:0.08966554 340:0.081904188 341:0.090151563 342:0.11707406 343:0.090266973 344:0.092467487 345:0.10549867 346:0.083236061 347:0.093042903 348:0.034496937 349:0.072231419 350:0.084031388 351:0.093083262 352:0.012319256 353:0.063258611 354:0.10505948 355:0.086833008 356:0.099262848 357:0.10736733 358:0.10906866 359:0.095813364 360:0.089458682 361:0.10264349 362:0.089958139 363:0.099747978 364:0.034715209 365:0.062459044 366:0.074972339 367:0.092373326 368:0.013187055 369:0.051370315 370:0.10929357 371:0.086212017 372:0.099629685 373:0.10724889 374:0.095702119 375:0.086473882 376:0.073165134 377:0.096519589 378:0.087823622 379:0.082991272 380:0.032346249 381:0.063011669 382:0.080050118 383:0.10074243 384:0.019272026 385:0.065571025 386:0.092540085 387:0.047918081 388:0.082433224 389:0.09196952 390:0.056638028 391:0.11050884 392:0.06423603 393:0.09676601 394:0.086526267 395:0.099119507 396:0.027455298 397:0.06370157 398:0.087793142 399:0.069782101 400:0.018733861 401:0.053896382 402:0.09573257 403:0.080506295 404:0.096614793 405:0.11329377 406:0.067580178 407:0.096729815 408:0.062733613 409:0.071027286 410:0.075777479 411:0.08225774 412:0.031342939 413:0.064414829 414:0.071734987 415:0.088271312 416:0.011449616 417:0.051884342 418:0.074656665 419:0.081400573 420:0.094188489 421:0.087824434 422:0.088777371 423:0.071730241 424:0.059617884 425:0.07094422 426:0.077799909 427:0.070789613 428:0.025044354 429:0.051680151 430:0.067379087 431:0.077499263 432:0.021167397 433:0.059703935 434:0.094617374 435:0.088794343 436:0.075937033 437:0.066836342 438:0.098058768 439:0.062989034 440:0.074116081 441:0.096952267 442:0.10088803 443:0.05996481 444:0.032090042 445:0.050296269 446:0.072671287 447:0.081863284 448:0.039751805 449:0.073071793 450:0.065414876 451:0.088472426 452:0.098489381 453:0.087107129 454:0.12511252 455:0.063129842 456:0.09448836 457:0.10047343 458:0.097485453 459:0.0754897 460:0.047492158 461:0.065696575 462:0.07531926 463:0.072125204 464:0.026664129 465:0.094825678 466:0.067307502 467:0.079149328 468:0.086857453 469:0.093082942 470:0.12720132 471:0.089906506 472:0.10523654 473:0.10545338 474:0.079365015 475:0.099851169 476:0.036810976 477:0.077425875 478:0.080413401 479:0.067168839 480:0.021190053 481:0.081098787 482:0.096899711 483:0.096334815 484:0.09798938 485:0.13354647 486:0.10441329 487:0.11098785 488:0.095076121 489:0.11159696 490:0.074930854 491:0.091159567 492:0.042571176 493:0.065407157 494:0.060350437 495:0.086118594 496:0.017221993 497:0.054739237 498:0.095988527 499:0.06288968 500:0.082906798 501:0.10864267 502:0.078114405 503:0.083215997 504:0.064047895 505:0.10365847 506:0.10978194 507:0.095663048 508:0.037281871 509:0.068231568 510:0.080215827 511:0.084357463 
12.79054823846549 5.757932430172416 5.05229859441765 8.261066053200207 10.2675255435927 12.4229307857683 4.979238171811482 7.177550974073247 9.172615068497903 7.425934386170926 7.181378728437607 0 8.230770488771 10.79627456966565 10.13088896569296 14.46836291405913 5.522418628454589 0 0:0.055786423 1:0.088512115 2:0.090671599 3:0.089199901 4:0.09533339 5:0.097303413 6:0.09219747 7:0.089486763 8:0.090863325 9:0.1004553 10:0.085788317 11:0.096147463 12:0.050351545 13:0.080723129 14:0.070115618 15:0.085310131 16:0.057397913 17:0.089279585 18:0.095549338 19:0.086205974 20:0.090853535 21:0.10108586 22:0.091363817 23:0.087233521 24:0.093022197 25:0.091041423 26:0.086392343 27:0.09785118 28:0.047001012 29:0.084230684 30:0.064475946 31:0.083281375 32:0.05645135 33:0.086059608 34:0.089528754 35:0.080437705 36:0.090369925 37:0.10169733 38:0.090875283 39:0.083662793 40:0.097978055 41:0.097952433 42:0.093647048 43:0.092906676 44:0.050912764 45:0.097552873 46:0.069045335 47:0.083260879 48:0.055480812 49:0.10161875 50:0.093368687 51:0.087593466 52:0.090940259 53:0.10470397 54:0.09592817 55:0.087452255 56:0.1047984 57:0.10493685 58:0.096992746 59:0.094065465 60:0.051979028 61:0.090659618 62:0.069242239 63:0.085205868 64:0.058811601 65:0.10446667 66:0.096003309 67:0.090417728 68:0.098523356 69:0.10024171 70:0.097351484 71:0.090533778 72:0.10543708 73:0.11206232 74:0.09915036 75:0.095770739 76:0.053709559 77:0.09581136 78:0.069062941 79:0.087983124 80:0.063007079 81:0.10223027 82:0.099247828 83:0.089162596 84:0.099314213 85:0.098951131 86:0.094158404 87:0.086017057 88:0.10233419 89:0.1074013 90:0.093525864 91:0.093759574 92:0.047526054 93:0.090034761 94:0.068890333 95:0.084736228 96:0.053404883 97:0.093284138 98:0.097703367 99:0.09408053 100:0.098398231 101:0.094826065 102:0.099999867 103:0.086533576 104:0.1053978 105:0.095878042 106:0.092085391 107:0.095037565 108:0.043841604 109:0.088214912 110:0.07020957 111:0.083138064 112:0.055548564 113:0.087530024 114:0.091469251 115:0.08992634 116:0.096551679 117:0.094868779 118:0.097294435 119:0.087614335 120:0.09852349 121:0.099462301 122:0.092444927 123:0.09523581 124:0.04657219 125:0.082758226 126:0.07263352 127:0.088321231 128:0.039629783 129:0.071344413 130:0.073331416 131:0.071430936 132:0.069239601 133:0.083402544 134:0.080742225 135:0.064937875 136:0.076552488 137:0.072599605 138:0.069835253 139:0.078934044 140:0.04362705 141:0.065555684 142:0.05392281 143:0.066657111 144:0.040383954 145:0.062261328 146:0.071895964 147:0.061632946 148:0.062942684 149:0.07656429 150:0.081035778 151:0.061737306 152:0.078905076 153:0.076544367 154:0.072018921 155:0.079738185 156:0.041865755 157:0.06823948 158:0.0427536 159:0.059225913 160:0.045690101 161:0.063050628 162:0.065860465 163:0.060593702 164:0.073516749 165:0.077880085 166:0.082455389 167:0.061110996 168:0.083434567 169:0.093815401 170:0.082068816 171:0.070785224 172:0.046297785 173:0.06831757 174:0.045769177 175:0.062496562 176:0.045725141 177:0.070824251 178:0.076721445 179:0.064834602 180:0.072367139 181:0.077776216 182:0.082724333 183:0.063677445 184:0.089756697 185:0.093021579 186:0.086083882 187:0.074747764 188:0.045646343 189:0.076184295 190:0.052480821 191:0.064683087 192:0.049965784 193:0.080409899 194:0.080347836 195:0.066987015 196:0.089563973 197:0.088689715 198:0.081067517 199:0.067276128 200:0.086826861 201:0.096052065 202:0.086790398 203:0.075962588 204:0.047999773 205:0.081097022 206:0.053207465 207:0.066935569 208:0.051679984 209:0.078510918 210:0.071965978 211:0.065702982 212:0.086989634 213:0.086154252 214:0.077662118 215:0.06654495 216:0.079193465 217:0.093868218 218:0.075818919 219:0.082996115 220:0.040990181 221:0.080890439 222:0.053935762 223:0.065520413 224:0.044229358 225:0.06998416 226:0.078743584 227:0.064419501 228:0.075706735 229:0.081280664 230:0.079282753 231:0.068046294 232:0.084721029 233:0.075447835 234:0.074874841 235:0.084042467 236:0.038366485 237:0.075696871 238:0.054823972 239:0.064761914 240:0.040126 241:0.063948199 242:0.076007828 243:0.073183872 244:0.075409174 245:0.082376719 246:0.081634142 247:0.066958778 248:0.082620591 249:0.078460105 250:0.07455907 251:0.079109699 252:0.040787041 253:0.065883987 254:0.05471687 255:0.065989748 256:0.036122747 257:0.05850077 258:0.073668145 259:0.058569331 260:0.052300893 261:0.074231446 262:0.076761223 263:0.058380406 264:0.059981827 265:0.058880568 266:0.075300857 267:0.054198626 268:0.036873281 269:0.057250623 270:0.044082813 271:0.054821234 272:0.041314032 273:0.051272631 274:0.058172699 275:0.048282325 276:0.056963574 277:0.064381041 278:0.063306406 279:0.052522846 280:0.066004425 281:0.064032771 282:0.063632168 283:0.053701483 284:0.047539659 285:0.0676715 286:0.041623041 287:0.043675631 288:0.040226065 289:0.04247595 290:0.054450929 291:0.057683121 292:0.06493666 293:0.057350453 294:0.06305448 295:0.047077239 296:0.068457901 297:0.059953451 298:0.077309586 299:0.05971605 300:0.046737932 301:0.060453396 302:0.035508316 303:0.044531807 304:0.038686652 305:0.050221726 306:0.071332872 307:0.070704862 308:0.06955225 309:0.074440949 310:0.07880269 311:0.046331502 312:0.071695447 313:0.074857183 314:0.083924726 315:0.067428946 316:0.051595874 317:0.064649768 318:0.037775725 319:0.051077392 320:0.05404377 321:0.064153723 322:0.084307522 323:0.065921046 324:0.091082133 325:0.088039368 326:0.067987107 327:0.059957888 328:0.083779819 329:0.10724368 330:0.10104907 331:0.066394374 332:0.059886839 333:0.064959124 334:0.039811261 335:0.058326069 336:0.049224123 337:0.071246535 338:0.064378627 339:0.06334088 340:0.083762944 341:0.073917337 342:0.06250228 343:0.064153045 344:0.070135258 345:0.098349236 346:0.082480811 347:0.071640186 348:0.043524541 349:0.075903282 350:0.044444446 351:0.051191092 352:0.04323148 353:0.061838835 354:0.062357992 355:0.056324776 356:0.075769022 357:0.065631196 358:0.067603618 359:0.05511938 360:0.073612258 361:0.065494269 362:0.072679937 363:0.059712846 364:0.039295912 365:0.063587956 366:0.050071523 367:0.058037162 368:0.047922403 369:0.049481567 370:0.07228446 371:0.062513903 372:0.074487574 373:0.067357205 374:0.081463873 375:0.051672716 376:0.070406504 377:0.066398866 378:0.076853015 379:0.057305668 380:0.034219556 381:0.053109027 382:0.048927169 383:0.060844187 384:0.04376667 385:0.047538463 386:0.092509821 387:0.059231203 388:0.034191288 389:0.061797343 390:0.095986456 391:0.052704446 392:0.044384994 393:0.044950485 394:0.061501406 395:0.054597728 396:0.036600687 397:0.058225755 398:0.050084401 399:0.0498746 400:0.039773375 401:0.044968992 402:0.048916865 403:0.042009361 404:0.036462944 405:0.043559611 406:0.066113263 407:0.043252133 408:0.04123798 409:0.059241191 410:0.04828044 411:0.054272681 412:0.054236885 413:0.061838154 414:0.041987892 415:0.044444796 416:0.035771649 417:0.03280355 418:0.043350652 419:0.040751763 420:0.033811852 421:0.038579307 422:0.042530522 423:0.042340558 424:0.039609838 425:0.046318147 426:0.053212751 427:0.052785024 428:0.038581073 429:0.056473933 430:0.036637768 431:0.040739495 432:0.041342709 433:0.038233697 434:0.038920674 435:0.049036045 436:0.047081441 437:0.055368986 438:0.049371038 439:0.059993189 440:0.045895256 441:0.067112356 442:0.087004259 443:0.070401594 444:0.051079106 445:0.051666476 446:0.033907458 447:0.036781158 448:0.064514399 449:0.040704034 450:0.052035339 451:0.080499791 452:0.093796633 453:0.067989811 454:0.056893691 455:0.067807533 456:0.068317473 457:0.076496571 458:0.10938576 459:0.083805971 460:0.088968784 461:0.054040771 462:0.031749863 463:0.038234971 464:0.047242049 465:0.065822244 466:0.03757282 467:0.060024049 468:0.081279762 469:0.059459448 470:0.050444469 471:0.062228862 472:0.059338517 473:0.060310703 474:0.071805589 475:0.069178291 476:0.051069826 477:0.072253823 478:0.057575747 479:0.041089963 480:0.041273702 481:0.059873778 482:0.055455882 483:0.051793464 484:0.068879746 485:0.078970872 486:0.074156627 487:0.048064604 488:0.062378448 489:0.065280117 490:0.051703226 491:0.069053613 492:0.037801366 493:0.065054499 494:0.053869899 495:0.050982393 496:0.032527268 497:0.04749338 498:0.098965019 499:0.062922165 500:0.052367821 501:0.06784194 502:0.093817905 503:0.04062178 504:0.043308169 505:0.04680803 506:0.059139881 507:0.074333765 508:0.03357939 509:0.054214805 510:0.043303013 511:0.061609119 
5.712675826338824 2.059226301095614 0.6468521434089372 4.514873440602993 0 2.508474302548154 5.276979075838547 0.9649532876266468 6.576428932339617 2.609567024013478 0 0 10.33741631573639 2.110214785852152 0 8.399928758472543 1.941799748822696 0 0:0.045207862 1:0.096882991 2:0.099419616 3:0.094041482 4:0.11176311 5:0.10305063 6:0.11599921 7:0.087226301 8:0.10916412 9:0.11668283 10:0.10015923 11:0.082856022 12:0.020230019 13:0.090317272 14:0.11601543 15:0.11188672 16:0.044594541 17:0.099579148 18:0.097402714 19:0.095416553 20:0.10915238 21:0.10288526 22:0.10686353 23:0.091264732 24:0.10727616 25:0.11982307 26:0.10748771 27:0.08654093 28:0.018076049 29:0.087335177 30:0.11299081 31:0.11460578 32:0.04085679 33:0.099550933 34:0.10642593 35:0.10359151 36:0.10964851 37:0.10533302 38:0.10904423 39:0.089260094 40:0.10184912 41:0.11799404 42:0.11136962 43:0.092240036 44:0.016968613 45:0.082604699 46:0.11040318 47:0.11381158 48:0.040897798 49:0.1053415 50:0.10465679 51:0.10023191 52:0.11345889 53:0.10978365 54:0.11016379 55:0.088626713 56:0.10252619 57:0.1210515 58:0.1168281 59:0.095677219 60:0.016866472 61:0.082799144 62:0.11564258 63:0.1086278 64:0.044130504 65:0.10985716 66:0.10190914 67:0.10648209 68:0.11551696 69:0.11231638 70:0.11387033 71:0.085777342 72:0.1032488 73:0.11706603 74:0.11610148 75:0.10122988 76:0.019892512 77:0.084037885 78:0.11666329 79:0.10898325 80:0.041487902 81:0.10966216 82:0.10271807 83:0.10592431 84:0.11440653 85:0.10290972 86:0.10666462 87:0.084252559 88:0.1005933 89:0.11821295 90:0.1140094 91:0.084974781 92:0.014522886 93:0.086306714 94:0.11083077 95:0.1068055 96:0.041646969 97:0.10523526 98:0.096189439 99:0.096946336 100:0.1139898 101:0.10451178 102:0.10563023 103:0.08613006 104:0.10277471 105:0.11678307 106:0.10867497 107:0.08089111 108:0.014836099 109:0.084139951 110:0.10203451 111:0.10264286 112:0.04250117 113:0.096276768 114:0.092228785 115:0.093770437 116:0.11191061 117:0.099131167 118:0.10835385 119:0.088310011 120:0.10381226 121:0.11306676 122:0.10510575 123:0.083616592 124:0.017615709 125:0.088080645 126:0.10242328 127:0.10187298 128:0.0387352 129:0.07664948 130:0.077860266 131:0.077543192 132:0.072683252 133:0.070620045 134:0.092120133 135:0.077722766 136:0.071199253 137:0.080555946 138:0.069892958 139:0.069072932 140:0.014197121 141:0.065144867 142:0.08210098 143:0.076853141 144:0.038475543 145:0.07397411 146:0.075999863 147:0.078812361 148:0.079885542 149:0.079569504 150:0.083277561 151:0.081396192 152:0.076426379 153:0.087808944 154:0.074882947 155:0.066360444 156:0.01462588 157:0.063558847 158:0.088731118 159:0.087525733 160:0.03210501 161:0.075542144 162:0.08257626 163:0.080622584 164:0.082657635 165:0.086179085 166:0.085870035 167:0.070148475 168:0.074921779 169:0.085575111 170:0.077476673 171:0.081429623 172:0.015486112 173:0.062990747 174:0.084274299 175:0.088008173 176:0.031619776 177:0.089791164 178:0.072217144 179:0.082381979 180:0.087364919 181:0.091892444 182:0.084771618 183:0.073661692 184:0.070477746 185:0.092190124 186:0.081927553 187:0.093638405 188:0.013300276 189:0.060920022 190:0.076391257 191:0.082912959 192:0.034731448 193:0.082895502 194:0.070053384 195:0.085514963 196:0.081316225 197:0.088870354 198:0.090837255 199:0.077223338 200:0.079898149 201:0.085942298 202:0.082630113 203:0.098245241 204:0.017070014 205:0.059191372 206:0.075929791 207:0.081584021 208:0.034038011 209:0.080336332 210:0.073631056 211:0.076186165 212:0.080588236 213:0.076279506 214:0.0880749 215:0.07240767 216:0.075346082 217:0.077287398 218:0.089490719 219:0.082209677 220:0.013470719 221:0.061118428 222:0.077673666 223:0.080052778 224:0.034770396 225:0.08008825 226:0.070241094 227:0.068229012 228:0.075885564 229:0.081382088 230:0.082449049 231:0.068774596 232:0.068706103 233:0.07784614 234:0.084675543 235:0.074658982 236:0.013204928 237:0.062623151 238:0.07892476 239:0.068459369 240:0.038917519 241:0.074890971 242:0.068982676 243:0.071228214 244:0.068864197 245:0.074273385 246:0.089744419 247:0.073382713 248:0.073143281 249:0.082109496 250:0.071903929 251:0.073738202 252:0.015763149 253:0.058451969 254:0.076416478 255:0.074282713 256:0.03892744 257:0.06840089 258:0.065414734 259:0.072250739 260:0.055569205 261:0.056370024 262:0.060418289 263:0.075451478 264:0.062206078 265:0.060379546 266:0.047815561 267:0.060839456 268:0.018499989 269:0.044197407 270:0.05276059 271:0.062941924 272:0.032178488 273:0.066684663 274:0.067516282 275:0.073408522 276:0.054636057 277:0.06281285 278:0.069236413 279:0.091480069 280:0.058858342 281:0.069814831 282:0.051481679 283:0.057722099 284:0.018018844 285:0.045397017 286:0.063080698 287:0.07489948 288:0.026546756 289:0.067872144 290:0.073134109 291:0.076043181 292:0.061328605 293:0.069986939 294:0.072658114 295:0.080430046 296:0.056016799 297:0.068686567 298:0.061162222 299:0.062760323 300:0.019087257 301:0.050476179 302:0.066115305 303:0.067988932 304:0.031863108 305:0.07042665 306:0.065571934 307:0.071590349 308:0.062208924 309:0.073914818 310:0.069270648 311:0.071370505 312:0.052877899 313:0.073372476 314:0.057787284 315:0.088524692 316:0.014517165 317:0.049510557 318:0.064526103 319:0.067681104 320:0.037064653 321:0.062480908 322:0.055857867 323:0.073390521 324:0.074136123 325:0.082820103 326:0.071369067 327:0.095649704 328:0.07771492 329:0.072619885 330:0.053432986 331:0.1170096 332:0.025491526 333:0.048947945 334:0.054411005 335:0.072637647 336:0.028481161 337:0.062473763 338:0.061169777 339:0.064318575 340:0.074235044 341:0.065329753 342:0.07630571 343:0.076190569 344:0.055054057 345:0.067951754 346:0.068443075 347:0.10081775 348:0.016811784 349:0.047603209 350:0.059269127 351:0.069795027 352:0.029945167 353:0.065268971 354:0.058522273 355:0.067907453 356:0.054789409 357:0.06279435 358:0.069161698 359:0.060867541 360:0.044392843 361:0.060176659 362:0.070238963 363:0.07457003 364:0.017217908 365:0.056131553 366:0.056563523 367:0.055157177 368:0.035025243 369:0.066034131 370:0.053498596 371:0.061084211 372:0.053449996 373:0.053950265 374:0.060878094 375:0.061094817 376:0.047431197 377:0.060328133 378:0.061612532 379:0.069275461 380:0.017968655 381:0.048451796 382:0.057067785 383:0.052528422 384:0.060897268 385:0.073941052 386:0.057394464 387:0.068464264 388:0.05522836 389:0.056080956 390:0.049631447 391:0.090017207 392:0.026646223 393:0.042227119 394:0.031317953 395:0.069239981 396:0.025652975 397:0.045617998 398:0.045291875 399:0.041230023 400:0.043452863 401:0.070771351 402:0.083606705 403:0.065567158 404:0.041513719 405:0.061275836 406:0.063304596 407:0.078867041 408:0.039116498 409:0.036214411 410:0.030327698 411:0.055265822 412:0.024168698 413:0.040859502 414:0.073970303 415:0.043632124 416:0.030864457 417:0.063163228 418:0.07914795 419:0.064632438 420:0.059541371 421:0.063958548 422:0.052766155 423:0.081989713 424:0.067865364 425:0.058143549 426:0.058244895 427:0.058469139 428:0.030588716 429:0.060699631 430:0.082486242 431:0.060207572 432:0.036157284 433:0.074302495 434:0.063887961 435:0.063774787 436:0.062077716 437:0.079825349 438:0.067564264 439:0.06746392 440:0.058439024 441:0.063088313 442:0.058970265 443:0.071325362 444:0.024571316 445:0.051990148 446:0.064218923 447:0.053426079 448:0.045749202 449:0.060552705 450:0.051300004 451:0.068215683 452:0.067974009 453:0.076976351 454:0.053927757 455:0.09830194 456:0.064130418 457:0.065741934 458:0.056018353 459:0.11776625 460:0.043027312 461:0.051699813 462:0.043283328 463:0.072599635 464:0.037815772 465:0.063697428 466:0.06458915 467:0.055809721 468:0.052792471 469:0.053033795 470:0.042302631 471:0.07658603 472:0.050499752 473:0.049451541 474:0.063302882 475:0.092225254 476:0.0255751 477:0.065116756 478:0.039007053 479:0.052675027 480:0.039921127 481:0.064467467 482:0.065403111 483:0.065709911 484:0.039243579 485:0.056255758 486:0.048485082 487:0.073209822 488:0.034257025 489:0.042265754 490:0.060595941 491:0.055581596 492:0.017556656 493:0.04590486 494:0.045499526 495:0.040657017 496:0.047546811 497:0.067520782 498:0.070084944 499:0.055390503 500:0.052188892 501:0.046475776 502:0.052294038 503:0.061330166 504:0.028582187 505:0.040469319 506:0.052835871 507:0.068266146 508:0.023596769 509:0.046070606 510:0.057034455 511:0.039808773 
0 0 5.503534593956725 8.385730259864349 8.751295821192429 3.914167299068001 7.079506401532957 20.37921472239426 17.02522907035105 14.92910139786607 0 2.726697381555685 19.77512813874253 11.46318318154339 0 4.304685889138691 11.80513807454473 8.091725794796581 0:0.032725997 1:0.051043633 2:0.06250748 3:0.06491293 4:0.044859163 5:0.064596787 6:0.062159128 7:0.059220683 8:0.037296642 9:0.06563101 10:0.067232706 11:0.055729032 12:0.0061096195 13:0.034102835 14:0.053818505 15:0.059838895 16:0.035926934 17:0.049672194 18:0.066309698 19:0.072264373 20:0.049126651 21:0.069304451 22:0.063669503 23:0.067938589 24:0.041085765 25:0.067764059 26:0.069072358 27:0.063647091 28:0.0063104234 29:0.03641196 30:0.05388625 31:0.056446485 32:0.037276518 33:0.052434284 34:0.068349242 35:0.080335736 36:0.054320682 37:0.068286471 38:0.064195864 39:0.074735537 40:0.042784255 41:0.067960516 42:0.06644503 43:0.064838096 44:0.0071822731 45:0.039223175 46:0.057581335 47:0.059438869 48:0.040043171 49:0.0551323 50:0.065517806 51:0.085019737 52:0.05536326 53:0.065302268 54:0.069033034 55:0.076698467 56:0.045725454 57:0.064105503 58:0.066376612 59:0.068028674 60:0.0074766125 61:0.041019987 62:0.061468516 63:0.062568858 64:0.041495826 65:0.057300974 66:0.068105444 67:0.080202296 68:0.058177166 69:0.061687581 70:0.073023662 71:0.078287162 72:0.048583888 73:0.061227694 74:0.06778466 75:0.079086974 76:0.012222163 77:0.037120782 78:0.062315926 79:0.062811784 80:0.035594553 81:0.055938259 82:0.061760005 83:0.066958115 84:0.045758933 85:0.062014114 86:0.067758828 87:0.066973656 88:0.041922942 89:0.055973839 90:0.069236018 91:0.065076172 92:0.0092866709 93:0.039819527 94:0.059845556 95:0.059160091 96:0.030378627 97:0.053532623 98:0.05866072 99:0.061109245 100:0.038975805 101:0.059791442 102:0.060455162 103:0.05792525 104:0.039510123 105:0.059887558 106:0.064369403 107:0.060406078 108:0.0074778348 109:0.038483717 110:0.054384854 111:0.054624248 112:0.032526515 113:0.049997799 114:0.059626631 115:0.060633879 116:0.04181511 117:0.062342599 118:0.057605766 119:0.055109397 120:0.036756478 121:0.065458432 122:0.066814564 123:0.055982772 124:0.0064370115 125:0.034545083 126:0.054344017 127:0.05404304 128:0.035055432 129:0.059948385 130:0.058464617 131:0.066439599 132:0.047847413 133:0.068455935 134:0.06906908 135:0.061085738 136:0.034608342 137:0.062277228 138:0.067712992 139:0.064861499 140:0.0084775193 141:0.040120333 142:0.052734327 143:0.074396446 144:0.040437095 145:0.051936932 146:0.066527449 147:0.069590315 148:0.055505477 149:0.070067264 150:0.064778998 151:0.06845206 152:0.038971648 153:0.06664072 154:0.066563204 155:0.070496045 156:0.008996319 157:0.04033738 158:0.050334897 159:0.063276872 160:0.041710824 161:0.05034586 162:0.074493892 163:0.075535618 164:0.051717285 165:0.066361628 166:0.06053821 167:0.074457042 168:0.036816649 169:0.059071898 170:0.062868074 171:0.063275844 172:0.0087923622 173:0.04037321 174:0.0566318 175:0.060875397 176:0.043926589 177:0.053895883 178:0.067581117 179:0.091235399 180:0.055408541 181:0.062359143 182:0.06573835 183:0.077467024 184:0.044414047 185:0.054224048 186:0.058582786 187:0.065164551 188:0.0086117666 189:0.042138953 190:0.061170965 191:0.06009056 192:0.044522852 193:0.055781186 194:0.07328631 195:0.088118032 196:0.066336162 197:0.055473786 198:0.074274778 199:0.086219847 200:0.054790676 201:0.057871245 202:0.063221358 203:0.089387827 204:0.015877236 205:0.037323456 206:0.066002145 207:0.062039923 208:0.037325814 209:0.057724379 210:0.066347189 211:0.067292839 212:0.051369566 213:0.054342493 214:0.071682222 215:0.067172438 216:0.04464243 217:0.054511465 218:0.064806089 219:0.073568396 220:0.012958825 221:0.045011416 222:0.066827372 223:0.065015726 224:0.03257465 225:0.058981065 226:0.066239603 227:0.056884494 228:0.043090846 229:0.059231456 230:0.065978043 231:0.058439445 232:0.042076543 233:0.056139737 234:0.061731059 235:0.061318956 236:0.010194199 237:0.040688168 238:0.059222925 239:0.060544055 240:0.033691607 241:0.060716208 242:0.060151227 243:0.061299328 244:0.047440946 245:0.065009363 246:0.060606945 247:0.055723444 248:0.035385143 249:0.058690239 250:0.065855928 251:0.057886869 252:0.0086688008 253:0.039425481 254:0.055874422 255:0.061244767 256:0.031414397 257:0.065952152 258:0.061154988 259:0.063571237 260:0.051701527 261:0.066250563 262:0.069969796 263:0.055743739 264:0.034120116 265:0.051890507 266:0.069583587 267:0.06955415 268:0.015457391 269:0.046704531 270:0.058899887 271:0.086022884 272:0.043833092 273:0.049851712 274:0.076322488 275:0.058477417 276:0.048307348 277:0.071182333 278:0.069592118 279:0.061289556 280:0.03808691 281:0.054648634 282:0.066369772 283:0.071211152 284:0.013262119 285:0.04679871 286:0.053237699 287:0.069199771 288:0.03980355 289:0.048080042 290:0.088330828 291:0.07539247 292:0.0454625 293:0.066802323 294:0.060701136 295:0.064873628 296:0.036555979 297:0.045009267 298:0.057664666 299:0.07071773 300:0.011404102 301:0.041335333 302:0.051871635 303:0.063922189 304:0.046443887 305:0.056103822 306:0.079550646 307:0.099675722 308:0.051743962 309:0.051141933 310:0.063387729 311:0.069920421 312:0.047159519 313:0.051167756 314:0.053180095 315:0.077115029 316:0.011900627 317:0.038815323 318:0.057520121 319:0.069701217 320:0.049472552 321:0.055490032 322:0.067440689 323:0.091529869 324:0.073434405 325:0.052804466 326:0.063586526 327:0.097552158 328:0.064699881 329:0.047836494 330:0.057720046 331:0.11133819 332:0.023655688 333:0.038165975 334:0.065409914 335:0.075598657 336:0.044884093 337:0.055624608 338:0.058640793 339:0.059447438 340:0.05531894 341:0.055928916 342:0.078834228 343:0.072458364 344:0.049562611 345:0.044483736 346:0.068004839 347:0.083664268 348:0.0173773 349:0.045178518 350:0.058018383 351:0.069385596 352:0.036294755 353:0.061395846 354:0.061314836 355:0.046795521 356:0.045465246 357:0.051864624 358:0.062073365 359:0.048678663 360:0.045546267 361:0.049221467 362:0.063694388 363:0.065021932 364:0.015545031 365:0.042398121 366:0.052555863 367:0.06329906 368:0.027253795 369:0.066183031 370:0.058624204 371:0.049085472 372:0.045244787 373:0.054179642 374:0.054673113 375:0.043575436 376:0.035410725 377:0.049653973 378:0.062960275 379:0.05577315 380:0.014867904 381:0.042184908 382:0.055177495 383:0.064803988 384:0.030485107 385:0.063207082 386:0.068920717 387:0.069709636 388:0.04455718 389:0.033769149 390:0.065981016 391:0.041985787 392:0.03817505 393:0.070804887 394:0.080176115 395:0.077760912 396:0.020250292 397:0.051816583 398:0.082184836 399:0.10126449 400:0.030438073 401:0.043256383 402:0.10465842 403:0.060701199 404:0.040060651 405:0.055236842 406:0.06797459 407:0.048307005 408:0.039635837 409:0.059769515 410:0.081788458 411:0.072439849 412:0.019727213 413:0.050809667 414:0.080751345 415:0.083410032 416:0.028162446 417:0.051465396 418:0.097091958 419:0.081111826 420:0.059282031 421:0.072675787 422:0.068447843 423:0.053206332 424:0.02976059 425:0.042827163 426:0.053858187 427:0.086519584 428:0.018290259 429:0.047419328 430:0.045130011 431:0.069945805 432:0.044315625 433:0.052270245 434:0.078896448 435:0.1164377 436:0.062239006 437:0.046728928 438:0.059882503 439:0.068282425 440:0.047882739 441:0.037478618 442:0.054801539 443:0.086574599 444:0.021251408 445:0.056849882 446:0.03900202 447:0.081878729 448:0.070964873 449:0.062864825 450:0.054440018 451:0.10262597 452:0.092575364 453:0.038372159 454:0.051958315 455:0.10984042 456:0.072850995 457:0.034881633 458:0.045542408 459:0.13066275 460:0.0453506 461:0.044443149 462:0.046938807 463:0.11101132 464:0.032798644 465:0.060652964 466:0.057461094 467:0.066859715 468:0.0618436 469:0.041101284 470:0.068568923 471:0.059389666 472:0.046451807 473:0.043792747 474:0.057900511 475:0.081145436 476:0.028362351 477:0.044896405 478:0.054320548 479:0.087177798 480:0.032819051 481:0.073387027 482:0.071389176 483:0.050636914 484:0.059726816 485:0.051445298 486:0.061173495 487:0.0362802 488:0.041368715 489:0.066535674 490:0.045361545 491:0.052129015 492:0.020329813 493:0.052845363 494:0.054226834 495:0.058137797 496:0.032003846 497:0.065963738 498:0.063567504 499:0.058674589 500:0.062867686 501:0.034189403 502:0.046876244 503:0.038101766 504:0.0532315 505:0.053715169 506:0.045655526 507:0.061787285 508:0.022482397 509:0.055161849 510:0.061740242 511:0.068015225 
5.366661199865024 0 7.224267986002916 14.70025156823874 0 13.58538737522562 10.48844982385545 14.69798602979034 16.67942344688823 13.89989622918202 0 7.896772014444605 10.77062204939805 15.47551106551057 1.688307952263704 9.64095194848284 7.142917980925819 4.009551514937964 0:0.046775904 1:0.071077742 2:0.081092618 3:0.084182039 4:0.05438599 5:0.0819095 6:0.081155382 7:0.082614437 8:0.044298496 9:0.08079505 10:0.088372983 11:0.087391801 12:0.0342503 13:0.078266226 14:0.071717344 15:0.072420172 16:0.047475673 17:0.067656547 18:0.080679893 19:0.082648501 20:0.05492511 21:0.075723663 22:0.083200336 23:0.085912235 24:0.043544896 25:0.077795289 26:0.087956227 27:0.091100372 28:0.034241542 29:0.076622501 30:0.067755364 31:0.073027164 32:0.050443433 33:0.068099983 34:0.078362808 35:0.07746622 36:0.0543641 37:0.078946486 38:0.077639148 39:0.084921964 40:0.038986105 41:0.080148511 42:0.086730488 43:0.090643063 44:0.031828813 45:0.075466104 46:0.064937413 47:0.075607233 48:0.050736047 49:0.072740115 50:0.081647828 51:0.083474375 52:0.056361627 53:0.080238193 54:0.079154193 55:0.080313779 56:0.039574359 57:0.07944192 58:0.083298132 59:0.09388607 60:0.032984715 61:0.080448985 62:0.065797694 63:0.076088697 64:0.051716499 65:0.076516479 66:0.08603365 67:0.088716634 68:0.061431263 69:0.083376147 70:0.077261306 71:0.088987961 72:0.042495463 73:0.07633996 74:0.087445155 75:0.08715234 76:0.034777567 77:0.076434672 78:0.064221747 79:0.078013241 80:0.046980206 81:0.072630607 82:0.082672879 83:0.083559804 84:0.055904042 85:0.08284954 86:0.078512855 87:0.083505057 88:0.041519769 89:0.075773478 90:0.083302647 91:0.080822408 92:0.032074954 93:0.075489655 94:0.066328496 95:0.074727222 96:0.044540346 97:0.070084997 98:0.082633913 99:0.087778531 100:0.055118963 101:0.079646073 102:0.076484114 103:0.0808549 104:0.040907748 105:0.073229715 106:0.0853386 107:0.086583331 108:0.031710003 109:0.078447156 110:0.065163188 111:0.075562447 112:0.046546683 113:0.069899403 114:0.082616962 115:0.085608438 116:0.057501204 117:0.080567159 118:0.081087254 119:0.082289957 120:0.042488992 121:0.075530946 122:0.086988114 123:0.087325513 124:0.034897994 125:0.0834108 126:0.06816978 127:0.078413412 128:0.04632308 129:0.064066052 130:0.062803559 131:0.071819313 132:0.047614008 133:0.061844446 134:0.061793134 135:0.067928292 136:0.041175719 137:0.063031554 138:0.065033235 139:0.068140477 140:0.040719204 141:0.063372165 142:0.062649317 143:0.06142997 144:0.049348313 145:0.055246543 146:0.06633807 147:0.069058441 148:0.051813155 149:0.058457509 150:0.068356894 151:0.07327912 152:0.03895618 153:0.062582955 154:0.064701319 155:0.071556963 156:0.03391894 157:0.063005716 158:0.057135534 159:0.053768415 160:0.051170528 161:0.052375313 162:0.062380116 163:0.066069469 164:0.050338157 165:0.062299293 166:0.057849579 167:0.074899457 168:0.038204797 169:0.067875914 170:0.065905839 171:0.07336472 172:0.030198811 173:0.057497166 174:0.056256697 175:0.05645455 176:0.04774908 177:0.063025609 178:0.05999431 179:0.067892 180:0.052454654 181:0.069062792 182:0.057790425 183:0.076484516 184:0.042500317 185:0.07228227 186:0.067610785 187:0.074644938 188:0.029765097 189:0.064951949 190:0.056008648 191:0.060831986 192:0.050370585 193:0.064588301 194:0.066655785 195:0.074852198 196:0.057802737 197:0.066196628 198:0.061636668 199:0.089551136 200:0.047272895 201:0.063511133 202:0.063346736 203:0.065927267 204:0.033776481 205:0.061821111 206:0.057564538 207:0.067311749 208:0.044066221 209:0.06240176 210:0.074016735 211:0.075358868 212:0.048500359 213:0.065719292 214:0.064114697 215:0.076321892 216:0.038552202 217:0.063043088 218:0.067021698 219:0.057292596 220:0.033081602 221:0.061163567 222:0.057997867 223:0.061232045 224:0.043225173 225:0.067810699 226:0.076114319 227:0.07643719 228:0.045929402 229:0.058622032 230:0.059434697 231:0.069379456 232:0.038304448 233:0.058319643 234:0.065799057 235:0.06720084 236:0.033362966 237:0.065483943 238:0.060979411 239:0.059173692 240:0.049129102 241:0.064995013 242:0.072367176 243:0.072611533 244:0.049759552 245:0.056173272 246:0.058928818 247:0.067423858 248:0.040241148 249:0.055707376 250:0.070322193 251:0.06741026 252:0.037696671 253:0.062679783 254:0.063098088 255:0.061953772 256:0.046030868 257:0.069348894 258:0.05779681 259:0.063406549 260:0.048283562 261:0.047450028 262:0.046825379 263:0.051067974 264:0.044649314 265:0.056822225 266:0.064729661 267:0.062689841 268:0.052675866 269:0.053812549 270:0.067052431 271:0.059378061 272:0.058164459 273:0.057134617 274:0.067187853 275:0.059112236 276:0.049766351 277:0.057030305 278:0.051901471 279:0.072288178 280:0.051241372 281:0.061097249 282:0.064156905 283:0.067334518 284:0.039524622 285:0.057604391 286:0.060248163 287:0.052982539 288:0.05688392 289:0.058418944 290:0.060543161 291:0.049894024 292:0.048580248 293:0.065727584 294:0.054565065 295:0.078921534 296:0.034051992 297:0.058397222 298:0.059976202 299:0.06679675 300:0.02959187 301:0.051420745 302:0.065871283 303:0.046822067 304:0.054951008 305:0.064856924 306:0.047629163 307:0.058132671 308:0.050814066 309:0.063228756 310:0.059677482 311:0.08469706 312:0.037721362 313:0.057945427 314:0.069151975 315:0.065906234 316:0.030822225 317:0.0551809 318:0.048590437 319:0.060977805 320:0.057308011 321:0.062338348 322:0.056556698 323:0.075885303 324:0.068139359 325:0.060938355 326:0.056248367 327:0.089093938 328:0.053669445 329:0.056263935 330:0.060645916 331:0.069229759 332:0.03930784 333:0.052870944 334:0.057548374 335:0.069464743 336:0.04665295 337:0.074169807 338:0.069657132 339:0.062480625 340:0.046430897 341:0.064378925 342:0.053295948 343:0.065143697 344:0.034460675 345:0.060166519 346:0.059681661 347:0.06071315 348:0.031993233 349:0.054726329 350:0.059059788 351:0.05528703 352:0.040294565 353:0.06651666 354:0.066019215 355:0.054744225 356:0.042042412 357:0.049786605 358:0.059879046 359:0.060238313 360:0.034352731 361:0.070001289 362:0.064651087 363:0.050407521 364:0.037064482 365:0.049270768 366:0.06384065 367:0.042897552 368:0.041083742 369:0.056474138 370:0.064188272 371:0.056687482 372:0.047350045 373:0.045116946 374:0.064668767 375:0.051741481 376:0.031578463 377:0.060787015 378:0.056330472 379:0.047089148 380:0.047101434 381:0.047863875 382:0.062210459 383:0.046951167 384:0.063358918 385:0.083194427 386:0.042809796 387:0.053148277 388:0.068005435 389:0.032621156 390:0.034321468 391:0.051656749 392:0.042636849 393:0.059537612 394:0.058070157 395:0.041441657 396:0.033047725 397:0.048689038 398:0.067496032 399:0.05752312 400:0.043057762 401:0.061731841 402:0.055979237 403:0.048140526 404:0.05932736 405:0.049506787 406:0.041072831 407:0.055034604 408:0.050728727 409:0.067287222 410:0.059395824 411:0.040745653 412:0.040217608 413:0.053965006 414:0.069618963 415:0.056243155 416:0.04678008 417:0.05714146 418:0.043348696 419:0.044481225 420:0.044811867 421:0.052794084 422:0.066875599 423:0.054005116 424:0.031964961 425:0.046430934 426:0.04859278 427:0.054570064 428:0.041103762 429:0.058557596 430:0.052672967 431:0.051299132 432:0.041354775 433:0.050140198 434:0.048484303 435:0.043036219 436:0.05026475 437:0.065788619 438:0.077602088 439:0.062605575 440:0.044377785 441:0.055475947 442:0.074321605 443:0.071987733 444:0.028241349 445:0.045719825 446:0.044794448 447:0.044054948 448:0.061728887 449:0.05253318 450:0.061452031 451:0.058107384 452:0.078039803 453:0.049733255 454:0.056548394 455:0.092667803 456:0.070911787 457:0.062750459 458:0.074786507 459:0.0720727 460:0.043289933 461:0.037490617 462:0.045221265 463:0.051721212 464:0.053934611 465:0.054159563 466:0.059474725 467:0.054875087 468:0.055780437 469:0.06882143 470:0.058810916 471:0.062395938 472:0.036570996 473:0.070810266 474:0.054452829 475:0.049351729 476:0.030210467 477:0.04046724 478:0.045732748 479:0.051257029 480:0.058078602 481:0.06444113 482:0.064958394 483:0.035452988 484:0.038549852 485:0.05820426 486:0.070019349 487:0.052156422 488:0.033928704 489:0.1098363 490:0.05867371 491:0.032358568 492:0.044864282 493:0.056574609 494:0.058841944 495:0.034524292 496:0.046992764 497:0.070913941 498:0.062714495 499:0.038347367 500:0.054809447 501:0.046214283 502:0.049348854 503:0.055241056 504:0.028794654 505:0.073700152 506:0.058439359 507:0.026781783 508:0.043623056 509:0.050737575 510:0.062776871 511:0.044285607 
