svm_type c_svc
kernel_type rbf
gamma 0.03375
nr_class 19
total_sv 248
rho 1.01608 0.366726 -0.169859 -0.938817 -0.476758 -0.725834 0.718927 0.79289 0.251969 -0.856725 0.602763 -0.723579 -0.0780313 0.243153 -1.12208 0.197876 0.391443 -0.612497 0.516347 -0.193303 -1.00607 -0.151786 -1.25864 0.33234 0.0341656 0.845599 -0.762858 -0.215186 -1.86774 -0.825377 0.283575 -1.03091 -1.21056 -0.0156071 -0.805689 -1.21113 -1.51204 -0.131795 -0.793616 0.417008 0.263793 0.324089 -1.03369 0.489175 -0.504846 -0.728401 0.21294 -1.01432 -0.000582529 -0.071997 -1.2952 -0.163276 -0.0454537 -1.19957 0.97567 0.868354 0.515259 0.0905877 0.542744 -0.620166 -0.262336 0.709073 -0.560996 0.49878 0.598346 -0.721192 0.571848 -0.382088 1.61601 2.83167 1.0827 0.290711 2.12455 -0.724163 0.705213 1.17931 -0.144209 0.788753 1.06961 0.119785 -0.489347 0.0958547 1.14747 0.962494 -0.236539 0.805317 -0.48977 -0.128164 -0.0205426 -0.170828 0.80994 0.297832 -0.42851 1.33394 2.12287 0.984812 0.144005 1.34533 -0.621557 0.506621 1.91541 -0.359728 1.10449 1.63084 0.523288 0.550035 2.02468 -1.23665 -0.658673 -1.69437 -0.976982 -0.000863471 -1.59136 -0.907746 -0.423105 -1.26437 -0.163253 -2.01876 -0.289214 -2.46929 -0.893316 -0.522377 -2.01463 -1.09172 -0.453885 -1.67634 -1.66872 -0.100129 -1.98957 -0.724622 -0.534173 -1.53771 -0.860165 -0.671927 -0.937312 1.38095 -0.402991 0.341067 1.46337 -0.319418 0.763301 0.818041 0.00387624 -1.38545 -0.837968 0.184777 -1.97165 -0.173493 -0.193706 -1.03291 0.327095 1.45539 0.380618 1.14234 1.6752 0.0980359 1.37795 -0.88359 0.510954 0.97676 -0.402397 -1.10998 -0.991192 -1.65459 -2.43501 1.10321 1.13801 0.182873 0.482955 -0.33638 -1.0496
label 0 1 2 3 4 5 6 7 8 9 10 11 12 13 14 15 16 17 18
probA 0.0902992 -0.551827 0.127073 -1.16921 -1.40355 -0.316165 -1.23425 -1.27621 -1.65977 -1.27866 1.33294 -2.41535 0.636221 -0.168743 -0.957526 0.196881 0.596231 0.15945 -1.94155 -1.05169 -1.32515 -2.09254 -0.818263 -1.82821 -1.31947 -2.70627 -1.43605 0.732962 -2.7139 -0.721942 -0.876429 -1.41505 -0.974623 -0.395115 -0.371055 -0.785191 -0.5075 -2.11089 -1.73852 -3.10258 -1.82259 -2.61743 -2.20829 -0.603703 -2.83522 -1.0774 -1.32653 -0.732514 -1.81541 -1.45081 -1.00927 -1.03088 -1.45182 -1.14987 -2.29513 -1.80556 -2.59364 -2.06821 0.41955 -2.18649 -0.55016 -1.21582 -1.01724 -0.872987 0.0896094 -1.02499 -0.883742 -1.14569 -1.63088 -0.839139 -1.55656 -2.28467 0.807914 -2.76814 -0.913567 -0.966352 0.832997 -1.2549 -0.651945 -2.00401 -1.84249 -0.0219123 -0.753122 -1.25037 -1.43688 -0.702416 -2.05836 -1.75816 -1.61699 0.316099 -2.09676 -1.47518 -2.00517 -1.98983 -1.5888 -2.3988 -1.76426 -0.920212 -2.27138 0.624474 0.690246 -1.98568 -0.0445644 -0.393586 -0.826123 -0.625083 0.900177 -1.03878 -2.30677 -0.615984 -1.70509 -1.49517 -1.14284 -1.47922 -1.88796 -1.58858 -0.287868 -0.973327 -0.186269 -1.89844 -1.81016 -1.37462 -0.693705 -1.76201 -1.83299 -1.61942 -2.19754 -2.2555 -2.24122 -2.49285 -2.47837 -2.03944 -1.60427 -1.96297 -2.62946 -1.53884 -1.20826 -2.22078 -1.44035 -2.29383 -1.09328 -2.37223 -1.31542 -0.786589 -0.778109 -0.657967 0.946861 -0.544367 1.30657 -0.111466 -2.61937 -2.89293 -1.78338 -0.809632 -2.17174 -3.21242 -0.231431 -1.43466 0.550583 -0.108617 0.364624 -1.38825 0.13067 -0.428806 0.552294 -1.20669 0.0565636 -1.27954 0.77803 -0.879891 -0.670745
probB 0.164404 0.145727 0.356052 0.00685812 0.0245232 0.157565 0.166598 0.160247 -0.141127 -0.0289242 0.555875 -0.344603 0.5028 -1.41659e-005 -0.0424781 0.267655 0.3976 0.292312 -0.184389 -0.0514472 -0.100066 0.0320472 -0.0493022 0.0985608 0.405708 0.522293 -0.0845891 0.177419 -0.0989967 -0.0171924 -0.25707 -0.143367 -0.0449825 0.0660286 -0.0538538 0.0139676 -0.0456532 0.274209 -0.148353 0.349549 0.27303 0.676408 0.113945 -0.0196947 -0.335688 -0.142354 0.207824 0.0481739 0.127401 -0.0997973 -0.172229 -0.0818825 0.267116 0.0164283 0.101266 0.00496311 0.647608 -0.386246 -0.165738 -0.600712 -0.043045 0.0530264 -0.0411952 -0.0373942 -0.0693831 0.0245318 0.0547594 0.0164029 0.0395483 0.282126 0.0824287 -0.220221 -0.0941225 -0.0953622 0.00446394 0.000839535 -0.532192 0.159594 0.002449 -0.0923243 -0.153728 7.15597e-005 0.124052 0.115678 -0.0747043 0.160187 -0.684161 0.0203284 -0.0162287 0.325812 -0.17385 0.0522975 -0.468355 0.247432 0.16477 0.138698 0.102643 0.027474 0.0459825 0.0548148 -0.516982 0.232729 0.000934613 0.0119015 -0.0613403 0.20973 -0.21179 0.054671 -0.0677624 0.109534 -0.0750255 -0.0552775 -0.0749268 0.173941 0.10793 -0.241172 -0.29898 -0.217295 -0.0730931 -0.595707 -0.131178 -0.106892 -0.23851 -0.294757 -0.326833 -0.293171 -0.310868 -0.264354 -0.750525 -0.220651 0.107465 -0.0929898 0.025043 -0.21999 -0.635309 0.238354 -0.127838 -0.0952166 0.0859643 0.460654 0.0924738 -0.117278 -0.111047 -0.195164 -0.0880759 0.0288446 -0.518468 -0.0219572 0.110058 -0.00421329 -0.0376393 0.522249 0.303882 0.128363 0.149108 0.183173 -0.133765 0.136 -0.115303 0.0102855 -0.0208023 -0.275256 0.280988 0.102598 0.467914 0.0440833 0.167894 -0.16593 0.0667121 -0.162404 -0.106513
nr_sv 11 13 14 15 14 10 14 10 15 10 15 14 14 14 11 12 14 14 14
SV
312.5 312.5 312.5 312.5 34.22203547337636 312.5 0 50.24369341557104 0 312.5 312.5 152.7821632362757 312.5 0 68.68649473599598 312.5 312.5 312.5 0:0.0029173333 1:0.012352 2:0.046890665 3:0.12777066 4:0.025386667 5:0.0023626667 6:0.00092266669 7:0.00033066666 8:0.00021333333 9:0.00037333334 10:0.00061866664 11:0.00037866668 12:0.00029866668 13:8.5333333e-005 14:0.00067199999 15:0.00017066667 16:0.000112 17:0.0016053333 18:0.010885334 19:0.059850667 20:0.0059253331 21:0.00016 22:2.1333333e-005 23:4.2666667e-005 24:2.6666667e-005 25:5.3333333e-006 26:5.3333333e-006 28:5.3333333e-006 29:3.2e-005 32:0.00037866668 33:0.0049919998 34:0.024437333 35:0.09827733 36:0.0093813334 37:0.0010933334 38:0.001104 39:0.00098133332 40:0.00088533334 41:0.00014400001 42:0.00010666667 43:0.000112 44:2.6666667e-005 45:5.3333333e-006 46:4.2666667e-005 49:0.00037333334 50:0.00376 51:0.10005333 52:0.0011626667 56:2.1333333e-005 57:2.1333333e-005 64:2.6666667e-005 65:0.0022933334 66:0.018981334 67:0.11991467 68:0.0057813334 69:0.0017973334 70:0.0019893334 71:0.0017653333 72:0.0024106666 73:0.00061866664 75:5.3333333e-006 82:0.00072000001 83:0.052757334 84:5.3333333e-006 89:1.0666667e-005 96:0.0010666667 97:0.017706666 98:0.025536001 99:0.060858667 100:0.003728 101:0.0022133333 102:0.0027040001 103:0.0054186666 104:0.06471467 105:0.044677332 106:0.00016 107:5.8666668e-005 108:7.466667e-005 109:0.00031999999 110:0.00018133334 111:0.00012266666 114:5.8666668e-005 115:0.013541333 
0 312.5 312.5 230.0573310266106 288.3559352295671 0 211.2788551243041 32.24358608583314 0 312.5 312.5 0 312.5 246.488615272774 241.4898329388888 0 312.5 225.7400611945173 0:0.0017487726 1:0.0059911655 2:0.027254945 3:0.12508906 4:0.040215295 5:0.0074549527 6:0.0027397438 7:0.0012953872 8:0.00058292423 9:0.0011399407 10:0.0010298328 11:0.00052463176 12:0.00014249259 13:7.7723227e-005 14:0.00031089291 15:0.00022669275 16:3.238468e-005 17:0.00039509308 18:0.0021438657 19:0.0055895955 20:0.0001101079 21:6.4769356e-006 26:6.4769356e-006 32:0.0028498517 33:0.018588806 34:0.069063567 35:0.20604427 36:0.046264753 37:0.0060105962 38:0.001308341 39:0.00091972487 40:0.00073837064 41:0.0014443566 42:0.0010168789 43:0.00050520099 44:0.0001619234 45:9.7154036e-005 46:0.00021373888 47:0.00042100082 48:9.7154036e-005 49:0.00079666311 50:0.0017552496 51:0.0045403317 58:6.4769356e-006 63:6.4769356e-006 64:0.0022345427 65:0.010712852 66:0.053305179 67:0.12778994 68:0.0035558376 69:0.00094563258 70:0.00066064746 71:0.00086143246 72:0.0012824333 73:0.0025907743 74:0.00066712435 75:0.00030441597 76:0.0001619234 77:8.4200161e-005 78:0.00010363097 79:0.00030441597 80:6.4769356e-006 81:0.00010363097 82:0.0001101079 83:0.00026555435 96:0.00060235499 97:0.0052139331 98:0.016976049 99:0.045072995 100:0.0027656516 101:0.0017682035 102:0.0010427866 103:0.0018005881 104:0.0056608417 105:0.12490123 106:0.00071893987 107:0.00027203129 108:0.0001101079 109:1.9430807e-005 110:1.2953871e-005 111:5.1815485e-005 
312.5 99.45400612311437 312.5 0 0 312.5 0 286.6838395482811 0 0 312.5 0 312.5 312.5 0 312.5 312.5 312.5 0:0.00012921983 1:0.0013891133 2:0.0084315939 3:0.016362462 4:0.013697303 5:0.0054595382 6:0.0021321273 7:0.0013891133 8:0.00064609916 9:0.00011306736 10:3.2304957e-005 14:1.6152479e-005 17:0.0010176062 18:0.010272977 19:0.054175414 20:0.020998223 21:0.0015344855 22:0.00029074462 23:0.0004684219 24:0.00045226942 25:0.00025843966 33:0.0015021806 34:0.011468261 35:0.12227427 36:0.052027136 37:0.016314004 38:0.0097722504 39:0.0077208853 40:0.0068324986 41:0.0011629785 42:4.8457438e-005 49:0.0016798578 50:0.005701825 51:0.1152641 52:0.0156356 53:6.4609914e-005 56:0.00041996446 57:0.00025843966 64:1.6152479e-005 65:0.0031174286 66:0.011629785 67:0.14126958 68:0.026522372 69:0.010644484 70:0.010757552 71:0.0097884024 72:0.014472621 73:0.0041673398 81:0.00043611694 82:0.00092069135 83:0.016588597 84:0.0003876595 97:0.0048134387 98:0.044290099 99:0.050977226 100:0.0036666128 101:0.0027459215 102:0.0036666128 103:0.0063156192 104:0.03114198 105:0.093458243 106:1.6152479e-005 107:3.2304957e-005 108:1.6152479e-005 111:1.6152479e-005 113:1.6152479e-005 115:0.00069455663 
312.5 312.5 312.5 312.5 214.0205072668442 312.5 222.7215437955414 312.5 0 312.5 312.5 312.5 312.5 312.5 312.5 312.5 312.5 312.5 0:0.0036155805 1:0.011223543 2:0.015109735 3:0.021381766 4:0.017742205 5:0.0070598875 6:0.0040814439 7:0.0020141746 8:0.0012348809 9:0.0020210254 10:0.0021751716 11:0.0018052211 12:0.0011646588 13:0.00064056233 14:0.0011937752 15:0.0010807349 16:0.00066282786 17:0.0098105371 18:0.019013055 19:0.036308236 20:0.01902847 21:0.0024817509 22:0.00052409642 23:0.00036309951 24:0.00042989611 25:0.00042818338 26:0.00037508862 27:0.00020895348 28:0.00012674228 29:6.850934e-005 30:7.7073004e-005 31:0.00010961494 32:0.0023053393 33:0.012365935 34:0.029465867 35:0.068582989 36:0.02897945 37:0.0065306528 38:0.003708068 39:0.003180546 40:0.0033877869 41:0.0053608557 42:0.0022539573 43:0.0016253841 44:0.00082039932 45:0.00057034026 46:0.00070050801 47:0.00088377047 48:0.00027746282 49:0.0045935512 50:0.020410646 51:0.11040451 52:0.013650486 53:0.00024149542 54:0.00024663363 55:0.00026204821 56:0.00052580918 57:0.00088205776 58:0.00056691479 59:0.00031000475 60:0.00011989135 61:7.3647541e-005 62:9.2487608e-005 63:0.00011132767 64:0.0013599104 65:0.0055698091 66:0.024476673 67:0.081496999 68:0.020297604 69:0.004857312 70:0.0040197857 71:0.0045524458 72:0.0072431499 73:0.0094405869 74:0.0036155805 75:0.0012314554 76:0.0006337114 77:0.00039564143 78:0.00041619423 79:0.00070564618 80:0.00027746282 81:0.00067310425 82:0.0044376925 83:0.048665609 84:0.0021135132 85:6.8509339e-006 86:1.5414602e-005 87:3.425467e-005 88:0.00021751715 89:0.00065426418 90:0.00055150018 91:0.00030657928 92:0.00014386962 93:3.425467e-005 94:4.1105603e-005 95:3.9392871e-005 96:0.0087846098 97:0.003392925 98:0.024858614 99:0.07731279 100:0.011458187 101:0.0037286207 102:0.004896705 103:0.026595326 104:0.059683625 105:0.016663184 106:0.0048538866 107:0.0016973189 108:0.00071420986 109:0.00096084346 110:0.00067824248 111:0.00037680136 112:1.5414602e-005 113:0.00014558235 114:0.0015157692 115:0.015205648 116:2.5691003e-005 119:5.1382003e-006 120:7.5360273e-005 121:0.00028773924 122:0.00033055755 123:0.00012674228 124:3.425467e-005 
312.5 312.5 312.5 312.5 103.8823292595147 312.5 53.88692007469026 245.3884659142866 277.2554371772733 297.2322284602375 312.5 213.284935706657 312.5 145.8232447403169 309.6586711160256 304.443040971443 312.5 312.5 0:0.00071466668 1:0.003216 2:0.0124 3:0.043280002 4:0.022842666 5:0.0054293335 6:0.001984 7:0.0016906667 8:0.0011306667 9:0.00056533335 10:0.000128 11:3.2e-005 12:6.9333335e-005 13:5.3333333e-005 14:8.5333333e-005 15:0.00019200001 16:0.00066133332 17:0.0053226668 18:0.022773333 19:0.09114667 20:0.011914667 21:0.00041066666 22:0.00026666667 23:0.00020266666 24:0.00076800003 25:0.00031466666 26:1.0666667e-005 30:5.3333333e-006 31:5.3333333e-006 32:0.0017493333 33:0.0080106668 34:0.031493332 35:0.095349334 36:0.016229333 37:0.0045706667 38:0.0038079999 39:0.003392 40:0.0049493331 41:0.0027679999 42:0.000432 43:0.00025066666 44:0.00015466666 45:0.00016 46:0.00024533333 47:0.00049066666 48:0.004528 49:0.011050667 50:0.028506666 51:0.082736 52:0.00069866667 55:1.0666667e-005 56:0.00042666667 57:0.0015786666 58:1.0666667e-005 63:0.000112 64:0.0021279999 65:0.0069920002 66:0.032016002 67:0.083381332 68:0.0080906665 69:0.0037120001 70:0.00352 71:0.0041653332 72:0.010629334 73:0.010938667 74:0.00062933331 75:0.000272 76:0.000128 77:0.00010133333 78:0.000112 79:0.00035733334 80:0.0022133333 81:0.0020053333 82:0.0060853334 83:0.01552 88:4.8000002e-005 89:0.0017706667 95:0.00020266666 96:0.0012373333 97:0.0024106666 98:0.011413333 99:0.024165334 100:0.0016586666 101:0.00070400001 102:0.00066133332 103:0.00081066665 104:0.0033066666 105:0.018250667 106:0.00015466666 107:6.9333335e-005 108:1.6e-005 110:1.6e-005 111:0.00013866667 112:0.00010666667 113:0.00010666667 114:0.00015466666 115:3.2e-005 120:5.3333333e-006 121:0.20821866 127:1.6e-005 
312.5 153.143977085 312.5 213.2067146669651 0 312.5 0 0 0 41.93740776206474 221.2959615073904 312.5 312.5 312.5 210.7338438826155 312.5 312.5 312.5 0:0.0001847588 1:0.00099194946 2:0.0038881463 3:0.015473754 4:0.039982624 5:0.019773297 6:0.0023747664 7:0.0011611064 8:0.0004943324 9:0.00028658143 10:0.00011496103 11:8.9505374e-005 12:5.3374763e-005 13:2.2171056e-005 14:4.1057508e-005 15:5.4195913e-005 16:0.00027508533 17:0.0012070908 18:0.004839038 19:0.042868145 20:0.065994203 21:0.014530253 22:0.00028904487 23:7.2261217e-005 24:4.0236358e-005 25:2.2171056e-005 26:2.4634505e-006 28:1.6423004e-006 32:0.0004171443 33:0.0021842595 34:0.0078239189 35:0.053185079 36:0.058470823 37:0.013331373 38:0.0024880851 39:0.0015708604 40:0.0011044471 41:0.000989486 42:0.00054852833 43:0.00047298253 44:0.00029971983 45:0.0001995395 46:0.00016669348 47:0.00017244155 48:0.00015355508 49:0.0010075513 50:0.0029076929 51:0.072561756 52:0.056743942 53:0.0027139015 54:5.7480515e-006 57:1.6423004e-006 64:0.00030054097 65:0.0052175885 66:0.0096403034 67:0.09000463 68:0.041296463 69:0.0042946157 70:0.0022606265 71:0.0016242351 72:0.0014099149 73:0.0013130192 74:0.0007390352 75:0.00070701033 76:0.0003810137 77:0.0002340278 78:0.00019050685 79:0.00015601853 80:4.0236358e-005 81:0.00022171055 82:0.00091558247 83:0.072962478 84:0.013569507 96:0.12079859 97:0.005001626 98:0.008610581 99:0.053290185 100:0.020802198 101:0.0045688795 102:0.0064369966 103:0.0049539991 104:0.0090687824 105:0.0041607679 106:0.0030834191 107:0.0020536967 108:0.0014526147 109:0.0029586041 110:0.0017194885 111:0.00031450053 112:7.390352e-006 113:1.3138403e-005 114:0.00039004633 115:0.007730308 116:0.00045573837 
312.5 312.5 312.5 312.5 312.5 308.6773810401398 312.5 312.5 312.5 160.1764433693416 312.5 228.7741439818321 185.9082445388958 0 312.5 170.5645405545307 312.5 312.5 0:0.0042013889 1:0.0057465276 2:0.016875001 3:0.032291666 4:0.016649306 5:0.0070659723 6:0.0050173611 7:0.0033333334 8:0.0030729168 9:0.0043229167 10:0.003420139 11:0.00171875 12:0.00098958332 13:0.00038194444 14:0.0011458333 15:0.0011458333 16:0.005173611 17:0.011197916 18:0.036267363 19:0.059756946 20:0.017447917 21:0.01375 22:0.0023437501 23:0.0018923611 24:0.0023958334 25:0.0038541667 26:0.0032291666 27:0.00079861109 28:0.00052083336 29:0.0003298611 30:0.00031249999 31:0.00071180554 32:0.00171875 33:0.0086631943 34:0.039305557 35:0.043628473 36:0.0057465276 37:0.0024826389 38:0.0018402778 39:0.0018055555 40:0.0033854167 41:0.0062847221 42:0.002204861 43:0.00064236112 44:0.00024305556 45:3.4722223e-005 46:0.00024305556 47:0.00029513889 48:0.00171875 49:0.0087326393 50:0.047569446 51:0.048038196 52:0.00086805556 53:3.4722223e-005 54:1.7361112e-005 56:0.00020833334 57:0.0030381945 58:0.00043402778 59:3.4722223e-005 62:1.7361112e-005 63:0.00017361112 64:0.0013541667 65:0.0091319447 66:0.060711805 67:0.046840277 68:0.004340278 69:0.0015277778 70:0.0018055555 71:0.0020138889 72:0.0046180557 73:0.012430555 74:0.0026909723 75:0.00060763891 76:0.00024305556 77:0.00019097222 78:0.00010416667 79:0.00052083336 80:0.0020659722 81:0.005642361 82:0.021024305 83:0.021458333 84:6.9444446e-005 88:1.7361112e-005 89:0.0010763889 90:0.00010416667 95:0.00012152778 96:0.0010763889 97:0.0037499999 98:0.014809027 99:0.0092534721 100:0.00062499999 101:0.00024305556 102:0.00026041668 103:0.00053819444 104:0.0026041667 105:0.2602604 106:0.003454861 107:0.00024305556 108:0.00015625 109:3.4722223e-005 110:8.6805558e-005 111:0.00022569444 112:0.00093749998 113:0.00109375 114:0.00065972219 115:0.0012673611 121:0.00079861109 122:3.4722223e-005 127:0.00010416667 
312.5 312.5 312.5 312.5 312.5 312.5 312.5 312.5 219.2103667019883 312.5 312.5 312.5 312.5 312.5 312.5 312.5 312.5 312.5 0:0.00024367386 1:0.00055295223 2:0.0010156982 3:0.0023582475 4:0.0053010779 5:0.009331068 6:0.0090698218 7:0.007877226 8:0.0057357075 9:0.0030798968 10:0.0011246485 11:0.0003174789 12:0.00010309278 13:4.2174321e-005 14:8.4348641e-005 15:9.3720715e-005 16:2.3430177e-006 17:5.27179e-005 18:0.0003151359 19:0.0019458763 20:0.0086504221 21:0.0052659325 22:0.0034008904 23:0.001445642 24:0.0010039831 25:0.0011797094 26:0.00020618556 27:7.0290534e-006 28:1.1715089e-006 31:1.1715089e-006 32:0.0012804592 33:0.0032579664 34:0.0057743676 35:0.017467197 36:0.050003514 37:0.036244143 38:0.020413542 39:0.011026242 40:0.010492033 41:0.012214152 42:0.0042490629 43:0.0012488285 44:0.00040534209 45:0.00023898782 46:0.00031982193 47:0.00039597001 49:3.2802251e-005 50:0.00019564199 51:0.010318651 52:0.032249298 53:0.0024097939 54:0.00052014994 55:0.00015698219 56:0.00083645736 57:0.0069447048 58:0.00071344891 64:0.0025210872 65:0.0085895034 66:0.011814667 67:0.052906513 68:0.097368792 69:0.023227507 70:0.010564667 71:0.0069763353 72:0.0081033269 73:0.010810684 74:0.0030002343 75:0.0013132615 76:0.0007216495 77:0.00048969075 78:0.00069821929 79:0.0009348641 81:2.3430177e-006 82:0.0001054358 83:0.009701265 84:0.0086094188 85:1.1715089e-006 88:7.9662605e-005 89:0.0020067948 90:9.0206187e-005 96:0.0028350516 97:0.02378046 98:0.033257965 99:0.085589267 100:0.10396673 101:0.015278819 102:0.0067022024 103:0.026532333 104:0.12072868 105:0.0098313028 106:0.0019341612 107:0.0013952671 108:0.00071696343 109:0.00065135898 110:0.00096063729 111:0.0011105904 114:0.001579194 115:0.0029428303 116:0.00029287723 121:5.6232428e-005 122:1.1715089e-006 
312.5 312.5 312.5 312.5 312.5 312.5 312.5 312.5 312.5 312.5 312.5 312.5 312.5 312.5 312.5 312.5 312.5 312.5 0:0.016217448 1:0.025813801 2:0.030660808 3:0.033642579 4:0.02186198 5:0.012086589 6:0.0060709636 7:0.0038606771 8:0.0019466146 9:0.0019205729 10:0.0013704427 11:0.00083333335 12:0.00061197917 13:0.00061848958 14:0.0013541667 15:0.0053222654 16:0.012757162 17:0.029602865 18:0.042952474 19:0.045654297 20:0.018714193 21:0.00875 22:0.0026790365 23:0.0016666667 24:0.0011328125 25:0.00096354168 26:0.00041015624 27:5.2083335e-005 28:3.580729e-005 29:3.2552085e-005 30:7.4869793e-005 31:0.00040690103 32:0.016246745 33:0.02110677 34:0.035367839 35:0.043339845 36:0.016930338 37:0.00484375 38:0.002874349 39:0.0024088542 40:0.0032812499 41:0.003453776 42:0.00089192711 43:0.00029947917 44:0.00011393229 45:0.00010416667 46:0.00034505207 47:0.0036979166 48:0.0034798176 49:0.01194987 50:0.021389974 51:0.033551432 52:0.0030078124 53:0.00010742187 54:9.4401039e-005 55:0.00012044271 56:0.00021809895 57:0.00026367189 58:1.3020834e-005 64:0.0085709635 65:0.023535157 66:0.029277343 67:0.042161457 68:0.0073079425 69:0.0017936198 70:0.0011979167 71:0.0011230469 72:0.0017578125 73:0.0023990886 74:0.00083007815 75:0.00027994791 76:0.00010416667 77:4.2317708e-005 78:4.5572917e-005 79:4.5572917e-005 80:0.00021484375 81:0.0021972656 82:0.002532552 83:0.0038248699 84:3.2552085e-005 88:6.5104168e-006 89:6.5104168e-006 96:0.030162761 97:0.03110026 98:0.016666668 99:0.018330079 100:0.0032845051 101:0.00097981771 102:0.00087239582 103:0.001031901 104:0.006546224 105:0.034182943 106:0.16653971 107:0.00089843752 108:0.0001920573 109:0.00017252604 110:3.9062499e-005 111:4.2317708e-005 112:1.6276043e-005 113:6.510417e-005 114:3.2552084e-006 115:3.2552084e-006 121:3.2552084e-006 
142.1892168138677 312.5 312.5 312.5 312.5 312.5 54.00002467464523 238.3949381244978 312.5 312.5 297.8450242924764 218.0104834037292 312.5 312.5 312.5 312.5 312.5 312.5 0:0.0085436767 1:0.012382714 2:0.016829655 3:0.04348487 4:0.055411655 5:0.042077441 6:0.027580284 7:0.028095679 8:0.01793313 9:0.015005947 10:0.0061649266 11:0.0029866525 12:0.0015263645 13:0.00081934716 14:0.0025175102 15:0.0018699616 16:4.625347e-005 17:0.0001717986 18:8.5899301e-005 19:0.00027752083 20:0.00017840623 21:3.9645831e-005 22:3.9645831e-005 23:6.6076384e-005 24:1.3215277e-005 25:6.6076386e-006 27:6.6076386e-006 31:6.6076386e-006 32:0.01203251 33:0.026701467 34:0.041621514 35:0.09397383 36:0.072842605 37:0.031359851 38:0.014331968 39:0.014107308 40:0.010737413 41:0.011517114 42:0.003528479 43:0.0019294304 44:0.00087220827 45:0.00052200345 46:0.00070701732 47:0.0015263645 48:0.00013876041 49:9.9114579e-005 50:7.9291662e-005 51:3.3038192e-005 52:6.6076386e-006 64:0.0064226245 65:0.0099907489 66:0.021666447 67:0.017318619 68:0.0086163608 69:0.0072089336 70:0.0033302498 71:0.0052464651 72:0.0052662878 73:0.0075591384 74:0.0019426456 75:0.0006673715 76:0.00015858332 77:0.00011232985 78:0.00023126735 79:0.00064754859 96:0.21012951 97:0.0042817495 98:0.0080877496 99:0.0044667637 100:0.0024382186 101:0.0014404652 102:0.005477732 103:0.0040372671 104:0.011166909 105:0.012805603 106:0.011437822 107:0.001975684 108:0.00063433329 109:0.0011497291 110:0.00083256245 111:0.00041628123 
312.5 312.5 269.4469316072347 312.5 0 312.5 312.5 312.5 51.4593725337411 312.5 289.6489303705352 312.5 312.5 312.5 123.9478495408242 312.5 312.5 312.5 0:0.004522352 1:0.0065703266 2:0.012792062 3:0.029860595 4:0.034918282 5:0.014149079 6:0.0053222449 7:0.0031373233 8:0.0015873362 9:0.0026953591 10:0.0028198559 11:0.0019172531 12:0.00098041352 13:0.00043885177 14:0.001409928 15:0.0013912534 16:8.714787e-005 17:0.00097418868 18:0.003392542 19:0.01154398 20:0.0069158059 21:0.00032057965 22:3.112424e-005 23:3.1124239e-006 29:3.1124239e-006 30:3.1124239e-006 31:3.1124239e-006 32:0.0071399002 33:0.022546399 34:0.054324247 35:0.16337113 36:0.11600315 37:0.019938188 38:0.0052257595 39:0.0035512757 40:0.0022845191 41:0.0036695478 42:0.0043013697 43:0.0057081855 44:0.0028914418 45:0.0015966734 46:0.0020448624 47:0.0029132287 48:0.00028011814 49:0.0018767916 50:0.0043511684 51:0.023184445 52:0.0056832861 53:9.3372719e-006 63:1.2449696e-005 64:0.0055992506 65:0.014643954 66:0.026464941 67:0.087991334 68:0.028500466 69:0.0040710503 70:0.0018269928 71:0.0016900462 72:0.0017491822 73:0.0029723649 74:0.003355193 75:0.0063493447 76:0.0040928372 77:0.002415241 78:0.002063537 79:0.0028229684 80:1.8674544e-005 81:8.0923019e-005 82:0.0003517039 83:0.0020915489 84:2.1786967e-005 95:6.2248478e-006 96:0.11393338 97:0.0031030865 98:0.0092812479 99:0.0079335682 100:0.0037722578 101:0.00078433083 102:0.0025770869 103:0.00096173899 104:0.0043107071 105:0.0095956028 106:0.0091972128 107:0.01115804 108:0.0081296507 109:0.0099068452 110:0.0037068969 111:0.0017554071 114:6.2248478e-006 115:9.3372719e-006 
-151.8945966064239 20.38054146733613 312.5 312.5 270.6166804396537 0 296.1019902668979 256.5023999913795 312.5 89.93470525043232 312.5 282.3252925777308 163.4338128080218 0 312.5 0 312.5 0 0:0.0025950316 1:0.011885713 2:0.015037936 3:0.015107553 4:0.005371118 5:0.00084760645 6:0.0001485844 7:6.7538364e-005 8:3.1171552e-005 9:4.4679226e-005 10:3.558752e-005 11:4.2860884e-005 12:5.6888082e-005 13:8.7280343e-005 14:0.00018728907 15:0.00047406735 16:0.0014177861 17:0.018994385 18:0.072227865 19:0.074924722 20:0.0051560346 21:0.0001023466 22:8.8319393e-006 23:2.5976294e-007 24:2.5976294e-007 25:2.5976294e-007 27:7.7928877e-007 28:5.1952584e-006 29:4.4159697e-006 30:8.8319393e-006 31:4.8315906e-005 32:0.0022661719 33:0.01599724 34:0.027414341 35:0.035855077 36:0.002278121 37:0.00031353385 38:0.00015248085 39:0.00013221933 40:0.00015222108 41:0.00023144876 42:0.00022443518 43:0.00028184277 44:0.00020755058 45:0.00016546898 46:0.00024755407 47:0.00053173472 48:0.00063693873 49:0.024554091 50:0.13291627 51:0.10823178 52:0.001546109 53:1.8183405e-006 56:7.7928877e-007 57:2.3378664e-006 58:4.9354958e-006 59:1.4286961e-005 60:4.6757327e-006 61:3.896444e-006 62:5.9745475e-006 63:1.6884591e-005 64:0.0011858178 65:0.010276482 66:0.033351742 67:0.022148427 68:0.0015803977 69:0.00054368383 70:0.00046004014 71:0.00047328806 72:0.00064343278 73:0.00078214618 74:0.00068941084 75:0.00036678524 76:0.00010416494 77:7.5331249e-005 78:0.00011637379 79:0.00023274758 80:0.00033587348 81:0.005310853 82:0.035164628 83:0.02961817 84:3.4028944e-005 85:7.7928877e-007 88:2.5976294e-007 89:1.8183405e-006 90:1.5845539e-005 91:3.195084e-005 92:5.1952588e-007 94:1.0390518e-006 95:2.8573922e-006 96:0.0021679814 97:0.028739391 98:0.042601641 99:0.019964859 100:0.0016245573 101:0.00087306323 102:0.0013177773 103:0.0017333981 104:0.0075354627 105:0.14577402 106:0.0011569841 107:0.0002270328 108:0.00010910043 109:0.00016702757 110:0.00013741459 111:0.00024157953 112:2.571653e-005 113:0.00072629715 114:0.0092937984 115:0.0073663574 116:7.7928877e-007 121:0.0053531947 122:2.5976294e-007 
-0 195.5317374675569 0 111.4272077349137 0 312.5 0 0 0 0 160.0209021410666 117.1096432213939 312.5 149.5852189385739 106.8185092485893 312.5 312.5 177.8525102738971 0:0.0021805279 1:0.0017613006 2:0.0030474539 3:0.0046462803 4:0.00391779 5:0.0030776302 6:0.0018525111 7:0.0012554658 8:0.001024797 9:0.0013488927 10:0.00157206 11:0.0014314083 12:0.00078372844 13:0.0005002087 14:0.00070615689 15:0.00066421711 16:0.0063741654 17:0.01012198 18:0.030316157 19:0.11005205 20:0.090515949 21:0.037618283 22:0.0067084907 23:0.0030830859 24:0.00266795 25:0.0034170698 26:0.0053817611 27:0.0034250827 28:0.0015940529 29:0.00080589176 30:0.00135145 31:0.0022417328 32:0.0012351779 33:0.0021375653 34:0.004455335 35:0.0075481385 36:0.0046580443 37:0.0026023127 38:0.001507957 39:0.0010873657 40:0.0011131092 41:0.0011843728 42:0.0011807926 43:0.0011811336 44:0.00057726877 45:0.00041428325 46:0.00049083191 47:0.00071399932 48:0.0019848088 49:0.0054712668 50:0.024435893 51:0.1170814 52:0.027459309 53:0.0020942616 54:0.00048708118 55:0.00036859277 56:0.0005326012 57:0.0009845621 58:0.00084237597 59:0.00037132055 60:7.8935453e-005 61:2.6425476e-005 62:0.00011013456 63:0.00043133195 64:0.0013124085 65:0.0028016118 66:0.0073248008 67:0.013119311 68:0.0055778213 69:0.0017783493 70:0.0010711694 71:0.00096120534 72:0.0010848084 73:0.0010133743 74:0.00080896053 75:0.000731048 76:0.00034404264 77:0.00023169175 78:0.00032733491 79:0.00060608104 80:0.0012143785 81:0.0037033174 82:0.016598096 83:0.094417714 84:0.0087500717 85:0.00015821187 86:2.6084501e-005 87:5.8306534e-005 88:0.00029085073 89:0.00098899473 90:0.00044445944 91:6.4785039e-005 92:1.1763599e-005 93:3.068765e-006 94:1.6025771e-005 95:0.00012581937 96:0.0027886548 97:0.0062655653 98:0.050117362 99:0.044841133 100:0.009654846 101:0.0022804332 102:0.0017251574 103:0.0017717002 104:0.0046394612 105:0.0045608664 106:0.0013920258 107:0.0010357081 108:0.00077060098 109:0.0016225242 110:0.00069354085 111:0.00080469833 112:0.00063080166 113:0.0021788231 114:0.017679155 115:0.10140239 116:0.0030452376 117:7.3309384e-006 118:1.1934086e-006 119:1.4320903e-005 120:0.00085328711 121:0.012737761 122:0.00018634222 123:9.5472687e-006 124:1.1934086e-006 126:3.4097388e-007 127:2.8471319e-005 
-312.5 312.5 312.5 312.5 124.1073399315149 312.5 148.5278214224327 293.1063954107919 0 312.5 312.5 74.99063087690531 312.5 312.5 225.4996463082065 312.5 312.5 312.5 0:0.0027777778 1:0.0042682928 2:0.0086043356 3:0.039092142 4:0.0076558264 5:0.0013550136 6:0.0016937669 7:0.0012195122 8:0.0010501355 9:0.0016260162 10:0.0016260162 11:0.0014566396 12:0.0001693767 13:0.00010162601 14:0.00033875339 15:0.00047425475 16:0.0013550136 17:0.0015243902 18:0.0043021678 19:0.070968837 20:0.0083333338 21:0.0058943089 22:0.00010162601 23:0.00010162601 24:0.00013550135 25:0.0002710027 26:0.0004403794 27:0.00010162601 28:6.7750676e-005 29:6.7750676e-005 30:6.7750676e-005 31:0.00010162601 32:0.0015243902 33:0.0060298103 34:0.021104336 35:0.23106368 36:0.017378049 37:0.0040311655 38:0.0035907859 39:0.0026761517 40:0.0031842818 41:0.0024390244 42:0.0002710027 46:0.00020325203 47:0.00037262874 50:0.0004403794 51:0.084518969 52:0.0002710027 57:3.3875338e-005 64:0.0011178862 65:0.0097222226 66:0.017107045 67:0.16233063 68:0.019173441 69:0.0057588075 70:0.0043699187 71:0.0042344173 72:0.0075542005 73:0.0094512198 74:0.00071138213 78:0.00010162601 79:0.0001693767 83:0.009214092 96:0.0012533875 97:0.0022696478 98:0.0008807588 99:0.0065040649 100:0.0011178862 101:0.00054200541 102:0.00040650406 103:0.00037262874 104:0.0020325202 105:0.061720867 106:0.00084688346 111:0.00037262874 115:3.3875338e-005 121:0.12405149 122:0.00010162601 
-312.5 202.9715534896658 312.5 247.1180190354045 26.51557281588795 312.5 312.5 158.5085779008978 0 312.5 312.5 281.3243316485822 312.5 312.5 226.4567454820162 312.5 312.5 312.5 0:3.4433539e-005 1:0.00029738055 2:0.0011143945 3:0.0081169242 4:0.033325404 5:0.010085896 6:0.00036624761 7:0.00010956125 8:3.4433539e-005 9:1.5651607e-005 10:1.2521286e-005 11:1.5651607e-005 12:9.3909648e-006 14:3.1303216e-006 17:1.878193e-005 18:9.390965e-005 19:0.0007512772 20:0.010229891 21:0.0011957828 22:6.2606432e-006 32:0.00044763598 33:0.0031929279 34:0.012217645 35:0.072178952 36:0.25671142 37:0.051953945 38:0.005083642 39:0.0017686316 40:0.00055406691 41:0.00056658819 42:0.00050085143 43:0.00056971854 44:0.00018155864 45:5.9476108e-005 46:9.7039971e-005 47:6.5736749e-005 49:2.191225e-005 50:5.0085146e-005 51:0.0036249124 52:0.039244842 53:0.001430557 64:0.00099231198 65:0.0026545126 66:0.0067364518 67:0.061031878 68:0.15175173 69:0.030545678 70:0.007997972 71:0.0057378793 72:0.0031271912 73:0.0020441001 74:0.0017936742 75:0.0020910548 76:0.00064484624 77:0.00021912251 78:0.00030677152 79:0.00025981668 83:0.00027546831 84:0.0012458679 96:0.038919289 97:0.001937669 98:0.008818116 99:0.044391088 100:0.060728237 101:0.011669839 102:0.0054279775 103:0.0029581538 104:0.0043855803 105:0.004360538 106:0.0076786787 107:0.0064296806 108:0.0027922469 109:0.0018907142 110:0.0014681208 111:0.00032868376 
-312.5 312.5 312.5 312.5 312.5 204.5447431781373 165.6841714448979 89.53261471313901 116.3933824155095 266.3105168836812 312.5 0 312.5 30.84539558407488 312.5 8.106891355070392 312.5 312.5 0:0.006488109 1:0.0075675366 2:0.015019626 3:0.029161856 4:0.0087912725 5:0.0020318632 6:0.0021126762 7:0.00073885941 8:0.00032902331 9:0.0011256061 10:0.001720157 11:0.00087739551 12:0.00053682755 13:0.00025975527 14:0.0013334103 15:0.00067536364 16:0.019914569 17:0.034634035 18:0.071369201 19:0.13200761 20:0.037606787 21:0.023487648 22:0.00094089127 23:0.00047910414 24:0.000357885 25:0.0010390211 26:0.0028169013 27:0.0014199953 28:0.00075040408 29:0.00027707228 30:0.00087739551 31:0.00080812746 32:0.001362272 33:0.013588086 34:0.035026554 35:0.038674671 36:0.0038847842 37:0.00094666361 38:0.00064650195 39:0.00047333181 40:0.00053682755 41:0.00037520204 42:6.3495725e-005 43:1.1544678e-005 44:4.6178713e-005 45:1.1544678e-005 46:6.926807e-005 47:9.2357426e-005 48:0.0004617871 49:0.011244516 50:0.037930038 51:0.031280305 52:0.0001327638 56:5.7723391e-006 57:1.7317017e-005 58:5.7723391e-006 64:0.00054837222 65:0.013357192 66:0.055830061 67:0.038362965 68:0.0025109674 69:0.0009293466 70:0.0007677211 71:0.00089471252 72:0.0011717848 73:0.0011198338 74:8.6585082e-005 75:1.1544678e-005 76:5.7723391e-006 77:5.7723391e-006 78:1.7317017e-005 79:2.8861694e-005 81:0.0050507965 82:0.019897252 83:0.013045486 96:0.0001039021 97:0.01344955 98:0.056326482 99:0.033202495 100:0.0028169013 101:0.0014546295 102:0.0013045486 103:0.0019164166 104:0.0053855921 105:0.14168206 106:0.0003117063 107:8.0812744e-005 108:1.7317017e-005 109:1.7317017e-005 110:1.7317017e-005 111:2.8861694e-005 113:0.00094666361 114:0.0016912953 115:0.0011602402 
-0 0 0 103.2837194410369 0 49.11760571871589 0 4.80900422091999 0 0 0 156.7541753311429 0 0 0 179.477709627278 18.41153093147988 0 0:0.0031818182 1:0.0096881865 2:0.017237592 3:0.018487044 4:0.0037483531 5:0.00075318402 6:0.00046113308 7:0.00024374177 8:0.00016908212 9:0.00044576198 10:0.00089152396 11:0.0012011419 12:0.00067413261 13:0.00038866932 14:0.0010232762 15:0.00094642071 16:0.0017545015 17:0.018410189 18:0.083792269 19:0.12585638 20:0.0088010542 21:0.00041721563 22:6.368028e-005 23:3.2938078e-005 24:3.5133948e-005 25:7.0267895e-005 26:0.00012296882 27:0.00023715415 28:0.00010979359 29:6.8072026e-005 30:7.2463765e-005 31:0.00016688625 32:0.0019323671 33:0.010992534 34:0.036097936 35:0.027801933 36:0.0015656565 37:0.00030522619 38:0.00024154589 39:0.00020860782 40:0.00021299956 41:0.00061484409 42:0.0012516469 43:0.0010869565 44:0.00034694775 45:0.00019982432 46:0.00021958718 47:0.00037329819 48:0.0015283268 49:0.025533596 50:0.16843873 51:0.15066534 52:0.00099253398 53:2.1958717e-006 58:1.0979359e-005 59:4.3917435e-006 63:2.6350461e-005 64:0.0014997805 65:0.0099231442 66:0.033550724 67:0.013855951 68:0.00085858587 69:0.00025911286 70:0.00026789636 71:0.00020421608 72:0.00028107158 73:0.0010144927 74:0.0023473869 75:0.0024110673 76:0.00065876154 77:0.00042599911 78:0.00037110233 79:0.00046552482 80:0.00075318402 81:0.0091545889 82:0.047140975 83:0.025634607 84:4.3917435e-006 95:6.5876152e-006 96:0.0023429953 97:0.0042863418 98:0.0089108478 99:0.0038691261 100:0.00085419411 101:0.00025472112 102:0.00063460693 103:0.00033816425 104:0.0017237593 105:0.0032652614 106:0.03814888 107:0.04184014 108:0.0033684673 109:0.0041743522 110:0.00088932808 111:0.00082564779 112:0.00012516469 113:0.00075318402 114:0.0018203777 115:0.00027667984 127:2.1958717e-006 
-312.5 312.5 312.5 312.5 0 312.5 312.5 312.5 70.69893759222785 312.5 312.5 312.5 312.5 312.5 312.5 312.5 312.5 312.5 0:0.017384844 1:0.0088940402 2:0.012552511 3:0.016642075 4:0.010259587 5:0.00515805 6:0.0029950484 7:0.001687155 8:0.0010974841 9:0.0012404209 10:0.0013938609 11:0.001291225 12:0.00103298 13:0.00072176167 14:0.0015160192 15:0.0017884208 16:0.033587947 17:0.065421611 18:0.06441386 19:0.10578524 20:0.036221772 21:0.017485538 22:0.0039134049 23:0.0014512867 24:0.0010157408 25:0.001469325 26:0.0053764507 27:0.0021970232 28:0.0026628233 29:0.00087759917 30:0.0048545948 31:0.0064382008 32:0.0061423951 33:0.015230975 34:0.023152316 35:0.027306497 36:0.0096857855 37:0.0033881243 38:0.0017876216 39:0.0012838042 40:0.0012738716 41:0.0017079334 42:0.0016658058 43:0.0016904658 44:0.00086823752 45:0.00068545667 46:0.00099861587 47:0.0022384659 48:0.0070775342 49:0.020152016 50:0.032379039 51:0.039803181 52:0.0026289159 53:0.000129465 54:6.0736667e-005 55:5.1146668e-005 56:0.00012215834 57:0.000299345 58:0.00068043335 59:0.00075897999 60:0.00011702083 61:6.8614165e-005 62:0.00035368835 63:0.0027144267 64:0.0062283627 65:0.01873669 66:0.030993966 67:0.028106807 68:0.005941005 69:0.0016441141 70:0.0009899392 71:0.00077998667 72:0.00098525838 73:0.0019836458 74:0.002281735 75:0.0014767458 76:0.00063453836 77:0.00050050666 78:0.00085522252 79:0.0021570651 80:0.001937865 81:0.0068993201 82:0.011371114 83:0.01019828 84:0.000176045 85:1.1416666e-006 86:1.5983334e-006 87:5.0233334e-006 88:3.562e-005 89:0.00024660002 90:0.0006120475 91:0.00037834834 92:1.7124999e-005 93:1.5184167e-005 94:0.00035894001 95:0.0020304541 96:0.011010576 97:0.02228168 98:0.067270309 99:0.041295338 100:0.0074365884 101:0.0019562459 102:0.002145991 103:0.0015167042 104:0.0070003574 105:0.019719323 106:0.0087416274 107:0.0025178317 108:0.0013018425 109:0.0060703559 110:0.0025556209 111:0.0030906058 112:0.00054229167 113:0.0018691367 114:0.0035909985 115:0.0018797542 116:5.9366666e-006 118:1.1416667e-007 119:1.2558334e-006 120:7.9916672e-006 121:0.00016999416 122:0.00040552 123:0.00019533916 124:4.5666667e-007 125:3.7674999e-006 126:0.00044011252 127:0.0010650608 
-312.5 312.5 312.5 312.5 312.5 312.5 278.346683952495 222.2709879592181 312.5 312.5 312.5 312.5 312.5 312.5 312.5 312.5 312.5 312.5 0:0.00089485105 1:0.0030567478 2:0.0022846418 3:0.0036189994 4:0.012246788 5:0.0080338614 6:0.0033220355 7:0.0019718399 8:0.0015125358 9:0.0010334342 10:0.00022965204 11:1.979759e-005 12:1.1878554e-005 14:3.1676143e-005 15:3.5635661e-005 16:0.0044069435 17:0.007186525 18:0.0063748239 19:0.016534947 20:0.033992462 21:0.031529643 22:0.0024628201 23:0.0011957744 24:0.00083545828 25:0.0007285513 26:0.00036823517 27:7.9190359e-006 31:1.5838072e-005 32:0.0033735093 33:0.018625572 34:0.016907141 35:0.033580672 36:0.061859548 37:0.023135463 38:0.0077171004 39:0.0041099796 40:0.0028191768 41:0.001666957 42:0.00034051854 43:5.9392769e-005 46:5.1473733e-005 47:9.8987948e-005 48:7.9190359e-006 49:0.00051473733 50:0.0023361156 51:0.012971381 52:0.008168485 53:2.7716625e-005 54:1.1878554e-005 55:3.9595179e-006 64:0.0035160519 65:0.019156147 66:0.020561777 67:0.046651039 68:0.053936552 69:0.018023726 70:0.0075349626 71:0.0045296885 72:0.0026647556 73:0.0017461474 74:0.00035635661 75:7.1271323e-005 76:2.3757108e-005 78:4.7514215e-005 79:9.502843e-005 81:3.9595179e-006 82:1.1878554e-005 83:0.0030290312 84:0.0026291199 96:0.16414973 97:0.016297376 98:0.023860054 99:0.06801264 100:0.087723121 101:0.024774704 102:0.022022838 103:0.013913746 104:0.031992905 105:0.01026703 106:0.0043515102 107:0.00059392769 108:0.00051077781 109:0.0028904481 110:0.0013026814 111:0.00016234023 115:0.00018213782 116:7.1271323e-005 
-312.5 0 312.5 101.2149135614225 156.3159426077301 312.5 0 312.5 14.47490071680701 0 312.5 78.96370106813728 0 127.8925267721717 142.113991662949 275.0696614736703 312.5 271.7010132128836 0:0.00023131326 1:0.0025003701 2:0.0099940784 3:0.014926602 4:0.013370999 5:0.00047616885 6:6.8552836e-005 7:3.3056767e-005 8:9.5048717e-006 9:1.4047023e-005 10:2.5991198e-005 11:1.5729302e-005 12:1.4804048e-005 13:7.8225939e-006 14:3.9869992e-005 15:2.8851071e-005 16:5.6776891e-005 17:0.0015434062 18:0.0061088568 19:0.022056939 20:0.016892597 21:5.9636761e-005 22:1.1523605e-005 23:1.2785315e-005 24:1.6822783e-006 25:1.6822781e-007 31:4.2056956e-007 32:0.00023299553 33:0.0049389163 34:0.020722808 35:0.023242524 36:0.0070081186 37:0.00076383841 38:0.0004226724 39:0.00024460326 40:0.00013155416 41:7.9235302e-005 42:6.2580752e-005 43:0.00010421714 44:6.6702334e-005 45:3.9281196e-005 46:4.2056956e-005 47:7.2758536e-005 48:0.00023249084 49:0.0089276824 50:0.04274711 51:0.20150118 52:0.035695504 53:0.00010934808 54:0.00010076846 55:5.8963851e-005 56:4.4580374e-006 59:1.6822781e-007 60:8.4113907e-008 63:3.3645563e-007 64:0.00040374676 65:0.0090831248 66:0.026583696 67:0.020195246 68:0.0024842203 69:0.0010185353 70:0.0010376292 71:0.0010385545 72:0.0008536721 73:0.00049719732 74:0.00030945506 75:0.00023560306 76:8.739435e-005 77:5.7870369e-005 78:7.511372e-005 79:0.00012373156 80:0.00017756446 81:0.010663793 82:0.034527414 83:0.10348383 84:0.00093669252 85:1.1775948e-006 86:2.3551895e-006 87:2.6075313e-006 88:1.6822781e-007 95:3.1963286e-006 96:0.00056877825 97:0.0094127674 98:0.034954712 99:0.012553076 100:0.0020518748 101:0.0013278222 102:0.0025185386 103:0.0040447856 104:0.021418681 105:0.19447489 106:0.0012871111 107:0.00044109335 108:0.00017201295 109:0.00012978776 110:0.00013710567 111:0.00018252719 112:4.3150438e-005 113:0.0027919931 114:0.023386275 115:0.03815062 116:1.1523605e-005 127:1.7663921e-006 
-302.7946202074438 0 104.4018461676845 0 0 113.7570244134151 0 0 0 0 0 218.9558276893797 312.5 0 0 271.5511090220435 186.5006910805727 28.0139652040417 0:0.00023731361 1:0.0013579612 2:0.0094661759 3:0.022768922 4:0.0068820948 5:0.00093607034 6:0.00038233859 7:0.00014502498 8:9.2288625e-005 9:7.9104539e-005 10:0.00019776134 11:1.318409e-005 12:3.9552269e-005 14:6.5920445e-005 15:2.636818e-005 16:1.318409e-005 17:0.0010151749 18:0.011733839 19:0.079526424 20:0.026104497 21:9.2288625e-005 32:0.0011206476 33:0.0054582129 34:0.029914699 35:0.047990087 36:0.0036124405 37:0.00015820908 38:3.9552269e-005 42:0.00015820908 43:0.00021094544 44:7.9104539e-005 45:9.2288625e-005 46:0.00018457725 47:0.00038233859 48:0.00010547272 49:0.00092288625 50:0.01757439 51:0.25527033 52:0.0083982646 64:0.00089651806 65:0.0061701541 66:0.025247531 67:0.084351808 68:0.00050099537 70:1.318409e-005 71:1.318409e-005 75:2.636818e-005 76:7.9104539e-005 77:3.9552269e-005 78:7.9104539e-005 79:9.2288625e-005 81:0.00019776134 82:0.0064602038 83:0.17304118 84:9.2288625e-005 96:0.0029136837 97:0.0080818469 98:0.038115203 99:0.081991851 100:0.0012656726 101:7.9104539e-005 102:0.00055373175 103:0.00010547272 104:0.00061965222 105:0.00022412952 106:0.00054054765 107:0.00054054765 108:0.0003691545 109:0.00080422946 110:0.00032960225 111:9.2288625e-005 114:0.00075149309 115:0.032472413 
-0 115.0709890982129 166.5631082733414 0 0 0 0 0 0 0 312.5 0 0 0 0 0 0 312.5 1:3.4798344e-005 2:0.00077948289 3:0.0037930196 4:0.005713888 5:0.0022131747 6:0.0010787486 7:0.0007098862 8:0.00038278179 9:0.00010439503 16:4.1758012e-005 17:0.0022827713 18:0.022444932 19:0.14325783 20:0.047799006 21:0.0012109823 22:0.00018095139 23:0.00011831437 24:0.00010439503 25:2.7838674e-005 32:6.9596686e-006 33:0.0008282006 34:0.015005046 35:0.041138601 36:0.0088735772 37:0.0032988829 38:0.0021226991 39:0.002435884 40:0.0025333194 41:0.0012040227 42:1.3919337e-005 49:0.0028465046 50:0.047151756 51:0.1414483 52:0.00096043426 56:2.7838674e-005 57:9.7435361e-005 64:1.3919337e-005 65:0.0026725128 66:0.040073771 67:0.058990151 68:0.0060270731 69:0.003110972 70:0.0029508995 71:0.0034102376 72:0.005442461 73:0.0043080351 74:2.7838674e-005 75:6.9596686e-006 81:0.0017259979 82:0.032654766 83:0.061718341 96:0.00010439503 97:0.0042453981 98:0.032077111 99:0.02392734 100:0.0035563908 101:0.0021714165 102:0.0023871663 103:0.0032919233 104:0.0091589242 105:0.17889133 106:0.0021226991 107:0.00036190278 108:2.7838674e-005 110:2.0879006e-005 113:0.00040366079 114:0.0071267006 115:0.0047186553 
-312.5 312.5 312.5 312.5 271.8997398799912 312.5 0 307.0205232961231 216.4622183342583 312.5 312.5 247.3359995680537 312.5 312.5 312.5 312.5 312.5 312.5 0:0.0029124916 1:0.0076977331 2:0.016739225 3:0.063387729 4:0.048247639 5:0.010987207 6:0.0022679735 7:0.0012464734 8:0.00060803583 9:0.00079044653 10:0.0013863216 11:0.00070532155 12:0.00021281253 13:0.0001155268 14:0.00039522327 15:0.00040738398 16:0.0057824203 17:0.0077767777 18:0.012859957 19:0.052096508 20:0.046508659 21:0.030006567 22:0.00050466973 23:0.00030401791 24:0.00013376787 25:0.00043170541 26:0.0011431073 27:0.00027969645 28:4.8642865e-005 29:2.4321433e-005 30:7.9044657e-005 31:0.0001155268 32:0.0039157504 33:0.013796332 34:0.023415459 35:0.11499173 36:0.13984215 37:0.025428057 38:0.0031617861 39:0.0013741609 40:0.0007965269 41:0.00087557157 42:0.0012099913 43:0.0005837144 44:0.00019457146 45:4.8642865e-005 46:0.00031009826 47:0.000662759 48:0.0003465804 49:0.004736599 50:0.0020490806 51:0.0098866625 52:0.012720109 53:9.1205373e-005 64:0.0025902325 65:0.0080260728 66:0.0077281352 67:0.033721667 68:0.039479766 69:0.0036664559 70:0.0008694912 71:0.00049858936 72:0.00031009826 73:0.00046818756 74:0.00081476796 75:0.0004499465 76:0.00017633039 77:6.0803581e-005 78:0.00030401791 79:0.00042562507 80:4.8642865e-005 81:0.0036482147 82:0.00060195546 83:0.00050466973 84:0.0010640627 96:0.090378441 97:0.017511431 98:0.026802218 99:0.029161397 100:0.020381359 101:0.0038245453 102:0.0041650455 103:0.0013376788 104:0.0055270456 105:0.0028881701 106:0.0040799202 107:0.001884911 108:0.0013437591 109:0.0044933846 110:0.0018970717 111:0.0012951163 113:0.0008694912 114:6.0803581e-005 
-312.5 312.5 312.5 312.5 267.1548663409585 312.5 312.5 312.5 245.074481477364 312.5 312.5 312.5 312.5 312.5 312.5 312.5 312.5 312.5 0:0.0035726347 1:0.015977083 2:0.029465601 3:0.030881608 4:0.0058251978 5:0.0015656658 6:0.00064276723 7:0.00036839198 8:0.00023216369 9:0.00034728617 10:0.00040484744 11:0.00015157794 12:0.00014582182 13:0.00011128507 14:0.00027821268 15:0.00050653896 16:0.003069933 17:0.021721695 18:0.064637437 19:0.09893243 20:0.010904019 21:0.0026151992 22:0.00028588751 23:0.0001170412 24:0.00010361024 25:0.00011895991 26:9.7854114e-005 27:2.8780623e-005 28:3.2618038e-005 29:2.110579e-005 30:7.0992202e-005 31:0.00021873273 32:0.0056045465 33:0.035810769 34:0.08850617 35:0.081761912 36:0.0087166913 37:0.0020415054 38:0.0012337293 39:0.001091745 40:0.0013642015 41:0.0019820256 42:0.0012260545 43:0.00057177502 44:0.00024943205 45:0.00017076502 46:0.00029548106 47:0.00068497879 48:0.00039717258 49:0.0060611991 50:0.040444449 51:0.094519399 52:0.0018899275 53:1.7268374e-005 54:1.9187082e-005 55:1.9187082e-006 56:3.2618038e-005 57:0.00026478173 58:0.00016117148 59:2.3024499e-005 62:1.9187082e-006 63:1.3430958e-005 64:0.0035687971 65:0.023045603 66:0.060542919 67:0.067505911 68:0.0043650609 69:0.0013699576 70:0.00094976055 71:0.0010265089 72:0.0016673574 73:0.0042633694 74:0.0030718518 75:0.00061782403 76:0.00019187081 77:0.00016884632 78:0.00019954566 79:0.00061014917 80:2.8780623e-005 81:0.0001650089 82:0.0032464543 83:0.017272212 84:7.6748329e-006 89:6.1398663e-005 90:0.00010936637 96:0.0025250199 97:0.01205908 98:0.026128968 99:0.01651624 100:0.0014409499 101:0.00045089642 102:0.00030315589 103:0.00029548106 104:0.00066387304 105:0.012254789 106:0.061571345 107:0.00071951555 108:0.0003511236 109:0.00064852339 110:0.00033577392 111:0.00062358018 112:1.9187082e-006 114:2.3024499e-005 115:0.00041635966 121:1.9187082e-006 
-312.5 -0 312.5 312.5 87.99772928184792 182.5974376366886 312.5 312.5 294.9113488672131 312.5 128.0259156833592 312.5 312.5 236.68855105162 69.98417367546914 312.5 312.5 112.5308233955617 0:0.013523938 1:0.020876758 2:0.063762739 3:0.10325132 4:0.037256479 5:0.020778283 6:0.027819265 7:0.056245793 8:0.034384284 9:0.018529763 10:0.0076154214 11:0.0036599976 12:0.0011324657 13:0.00016412546 14:0.0017561424 15:0.00060726417 17:0.00055802654 18:0.004004661 19:0.010717392 20:0.00042672618 21:6.565018e-005 22:1.6412545e-005 23:3.282509e-005 24:1.6412545e-005 32:0.0088299494 33:0.061251622 34:0.10367806 35:0.1098984 36:0.019038552 37:0.0063352427 38:0.0067127314 39:0.0058592786 40:0.0039718361 41:0.0036764103 42:0.0018382051 43:0.00067291438 44:0.00045955129 45:0.00019695055 46:0.00072215201 47:0.00054161402 49:4.9237638e-005 50:0.00054161402 51:0.0078616096 52:1.6412545e-005 64:0.0030855585 65:0.041441679 66:0.056672521 67:0.066208206 68:0.0015427793 69:0.000180538 70:0.00022977564 71:0.00013130036 72:0.00011488782 73:3.282509e-005 74:6.565018e-005 75:3.282509e-005 76:1.6412545e-005 77:1.6412545e-005 78:0.00013130036 79:0.0002461882 82:0.000180538 83:0.0010175778 96:0.0017233173 97:0.024881419 98:0.019333979 99:0.013162862 100:8.2062732e-005 101:1.6412545e-005 111:1.6412545e-005 114:3.282509e-005 115:4.9237638e-005 
-299.9791273901728 -0 312.5 302.7502694137305 69.68994618056456 312.5 0 0 0 312.5 312.5 255.6945584217531 312.5 226.8366599139249 312.5 312.5 312.5 312.5 0:0.070538245 1:0.018569404 2:0.054546744 3:0.060467422 4:0.051898018 5:0.020311614 6:0.057152975 7:0.026628895 8:0.039263457 9:0.045325778 10:0.025368271 11:0.010849859 12:0.0045609064 13:0.0019263456 14:0.0059490083 15:0.0039518415 16:0.00076487253 17:0.0018413598 18:0.0021813032 19:0.0072237961 20:0.0024645892 21:0.00089235127 22:0.00052407931 23:0.00099150138 24:0.0021954675 25:0.0032436261 26:0.0013739377 27:0.00036827195 28:0.00019830029 29:0.00015580737 30:0.00014164306 31:0.00019830029 32:0.0095184138 33:0.016062323 34:0.013966005 35:0.041841358 36:0.016133144 37:0.0059915013 38:0.0058215298 39:0.0085694054 40:0.028271955 41:0.030779038 42:0.0069830026 43:0.0028611899 44:0.0011473087 45:0.0010906516 46:0.0015155807 47:0.0034560906 48:0.00014164306 49:0.00018413598 50:0.00021246458 51:0.0039518415 52:0.00018413598 56:8.4985833e-005 57:0.00058073655 58:0.00033994333 64:0.0052266289 65:0.01194051 66:0.0087535409 67:0.05362606 68:0.0048866854 69:0.0015155807 70:0.001062323 71:0.0017563739 72:0.0031869689 73:0.0090509914 74:0.0016288952 75:0.00029745043 76:0.00011331445 77:0.00012747875 78:0.00042492917 79:0.00090651558 81:1.4164306e-005 82:1.4164306e-005 83:0.0011048159 84:1.4164306e-005 89:0.0002407932 90:0.00012747875 96:0.0038526913 97:0.022903683 98:0.02776204 99:0.051657222 100:0.0038810198 101:0.0015155807 102:0.0060623228 103:0.0095609063 104:0.027025497 105:0.014560906 106:0.0015722379 107:0.00026912181 108:0.00018413598 109:0.00045325779 110:0.00031161474 111:0.00039660058 115:0.0002407932 122:1.4164306e-005 
-312.5 -312.5 312.5 312.5 312.5 312.5 312.5 312.5 312.5 312.5 312.5 312.5 312.5 312.5 312.5 312.5 312.5 312.5 0:0.042568535 1:0.0029558099 2:0.0035630306 3:0.0041021449 4:0.0049100998 5:0.0050377091 6:0.0056614191 7:0.0043451767 8:0.0036218169 9:0.0035580122 10:0.0035558615 11:0.0018969374 12:0.001582215 13:0.0013915176 14:0.0020309992 15:0.0017650264 16:0.013447752 17:0.010903447 18:0.01399762 19:0.01911634 20:0.028404593 21:0.084438086 22:0.069333561 23:0.055057783 24:0.042762101 25:0.024045795 26:0.023186941 27:0.0076587233 28:0.0046806894 29:0.002000889 30:0.0047165346 31:0.0042168503 32:0.0059524835 33:0.0091047259 34:0.012464872 35:0.013880047 36:0.010824587 37:0.0088996906 38:0.0091807181 39:0.010987325 40:0.011766603 41:0.0075891833 42:0.0034676818 43:0.0030554601 44:0.00273787 45:0.002760811 46:0.0035945745 47:0.0042863903 48:0.0027622448 49:0.01042527 50:0.025210772 51:0.025882512 52:0.0094101289 53:0.0044677677 54:0.0088229813 55:0.015748309 56:0.01938303 57:0.0042304713 58:0.00034554943 59:8.817963e-005 60:6.5238586e-005 61:6.2370957e-005 62:0.00019571577 63:0.00045380247 64:0.0027177965 65:0.0078221783 66:0.01282691 67:0.0099263024 68:0.0057890285 69:0.0040727518 70:0.004884291 71:0.0077325646 72:0.012305001 73:0.0080279307 74:0.0025887531 75:0.0017635926 76:0.0011219603 77:0.00086745812 78:0.001163541 79:0.0014323813 80:0.00054484972 81:0.0042978609 82:0.008778533 83:0.0079440521 84:0.002117028 85:0.00017922689 86:0.00018281142 87:0.00049466622 88:0.0011542211 89:0.00035128469 90:1.0036706e-005 92:7.1690755e-007 94:7.885983e-006 95:3.5845376e-005 96:0.0079849167 97:0.018025206 98:0.022954663 99:0.0095248334 100:0.0048283725 101:0.0029235489 102:0.0040691672 103:0.0060894126 104:0.01608884 105:0.017756365 106:0.0070830467 107:0.0052355756 108:0.0034813031 109:0.0045803222 110:0.0034411561 111:0.0035400894 112:4.3731361e-005 113:0.00086028903 114:0.0014330982 115:0.00019499885 116:1.5771966e-005 119:7.1690755e-007 120:6.1654049e-005 121:1.9356503e-005 127:7.1690755e-007 
-312.5 -312.5 312.5 312.5 24.08093615673352 312.5 56.69408083085489 312.5 118.9776796603733 312.5 312.5 312.5 312.5 312.5 312.5 312.5 312.5 312.5 0:0.02084022 1:0.0042561982 2:0.0073278239 3:0.021060606 4:0.053760331 5:0.053719006 6:0.030068871 7:0.017520661 8:0.0089118453 9:0.0074931132 10:0.0044214875 11:0.000922865 12:0.0008677686 13:0.00020661157 14:0.0021900826 15:0.0010606061 16:0.0032231405 17:0.002630854 18:0.0057851239 19:0.016019283 20:0.059917357 21:0.085757576 22:0.027107438 23:0.013030303 24:0.0098484848 25:0.0062809917 26:0.0036088154 27:0.0010330578 28:0.00097796146 29:0.00024793387 30:0.0013636363 31:0.00041322314 32:0.0022589532 33:0.0023553718 34:0.0030716253 35:0.024035813 36:0.078112945 37:0.045853995 38:0.017066116 39:0.0079063363 40:0.0069146007 41:0.0036639119 42:0.00064738293 43:0.00015151515 44:0.00013774105 45:4.1322313e-005 46:0.00024793387 47:0.0002754821 50:8.2644627e-005 51:0.0028236913 52:0.0090909088 53:0.0008677686 54:9.6418735e-005 56:0.00044077134 57:0.00089531683 64:0.0016528926 65:0.0020661156 66:0.0025206611 67:0.018292012 68:0.061033059 69:0.025881542 70:0.0080303028 71:0.0034848484 72:0.0049311295 73:0.0041046832 74:0.00024793387 75:4.1322313e-005 76:4.1322313e-005 77:2.7548209e-005 78:0.00013774105 79:0.00012396694 83:0.00016528925 84:0.00012396694 88:0.00012396694 89:0.0029889806 96:0.0048347106 97:0.0040909089 98:0.0057300273 99:0.021129476 100:0.038347106 101:0.013953168 102:0.0053168046 103:0.0035123967 104:0.010013774 105:0.0069283745 106:0.00048209366 107:0.00016528925 108:9.6418735e-005 109:0.00013774105 110:0.00016528925 111:0.00020661157 120:0.00039944903 121:0.069559231 
-248.219753945098 -179.6468291826169 312.5 24.28902000839049 312.5 0 0 8.992831340970909 185.6086733928269 31.90476491748446 312.5 0 0 0 312.5 0 312.5 0 0:0.017061781 1:0.0042205458 2:0.075161636 3:0.1484824 4:0.013963722 5:0.005163434 6:0.0081267962 7:0.0061961208 8:0.0041307472 9:0.0066900142 10:0.0060165231 11:0.001795977 12:0.0003591954 14:0.001257184 16:0.0015714798 17:0.0022449712 18:0.074712642 19:0.074398346 20:0.0069145113 21:0.013604525 22:0.0005387931 23:0.0010775862 24:0.0015714798 25:0.0016612788 26:0.0018857758 27:0.0012122844 28:0.00026939655 32:0.00013469828 33:0.0005387931 34:0.11229346 35:0.05702227 36:0.0030980604 37:0.0018857758 38:0.0018857758 39:0.0028735632 40:0.0047144396 41:0.003591954 42:0.00031429599 49:0.00040409484 50:0.047593392 51:0.0027837644 56:0.00013469828 57:0.00049389369 64:0.0001795977 65:0.00022449713 66:0.030307112 67:0.038074713 68:0.0010326868 69:0.0008979885 70:0.0007183908 71:0.0010326868 72:0.0048940373 73:0.014682112 74:0.00013469828 82:0.009159483 89:4.4899425e-005 98:0.00085308909 99:0.0029184627 100:0.00026939655 101:4.4899425e-005 102:0.0001795977 103:0.0005387931 104:0.0027837644 105:0.11489763 106:0.0014367816 121:0.054642599 
-312.5 -292.4236650289009 183.7227455546918 0 0 0 0 0 0 98.50731681884832 270.6091783645692 0 312.5 188.9193630045334 0 84.98606432188889 273.3206793063923 312.5 0:0.0018880001 1:0.0023360001 2:0.013024 3:0.10592 4:0.017824 5:0.0037440001 6:0.00072000001 7:0.000688 8:0.000256 9:0.000256 10:0.00095999998 11:0.001312 12:0.00030399999 13:7.9999998e-005 14:0.00031999999 15:0.00014400001 16:0.00014400001 17:0.001296 18:0.0099360002 19:0.16852801 20:0.023391999 21:0.0052800002 22:9.6000003e-005 23:7.9999998e-005 24:7.9999998e-005 25:1.6e-005 26:1.6e-005 27:9.6000003e-005 28:1.6e-005 32:0.00039999999 33:0.0020320001 34:0.019264 35:0.240784 36:0.016752001 37:0.00104 38:0.00030399999 39:0.00028800001 40:0.00016 41:0.00014400001 42:0.000128 43:9.6000003e-005 46:4.8000002e-005 49:0.00016 50:0.0023680001 51:0.063391998 52:0.0083520003 64:0.00039999999 65:0.00079999998 66:0.016144 67:0.149424 68:0.0050079999 69:0.000864 70:0.00039999999 71:0.00060799997 72:0.00059200003 73:0.00046400001 74:0.00044800001 75:4.8000002e-005 77:1.6e-005 78:3.2e-005 79:3.2e-005 82:0.000224 83:0.0082559995 84:0.00019200001 96:0.015984001 97:0.00078399997 98:0.013792 99:0.060479999 100:0.00152 101:0.00095999998 102:0.000352 103:0.00062399998 104:0.00088000001 105:0.00094400003 106:0.0022400001 107:0.00039999999 108:0.00044800001 109:0.00136 110:0.00031999999 111:0.000112 115:0.00038400001 
-312.5 -312.5 312.5 293.1113732507924 0.3070953461110754 312.5 93.99245642179702 199.505244255609 0 312.5 312.5 185.1438984844667 312.5 312.5 217.4484685845193 312.5 312.5 312.5 0:0.0018583334 1:0.0020333333 2:0.0054416666 3:0.082691669 4:0.01365 5:0.0031666667 6:0.00053333334 7:0.00061666669 8:0.00024166667 9:0.00033333333 10:0.00115 11:0.0021583333 12:0.00019166667 13:0.00012500001 14:0.00020833334 15:0.00020833334 16:0.00038333333 17:0.0015416667 18:0.0052666669 19:0.13745834 20:0.016783332 21:0.0062166667 22:4.9999999e-005 23:7.5000004e-005 24:4.1666666e-005 25:5.8333335e-005 26:9.9999997e-005 27:0.00013333333 28:8.3333334e-006 29:8.3333334e-006 30:2.4999999e-005 31:6.6666667e-005 32:0.00055 33:0.0040750001 34:0.016258333 35:0.20450833 36:0.012916666 37:0.00098333333 38:0.00016666666 39:0.00041666668 40:0.00016666666 41:8.3333332e-005 42:6.6666667e-005 43:0.00020833334 44:5.8333335e-005 45:3.3333334e-005 46:8.3333334e-006 47:0.00015833334 48:8.3333334e-006 49:0.0010166666 50:0.0046583335 51:0.058958333 52:0.0061666667 64:0.0010333334 65:0.0033833333 66:0.030533334 67:0.14458333 68:0.0045250002 69:0.00076666666 70:0.00021666667 71:0.00065833336 72:0.000375 73:0.00041666668 74:0.00034166666 75:0.00057500001 76:2.4999999e-005 77:4.9999999e-005 78:5.8333335e-005 79:4.9999999e-005 81:0.00054166664 82:0.0036416666 83:0.013575 84:0.00030000001 96:0.081091665 97:0.007375 98:0.028091667 99:0.068400003 100:0.001125 101:0.00055833336 102:0.00011666667 103:0.00047500001 104:0.00073333335 105:0.00058333331 106:0.0017416667 107:0.0028083334 108:0.00015000001 109:0.0045916666 110:0.000275 111:0.00045833332 113:0.00025000001 114:5.8333335e-005 115:0.001175 
-0 -0 0 0 0 0 0 0 0 0 0 0 0 0 0 0 31.23664397225093 0 0:0.00097080646 1:0.00020802996 2:0.0063102422 3:0.2751196 4:0.097566046 5:0.0054434505 6:0.0019069413 7:0.00048540323 9:0.00013868664 10:0.00058941822 12:0.00010401498 13:3.4671659e-005 14:3.4671659e-005 15:0.00010401498 18:0.0014215381 19:0.044449069 20:0.017197143 21:0.0031551211 23:6.9343318e-005 32:6.9343318e-005 33:0.00065876154 34:0.019728174 35:0.23722349 36:0.070626169 37:0.00079744816 38:0.00024270162 39:0.00013868664 49:0.00013868664 50:0.0013521947 51:0.010124125 52:0.00020802996 64:0.00017335829 65:0.0034671659 66:0.0098467516 67:0.061923582 68:0.012620484 69:0.00020802996 70:0.00010401498 71:6.9343318e-005 96:0.042750157 97:0.0021843147 98:0.017509189 99:0.020768324 100:0.018029263 101:0.0010401498 102:0.0040912558 103:0.00031204493 104:0.0022883294 105:0.0022189862 106:0.0015602247 107:0.00013868664 108:0.00010401498 109:0.0016295679 110:0.00034671658 
-312.5 -307.6252837241821 312.5 312.5 312.5 312.5 259.6862737764469 312.5 160.8494153224231 312.5 312.5 312.5 312.5 312.5 312.5 312.5 312.5 312.5 0:0.0049731662 1:0.0092844367 2:0.016627908 3:0.023649374 4:0.01549195 5:0.01285331 6:0.010116279 7:0.016019678 8:0.023416815 9:0.037924867 10:0.019186046 11:0.012683363 12:0.0064042932 13:0.003157424 14:0.0024776387 15:0.0021288015 16:0.0028175313 17:0.0099731665 18:0.030867621 19:0.029105546 20:0.007504472 21:0.0062790699 22:0.0021914132 23:0.003568873 24:0.012236136 25:0.021601073 26:0.0050268336 27:0.0020751341 28:0.001940966 29:0.00050983898 30:0.00030411448 31:0.00025044722 32:0.001314848 33:0.0094901612 34:0.036520574 35:0.035912342 36:0.013237925 37:0.0073166369 38:0.0056529515 39:0.0076296958 40:0.013801431 41:0.014937388 42:0.0027728085 43:0.0011270125 44:0.00035778174 45:0.00026833633 46:0.00029516994 47:0.00036672631 49:0.0013595707 50:0.027799642 51:0.0079785334 52:1.7889088e-005 55:3.5778176e-005 56:0.001314848 57:0.0029516995 64:0.00027728087 65:0.0048300535 66:0.050724506 67:0.025134169 68:0.0063595707 69:0.0037656529 70:0.0035152058 71:0.004937388 72:0.014516994 73:0.011905188 74:0.0004919499 75:0.00025939176 76:6.2611805e-005 77:2.6833632e-005 78:5.3667263e-005 79:6.2611805e-005 81:8.9445439e-006 82:0.007763864 83:0.00045617172 88:0.00055456173 89:0.041842576 96:0.00038461538 97:0.0023255814 98:0.028488372 99:0.011708408 100:0.0046601072 101:0.0030322003 102:0.0037745975 103:0.010813953 104:0.17755814 105:0.024123434 106:0.00052772806 107:0.00017889087 108:2.6833632e-005 109:9.8389981e-005 110:2.6833632e-005 111:5.3667263e-005 114:8.0500897e-005 120:0.00046511629 121:0.0090161003 
-312.5 -312.5 312.5 312.5 282.8822071814053 312.5 0 170.4228828775286 0 312.5 312.5 312.5 312.5 312.5 312.5 312.5 312.5 312.5 0:0.0020069277 1:0.0073390356 2:0.015132766 3:0.053237859 4:0.080485761 5:0.041852403 6:0.019118881 7:0.016113315 8:0.0075308033 9:0.0040138555 10:0.00085632136 11:0.00029187292 12:0.00014955472 13:4.341911e-005 14:0.00027136944 15:0.00030634593 16:0.00026413292 17:0.0019791878 18:0.010430235 19:0.071505241 20:0.050194904 21:0.0056070955 22:0.00090818305 23:0.00052102935 24:0.00032202507 25:0.00012302081 26:1.326695e-005 27:3.6182591e-006 29:1.2060864e-006 30:1.2060864e-006 31:1.0854777e-005 32:0.0015847975 33:0.0070966124 34:0.022423558 35:0.098262273 36:0.076617844 37:0.020338235 38:0.01222851 39:0.0094062677 40:0.0077418685 41:0.0018790826 42:0.00016161558 43:6.2716492e-005 44:3.4976507e-005 45:2.7739987e-005 46:0.00011578429 47:0.00019779817 48:4.5831282e-005 49:0.0003280555 50:0.0090432353 51:0.043749578 52:0.011576017 53:9.648691e-006 55:1.2060864e-006 56:3.2564334e-005 57:1.5679123e-005 64:0.00048967107 65:0.0016921392 66:0.015021806 67:0.051234551 68:0.021766242 69:0.0049340995 70:0.0038437974 71:0.0031442672 72:0.002526751 73:0.0011469881 74:0.00015558515 75:5.9098234e-005 76:3.8594764e-005 77:7.2365183e-006 78:6.1510407e-005 79:4.5831282e-005 81:3.6182591e-005 82:0.0021733677 83:0.0092675677 84:0.0027269614 96:0.10638767 97:0.00080928399 98:0.0084112464 99:0.010659392 100:0.0059761582 101:0.0028994316 102:0.0050788298 103:0.0041585858 104:0.012475758 105:0.0039933519 106:0.0015884158 107:0.00038956592 108:0.00040645112 109:0.0014895167 110:0.00089250394 111:8.442605e-005 113:7.2365183e-006 114:3.8594764e-005 115:0.00025448424 116:9.648691e-006 
-0 -89.57838355013264 167.8685342792789 312.5 312.5 145.4370752779712 293.8191213440204 56.93968720910286 312.5 312.5 312.5 312.5 248.3055002869757 0 312.5 312.5 172.7564225681442 91.78527627201738 0:0.079956211 1:0.093745567 2:0.13723205 3:0.082657382 4:0.022420501 5:0.0087098964 6:0.053669024 7:0.012765589 8:0.0094107827 9:0.013324724 10:0.011103936 11:0.0030949269 12:0.0024727914 13:0.00078751321 14:0.0063316058 15:0.0033941818 16:0.001850656 17:0.014379991 18:0.018845191 19:0.018742815 20:0.0025830432 21:0.00068513647 22:0.00036225608 23:0.00070876186 24:0.00062213541 25:0.00072451215 26:0.00018112804 27:3.1500527e-005 28:4.7250793e-005 29:2.3625396e-005 30:3.1500527e-005 31:7.875132e-005 32:0.015915642 33:0.076365151 34:0.085783809 35:0.057535715 36:0.0059378496 37:0.002260163 38:0.0019136571 39:0.004118694 40:0.0054968419 41:0.0071899956 42:0.002449166 43:0.00096864125 44:0.00063788571 45:0.00022837882 46:0.0010946434 47:0.0015356507 48:5.5125922e-005 49:0.0011891449 50:0.0013230222 51:0.005961475 52:1.5750264e-005 64:0.0043155723 65:0.033217307 66:0.029500244 67:0.018482935 68:0.00082688883 69:0.00015750264 70:0.00018112804 71:0.00014175237 72:7.875132e-005 73:0.00023625395 74:0.00018900317 75:4.7250793e-005 76:8.6626453e-005 77:3.1500527e-005 78:0.00010237672 79:0.0003228804 81:7.8751318e-006 82:7.8751318e-006 83:0.00029925501 96:0.0019294074 97:0.015136003 98:0.012033202 99:0.0032524294 100:0.00011025184 101:3.1500527e-005 102:3.1500527e-005 103:7.8751318e-006 104:7.8751318e-006 105:1.5750264e-005 106:1.5750264e-005 107:1.5750264e-005 108:3.1500527e-005 110:4.7250793e-005 111:0.00011812698 115:3.1500527e-005 
-312.5 -165.4968513485576 312.5 312.5 312.5 227.1059316451716 220.0027763043916 312.5 188.5756117520568 173.6824475949398 312.5 0 312.5 87.36013113713365 312.5 93.98929279965563 312.5 312.5 0:0.00018824462 1:0.00077031681 2:0.0092784781 3:0.092987888 4:0.11698412 5:0.043212049 6:0.0097317519 7:0.0087657589 8:0.0033784956 9:0.0015084338 10:0.00019567533 11:2.7245931e-005 12:4.9538057e-006 13:2.4769029e-006 14:8.4214698e-005 16:7.4307086e-006 17:0.00024521339 18:0.0025957942 19:0.027676912 20:0.021960221 21:0.0050157285 22:0.00063408713 23:0.00049290369 24:0.00025016718 25:0.00013127585 26:2.476903e-005 28:2.4769029e-006 32:8.1737795e-005 33:0.0010898373 34:0.012045179 35:0.074884206 36:0.058766998 37:0.013977163 38:0.0037054466 39:0.0040472592 40:0.0024917643 41:0.0015951254 42:0.00011146063 43:1.9815223e-005 44:1.4861417e-005 46:2.7245931e-005 48:2.4769029e-006 49:3.4676639e-005 50:0.00025759789 51:0.0071285265 52:0.0015109108 64:9.4122312e-005 65:0.00077774748 66:0.0063483021 67:0.01929755 68:0.014061377 69:0.0063061947 70:0.0025016719 71:0.0035444479 72:0.0027939465 73:0.0026205631 74:0.00056968769 75:2.2292126e-005 78:1.9815223e-005 79:2.4769029e-006 83:7.4307086e-006 96:0.00048051917 97:0.00034676641 98:0.0018527233 99:0.0070071584 100:0.011735566 101:0.010009165 102:0.0081737796 103:0.013890471 104:0.053686868 105:0.28929484 106:0.015195799 107:0.0011492829 108:2.476903e-005 109:7.4307085e-005 110:9.9076118e-005 111:6.1922568e-005 
-16.89910187284346 -124.1838086883817 0 262.8191688383056 0 309.560811103556 0 0 0 0 0 0 113.1573409132594 0 0 5.417332815824456 0 156.1293583939958 0:0.0026332461 1:0.00041577572 2:0.0067514055 3:0.090282731 4:0.032668091 5:0.0059198542 6:0.0028510336 7:0.0017422982 8:0.00098994223 9:0.00033658036 10:0.00023758612 11:0.0001385919 12:0.0002771838 13:3.9597686e-005 14:0.0001385919 15:7.9195372e-005 16:0.00041577572 17:0.00025738496 18:0.0054842797 19:0.20610596 20:0.062603943 21:0.021679735 22:0.00061376416 23:0.00061376416 24:0.00047517224 25:0.0001781896 26:0.00011879306 27:0.00015839074 28:3.9597686e-005 29:3.9597686e-005 30:1.9798843e-005 31:5.9396531e-005 32:0.00019798844 33:0.0001385919 34:0.0038409757 35:0.11938703 36:0.021996515 37:0.0026728439 38:0.0021580739 39:0.001900689 40:0.0018016947 41:0.00021778728 42:3.9597686e-005 43:3.9597686e-005 44:1.9798843e-005 46:1.9798843e-005 50:0.0005345688 51:0.038429555 52:0.00081175257 54:1.9798843e-005 55:1.9798843e-005 56:0.00041577572 57:0.00011879306 64:0.00015839074 65:0.00011879306 66:0.0046923258 67:0.086283363 68:0.0092064627 69:0.0019996832 70:0.0018610914 71:0.0022768669 72:0.0065534171 73:0.0019600855 75:3.9597686e-005 78:1.9798843e-005 83:0.0012869248 88:0.0020986774 89:0.014670943 96:0.00023758612 97:9.899422e-005 98:0.0056228717 99:0.029559674 100:0.003167815 101:0.0010295399 102:0.00095034449 103:0.0010889365 104:0.0027520393 105:0.0014651144 106:1.9798843e-005 107:0.00015839074 108:3.9597686e-005 110:5.9396531e-005 120:0.00051476993 121:0.18086244 
-0 -0 0 243.0873627292419 49.70118243938521 0 175.0908264669488 312.5 0 312.5 261.3745532169681 170.6316877251167 0 140.1031905387069 142.153385907143 0 0 0 0:0.0079027191 1:0.041915011 2:0.10783087 3:0.13003898 4:0.02088766 5:0.0020887658 6:0.00099449209 7:0.0013603587 8:0.0012206641 9:0.0015299878 10:0.0010410569 11:0.00055212603 12:0.00029269332 13:0.00013304241 14:0.00039580118 15:0.0006186472 16:0.0014102496 17:0.013044809 18:0.044160102 19:0.063015543 20:0.010823 21:0.0025411102 22:9.978181e-006 24:1.9956362e-005 25:0.00020288969 26:9.3129689e-005 27:2.3282422e-005 28:3.3260603e-006 30:8.3151506e-005 32:0.010201027 33:0.054660477 34:0.11598305 35:0.14095178 36:0.037644353 37:0.0044835294 38:0.0016763344 39:0.0024047417 40:0.0030732797 41:0.0077231121 42:0.0034191899 43:0.0012273162 44:0.00039247511 45:0.00026275878 46:0.00042573572 47:0.00093794899 48:5.9869086e-005 49:0.00038582299 50:0.00029269332 51:0.00065523386 52:0.00043903996 57:0.00023282423 58:8.9803631e-005 64:0.0064126444 65:0.030157389 66:0.037145443 67:0.023551833 68:0.010101246 69:0.0012239902 70:0.0002095418 71:0.00015299878 72:0.00026608483 73:0.0041442714 74:0.0020721357 75:0.0001929115 76:6.6521206e-005 77:6.9847265e-005 78:7.6499389e-005 79:0.00050556118 80:1.6630302e-005 89:0.0017860944 90:4.3238786e-005 96:0.0025577403 97:0.02005947 98:0.01488412 99:0.001599835 100:0.00044901815 101:2.9934543e-005 102:1.6630302e-005 103:3.3260603e-006 104:3.3260603e-006 105:3.9912724e-005 106:4.3238786e-005 107:6.6521206e-006 108:2.9934543e-005 109:3.3260603e-006 110:3.3260603e-005 111:0.00018625938 121:3.3260603e-006 
-1.576829578185843 -0 -33.17964591071473 312.5 264.6686263278355 200.8204708803732 199.917676193583 94.32433361837576 312.5 145.5340995743156 121.548503783458 200.4236811238651 0 0 181.4753182416477 0 157.3405132825748 0 0:0.014904621 1:0.018632721 2:0.028079901 3:0.028877947 4:0.010340056 5:0.0050090575 6:0.0071065398 7:0.0054112412 8:0.0060813851 9:0.01527568 10:0.013521538 11:0.0089190407 12:0.0045149601 13:0.0025230087 14:0.0058080754 15:0.0062190127 16:0.00097700942 17:0.0023649561 18:0.003212119 19:0.0025171731 20:0.00031221504 21:4.814531e-005 22:2.8692661e-005 23:5.6899004e-005 24:0.00013957277 25:0.002263316 26:0.0040665767 27:0.00029081714 28:0.00014054541 29:8.1214821e-005 30:9.4345356e-005 31:0.00021203389 32:0.0072290916 33:0.02263559 34:0.044089433 35:0.02644977 36:0.0053222454 37:0.0020580904 38:0.0014390099 39:0.0019681219 40:0.0030161336 41:0.01863564 42:0.012347571 43:0.0049638301 44:0.0022180886 45:0.0017351764 46:0.0021213116 47:0.0038438439 48:1.5075804e-005 49:0.00020279389 50:0.00037835407 51:0.00086369773 52:2.1884232e-005 56:1.4589489e-006 57:0.005922846 58:0.0060794395 59:6.9543225e-005 60:9.7263251e-007 63:1.4589489e-006 64:0.039720856 65:0.02931466 66:0.043004461 67:0.034201164 68:0.00074552285 69:0.0003467435 70:0.00032194136 71:0.00039002564 72:0.0012503192 73:0.026348615 74:0.018253395 75:0.0033166769 76:0.0015727468 77:0.0017269091 78:0.002860026 79:0.013087258 81:4.8631625e-007 82:8.7536928e-006 83:0.00018139597 89:0.031292021 90:0.0015834458 96:0.0038895577 97:0.010479629 98:0.0072679967 99:0.0015625342 100:0.00027914555 101:0.0001103938 102:0.00018431387 103:0.00025482973 104:0.0010402305 105:0.18415338 106:0.013422329 107:0.0018951745 108:0.00041531411 109:0.00019890336 110:0.00022662338 111:0.00097263255 114:4.8631625e-007 115:4.8631625e-007 121:0.15229967 122:0.00015805279 
-312.5 -312.5 -312.5 312.5 176.3185129543924 312.5 312.5 312.5 312.5 312.5 312.5 312.5 312.5 312.5 312.5 312.5 312.5 312.5 0:0.012046485 1:0.017550075 2:0.0082671959 3:0.023833144 4:0.013345616 5:0.0019132653 6:0.00092120183 7:0.00047241119 8:4.7241119e-005 9:2.362056e-005 10:2.362056e-005 14:0.0002362056 15:0.00077947846 16:0.018636622 17:0.027399849 18:0.013558201 19:0.059689153 20:0.029478459 21:0.0081018517 22:0.00016534391 23:2.362056e-005 30:2.362056e-005 31:0.00021258503 32:0.015920257 33:0.073861487 34:0.022179706 35:0.094364136 36:0.049343348 37:0.0055035902 38:0.0023620559 39:0.001606198 40:0.0017479213 41:0.00066137564 42:0.0001181028 43:0.00014172336 44:4.7241119e-005 45:2.362056e-005 46:4.7241119e-005 47:0.00040154951 48:0.00061413454 49:0.0051729027 50:0.0037792895 51:0.029856388 52:0.0037556689 64:0.0071097882 65:0.080758691 66:0.030328799 67:0.10485166 68:0.043036658 69:0.0067082387 70:0.0043934239 71:0.0046768705 72:0.0057161753 73:0.0016770597 74:0.00033068782 75:0.00018896448 76:7.0861679e-005 77:2.362056e-005 78:0.0002362056 79:0.00061413454 82:0.00092120183 83:0.0033541194 96:0.013392857 97:0.019061791 98:0.019321617 99:0.043745276 100:0.015447846 101:0.0053854873 102:0.0050547998 103:0.0077947844 104:0.013321996 105:0.0056453138 106:0.0033068783 107:0.00068499619 108:0.00068499619 109:0.0016770597 110:0.0013463718 111:0.00085034012 115:2.362056e-005 
-0 -233.7858824454051 -0 0 312.5 0 221.1418286316865 230.0608668302708 312.5 0 192.1780661684695 0 0 0 148.2325425548988 0 0 0 0:0.00046931391 1:0.0032902167 2:0.010179343 3:0.010477997 4:0.0058952854 5:0.0034909926 6:0.0019650951 7:0.0025749521 8:0.0031044988 9:0.0022210844 10:0.00054209522 11:0.00020830509 12:0.0001154462 13:0.0001028977 14:9.5368603e-005 15:0.0001229753 16:0.0001305044 17:0.013642729 18:0.082360826 19:0.038433544 20:0.008334714 21:0.0036340456 22:0.00069016748 23:0.00066005113 24:0.00070773542 25:0.0019098817 26:0.00037394531 27:7.5291e-006 28:2.5096999e-006 29:7.5291e-006 32:0.0018446295 33:0.022180729 34:0.034862243 35:0.015926557 36:0.0064700064 37:0.0040255589 38:0.0038473702 39:0.0054335003 40:0.011913545 41:0.020285904 42:0.0026201268 43:0.00084074948 44:0.0003714356 45:0.00018069839 46:0.00024595059 47:0.00032626101 48:0.000351358 49:0.01195872 50:0.033544648 51:0.0054560876 52:2.5097001e-005 56:0.0001129365 57:0.0043568392 58:0.0001681499 64:0.0020479152 65:0.031923383 66:0.01455626 67:0.0066983891 68:0.0026326752 69:0.0017367124 70:0.0017040863 71:0.0026326752 72:0.0079532396 73:0.086142942 74:0.006123668 75:0.00081816223 76:0.000351358 77:0.0002057954 78:0.0002108148 79:0.000276067 80:6.02328e-005 81:0.0024118216 82:0.0035713031 83:0.0003162222 88:0.00012548501 89:0.047029268 90:2.0077599e-005 96:0.003438289 97:0.048966758 98:0.0042012376 99:0.0002032857 100:8.78395e-005 101:6.7761903e-005 102:6.7761903e-005 103:9.5368603e-005 104:0.00096874422 105:0.33046725 106:0.0044898535 107:0.0004893915 108:0.00019073721 109:0.00019073721 110:0.0001606208 111:0.00027104761 113:3.26261e-005 114:2.76067e-005 121:0.0029338393 
-312.5 -312.5 -5.911633923255883 110.30736751532 0 312.5 0 112.349617027949 0 0 312.5 312.5 312.5 36.16804661838228 6.803913480133555 312.5 312.5 312.5 0:0.0024916036 1:0.010724049 2:0.0081387172 3:0.0040927907 4:0.0016714833 5:0.00076544558 6:0.0002811841 7:5.4674685e-005 9:7.0296024e-005 10:7.0296024e-005 11:2.3432009e-005 12:8.591736e-005 13:0.0001015387 14:0.00026556276 15:0.00048426149 16:0.0011637898 17:0.0061938609 18:0.0057017887 19:0.022229165 20:0.011942513 21:0.001913614 22:3.1242678e-005 31:7.8106696e-006 32:0.0023744435 33:0.0093181282 34:0.0072014374 35:0.01633992 36:0.010833398 37:0.004061548 38:0.0013668671 39:0.00035148012 40:2.3432009e-005 41:7.8106696e-006 44:7.8106696e-006 46:2.3432009e-005 47:0.00038272279 48:0.00022650941 49:0.0020698274 50:0.010052332 51:0.21387175 52:0.015254238 53:9.3728035e-005 64:0.0003280481 65:0.0018745606 66:0.013574943 67:0.12033118 68:0.02590018 69:0.0033195345 70:0.0020932595 71:0.00090603763 72:0.00026556276 73:0.00013278138 74:2.3432009e-005 75:3.1242678e-005 78:7.8106696e-006 79:3.9053346e-005 80:1.5621339e-005 81:0.00032023745 82:0.004186519 83:0.15722877 84:0.0056002499 96:0.0057252208 97:0.0014527845 98:0.02835273 99:0.17195189 100:0.023166446 101:0.0049597751 102:0.0050378819 103:0.0033820199 104:0.0068265251 105:0.0040771696 106:0.002530657 107:0.0023510114 108:0.0011247364 109:0.0037491212 110:0.001085683 111:0.00022650941 114:0.00021869874 115:0.025228461 116:7.8106696e-006 
-312.5 -312.5 -312.5 312.5 0 312.5 0 0 0 312.5 312.5 70.45345088523561 312.5 262.7085989653667 251.5755402930787 312.5 312.5 312.5 0:0.0020285971 1:0.0080697052 2:0.020259161 3:0.064584449 4:0.041161753 5:0.012582663 6:0.0047453083 7:0.0023503129 8:0.0017247542 9:0.0037622878 10:0.0012511171 11:0.00023235031 12:4.4682751e-005 13:3.5746201e-005 14:0.00024128686 15:0.00025022341 16:0.0038784628 17:0.0069436999 18:0.019526362 19:0.072895445 20:0.023172475 21:0.005487042 22:0.00030384271 23:0.00010723861 24:8.0428952e-005 25:2.6809652e-005 26:1.7873101e-005 27:8.9365503e-006 28:1.7873101e-005 30:1.7873101e-005 31:5.3619304e-005 32:0.0021090258 33:0.011778373 34:0.045165326 35:0.10935657 36:0.020044683 37:0.0044057192 38:0.0019302949 39:0.0011617516 40:0.00083109917 41:0.0023145666 42:0.0012600536 43:0.000178731 44:8.0428952e-005 45:3.5746201e-005 46:0.00016979445 47:0.00019660412 49:0.00026809651 50:0.0098480787 51:0.035370868 52:4.4682751e-005 64:0.0027077748 65:0.0097855227 66:0.060679179 67:0.086729221 68:0.0072475425 69:0.0021983914 70:0.0010187668 71:0.0012243075 72:0.0023235031 73:0.0025022342 74:0.00072386058 75:4.4682751e-005 76:0.00018766757 77:0.00019660412 78:0.00034852547 79:0.0012689902 82:0.0092403935 83:0.0068990169 96:0.0041376227 97:0.012028597 98:0.065254688 99:0.046639856 100:0.0058981231 101:0.0025022342 102:0.0016353887 103:0.0020732798 104:0.0061483467 105:0.099767648 106:0.0072028595 107:0.00039320823 108:0.00061662198 109:0.0018051832 110:0.0012511171 111:0.002725648 114:0.0020285971 115:0.00015192135 
-312.5 -312.5 -312.5 312.5 312.5 312.5 312.5 312.5 312.5 312.5 312.5 312.5 312.5 312.5 312.5 312.5 312.5 191.2043163719135 0:0.0067855171 1:0.011498066 2:0.03747927 3:0.073576562 4:0.022553897 5:0.0041735764 6:0.0026533997 7:0.0019347706 8:0.0015201769 9:0.0025981206 10:0.0030541737 11:0.0033167496 12:0.001644555 13:0.00089828635 14:0.0011746822 15:0.0010917634 16:0.00049751246 17:0.0018242123 18:0.01640409 19:0.028454948 20:0.0026395798 21:0.00051133224 22:0.00012437812 23:6.9098947e-005 24:0.00012437812 25:0.00026257601 26:0.00060807075 27:0.000787728 28:0.00026257601 29:5.5279161e-005 30:2.763958e-005 31:5.5279161e-005 32:0.016528469 33:0.085972913 34:0.10143726 35:0.11521559 36:0.025069099 37:0.0047816471 38:0.0025843007 39:0.0027363184 40:0.0032338309 41:0.0044499724 42:0.0051271422 43:0.004864566 44:0.0023770039 45:0.0014372582 46:0.001838032 47:0.0018794914 49:0.0012714206 50:0.037686568 51:0.057517964 52:0.0017551134 53:4.1459371e-005 54:1.381979e-005 58:0.00017965728 59:0.00037313433 60:2.763958e-005 64:0.0019485904 65:0.010931454 66:0.051589277 67:0.034660034 68:0.0041873963 69:0.0021420675 70:0.0013405196 71:0.0018242123 72:0.0034825872 73:0.0049474849 74:0.0036346049 75:0.0014925373 76:0.00038695411 77:0.00016583748 78:0.0002902156 79:0.00045605307 81:0.00034549474 82:0.028855721 83:0.020826424 84:5.5279161e-005 89:1.381979e-005 90:6.9098947e-005 91:2.763958e-005 96:0.038488116 97:0.0032338309 98:0.016818684 99:0.012838585 100:0.0035240464 101:0.0015201769 102:0.0024461029 103:0.0020591486 104:0.00722775 105:0.0078358212 106:0.0077529023 107:0.0046710889 108:0.0011332228 109:0.0020038695 110:0.00051133224 111:0.00031785516 113:6.9098947e-005 114:0.0038280818 115:0.0029159756 122:6.9098947e-005 
-312.5 -312.5 -312.5 312.5 312.5 312.5 312.5 312.5 245.8710141571844 312.5 312.5 312.5 312.5 312.5 312.5 312.5 312.5 312.5 0:0.0046742358 1:0.0035545023 2:0.0050648404 3:0.0096869953 4:0.015233582 5:0.0202203 6:0.032420188 7:0.038227174 8:0.033813342 9:0.022043122 10:0.0074345088 11:0.004010208 12:0.0019400031 13:0.0010546326 14:0.0016405395 15:0.0017967814 16:0.0041794698 17:0.0028774543 18:0.0038018853 19:0.0063798758 20:0.0076298108 21:0.01680902 22:0.017512109 23:0.022876414 24:0.023019634 25:0.018605802 26:0.0092052501 27:0.0026691318 28:0.0017447008 29:0.00066402793 30:0.0014582574 31:0.0016926202 32:0.0063147754 33:0.011626999 34:0.021496275 35:0.04952867 36:0.044763293 37:0.030389043 38:0.025558565 39:0.018319359 40:0.01925681 41:0.021938961 42:0.0056898077 43:0.0031118172 44:0.0016796 45:0.0010806728 46:0.0019920839 47:0.0039711474 48:0.0011197333 49:0.0032029583 50:0.0071871257 51:0.015650226 52:0.0046351752 53:0.00092443102 54:0.0010676527 55:0.0012108744 56:0.0048304778 57:0.006210614 58:6.5100779e-005 59:1.3020155e-005 62:2.604031e-005 63:0.00037758451 64:0.008111557 65:0.017251706 66:0.03364408 67:0.072300918 68:0.031235352 69:0.013918546 70:0.011835321 71:0.0094916932 72:0.010689547 73:0.016470496 74:0.0039190669 75:0.0017056403 76:0.0010676527 77:0.00089839072 78:0.0017316806 79:0.0039971876 80:0.00069006823 81:0.0020181241 82:0.0065100775 83:0.010585386 84:0.00095047132 85:5.2080621e-005 86:6.5100779e-005 87:0.00010416124 88:0.00057288684 89:0.00062496745 95:0.0001171814 96:0.0076167909 97:0.014074787 98:0.012069684 99:0.01682204 100:0.0052992031 101:0.0025779908 102:0.0028123534 103:0.0026430916 104:0.0036326232 105:0.0034373209 106:0.0011718139 107:0.0010936931 108:0.00070308836 109:0.00080724963 110:0.0011197333 111:0.0027863132 112:0.00014322171 113:0.00059892714 114:0.0016275194 115:0.0012108744 117:1.3020155e-005 
-312.5 -1.693260190401615 -312.5 199.4863201197708 0 0 0 0 0 0 312.5 0 120.3990505858931 0 0 0 312.5 266.6758170560687 0:0.0051454036 1:0.0042460132 2:0.013203565 3:0.050772749 4:0.057301831 5:0.033920027 6:0.019622421 7:0.018754691 8:0.014805347 9:0.014685741 10:0.0031378986 11:0.0011679174 12:0.00057340524 13:0.0002087242 14:0.0008771107 15:0.00044676359 16:0.00022748593 17:0.0011491557 18:0.0042671203 19:0.014808865 20:0.0037476548 21:0.00024155722 22:0.00019230769 23:0.00018996248 24:0.00065431517 25:0.0023088648 26:0.00017120075 27:5.8630394e-006 28:1.1726079e-006 29:3.5178236e-006 30:2.3452158e-006 31:2.227955e-005 32:0.0019172139 33:0.0071235928 34:0.026101079 35:0.076481007 36:0.034583725 37:0.012849437 38:0.0098006567 39:0.010208724 40:0.01323757 41:0.018214118 42:0.0034931989 43:0.0012335834 44:0.00041627578 45:0.00031425891 46:0.00066721387 47:0.00081848027 48:0.00012546904 49:0.0010272044 50:0.0087113036 51:0.026531426 52:0.00090525328 53:1.4071295e-005 54:3.6350844e-005 55:1.2898687e-005 56:0.00026500938 57:0.0084521575 58:0.0010260319 62:3.5178236e-006 63:1.1726079e-006 64:0.0023135555 65:0.0083841467 66:0.034812383 67:0.052234992 68:0.0063074576 69:0.0025879457 70:0.0027450752 71:0.0031918387 72:0.0076782363 73:0.019575516 74:0.002434334 75:0.0011421201 76:0.00061679172 77:0.00045028143 78:0.00080206379 79:0.0012734522 80:7.6219512e-005 81:0.00033184802 82:0.005023452 83:0.0056906659 84:3.5178236e-006 88:1.2898687e-005 89:0.0069148685 90:0.0010483115 94:1.1726079e-006 96:0.0055605066 97:0.0097701689 98:0.023418153 99:0.018813321 100:0.0013860225 101:0.00079502811 102:0.0008900094 103:0.00090877112 104:0.0060987337 105:0.20875117 106:0.0018445122 107:0.0004631801 108:0.00034709193 109:0.00046787053 110:0.00088766415 111:0.0037007504 112:2.227955e-005 113:7.9737336e-005 114:0.00048311445 115:0.00012077861 121:0.018000703 122:0.00010201689 
-29.55022248947454 -312.5 -0 0 312.5 0 312.5 312.5 0 0 135.4793240802329 0 0 0 57.35433165678182 0 0 0 0:0.0014299919 1:0.0039774613 2:0.0059661916 3:0.0044320282 4:0.0028978644 5:0.0017709172 6:0.0014584024 7:0.0014299919 8:0.001108007 9:0.00047350727 10:0.00014205219 11:0.00015152233 12:7.5761163e-005 13:6.6291017e-005 14:7.5761163e-005 15:0.00022728348 16:0.028846063 17:0.032416306 18:0.03780482 19:0.048941713 20:0.014536673 21:0.0066575124 22:0.001363701 23:0.0013352905 24:0.0019129694 25:0.0012974099 26:0.0002935745 27:5.6820871e-005 28:7.5761163e-005 29:5.6820871e-005 30:5.6820871e-005 31:0.0013352905 32:0.0018372082 33:0.011411525 34:0.026213363 35:0.032757234 36:0.012339599 37:0.0071499599 38:0.0054358635 39:0.0046403711 40:0.0048865951 41:0.0026327004 42:0.00019887305 43:9.4701456e-005 44:4.7350728e-005 45:3.7880582e-005 46:2.8410435e-005 47:0.00017046262 48:0.00012311189 49:0.0027274019 50:0.016752686 51:0.037283961 52:0.0039016998 53:9.4701456e-005 54:6.6291017e-005 55:3.7880582e-005 56:0.00030304465 57:0.00032198493 64:0.0027368721 65:0.01104219 66:0.039187461 67:0.047833703 68:0.010133056 69:0.0046214308 70:0.0052085798 71:0.0060230126 72:0.011032719 73:0.0066669825 74:0.00021781334 75:0.00015152233 76:2.8410435e-005 77:3.7880582e-005 78:6.6291017e-005 79:0.00017046262 81:0.00015152233 82:0.0055968561 83:0.0080969743 84:8.523131e-005 96:0.0023107154 97:0.0088167051 98:0.035522517 99:0.039727259 100:0.008106444 101:0.0054548038 102:0.0061177141 103:0.009394384 104:0.12245845 105:0.22591032 106:0.00060608931 107:0.00021781334 108:4.7350728e-005 109:5.6820871e-005 110:0.0001041716 111:0.00021781334 114:0.00051138783 115:0.0011648278 
-238.3198795395743 -196.5700294294928 -312.5 312.5 99.27634773791738 312.5 90.02622039728411 312.5 29.50727046906285 312.5 312.5 312.5 312.5 280.7121732696098 312.5 312.5 312.5 292.1973866790429 0:0.0089095049 1:0.022343749 2:0.011402994 3:0.011904296 4:0.014401042 5:0.01063151 6:0.0065983073 7:0.0073144529 8:0.0098274741 9:0.012913411 10:0.0039973957 11:0.0019042969 12:0.00097981771 13:0.00057617185 14:0.0012630208 15:0.0014160157 16:0.00087565102 17:0.0082779946 18:0.0062597655 19:0.035296224 20:0.03397461 21:0.0078450525 22:0.0025878907 23:0.0015592448 24:0.0023600261 25:0.001702474 26:0.00020182291 27:6.510417e-005 28:1.6276043e-005 29:1.6276043e-005 30:6.5104168e-006 31:1.6276043e-005 32:0.006184896 33:0.017760416 34:0.012897136 35:0.024973959 36:0.029986979 37:0.013489584 38:0.0092024738 39:0.0065885414 40:0.0058463542 41:0.0049576825 42:0.0011783855 43:0.00087565102 44:0.00058268232 45:0.00043945311 46:0.00051432289 47:0.0012467448 48:3.580729e-005 49:0.0013313802 50:0.0035546876 51:0.049391277 52:0.02789388 53:0.0006347656 54:0.00052734377 55:0.00072916667 56:0.0017122396 57:0.00039713542 64:0.001110026 65:0.0078938799 66:0.011210937 67:0.030416667 68:0.024020182 69:0.0073958333 70:0.007486979 71:0.0076236981 72:0.0079069007 73:0.0012695312 74:0.00020182291 75:0.00014322916 76:0.00013671875 77:0.00014973959 78:0.00017252604 79:0.00035481772 81:3.2552085e-005 82:0.00037434895 83:0.013105469 84:0.004127604 85:3.2552084e-006 88:0.00026692709 89:8.7890628e-005 96:0.0031412761 97:0.01031901 98:0.066663414 99:0.043518879 100:0.019361978 101:0.0072265626 102:0.010472005 103:0.21765625 104:0.042220052 105:0.00089518231 106:0.00023437499 107:9.7656251e-005 108:0.0001595052 109:0.0004296875 110:0.00030273438 111:0.00024414063 114:3.580729e-005 115:0.00092773436 116:0.00022460938 
-0 -0 -0 0 0 0 0 0 46.17349977214041 0 112.8058451660568 0 0 0 127.1974076486946 0 0 0 0:0.00027212713 1:0.00047862361 2:0.00088361284 3:0.0021177894 4:0.0037505522 5:0.0053368933 6:0.004811848 7:0.010803447 8:0.013918503 9:0.0094908345 10:0.0013990536 11:0.0003841795 12:0.00010404861 13:2.241047e-005 14:9.4444127e-005 15:3.041421e-005 16:1.6007479e-006 17:3.5216453e-005 18:9.6044874e-005 19:0.0016375651 20:0.0015095052 21:0.00035056379 22:0.00013126133 23:8.4839638e-005 24:9.2843373e-005 25:0.00013606357 27:1.6007479e-006 32:0.0034816265 33:0.0069856639 34:0.0082358476 35:0.022340037 36:0.018623101 37:0.010974728 38:0.0078900866 39:0.012010411 40:0.034204781 41:0.17726682 42:0.013543928 43:0.0044852956 44:0.0016759831 45:0.00085479935 46:0.0013958522 47:0.0017720279 49:4.8022437e-005 50:0.0001104516 51:0.0017208039 52:0.0002641234 56:8.0037389e-006 57:0.0058811475 58:1.2805983e-005 63:8.0037389e-006 64:0.005061565 65:0.01170787 66:0.011699867 67:0.027491244 68:0.012452218 69:0.00582192 70:0.0043860492 71:0.0064910324 72:0.019490706 73:0.10857552 74:0.005612222 75:0.0022474499 76:0.00088361284 77:0.0005282468 78:0.00095244497 79:0.0024315361 81:3.2014957e-006 82:1.2805983e-005 83:9.4444127e-005 89:0.0030686336 95:8.6440385e-005 96:0.0070528951 97:0.029804325 98:0.0077988436 99:0.005192826 100:0.0026972601 101:0.0015911434 102:0.0018040428 103:0.0028749432 104:0.017949186 105:0.29328743 106:0.0052968748 107:0.0007987732 108:0.00046421689 109:0.00056026177 110:0.0012725946 111:0.0006787171 127:6.4029914e-006 
-312.5 -0 -312.5 312.5 312.5 312.5 0 312.5 181.675065495197 231.894037821519 312.5 0 218.3769544384827 291.9433307037145 312.5 112.4435691746165 312.5 256.1086669110364 0:0.0031031144 1:0.002875363 2:0.0048397197 3:0.045749586 4:0.025394294 5:0.0091100605 6:0.0064909183 7:0.0090531232 8:0.0081705861 9:0.0097079091 10:0.0055514434 11:0.004697375 12:0.0030746455 13:0.0029038319 14:0.00093947502 15:0.0012811023 16:0.00022775152 17:0.00068325456 18:0.0024198599 19:0.037522063 20:0.013266526 21:0.0066902009 22:0.00056937878 23:0.0015373228 24:0.0024198599 25:0.0070033595 26:0.00088253716 27:5.6937879e-005 28:5.6937879e-005 29:2.8468939e-005 32:0.012298582 33:0.008825372 34:0.0089961849 35:0.063514203 36:0.027586402 37:0.013778967 38:0.01022035 39:0.015885668 40:0.025508171 41:0.025849799 42:0.004697375 43:0.0045834994 44:0.0014803848 45:0.0012526334 46:0.0015373228 47:0.0034732106 48:2.8468939e-005 49:5.6937879e-005 51:0.00071172352 56:0.00088253716 57:0.012668679 58:0.00011387576 64:0.019387348 65:0.0061492911 66:0.00187895 67:0.013778967 68:0.0061492911 69:0.0029892388 70:0.0035870865 71:0.0058361329 72:0.017024426 73:0.03248306 74:0.00079713034 75:0.00051244092 76:0.00039856517 77:0.00025622046 78:0.00054090988 79:0.0021351706 88:0.00017081364 89:0.0187895 90:2.8468939e-005 96:0.0037579001 97:0.00096794398 98:0.00039856517 99:0.0010818198 100:0.00019928259 101:8.540682e-005 102:0.00025622046 103:0.00059784774 104:0.13124181 105:0.16899163 106:2.8468939e-005 107:0.00031315835 109:5.6937879e-005 110:8.540682e-005 111:0.00017081364 121:0.098616406 
-312.5 -312.5 -312.5 312.5 98.97654648374842 312.5 232.7619461887398 219.3580457361522 50.54403293997019 312.5 312.5 312.5 312.5 312.5 312.5 312.5 312.5 312.5 0:0.00182693 1:0.0012413176 2:0.0020688626 3:0.0036889063 4:0.0081488313 5:0.011837738 6:0.011754079 7:0.011232906 8:0.0062337206 9:0.003887879 10:0.0018359743 11:0.001652829 12:0.0010581723 13:0.0010027766 14:0.0012967134 15:0.0015035996 16:1.9218942e-005 17:2.0349467e-005 18:0.00013114102 19:0.001629088 20:0.0041151145 21:0.0020225111 22:0.00098694919 23:0.00073258084 24:0.0017014416 25:0.0017715342 26:0.00049856195 27:0.00017410101 28:0.00010966102 29:0.0001130526 30:7.1223141e-005 31:3.3915781e-005 32:0.0084235491 33:0.00949868 34:0.017908663 35:0.056217667 36:0.056485601 37:0.037294924 38:0.022980202 39:0.009689738 40:0.0048748283 41:0.0051382408 42:0.0036244665 43:0.0035848981 44:0.0018427575 45:0.0011203513 46:0.0024249782 47:0.0032140855 50:9.6094715e-005 51:0.003720561 52:0.00088746293 53:1.130526e-006 64:0.0066135773 65:0.016648127 66:0.02413673 67:0.069804326 68:0.040337168 69:0.014670836 70:0.0086993976 71:0.0054694847 72:0.0061907605 73:0.0088904565 74:0.0051303268 75:0.0043785274 76:0.001872151 77:0.00040020622 78:0.0025086373 79:0.0013181933 82:1.2435786e-005 83:0.0063999076 84:0.011567542 96:0.1993174 97:0.0025312477 98:0.010752433 99:0.086256877 100:0.033967786 101:0.0049211797 102:0.0078051514 103:0.005654891 104:0.010275351 105:0.027483087 106:0.018993968 107:0.0095755551 108:0.0031632117 109:0.00038098727 110:0.0027844855 111:0.00019897257 115:0.0039828434 116:0.0034752369 
-312.5 -151.4157823757264 -312.5 312.5 312.5 0 0 312.5 0 312.5 312.5 312.5 312.5 9.900823710537683 312.5 312.5 312.5 312.5 0:0.020486323 1:0.018576737 2:0.030133225 3:0.081451014 4:0.022445396 5:0.0070330589 6:0.0053819655 7:0.0057083806 8:0.0062141102 9:0.018598473 10:0.012958596 11:0.014184108 12:0.00089909666 13:0.00033922316 14:0.0029035795 15:0.0027983971 16:0.00056278444 17:0.0034095033 18:0.020801483 19:0.064888075 20:0.0053959382 21:0.00063342357 22:0.00019891518 23:0.0002361754 24:0.0010937424 25:0.0036790576 26:0.00024820733 27:1.7271659e-005 28:5.4337806e-006 29:2.7168903e-006 30:1.7465723e-005 31:0.00010809342 32:0.014236311 33:0.029978944 34:0.034119487 35:0.073056601 36:0.012245607 37:0.0049827769 38:0.0038180072 39:0.0049965554 40:0.0086156474 41:0.0198071 42:0.0045486568 43:0.0016279995 44:0.00053056987 45:0.00036813863 46:0.00096954172 47:0.002075122 48:2.4646077e-005 49:0.00083660817 50:0.01309153 51:0.035886046 52:0.00022724847 53:2.3287632e-006 54:1.9406359e-006 55:2.910954e-006 56:0.00013914359 57:0.0066084475 58:0.0001476824 59:7.7625436e-006 62:2.7168903e-006 63:2.7168904e-005 64:0.0040749474 65:0.008247315 66:0.015255922 67:0.028304564 68:0.0048708022 69:0.0022938317 70:0.0019941975 71:0.0027366849 72:0.0064613475 73:0.033826061 74:0.0041504381 75:0.00073006726 76:0.00024704295 77:0.00016961158 78:0.00025577581 79:0.00042131206 80:7.7625435e-007 81:9.2180206e-005 82:0.0053841006 83:0.010928885 84:1.9406359e-007 89:0.00057384605 90:4.2693991e-006 96:0.00078537536 97:0.0016928167 98:0.0048752655 99:0.0059955949 100:0.0016334333 101:0.00078809226 102:0.0009718705 103:0.0021628388 104:0.085545562 105:0.13128829 106:0.005007423 107:0.00082457619 108:0.00049408589 109:0.0010735599 110:0.00044382343 111:0.00042402896 113:1.2614134e-005 114:0.00029187163 115:0.0002713009 121:1.9406359e-007 
-312.5 -312.5 -312.5 312.5 179.2898595190517 312.5 312.5 312.5 103.5509795936894 312.5 312.5 312.5 312.5 312.5 312.5 312.5 312.5 176.0421466421125 0:0.019363686 1:0.054611403 2:0.057371605 3:0.082241088 4:0.0066034226 5:0.0018762606 6:0.0033243862 7:0.0012459724 8:0.0016049292 9:0.012186854 10:0.021651939 11:0.0020983987 12:0.0031145464 13:0.00022060089 14:0.007382059 15:0.0012229129 16:0.00021598903 17:0.0033666617 18:0.017890194 19:0.043682821 20:0.00057340862 21:1.9216106e-005 22:6.9177981e-006 23:1.1529663e-005 24:9.2237307e-005 25:0.00058032642 26:3.5357636e-005 30:3.8432213e-006 31:2.3059326e-006 32:0.012073863 33:0.027063964 34:0.06908036 35:0.11857106 36:0.0084535489 37:0.003269044 38:0.0021560472 39:0.0024550497 40:0.0036741195 41:0.0057786675 42:0.0026425989 43:0.00040661279 44:0.0012329053 45:0.0004465823 46:0.0045964927 47:0.0043505263 48:7.5327138e-005 49:0.00096157391 50:0.013211457 51:0.044609804 52:4.3044078e-005 56:1.460424e-005 57:0.00092775357 58:1.9216106e-005 64:0.010755639 65:0.020834101 66:0.038115531 67:0.071284063 68:0.003780961 69:0.0015787953 70:0.0013489706 71:0.0018608877 72:0.0040914933 73:0.012771793 74:0.00070330949 75:8.7625442e-005 76:3.9200855e-005 77:7.6095777e-005 78:0.0002328992 79:0.0020738021 81:3.074577e-005 82:0.0022244565 83:0.0063443896 89:0.00020369072 90:1.5372884e-006 96:0.00085242646 97:0.049991854 98:0.012109221 99:0.019449774 100:0.0012221443 101:0.00060876622 102:0.00051960349 103:0.0007694129 104:0.0045642094 105:0.062224057 106:0.00038970262 107:2.6133905e-005 108:1.3066952e-005 109:1.6910173e-005 110:1.0761019e-005 111:3.6126279e-005 114:1.6910173e-005 115:2.3827972e-005 
-0 -0 -0 -14.71721317883554 0 250.9693655423089 0 239.0312419045447 0 0 118.6779944910708 0 9.763856710886234 28.81962639343823 74.40533081423983 74.97871844916683 178.016798494796 28.71449393280077 0:0.004569903 1:0.0029457794 2:0.0022356361 3:0.0022356361 4:0.0023802947 5:0.0038203076 6:0.003550716 7:0.0024723504 8:0.0034323588 9:0.0066806064 10:0.0066411542 11:0.021028129 12:0.0069173211 13:0.0055364869 14:0.0042542838 15:0.0046685343 16:0.0089359684 17:0.0029063269 18:0.0017556319 19:0.0023145408 20:0.0042214068 21:0.0054181297 22:0.0018476874 23:0.00072986941 24:0.0024394735 25:0.0040635974 26:0.0031167397 27:0.0069962256 28:0.001906866 29:0.0030378348 30:0.013019293 31:0.020278534 32:0.013361213 33:0.0084230872 34:0.0044975737 35:0.0033140017 36:0.0027024895 37:0.0033797557 38:0.0013742587 39:0.00098631007 40:0.003662498 41:0.0041162004 42:0.0015978222 43:0.0008482266 44:0.0008350758 45:0.0012559014 46:0.0092384368 47:0.02768901 48:0.0032745493 49:0.0025775568 50:0.0021633066 51:0.0087584332 52:0.01199353 53:0.0024986521 54:0.00019068661 55:6.5754002e-006 56:0.0002498652 57:0.0011638458 58:0.00040109942 61:1.31508e-005 62:0.0091529572 63:0.023007326 64:0.024651175 65:0.020567851 66:0.01010639 67:0.0052668955 68:0.0036953748 69:0.00067069079 70:0.00039452402 71:0.0005391828 72:0.0031364658 73:0.11877145 74:0.0068318406 75:0.0048855222 76:0.0050367564 77:0.0069107455 78:0.037282519 79:0.077819861 80:5.2603202e-005 81:0.0001709604 82:0.0014926158 83:0.01199353 84:0.0033205771 85:4.6027802e-005 88:4.6027802e-005 89:0.095652342 94:0.00043397641 95:0.00070356781 96:0.023086229 97:0.020087847 98:0.008192949 99:0.0021698819 100:0.00036164702 101:9.2055605e-005 102:0.0001183572 103:0.000164385 104:0.0013545324 105:0.048329189 106:0.0041622282 107:0.0039518154 108:0.0047540143 109:0.0073775989 110:0.044153813 111:0.071967751 114:3.94524e-005 115:6.5754e-005 
-287.0973600142493 -312.5 -279.1794663799722 -77.90603231537746 312.5 161.2252798354808 312.5 312.5 312.5 312.5 312.5 312.5 312.5 35.13825591999787 312.5 312.5 312.5 126.3755083889692 0:0.00028280748 1:0.0025561445 2:0.016620379 3:0.017617457 4:0.0013705286 5:0.00033356779 6:0.00032269058 7:0.00071064441 8:0.00043871417 9:8.3391948e-005 10:5.0760318e-005 11:1.0877211e-005 12:3.625737e-006 14:1.8128685e-005 15:7.251474e-005 16:0.00044233989 17:0.023679689 18:0.10691936 19:0.10173818 20:0.00033719355 32:0.010028788 33:0.051949557 34:0.067025371 35:0.027958058 36:0.0019941553 37:0.00061274954 38:0.00057649217 39:0.00064900692 40:0.00073239888 41:0.0052681956 42:0.0030782507 43:0.00064538117 44:8.7017688e-005 45:4.7134581e-005 46:0.00020304127 47:0.00086292537 48:0.011402942 49:0.079200596 50:0.051496342 51:0.024107525 64:0.029469989 65:0.053088039 66:0.039212346 67:0.014745872 68:0.0017548567 69:0.00069251575 70:0.00085929967 71:0.00072877313 72:0.00091731147 73:0.0052536926 74:0.0033828125 75:0.0013016396 76:0.0005474863 77:0.00031181338 78:0.00094994309 79:0.0042964984 80:0.003817901 81:0.0066604787 82:0.0037707663 83:0.0081941653 96:0.08738751 97:0.015420259 98:0.012429026 99:0.005028897 100:0.0023132202 101:0.00066350988 102:0.0066169701 103:0.0013270198 104:0.016953945 105:0.0322183 106:0.0088214176 107:0.0010514637 108:0.0013306454 109:0.002425618 110:0.0064864433 111:0.007291357 112:0.00048222303 113:0.0002465501 114:1.4502948e-005 
-0 -0 -0 -0 46.80586987582641 0 145.4898637485905 160.3634149377239 312.5 106.6615449272304 90.36448024683509 312.5 0 0 300.5823192181096 27.81724585982627 0 0 0:0.016991992 1:0.022672672 2:0.017605105 3:0.010026693 4:0.0022480814 5:0.00041291292 6:0.00085085083 7:0.00049215881 8:0.0008675342 9:0.0020603938 10:0.0030405405 11:0.0027360695 12:0.0018184852 13:0.0018601936 14:0.0038288289 15:0.0066816816 16:0.011302969 17:0.026876876 18:0.028428428 19:0.006719219 20:0.00020437104 22:4.1708377e-006 23:4.1708377e-006 24:2.5025025e-005 25:0.00037954623 26:0.00057557557 27:0.00015015015 28:7.0904236e-005 29:0.0001668335 30:0.00094678008 31:0.0032866199 32:0.041082751 33:0.044924092 34:0.028916417 35:0.0071988655 36:0.00077994663 37:0.00033366701 38:0.0006089423 39:0.00060060062 40:0.0010218552 41:0.0061686686 42:0.0097055389 43:0.0079454454 44:0.0069402736 45:0.0096262926 46:0.023256591 47:0.038463462 48:0.0092634298 49:0.022664331 50:0.026134469 51:0.006498165 57:0.0026818486 58:0.001234568 59:0.00017934601 60:0.00010844177 61:0.00022522523 62:0.0037328997 63:0.0050633969 64:0.030780781 65:0.030050885 66:0.015890891 67:0.0020478813 68:0.00015432099 69:0.00011678345 70:0.00015015015 71:0.00024190858 72:0.0004546213 73:0.026910244 74:0.033917252 75:0.01269603 76:0.008641975 77:0.0075700702 78:0.025262762 79:0.032970469 80:0.0043793796 81:0.0026026026 82:0.0043793796 83:0.00013763763 89:0.15879212 90:0.0008675342 93:3.3366701e-005 94:0.0007465799 95:0.00037120454 96:0.015227728 97:0.01987404 98:0.0071112779 99:0.0012721055 100:0.0002335669 101:1.6683351e-005 102:0.0003128128 103:0.00012095429 104:3.3366701e-005 105:0.022551719 106:0.0036828495 107:0.0024566234 108:0.0022022021 109:0.0024607941 110:0.0099391062 111:0.013004672 112:0.00063396728 113:8.3416753e-006 114:3.7537538e-005 121:0.019765599 122:4.1708377e-006 126:1.6683351e-005 127:0.00017100434 
-23.69344072652061 -264.4928576308482 -0 -312.5 312.5 0 312.5 312.5 312.5 106.8414475185553 312.5 312.5 0 0 312.5 0 312.5 0 0:0.0040314342 1:0.011014389 2:0.010011091 3:0.0065232618 4:0.0021634756 5:0.00089749577 6:0.00067859434 7:0.00057644036 8:0.00075520983 9:0.00082817697 10:0.00057644036 11:0.00047793475 12:0.00031740704 13:0.00026997839 14:0.00053266011 15:0.0010251882 16:0.015728066 17:0.053546932 18:0.068662077 19:0.028012084 20:0.0037395656 21:0.0014447493 22:0.00028092347 23:0.00026268169 24:0.00031011034 25:0.00046698967 26:0.00037942911 27:0.00020795634 28:0.00032105538 29:0.00028457184 30:0.00053630845 31:0.0014958263 32:0.011112895 33:0.059311338 34:0.04231729 35:0.015790088 36:0.0040533245 37:0.0021306404 38:0.0020832117 39:0.0030755647 40:0.0055455025 41:0.013531756 42:0.0042466875 43:0.0025283112 44:0.0013462437 45:0.00097411126 46:0.0013863756 47:0.0024589924 48:0.0023531902 49:0.087881617 50:0.070570163 51:0.012648853 52:0.00020065962 53:1.8241784e-005 54:7.2967136e-006 55:2.5538497e-005 56:5.1076993e-005 57:0.00017876948 58:1.094507e-005 59:3.6483568e-006 62:3.6483568e-006 63:1.8241784e-005 64:0.0058847996 65:0.037596315 66:0.014108196 67:0.0073587354 68:0.0029770592 69:0.0020503765 70:0.0024261572 71:0.0043816767 72:0.016213298 73:0.13034484 74:0.010937774 75:0.0044436986 76:0.0019044422 77:0.0011747709 78:0.0012769249 79:0.0022400911 80:0.00018241783 81:0.025644301 82:0.0025429046 83:0.00015323098 84:3.6483568e-006 88:7.2967136e-006 96:0.0012842215 97:0.0054105129 98:0.0027618061 99:0.0015140681 100:0.00069318782 101:0.00068224274 102:0.00067859434 103:0.0015250131 104:0.0077162748 105:0.13396402 106:0.0050128424 107:0.0012221995 108:0.00031375868 109:0.00021525305 110:0.00026268169 111:0.00043415447 113:0.00016052769 114:6.9318776e-005 121:3.6483568e-006 
