svm_type c_svc
kernel_type rbf
gamma 0.50625
nr_class 19
total_sv 247
rho 0.625718 3.54511 2.11359 0.558634 0.510321 1.9174 -0.420104 1.13918 1.63559 -0.664538 1.53808 0.675186 0.582786 3.21114 0.571842 0.33426 0.283822 -0.254691 2.48153 1.85449 -1.45654 -1.32347 1.21114 -1.18051 -0.806605 0.93832 -1.22988 2.30727 0.172155 -0.762764 5.18509 -0.182327 -1.22643 1.18493 -0.0345466 -1.14448 -0.285479 -0.162464 -0.113847 -0.53026 0.381816 0.734817 -0.507587 -0.587955 0.0483983 -4.20118 -0.222105 -0.78124 0.135534 -1.99691 -1.03809 -2.15478 -0.960854 -0.703425 -0.982729 -1.16563 0.0807148 -2.88671 1.1697 0.77199 -1.59412 2.47732 -0.415515 -1.94912 0.260707 -1.42684 -0.284721 0.401682 -0.206418 1.40133 3.27609 -0.388924 2.41847 0.364035 0.352588 2.53569 0.38506 0.298695 1.30589 -0.395057 0.0118226 -0.635709 0.896067 2.29208 -0.379004 1.45677 0.613543 0.580137 1.95372 0.0279879 -0.202003 0.907735 -0.41185 -0.052403 1.10784 2.73027 -1.60123 1.22008 0.774156 -0.909512 1.01597 0.286236 -0.883992 0.000217468 -1.13892 1.66452 1.49477 -0.295864 2.32437 0.180395 0.864717 1.72459 0.643896 -0.222581 1.43394 0.120101 1.13716 -2.32956 2.52203 -0.932867 -0.422432 2.0516 -0.417961 -1.10273 0.412322 -0.639473 -2.93804 0.360314 -1.28758 -0.35362 -0.744057 -1.39088 -2.53494 -1.67407 -1.60283 2.96042 0.608323 2.05738 2.6036 0.361738 1.2242 2.04725 -0.124838 -1.07858 -1.31318 1.84892 -1.03354 -2.26489 -0.946243 -2.45179 0.64488 1.3541 -0.883818 0.123944 0.278654 -0.728074 3.3115 -0.651923 -0.244402 0.548866 -0.619033 -4.18574 -2.24705 -1.83416 -4.99426 0.318759 1.64154 -0.0348648 1.10226 -0.485303 -2.29977
label 0 1 2 3 4 5 6 7 8 9 10 11 12 13 14 15 16 17 18
probA -1.0582 0.354451 -0.34756 -0.976719 -0.780765 0.278756 -1.26095 -1.17042 -1.17191 -1.75209 -0.59294 -1.57981 1.04733 -0.490035 -0.982106 -0.957894 2.37635 -2.08105 1.50106 -0.17736 -1.08696 -1.36968 -1.64892 -1.59728 -1.45385 -1.49287 -2.03442 -0.544822 -2.06317 -0.480104 0.101948 0.914049 -1.87491 -0.276674 -2.36106 0.25288 -0.981886 -0.824527 -0.583728 -1.46512 -0.881595 -1.4034 -1.44938 0.639987 -1.94372 0.142615 1.61856 0.481849 -1.35236 1.18684 -1.86245 -0.397568 -1.29793 -0.630291 -0.743514 -1.19308 -1.34426 -1.80888 0.30389 -1.93627 -0.448429 0.742574 0.305943 -1.00998 0.848304 -2.1364 1.04274 0.481759 0.687061 0.751333 0.456343 0.638736 -1.29543 -1.3992 -0.691897 -0.73153 -1.60402 -0.484221 -1.11386 -2.0526 0.262731 0.873562 0.942814 -0.707882 -1.34647 -1.05115 -2.10478 -0.786365 0.0803538 -0.958412 -0.28052 -0.588061 -1.54469 0.325014 -0.325049 -1.14188 -0.462603 -1.3321 -2.2628 -0.277096 -0.725218 -1.44522 -0.103112 0.480045 -1.90966 0.993371 0.00119042 0.197986 -1.14838 -0.400123 -1.39926 -0.914464 -2.11458 -1.13308 -1.20582 -1.52132 1.60269 1.75842 -1.07305 -1.44938 -0.669375 -0.690225 -1.13867 0.010641 -0.997957 -1.33455 -0.908749 -0.99319 -1.00439 -1.05222 -0.896997 -1.6917 -0.292201 -1.32614 -1.66565 -0.79738 -1.64829 -1.45229 -0.977943 -2.12819 -0.0104281 -1.25599 -2.08738 -2.00988 0.550753 0.0887738 -0.684101 -1.24701 -0.538028 -0.324204 -2.0316 -1.08713 -1.69984 -1.69766 -1.58184 -1.60755 -0.709617 -1.10227 -0.726207 1.35259 -1.79858 -0.231573 -0.42726 0.647878 0.49665 -1.29068 -0.279062 -0.564976 -1.11263 -1.71672 -1.17097
probB -0.0829495 0.397229 0.203243 -0.0497947 -0.0443897 0.334197 0.0212274 0.104626 0.0689139 0.127181 0.220827 0.0222015 0.699117 0.0259548 0.0182493 0.0778871 1.63257 -0.353912 -0.130861 0.130426 0.0895811 -0.0577977 0.0104196 -0.227125 0.0356518 0.063507 -0.220705 0.0802871 0.0118708 0.134938 -0.237088 -0.238059 0.440006 0.102505 -0.217601 0.085705 0.0535568 -0.00559207 -0.0739523 -0.0828796 0.0940199 0.0579318 0.000803564 0.148091 0.0802341 -0.00637008 -1.27144 -0.233817 0.256807 0.00877743 0.220852 -0.0847379 0.135555 -0.123396 -0.276808 0.207061 0.0605602 -0.0457883 -0.16237 -0.101752 -0.0483505 -0.656151 -0.315926 -0.113827 -0.220659 -0.0111098 -1.11844 -0.127535 -0.836017 -0.0160428 -0.678304 0.349155 0.24075 0.0166581 0.0230545 0.118856 -0.42856 0.0222818 0.0134995 -0.555191 0.514404 -0.0712004 0.941376 0.07499 -0.238055 0.167329 0.134933 0.109771 0.0871281 -0.0994783 0.246808 0.111214 -0.127142 -0.505479 0.0895633 0.0231709 -0.0407975 0.240146 0.000959985 0.0535802 0.104334 -0.111085 -0.0107931 -0.087635 -0.0941547 1.01039 -5.68555e-005 0.576241 0.414101 0.197775 0.0684165 0.340385 -0.456028 0.147831 0.168193 -0.0578134 -1.61141 0.282315 0.000745194 0.204754 0.0174686 -0.103123 -0.397045 -0.0701812 -0.153158 -0.363685 -0.194238 0.027648 0.0189169 -0.0144501 -0.0128632 -0.527098 0.16134 -0.0733479 -0.338711 0.0381571 0.512408 0.025329 0.118456 -0.0324409 -0.0652439 0.0640794 -0.240495 -0.337823 -0.0737566 -0.272394 -0.0450619 0.025647 -0.11957 -0.0358435 0.0653914 0.133551 -0.203676 -0.0457496 0.0164962 -0.263394 0.145558 -0.0719387 0.014715 0.293726 -0.0317813 -0.0308862 0.0850211 0.66138 0.492544 0.237433 0.216601 0.145097 -0.234676 -0.401803 -0.0661468
nr_sv 11 13 14 15 14 10 14 10 15 10 15 14 13 14 11 12 14 14 14
SV
312.5 312.5 312.5 312.5 312.5 312.5 0 312.5 88.08937871933038 312.5 312.5 0 312.5 312.5 312.5 312.5 312.5 312.5 0:0.0037812947 1:0.028004376 2:0.042854812 3:0.098510854 4:0.0011146669 8:0.00096000027 9:0.014154959 10:0.051518228 11:0.038816508 12:0.0062399087 17:0.011877476 18:0.052345093 19:0.057071563 20:0.0087146014 24:0.0050132684 25:0.034815546 26:0.046204951 27:0.022650292 28:5.3333338e-006 30:0.0013653337 31:0.034047361 32:0.044332501 33:0.028713632 34:0.0042292853 36:0.006831896 37:0.04309487 38:0.054665651 39:0.016160332 40:0.00081066688 42:0.0082559045 43:0.051432874 44:0.052153047 45:0.012981549 49:0.02065051 50:0.050040539 51:0.038267042 52:0.0073598847 
312.5 312.5 312.5 312.5 312.5 312.5 312.5 312.5 0 261.3868867705189 312.5 312.5 312.5 312.5 312.5 312.5 312.5 312.5 0:0.0054341136 1:0.03176219 2:0.046603929 3:0.07084085 4:0.0010492636 8:0.00075132499 9:0.015402582 10:0.053548645 11:0.043306485 12:0.0045726881 17:0.012196294 18:0.052939687 19:0.055207085 20:0.0066517675 24:0.00712458 25:0.041123305 26:0.047938455 27:0.024786942 28:6.4769356e-006 30:0.00085495604 31:0.033414152 32:0.044485532 33:0.031548407 34:0.0054729749 36:0.003905569 37:0.043338876 38:0.055258911 39:0.01582358 40:0.00085495604 42:0.0058874954 43:0.050775941 44:0.054695301 45:0.012125043 49:0.024035677 50:0.049791243 51:0.039574996 52:0.0069497041 
312.5 312.5 312.5 312.5 312.5 312.5 312.5 312.5 312.5 312.5 312.5 312.5 312.5 312.5 312.5 312.5 312.5 312.5 0:0.0046034437 1:0.024697507 2:0.040462695 3:0.040495001 4:0.0039735003 8:0.00096914795 9:0.01663723 10:0.065677308 11:0.047311507 12:0.0077693127 17:0.019463981 18:0.055678688 19:0.053481899 20:0.0073655029 24:0.0097076548 25:0.042659484 26:0.046342336 27:0.016927982 28:1.6152479e-005 30:0.0056533492 31:0.037458263 32:0.043127917 33:0.027831161 34:0.0040058051 36:0.0092069162 37:0.051042818 38:0.056954764 39:0.01618495 40:0.00072686118 42:0.008318509 43:0.058263145 44:0.054338001 45:0.011629845 49:0.018607879 50:0.042401038 51:0.042255662 52:0.0077693127 
312.5 312.5 312.5 312.5 312.5 312.5 312.5 312.5 312.5 312.5 312.5 312.5 312.5 312.5 312.5 312.5 312.5 312.5 0:0.0013856011 1:0.025665186 2:0.045310281 3:0.059350081 4:0.0045883544 8:0.00028260078 9:0.012078001 10:0.048833512 11:0.044789337 12:0.012716839 17:0.011509384 18:0.047849886 19:0.051529057 20:0.010940767 24:0.0073440922 25:0.041723646 26:0.048552476 27:0.018188603 28:1.7127336e-006 30:0.0061794547 31:0.042378254 32:0.046843983 33:0.026333503 34:0.0014575346 36:0.016043134 37:0.0507425 38:0.052041434 39:0.013052529 40:0.00026889893 42:0.011521373 43:0.057960324 44:0.051553048 45:0.011483693 49:0.018332548 50:0.048922621 51:0.044839032 52:0.0076934835 
203.0821687694343 0 107.6385561447649 0 0 0 0 0 0 51.11311322948112 209.3744763972638 0 312.5 0 0 0 312.5 0 0:0.0039626244 1:0.030126812 2:0.046332981 3:0.18040253 4:0.00065600016 8:0.00067200017 9:0.013920277 10:0.047469255 11:0.037424173 12:0.0046346099 17:0.009989352 18:0.046775755 19:0.047714647 20:0.008079893 24:0.0020906643 25:0.032852408 26:0.044172462 27:0.021605073 28:5.3333338e-006 30:0.00051200012 31:0.024842054 32:0.046477016 33:0.029305568 34:0.0043999483 36:0.0045226123 37:0.036714669 38:0.048680212 39:0.014645658 40:0.00063466682 42:0.0084745856 43:0.043116208 44:0.046322312 45:0.0086079277 49:0.022591632 50:0.045618143 51:0.033892658 52:0.0018080005 
312.5 312.5 312.5 0.1007926217552658 0 312.5 0 0 0 0 312.5 0 312.5 86.57622812706177 0 0 312.5 264.837460821046 0:0.0080383858 1:0.034063816 2:0.043241292 3:0.13537502 4:0.00031614405 8:0.0011931382 9:0.016450614 10:0.04826194 11:0.033587649 12:0.0014321055 17:0.0088055981 18:0.050754234 19:0.040957168 20:0.0055605979 24:0.0058561438 25:0.036653638 26:0.047344029 27:0.028181406 28:8.2115019e-007 30:0.00036705626 31:0.02928951 32:0.044676349 33:0.035035819 34:0.0075686681 36:0.0016505431 37:0.036128297 38:0.051469713 39:0.017075719 40:0.0012325555 42:0.0058159167 43:0.042219296 44:0.052121267 45:0.0090602404 49:0.029578652 50:0.047686607 51:0.037056044 52:0.0054834276 
312.5 312.5 312.5 312.5 291.0651991142789 312.5 59.70492425167593 312.5 0 0 173.5446729285116 0 312.5 312.5 312.5 215.6858083566827 312.5 198.2991296637947 0:0.0061284811 1:0.031736493 2:0.041041374 3:0.082600862 4:0.0018923627 8:0.0010416672 9:0.014930444 10:0.04628405 11:0.041128173 12:0.0048090261 17:0.03805548 18:0.061265603 19:0.072861984 20:0.0071875174 24:0.0066666799 25:0.04031226 26:0.045954213 27:0.024340456 28:1.7361112e-005 30:0.00083333364 31:0.027396118 32:0.043454394 33:0.031319857 34:0.0060590361 36:0.0038194361 37:0.039791465 38:0.046787485 39:0.016041556 40:0.00076388911 42:0.008888891 43:0.048245713 44:0.046718046 45:0.0066493186 49:0.025642585 50:0.04748188 51:0.030226078 52:0.0016145846 
312.5 312.5 312.5 312.5 312.5 312.5 312.5 312.5 242.4054380674199 312.5 312.5 312.5 312.5 312.5 312.5 312.5 312.5 312.5 0:0.004253909 1:0.032866586 2:0.045747776 3:0.086719133 4:0.0026710725 8:0.00061504071 9:0.013324466 10:0.047198255 11:0.043127555 12:0.0077148266 17:0.010557137 18:0.048732955 19:0.050252449 20:0.0081389472 24:0.0063756835 25:0.040163431 26:0.048125859 27:0.026424168 28:1.1715089e-006 30:0.0023734851 31:0.037595849 32:0.047371376 33:0.032184627 34:0.0040512215 36:0.0079772659 37:0.044829529 38:0.049102593 39:0.013673604 40:0.00058223907 42:0.0078601055 43:0.04957049 44:0.049701501 45:0.0090457685 49:0.026150012 50:0.049143534 51:0.039996158 52:0.0054091103 
312.5 312.5 312.5 312.5 312.5 312.5 312.5 312.5 312.5 312.5 312.5 312.5 312.5 312.5 312.5 312.5 312.5 312.5 0:0.003834632 1:0.029970217 2:0.046585094 3:0.055636507 4:0.0028417944 8:0.00057942665 9:0.014417111 10:0.051661048 11:0.045784142 12:0.008278233 17:0.013775881 18:0.050863352 19:0.057694238 20:0.0076955762 24:0.0097950501 25:0.043706875 26:0.050469387 27:0.022103954 28:3.2552084e-006 30:0.0021484357 31:0.03873511 32:0.046493929 33:0.030002777 34:0.0037923143 36:0.0081350142 37:0.044546898 38:0.051130336 39:0.014205538 40:0.00049153611 42:0.007920186 43:0.052764799 44:0.051485229 45:0.01159505 49:0.021358352 50:0.04937866 51:0.04226451 52:0.0079722656 
0 277.0099053411194 0 0 0 130.0164979628159 0 0 88.14212504165047 0 312.5 0 312.5 0 0 58.64190393472343 222.1135281206823 0 0:0.0036474364 1:0.025821554 2:0.042011254 3:0.18805766 4:0.00031716662 8:0.00053521874 9:0.01448412 10:0.047509663 11:0.034854069 12:0.0037135137 17:0.0086825294 18:0.049168438 19:0.043888114 20:0.0080217561 24:0.0013545633 25:0.03143739 26:0.043954201 27:0.020991981 28:6.6076382e-006 30:0.00030395132 31:0.021210006 32:0.043518029 33:0.027552536 34:0.0036342209 36:0.0043544639 37:0.038634226 38:0.054085284 39:0.01562065 40:0.00068058632 42:0.0083851814 43:0.048137486 44:0.052809812 45:0.0091582863 49:0.02043701 50:0.047945835 51:0.033532336 52:0.0014933232 
0 312.5 312.5 312.5 26.82833896863993 312.5 312.5 312.5 312.5 312.5 312.5 55.5141129400132 312.5 312.5 0 312.5 312.5 0 1:0.021924291 2:0.046724603 3:0.13311003 4:0.0049892874 8:5.9136069e-005 9:0.0090821981 10:0.040801987 11:0.042179991 12:0.015783368 13:3.4236666e-005 17:0.0076535703 18:0.04197469 19:0.042842552 20:0.015696218 24:0.0053067603 25:0.039016493 26:0.052096639 27:0.01345212 28:3.1124239e-006 30:0.005362785 31:0.039865691 32:0.048180372 33:0.022344476 35:2.1786967e-005 36:0.018248452 37:0.045405701 38:0.04408991 39:0.009878993 40:9.3372713e-005 42:0.017230671 43:0.046821032 44:0.045119524 45:0.0086589009 49:0.014364077 50:0.054162089 51:0.041498765 52:0.0058421069 
-0 312.5 312.5 0 191.9431319597903 0 0 0 0 0 312.5 312.5 139.0851168691254 312.5 312.5 0 312.5 312.5 0:0.0085937362 1:0.035599187 2:0.041336395 3:0.044953279 4:0.0010915312 8:0.0018161573 9:0.021741673 10:0.062535197 11:0.042571403 12:0.0010793243 17:0.015455305 18:0.060641743 19:0.044070572 20:0.0045929952 24:0.0092168301 25:0.038186289 26:0.045782268 27:0.028432107 28:2.5976291e-007 30:0.00089905947 31:0.030591138 32:0.040597633 33:0.036120728 34:0.0085734688 36:0.0010790646 37:0.039941534 38:0.060682945 39:0.022651993 40:0.0018878407 42:0.0052729938 43:0.047300473 44:0.060387753 45:0.012169121 49:0.030333007 50:0.048430391 51:0.037409976 52:0.0080002639 
-312.5 312.5 312.5 312.5 312.5 312.5 312.5 312.5 312.5 312.5 312.5 312.5 312.5 312.5 312.5 312.5 312.5 312.5 0:0.004553935 1:0.033566773 2:0.048291683 3:0.039932407 4:0.0048538954 8:0.00078374229 9:0.015843861 10:0.053067923 11:0.044996537 12:0.0082022035 17:0.011809057 18:0.052624092 19:0.049605355 20:0.0074458257 24:0.010922469 25:0.045084447 26:0.047891892 27:0.024060734 28:1.7048693e-007 30:0.0047206176 31:0.038351066 32:0.047070719 33:0.033315383 34:0.0044883187 36:0.0077967453 37:0.044067748 38:0.052395836 39:0.015953705 40:0.00082414848 42:0.0075174072 43:0.048954003 44:0.052665733 45:0.011775822 49:0.024725966 50:0.047966264 51:0.045665711 52:0.010953829 
-312.5 312.5 312.5 312.5 312.5 312.5 289.6717319178321 256.4125282808046 0 53.05283767953434 0 179.3506917094569 142.4550097361967 0 312.5 201.7141543138196 312.5 105.3062355060297 0:0.0083672106 1:0.033638321 2:0.041124489 3:0.040108267 4:0.0016937671 8:0.0010840109 9:0.01344846 10:0.046984702 11:0.040413134 12:0.0061653135 17:0.036517616 18:0.068156615 19:0.082825698 20:0.0088753356 24:0.0062669399 25:0.04054863 26:0.043563422 27:0.027710166 28:3.3875338e-005 30:0.0010840109 31:0.02750691 32:0.045426495 33:0.032418855 34:0.0071477019 36:0.005758808 37:0.03963403 38:0.046341095 39:0.014498585 40:0.00054200547 42:0.0085027106 43:0.05304816 44:0.048949398 45:0.0078929607 49:0.028048925 50:0.049254265 51:0.034857787 52:0.0015582658 
-312.5 312.5 312.5 312.5 312.5 312.5 312.5 312.5 312.5 312.5 312.5 312.5 312.5 312.5 312.5 312.5 312.5 312.5 0:0.0014681204 1:0.02533876 2:0.044249166 3:0.055167098 4:0.0058192271 5:1.2521286e-005 8:0.00025042568 9:0.011343987 10:0.048048068 11:0.045807529 12:0.015425735 17:0.010599005 18:0.046993513 19:0.052516628 20:0.011913679 24:0.0080134803 25:0.041163731 26:0.05118357 27:0.018788485 28:3.1303216e-006 29:3.1303216e-006 30:0.0063231853 31:0.039871354 32:0.044937599 33:0.025554806 34:0.0014712507 36:0.017379487 37:0.048345346 38:0.052682478 39:0.011979412 40:0.00025668633 42:0.013826216 43:0.058405865 44:0.051684249 45:0.010990277 49:0.019536819 50:0.052003432 51:0.042922366 52:0.0076816813 
-312.5 312.5 312.5 0 0 38.05692052157752 0 0 0 0 312.5 0 312.5 312.5 15.75168918912475 0 312.5 312.5 0:0.0095705362 1:0.032706536 2:0.042493805 3:0.10091716 4:0.0011602399 8:0.0016855226 9:0.020076191 10:0.053187624 11:0.037470251 12:0.00062341249 17:0.015389052 18:0.062385924 19:0.043180935 20:0.0046409597 24:0.0040521813 25:0.039040834 26:0.044786163 27:0.030316317 28:5.7723387e-006 30:0.0012006463 31:0.027689904 32:0.044815034 33:0.033855602 34:0.0098302914 36:0.00062341249 37:0.037816703 38:0.053580269 39:0.020139687 40:0.0014315398 42:0.0047737234 43:0.040801965 44:0.058655791 45:0.0079138754 49:0.02987762 50:0.043775678 51:0.036944799 52:0.0026725924 
-312.5 312.5 312.5 312.5 312.5 312.5 312.5 312.5 312.5 312.5 312.5 312.5 312.5 312.5 312.5 312.5 312.5 312.5 0:0.0054063066 1:0.033404224 2:0.045198027 3:0.069785371 4:0.0039371434 8:0.00092666148 9:0.016966358 10:0.051686265 11:0.044436641 12:0.0065241004 17:0.011456448 18:0.052408155 19:0.04827429 20:0.0065790019 24:0.0062012798 25:0.040609963 26:0.04700385 27:0.024156254 28:2.1958717e-006 30:0.004633294 31:0.035054259 32:0.046176638 33:0.033816732 34:0.0054546199 36:0.0071477811 37:0.045399893 38:0.053086162 39:0.017879918 40:0.0011440496 42:0.0067722551 43:0.049202435 44:0.05197151 45:0.0095436806 49:0.024639387 50:0.047190357 51:0.04005922 52:0.0057181469 
-203.0821687694343 312.5 312.5 312.5 312.5 312.5 312.5 312.5 164.5111091017062 312.5 312.5 312.5 312.5 312.5 312.5 312.5 312.5 312.5 0:0.0059006917 1:0.034506802 2:0.045078207 3:0.043267995 4:0.0041226456 8:0.0011691605 9:0.018170286 10:0.052708581 11:0.041963488 12:0.0055409754 17:0.012969609 18:0.05563968 19:0.045807373 20:0.0064295991 24:0.010686804 25:0.044345692 26:0.049007434 27:0.02432061 28:1.1416667e-007 30:0.0037921355 31:0.035197858 32:0.043385211 33:0.033626582 34:0.0056542638 36:0.0054262038 37:0.04073647 38:0.052355662 39:0.018243345 40:0.0011845779 42:0.007509775 43:0.048439369 44:0.05655339 45:0.012690444 49:0.026692569 50:0.052402779 51:0.045675375 52:0.010788183 
-312.5 312.5 312.5 312.5 276.8168861656407 312.5 242.8460255864125 302.2491309605172 265.7708347326288 312.5 312.5 0 312.5 16.60745705401186 0 312.5 312.5 37.35126200063853 0:0.0050008711 1:0.033247102 2:0.042303585 3:0.16458604 4:0.00085129635 8:0.00099779852 9:0.017034929 10:0.049265236 11:0.037745643 12:0.003975356 17:0.0063867024 18:0.0482792 19:0.045059733 20:0.0070281443 24:0.00221733 25:0.032086827 26:0.045032013 27:0.024523258 28:3.9595179e-006 30:0.00085921539 31:0.025457814 32:0.04347178 33:0.034233138 34:0.0054166205 36:0.0043713078 37:0.039583076 38:0.050825469 39:0.017236888 40:0.00094632478 42:0.006842047 43:0.046877366 44:0.049843393 45:0.0071112942 49:0.023560982 50:0.043547019 51:0.032082867 52:0.0021777349 
-312.5 312.5 312.5 160.0991903946684 0 312.5 0 312.5 0 207.7423959149476 312.5 61.89419983683139 312.5 312.5 296.7483108108752 29.8236877314246 312.5 312.5 0:0.0073818914 1:0.036210176 2:0.042415414 3:0.11176313 4:0.0014055315 8:0.0014524974 9:0.019273916 10:0.050398633 11:0.039544649 12:0.0035287666 17:0.016491711 18:0.055375367 19:0.045718957 20:0.0051316586 24:0.0049308925 25:0.033459708 26:0.043902591 27:0.026306501 28:8.4113907e-008 30:0.0013795235 31:0.03094052 32:0.042587291 33:0.036332358 34:0.0073304777 36:0.0033741111 37:0.038584415 38:0.049165674 39:0.019707596 40:0.0015633471 42:0.0052538714 43:0.045271527 44:0.053461239 45:0.013802797 49:0.026940675 50:0.044061273 51:0.032083489 52:0.0046311761 
-0 312.5 151.5226688286466 266.3020075008947 156.239981874569 74.5256453286223 0 108.4703757718208 0 0 312.5 0 312.5 312.5 312.5 132.2628643907663 0 148.2212472500636 0:0.0095321005 1:0.030032914 2:0.038470548 3:0.033895768 4:0.001397512 8:0.0019644257 9:0.022333574 10:0.066118002 11:0.043137614 12:0.0008833342 17:0.017982919 18:0.072935954 19:0.048371583 20:0.0042320853 24:0.0092025055 25:0.038655121 26:0.04114686 27:0.023678321 28:1.318409e-005 30:0.0012920398 31:0.028226733 32:0.039037451 33:0.030243855 34:0.0086487858 36:0.00055373186 37:0.040935919 38:0.063678309 39:0.020263717 40:0.002096266 42:0.0041266112 43:0.045853477 44:0.070971012 45:0.015649386 49:0.024733026 50:0.045444779 51:0.045392044 52:0.0088597266 
-0 312.5 312.5 0 0 90.86477375734552 0 0 0 0 64.22843791315989 0 0 180.3406459504653 312.5 0 134.1875775592162 84.12341970351858 0:0.0089919949 1:0.032917384 2:0.038728017 3:0.040147621 4:0.0014615286 8:0.001614641 9:0.023272427 10:0.069639198 11:0.044893552 12:0.0015172058 17:0.025666269 18:0.064990692 19:0.050961662 20:0.0062428848 24:0.0099246046 25:0.045672942 26:0.043731425 27:0.030537458 28:6.959669e-006 30:0.0010717878 31:0.028491559 32:0.039952774 33:0.035513032 34:0.0096183745 36:0.0010091509 37:0.038776729 38:0.054114018 39:0.022764431 40:0.0018234308 42:0.0051641199 43:0.045394588 44:0.055888522 45:0.0092634261 49:0.027510362 50:0.042068262 51:0.035011996 52:0.0055817063 
-312.5 312.5 312.5 0 0 312.5 0 0 0 0 312.5 0 312.5 312.5 312.5 186.8915843413764 312.5 312.5 0:0.0085488819 1:0.03382317 2:0.041398443 3:0.093142547 4:0.000924216 8:0.0014592888 9:0.019432582 10:0.054791965 11:0.036109127 12:0.0014714495 17:0.011504056 18:0.056628026 19:0.045483984 20:0.0059100445 24:0.0054722745 25:0.035701789 26:0.043228425 27:0.0280414 28:6.0803582e-006 30:0.00083301042 31:0.027889408 32:0.03978125 33:0.033087529 34:0.0090049272 36:0.0011613505 37:0.037325062 38:0.057910837 39:0.019712247 40:0.0015930569 42:0.0056121177 43:0.046730317 44:0.061297216 45:0.0145626 49:0.028381862 50:0.045587339 51:0.039446868 52:0.0069436682 
-0 312.5 312.5 0 0 0 0 0 0 0 312.5 0 312.5 312.5 312.5 0 267.259053795918 312.5 0:0.012129358 1:0.035397224 2:0.041135531 3:0.063201845 4:0.00017076508 8:0.002338937 9:0.022122953 10:0.062573269 11:0.030382201 17:0.014540943 18:0.070671707 19:0.03672868 20:0.0035419979 24:0.0085378801 25:0.038200188 26:0.042559076 27:0.028398447 28:1.9187082e-006 30:0.00012279724 31:0.030368771 32:0.041342732 33:0.036197249 34:0.012238714 37:0.030871425 38:0.066298589 39:0.023072623 40:0.0025001126 42:0.0035765355 43:0.037022214 44:0.068678334 45:0.016225409 49:0.029223412 50:0.042656921 51:0.037931595 52:0.008994489 
-0 -312.5 312.5 42.76656267911964 312.5 0 312.5 312.5 0 0 312.5 312.5 312.5 312.5 312.5 0 312.5 312.5 0:0.0096342089 1:0.036895134 2:0.046776138 3:0.037633747 4:0.0026095931 8:0.0014114793 9:0.017118314 10:0.052947663 11:0.037042856 12:0.002182869 17:0.01280186 18:0.052947663 19:0.04520043 20:0.0048417016 24:0.010257891 25:0.043099485 26:0.04538098 27:0.026259668 28:1.6412545e-005 30:0.0038733529 31:0.036468379 32:0.046382211 33:0.035073221 34:0.0086330343 36:0.0039554159 37:0.043263622 38:0.055655912 39:0.018152256 40:0.001148878 42:0.0056459238 43:0.050255828 44:0.055869289 45:0.01262132 49:0.031708427 50:0.049287423 51:0.045216843 52:0.011735034 
-0 -312.5 312.5 0 17.35118174371413 312.5 0 0 0 0 312.5 0 312.5 312.5 312.5 87.51358124377697 312.5 312.5 0:0.0084136436 1:0.037095316 2:0.043879658 3:0.047491364 4:0.0028753472 8:0.0017705355 9:0.018965965 10:0.055465445 11:0.040947802 12:0.0027478689 17:0.015141774 18:0.061626591 19:0.048157051 20:0.0048583583 24:0.0047167134 25:0.03759104 26:0.043454751 27:0.022577671 28:1.4164306e-005 30:0.0024645838 31:0.030126845 32:0.041953415 33:0.029914392 34:0.0064306161 36:0.001912178 37:0.043341443 38:0.059218787 39:0.018017007 40:0.0014872504 42:0.0041926275 43:0.049743369 44:0.068085171 45:0.01818697 49:0.023923209 50:0.051202215 51:0.043964639 52:0.008017038 
-312.5 -312.5 312.5 312.5 312.5 312.5 312.5 312.5 169.5829990549438 312.5 312.5 312.5 312.5 312.5 312.5 312.5 312.5 312.5 0:0.005261682 1:0.031880192 2:0.04398375 3:0.060949616 4:0.0038640318 8:0.0012108383 9:0.016430801 10:0.053021722 11:0.042105488 12:0.0054431129 17:0.012631508 18:0.054319911 19:0.046741061 20:0.006061269 24:0.010172509 25:0.042568259 26:0.048368268 27:0.021470709 28:7.1690755e-007 30:0.0037866081 31:0.03590136 32:0.043621115 33:0.031506114 34:0.005273873 36:0.0053477362 37:0.042307191 38:0.054172568 39:0.017072622 40:0.001300449 42:0.0064320192 43:0.048431925 44:0.057425551 45:0.013563761 49:0.022645349 50:0.049790196 51:0.04354959 52:0.010939108 
-312.5 -312.5 312.5 312.5 312.5 312.5 312.5 312.5 312.5 40.50883650358019 94.71332580587517 300.5740078772821 312.5 312.5 312.5 312.5 312.5 0 0:0.0050964239 1:0.028471343 2:0.042133939 3:0.041390229 4:0.002796141 8:0.0011845732 9:0.016666802 10:0.056526095 11:0.048813552 12:0.0079614697 17:0.015055214 18:0.060106918 19:0.05890872 20:0.0086501827 24:0.007162563 25:0.040784243 26:0.045577038 27:0.023457512 28:1.3774104e-005 30:0.0019559253 31:0.033484872 32:0.040894423 33:0.029036088 34:0.0053168121 36:0.0057713627 37:0.044075847 38:0.055906337 39:0.016418865 40:0.0012396697 42:0.007685985 43:0.051774617 44:0.058013514 45:0.017011158 49:0.023526384 50:0.046609968 51:0.041734539 52:0.0087603768 
-277.0099053411194 -312.5 312.5 309.0360932820889 166.3812076860143 312.5 0 0 0 0 0 0 172.6942599335531 300.2641603784712 312.5 0 312.5 312.5 0:0.009922768 1:0.028735476 2:0.041442331 3:0.037266545 4:0.0011673848 8:0.0015714795 9:0.018094398 10:0.056753546 11:0.04090352 12:0.0036368568 17:0.025996633 18:0.061737549 19:0.06182735 20:0.0051634405 24:0.0096084746 25:0.040499412 26:0.04238525 27:0.031339623 28:4.4899425e-005 30:0.0016163789 31:0.030890631 32:0.044271089 33:0.029768154 34:0.010192162 36:0.0028286653 37:0.040634114 38:0.054194193 39:0.018453591 40:0.0012571836 42:0.0064206272 43:0.052487958 44:0.057247456 45:0.0096533736 49:0.032058038 50:0.048491776 51:0.037446149 52:0.0039960528 
-312.5 -131.0741941626383 312.5 312.5 312.5 312.5 312.5 312.5 312.5 312.5 312.5 312.5 312.5 312.5 312.5 312.5 312.5 312.5 0:0.0018240005 1:0.018448098 2:0.045840304 3:0.052784357 4:0.0087040234 8:1.6e-005 9:0.0094720293 10:0.043808289 11:0.046144307 12:0.019456105 17:0.011216043 18:0.045536302 19:0.052448355 20:0.019984109 24:0.0094240289 25:0.046096306 26:0.053040359 27:0.014528068 28:1.6e-005 29:1.6e-005 30:0.0080320183 31:0.044912297 32:0.045472302 33:0.021232119 34:0.0021599992 36:0.021824123 37:0.046048306 38:0.043888289 39:0.0095520299 40:0.00011199999 42:0.016592083 43:0.054000366 44:0.047792319 45:0.013152057 49:0.013328059 50:0.052576356 51:0.049456332 52:0.011072041 
-312.5 -312.5 312.5 312.5 312.5 312.5 312.5 312.5 312.5 312.5 312.5 312.5 312.5 0 247.9863608580742 312.5 312.5 312.5 0:0.0032249901 1:0.027033707 2:0.044934008 3:0.099485055 4:0.0029083269 8:0.00067500037 9:0.014966836 10:0.047467384 11:0.044325665 12:0.0065250271 17:0.0095167439 18:0.050309099 19:0.050292432 20:0.010283424 24:0.0059750178 25:0.040400598 26:0.048417401 27:0.020916937 28:8.3333334e-006 30:0.0033999882 31:0.036067192 32:0.045325682 33:0.026658701 34:0.003958317 36:0.0081167202 37:0.043758988 38:0.048267398 39:0.01363348 40:0.00052499992 42:0.0081167202 43:0.051075779 44:0.052459136 45:0.0098750833 49:0.019883586 50:0.048375733 51:0.046317365 52:0.0065166936 
-312.5 -312.5 266.7276900342944 312.5 312.5 312.5 34.40656565655693 312.5 64.52341258921634 312.5 312.5 0 312.5 135.1879766980057 312.5 312.5 312.5 312.5 0:0.0071423734 1:0.030198783 2:0.042853799 3:0.069065988 4:0.0015255528 8:0.00072810496 9:0.015948888 10:0.052735113 11:0.04070418 12:0.0053394428 17:0.0090839742 18:0.0491293 19:0.051660303 20:0.0076277778 24:0.0041952753 25:0.035434145 26:0.041778989 27:0.026905011 30:0.0040219165 31:0.03827719 32:0.045731515 33:0.028430548 34:0.0087025901 36:0.0068649994 37:0.051798988 38:0.063067213 39:0.017509095 40:0.0011441649 42:0.0062409081 43:0.056098226 44:0.060848191 45:0.010470825 49:0.024374008 50:0.041640304 51:0.039005287 52:0.0037098711 
-0 -312.5 312.5 0 0 0 0 0 0 0 312.5 0 270.4232552792463 312.5 312.5 0 276.4087982075265 312.5 0:0.014820984 1:0.03889937 2:0.046394795 3:0.042423472 4:0.00098389934 8:0.0026297031 9:0.028505949 10:0.07425262 11:0.031564943 17:0.020142915 18:0.071747139 19:0.028792171 20:0.0026654818 24:0.0085509438 25:0.038183816 26:0.040428866 27:0.029230447 28:8.9445439e-006 30:0.00059033965 31:0.027647285 32:0.039033536 33:0.038148038 34:0.014579484 37:0.028702727 38:0.062056478 39:0.025464846 40:0.0028622642 42:0.0026475925 43:0.032486219 44:0.068382636 45:0.013935486 49:0.029516669 50:0.041824196 51:0.040867142 52:0.011028549 
-312.5 -312.5 312.5 236.4245535384978 0 312.5 0 196.3223089010448 0 228.8329492625457 312.5 0 312.5 0 0 312.5 312.5 312.5 0:0.0069457265 1:0.033659458 2:0.041764423 3:0.12399089 4:0.0012314011 8:0.0012121041 9:0.01760523 10:0.048896551 11:0.038229138 12:0.0026400825 17:0.0064343559 18:0.051449344 19:0.045280397 20:0.0059061004 24:0.0031333622 25:0.036814541 26:0.045244187 27:0.026211098 28:1.2060864e-006 30:0.0015437714 31:0.02898477 32:0.044647932 33:0.034131393 34:0.006955375 36:0.003092356 37:0.043293685 38:0.052699789 39:0.018390983 40:0.0010613463 42:0.0060170582 43:0.046693787 44:0.056408882 45:0.007013266 49:0.026374042 50:0.045506105 51:0.038049296 52:0.0029307436 
-312.5 -312.5 312.5 312.5 312.5 312.5 312.5 312.5 312.5 312.5 312.5 312.5 312.5 312.5 312.5 312.5 312.5 73.1196421758041 0:0.0015671529 1:0.021625385 2:0.044251017 3:0.046141081 4:0.0086233253 5:5.5125925e-005 8:0.00029925493 9:0.01100953 10:0.04777126 11:0.049897581 12:0.021255247 17:0.011970312 18:0.04835403 19:0.053835213 20:0.012119942 21:7.8751318e-006 24:0.0083555663 25:0.041077286 26:0.048046894 27:0.015144044 29:6.3001055e-005 30:0.0085445726 31:0.044125013 32:0.044747159 33:0.023586325 34:0.0015671529 36:0.021444254 37:0.051433258 38:0.050070837 39:0.01189156 40:0.00028350469 42:0.014049382 43:0.05626867 44:0.050496101 45:0.012238071 49:0.01654584 50:0.047779135 51:0.043857254 52:0.0096156085 
-312.5 -181.4258058373617 202.1078641591979 0 0 152.301253577064 0 0 96.91599165389917 0 312.5 0 312.5 282.514970460833 0 0 312.5 0.992522839965202 0:0.0082529765 1:0.03432427 2:0.039526638 3:0.24904233 4:1.9815225e-005 8:0.0015183324 9:0.019024355 10:0.045375586 11:0.020847661 12:8.6691609e-005 17:0.0056645833 18:0.045204651 19:0.031160736 20:0.0036286106 24:0.0011195592 25:0.026146645 26:0.040864389 27:0.023473619 30:9.9076115e-006 31:0.01494669 32:0.040814843 33:0.035384562 34:0.0079755168 36:0.00012879894 37:0.027162345 38:0.05283479 39:0.021992182 40:0.0017883093 42:0.0044657867 43:0.039296247 44:0.052894246 45:0.0083495919 49:0.025584294 50:0.042608421 51:0.027006274 52:0.0013226611 
-312.5 -312.5 312.5 312.5 188.7899391704879 312.5 278.0934343434431 312.5 88.41926080961369 312.5 312.5 0 312.5 157.7266511823773 312.5 274.8273978355383 312.5 312.5 0:0.0078205643 1:0.032113228 2:0.042092387 3:0.11257067 4:0.00029698265 8:0.0013661213 9:0.01720521 10:0.045260374 11:0.033321023 12:0.0024352574 17:0.02199634 18:0.057615522 19:0.05329914 20:0.0070682028 24:0.0044151386 25:0.042844784 26:0.048071962 27:0.023956347 28:1.9798845e-005 30:0.00047517222 31:0.036984008 32:0.047537364 33:0.03161823 34:0.0071473988 36:0.0033064026 37:0.037756205 38:0.050012354 39:0.016730057 40:0.00071275863 42:0.0075235795 43:0.045517772 44:0.047656164 45:0.0084739309 49:0.025916355 50:0.046270169 51:0.032053828 52:0.0005345688 
-0 -312.5 312.5 0 0 0 0 0 0 0 312.5 255.868464721687 0 312.5 312.5 0 0 312.5 0:0.014727308 1:0.036217436 2:0.042102341 3:0.033882104 4:0.0012372962 8:0.0024014162 9:0.023053749 10:0.060468964 11:0.030618628 17:0.015548769 18:0.069625989 19:0.034584034 20:0.0031298071 24:0.012129895 25:0.044727094 26:0.044371139 27:0.032857485 28:3.3260603e-006 30:0.0014767755 31:0.034324553 32:0.042681184 33:0.035572059 34:0.013829355 37:0.031207452 38:0.060938027 39:0.022458272 40:0.0021419893 42:0.0032362386 43:0.03442768 44:0.06914416 45:0.014730634 49:0.031656552 50:0.043732416 51:0.044953309 52:0.011877138 
-0 -312.5 -312.5 0 0 0 0 0 0 0 312.5 89.77740693007503 0 312.5 312.5 0 27.67624793958183 312.5 0:0.011734754 1:0.037146952 2:0.044951744 3:0.030922623 4:0.0010689257 8:0.0027078255 9:0.026250232 10:0.061083015 11:0.030038802 17:0.01796234 18:0.069603734 19:0.033195511 20:0.0030045193 24:0.010477083 25:0.050509237 26:0.048195079 27:0.029426739 28:4.8631631e-007 30:0.00093568373 31:0.030024704 32:0.043964982 33:0.03700738 34:0.012195624 37:0.028484579 38:0.058658566 39:0.02539558 40:0.0026523778 42:0.002959772 43:0.031119514 44:0.064814128 45:0.017274924 49:0.030057762 50:0.046906725 51:0.049388271 52:0.010426523 
-239.3231757164098 -0 -189.8561129106521 312.5 312.5 312.5 312.5 312.5 312.5 312.5 228.8469112640459 312.5 312.5 294.2093568134735 253.9313402493028 312.5 312.5 34.35234561726535 1:0.014502949 2:0.049840238 3:0.0505489 4:0.0111725 5:0.00040154942 9:0.0062830881 10:0.040155191 11:0.04426543 12:0.027021658 13:0.0018660238 17:0.01228265 18:0.042966217 19:0.049769372 20:0.023431387 21:2.3620558e-005 24:0.0072751562 25:0.050383545 26:0.047785118 27:0.0088813407 29:0.00037792887 30:0.0093301246 31:0.053241815 32:0.054753628 33:0.017006692 35:0.0017006799 36:0.027966466 37:0.046509527 38:0.040863853 39:0.0079365326 40:2.3620558e-005 42:0.021659872 43:0.047737874 44:0.047052834 45:0.016345326 49:0.0089994418 50:0.048871733 51:0.051399294 52:0.009377365 
-47.04571500727854 -113.2550718120108 -231.4309946747357 298.2206830350818 0 312.5 312.5 118.5641771886826 0 230.3137001185859 19.8625743836486 312.5 44.34132810527853 0 312.5 0 312.5 312.5 0:0.0048538167 1:0.038114458 2:0.05492457 3:0.0561122 4:0.0047885589 8:0.0012548453 9:0.019234287 10:0.053408019 11:0.039540619 12:0.0071077198 17:0.016010243 18:0.045212619 19:0.046766832 20:0.005694638 24:0.010498614 25:0.051622808 26:0.050151452 27:0.022463348 30:0.0043894826 31:0.038897842 32:0.049538806 33:0.03613089 34:0.0046881624 36:0.0063145868 37:0.037926145 38:0.047017917 39:0.015119366 40:0.0012322582 42:0.0056996578 43:0.042209648 44:0.04417564 45:0.012509055 49:0.022797043 50:0.043206453 51:0.049772315 52:0.010674308 
-0 -312.5 -312.5 312.5 312.5 312.5 312.5 312.5 312.5 312.5 312.5 312.5 312.5 300.7815592632799 312.5 312.5 312.5 312.5 0:0.0044208528 1:0.029429834 2:0.04103012 3:0.045115761 4:0.0051784748 8:0.00065609626 9:0.013559523 10:0.040491097 11:0.040319234 12:0.011638016 17:0.013840719 18:0.057849213 19:0.046357859 20:0.0075294464 24:0.014325001 25:0.049810734 26:0.051630914 27:0.021986837 30:0.0052565802 31:0.04296748 32:0.042670626 33:0.029453265 34:0.0041396734 36:0.013192406 37:0.041842561 38:0.044272073 39:0.014848338 40:0.00056236843 42:0.0074903937 43:0.048084296 44:0.058333553 45:0.014504654 49:0.021979026 50:0.046475038 51:0.054138545 52:0.014645252 
-312.5 -240.4441953916904 -312.5 312.5 312.5 312.5 312.5 312.5 312.5 312.5 0 312.5 312.5 0 312.5 312.5 312.5 312.5 0:0.0026005292 1:0.032789346 2:0.050448801 3:0.052888595 4:0.0055942587 8:0.00046470095 9:0.012413052 10:0.043603081 11:0.040466204 12:0.013494425 17:0.02510355 18:0.048518416 19:0.049984079 20:0.0082573602 24:0.0063091791 25:0.046310984 26:0.053710796 27:0.018767238 29:8.9365503e-006 30:0.0058802268 31:0.042065922 32:0.0547028 33:0.034514181 34:0.0025379737 36:0.013136947 37:0.043397531 38:0.046525471 39:0.013074388 40:0.00042895469 42:0.0079266923 43:0.048277117 44:0.04629311 45:0.010777586 49:0.016390003 50:0.052307691 51:0.045104492 52:0.0049597668 
-312.5 -312.5 -312.5 207.8108362953559 192.5816397065497 312.5 0 248.0673672164473 0 0 312.5 0 312.5 312.5 312.5 192.3612887692347 312.5 312.5 0:0.010005588 1:0.032033499 2:0.038487826 3:0.058099579 4:0.0024322853 8:0.0015063562 9:0.018172974 10:0.052142803 11:0.040547129 12:0.0018518507 17:0.013958078 18:0.057754058 19:0.046697397 20:0.0053759231 24:0.010033228 25:0.045066539 26:0.047499005 27:0.030485671 28:1.381979e-005 30:0.0024322853 31:0.035820406 32:0.04675268 33:0.036000077 34:0.010116147 36:0.0018103913 37:0.040450383 38:0.059965391 39:0.020135267 40:0.0014648968 42:0.0045467294 43:0.04407144 44:0.05644108 45:0.012838666 49:0.025345016 50:0.042841386 51:0.038100842 52:0.0087065175 
-312.5 -312.5 -312.5 312.5 312.5 312.5 246.0435898860273 312.5 31.86941136947831 7.971034941343371 312.5 312.5 312.5 312.5 312.5 312.5 312.5 312.5 0:0.0089058178 1:0.035856992 2:0.045049034 3:0.034724262 4:0.0031638932 8:0.0017577199 9:0.019477969 10:0.055100389 11:0.035922091 12:0.0022524847 17:0.016105818 18:0.055295687 19:0.044619378 20:0.0060283579 24:0.010845781 25:0.042692434 26:0.048746683 27:0.024920283 28:1.3020155e-005 30:0.0043877931 31:0.041182127 32:0.0467286 33:0.036013231 34:0.0088537382 36:0.0033071146 37:0.041403465 38:0.056819014 39:0.017941622 40:0.0013931565 42:0.0066533349 43:0.048160788 44:0.055842523 45:0.01451739 49:0.027355002 50:0.047236376 51:0.041624803 52:0.0090880962 
-312.5 -312.5 -312.5 312.5 312.5 312.5 312.5 312.5 312.5 312.5 312.5 312.5 312.5 312.5 312.5 312.5 312.5 312.5 0:0.003888275 1:0.030580008 2:0.047971953 3:0.061281409 4:0.0039281412 8:0.00062147749 9:0.013759849 10:0.054843772 11:0.042764109 12:0.010581106 17:0.015549137 18:0.049723938 19:0.054124437 20:0.0079616625 24:0.0093851201 25:0.044661604 26:0.052872349 27:0.020353248 28:1.1726079e-006 30:0.004122782 31:0.033803519 32:0.045590989 33:0.028024198 34:0.0031824089 36:0.0087718843 37:0.039938401 38:0.049393021 39:0.012963697 40:0.00054525892 42:0.0089852856 43:0.050126437 44:0.049262766 45:0.011991666 49:0.02274712 50:0.053650357 51:0.043450586 52:0.0089864582 
-0 -312.5 -312.5 0 222.2707816835061 253.2656250967738 0 0 0 0 205.880894576704 312.5 245.4470329331195 312.5 312.5 0 312.5 312.5 0:0.007737115 1:0.034678381 2:0.049024958 3:0.038371559 4:0.0030967398 8:0.0013352913 9:0.018646199 10:0.056373436 11:0.036903758 12:0.0020266124 17:0.016998474 18:0.052945409 19:0.049299579 20:0.0051517631 24:0.010805298 25:0.046790112 26:0.052178364 27:0.026572328 28:9.4701454e-006 30:0.0026137619 31:0.033949215 32:0.047102612 33:0.037187848 34:0.0088734813 36:0.0021118438 37:0.035246562 38:0.057519268 39:0.021534454 40:0.0013447615 42:0.0061271889 43:0.046619657 44:0.049413215 45:0.0143659 49:0.026288237 50:0.044990871 51:0.045379128 52:0.010350753 
-312.5 -312.5 -312.5 312.5 268.8148088890325 312.5 224.0216515473258 312.5 84.44507783736461 281.6151821140797 312.5 0 312.5 0 52.75949765083917 312.5 312.5 312.5 0:0.0029264297 1:0.02922136 2:0.044400383 3:0.12959683 4:0.0027539039 8:0.00050130172 9:0.015673544 10:0.050710324 11:0.039988633 12:0.0086069852 17:0.015253639 18:0.051934544 19:0.05173919 20:0.0082196435 24:0.0031152316 25:0.040623534 26:0.048245605 27:0.017900582 28:3.2552084e-006 30:0.0032649711 31:0.02832273 32:0.043820832 33:0.028498549 34:0.0028124976 36:0.0073277117 37:0.039015118 38:0.04367106 39:0.01517552 40:0.0006119787 42:0.0084963161 43:0.048323747 44:0.048476774 45:0.0091766054 49:0.019424345 50:0.050925214 51:0.039096516 52:0.0022526023 
-312.5 -312.5 -312.5 312.5 312.5 312.5 312.5 312.5 31.54790369636466 312.5 312.5 312.5 312.5 312.5 312.5 312.5 312.5 312.5 0:0.0042083408 1:0.029517574 2:0.044201545 3:0.09077125 4:0.0028620991 8:0.00066591264 9:0.014435167 10:0.050911799 11:0.042000569 12:0.0074998806 17:0.019248696 18:0.049782477 19:0.054157197 20:0.0056555937 24:0.0088238604 25:0.040533252 26:0.049918637 27:0.021363912 28:1.6007479e-006 30:0.0020553409 31:0.032719307 32:0.042343371 33:0.029973578 34:0.0050744512 36:0.0058012796 37:0.040856831 38:0.051168099 39:0.01581827 40:0.00085480337 42:0.0065088966 43:0.052734733 44:0.046806194 45:0.014553637 49:0.022176718 50:0.048369624 51:0.03814806 52:0.0075703221 
-133.7696654210765 -110.3234016249454 -47.5484466081044 271.3631770818884 122.5134923557798 312.5 35.66613726808448 137.6672043606001 98.65923066085189 94.11197408193465 0 0 118.5755002539476 0 0 38.78626357664022 85.31250418690215 0 1:0.018020766 2:0.036980901 3:0.066445976 4:0.0088823223 8:5.6937883e-005 9:0.010761254 10:0.049991082 11:0.043244008 12:0.018931763 13:2.8468941e-005 17:0.055684816 18:0.064083077 19:0.11600993 20:0.028127143 24:0.010448099 25:0.04725809 26:0.041478951 27:0.012469375 28:2.8468941e-005 30:0.0081990743 31:0.046261687 32:0.033849347 33:0.021323131 35:5.6937883e-005 36:0.014405244 37:0.033422317 38:0.029322827 39:0.0057222657 40:2.8468941e-005 42:0.011814595 43:0.037692618 44:0.028269487 45:0.0095940391 49:0.012327031 50:0.031771135 51:0.039002176 52:0.0079997936 
-312.5 -312.5 -312.5 162.5383800480434 0 312.5 0 175.7013542988236 312.5 312.5 312.5 0 312.5 278.6093618706746 0 312.5 312.5 133.5389008715766 0:0.0027404451 1:0.024776338 2:0.041804232 3:0.18894242 4:0.0022983705 8:0.00069979479 9:0.014185768 10:0.043882284 11:0.042041272 12:0.0091623981 17:0.0080962181 18:0.043102309 19:0.045429818 20:0.0087372828 24:0.0021581729 25:0.034352139 26:0.042898003 27:0.018081903 28:1.130526e-006 30:0.0026861751 31:0.024939148 32:0.042339265 33:0.026585339 34:0.0028693364 36:0.0090549886 37:0.044792067 38:0.047583498 39:0.015558347 40:0.00084336946 42:0.0091985781 43:0.047250513 44:0.046104819 45:0.0090278536 49:0.01740692 50:0.042350553 51:0.035950467 52:0.0020383266 
-312.5 -312.5 -312.5 0 0 37.6874217425691 0 0 0 0 312.5 0 312.5 312.5 312.5 0 312.5 312.5 0:0.0099886488 1:0.035874024 2:0.041252136 3:0.094642341 4:0.0017578347 8:0.0018830062 9:0.020797757 10:0.051776096 11:0.033383042 12:0.0008222505 17:0.011865942 18:0.058623925 19:0.039778352 20:0.0039762184 24:0.0063904678 25:0.04367125 26:0.04425782 27:0.025686739 28:1.940636e-007 30:0.0019136684 31:0.026991798 32:0.040844366 33:0.035991415 34:0.0097029191 36:0.00079760433 37:0.034364596 38:0.053981155 39:0.0214314 40:0.0020089205 42:0.0044816709 43:0.042809993 44:0.060369298 45:0.013236282 49:0.027646167 50:0.045797467 51:0.042755753 52:0.0071027228 
-0 -312.5 -312.5 0 0 0 0 0 0 0 312.5 0 312.5 312.5 312.5 0 69.40442385593829 312.5 0:0.011916905 1:0.036081992 2:0.048134163 3:0.036730453 4:0.00077171111 8:0.0033535145 9:0.025215438 10:0.063335784 11:0.023927676 17:0.021107523 18:0.071401261 19:0.030410334 20:0.0021030447 24:0.0124194 25:0.045425206 26:0.04664769 27:0.028108671 28:7.6864421e-007 30:0.00077401701 31:0.028972564 32:0.046026088 33:0.038088001 34:0.012697539 37:0.023568425 38:0.060899258 39:0.024805415 40:0.0032559056 42:0.0021460848 43:0.029021798 44:0.069685332 45:0.021027518 49:0.026588589 50:0.045579456 51:0.046222545 52:0.013345251 
-0 -0 -0 -0 312.5 312.5 312.5 312.5 312.5 312.5 0 312.5 0 0 0 158.5504657519816 0 0 1:0.017858496 2:0.043468658 3:0.051417999 4:0.0097382003 5:0.0001249326 8:6.5754002e-006 9:0.0068582222 10:0.051385123 11:0.054258458 12:0.03095617 13:0.0015254924 17:0.01497201 18:0.054968573 19:0.053785048 20:0.02234274 21:6.5754002e-006 24:0.0068911002 25:0.04883397 26:0.054153256 27:0.0094751948 29:0.000131508 30:0.0087782303 31:0.041160785 32:0.043126751 33:0.017417962 35:0.0010652165 36:0.028549669 37:0.050471179 38:0.037906092 39:0.006976583 42:0.021343319 43:0.047545243 44:0.043659337 45:0.008574401 49:0.0090215104 50:0.05099719 51:0.044165622 52:0.0060559986 
-312.5 -312.5 -312.5 -312.5 0 312.5 312.5 312.5 0 312.5 312.5 312.5 312.5 312.5 312.5 312.5 312.5 312.5 0:0.0017983716 1:0.030513633 2:0.046839695 3:0.088289328 4:0.0053696306 8:0.00046409387 9:0.011964668 10:0.040880676 11:0.037687309 12:0.011874027 17:0.0071643218 18:0.043791316 19:0.048510686 20:0.0080235982 24:0.005978738 25:0.047575511 26:0.054516826 27:0.016351877 28:3.625737e-006 30:0.0057684509 31:0.041047413 32:0.050442655 33:0.028120097 34:0.0018527579 36:0.013052359 37:0.043446969 38:0.045281071 39:0.011892155 40:0.00029005902 42:0.0096188793 43:0.051725801 44:0.047608133 45:0.0081432443 49:0.017222254 50:0.058275647 51:0.052320253 52:0.0062905429 
-0 -0 -0 -49.93698159645827 45.56195593066016 273.8958467012735 312.5 312.5 291.4683808603603 312.5 0 312.5 0 0 0 0 0 0 1:0.017621025 2:0.048828103 3:0.056350805 4:0.0097388513 5:2.5025025e-005 8:5.4220887e-005 9:0.0067276559 10:0.041372158 11:0.050142385 12:0.031220904 13:0.0012637593 17:0.012766607 18:0.044584848 19:0.052245237 20:0.021115873 21:4.1708377e-006 24:0.010314375 25:0.054302193 26:0.061883308 27:0.0091508161 29:3.3366701e-005 30:0.0083667692 31:0.049783565 32:0.048682071 33:0.016524194 35:0.00092175277 36:0.022767376 37:0.042824127 38:0.038493253 39:0.0063647851 40:2.5025025e-005 42:0.019810518 43:0.043320633 44:0.040959097 45:0.00927593 49:0.009609567 50:0.057827808 51:0.046825387 52:0.0079330411 
-312.5 -312.5 -312.5 -312.5 312.5 312.5 312.5 312.5 90.84416118229377 312.5 312.5 312.5 312.5 312.5 312.5 312.5 312.5 312.5 0:0.0029369479 1:0.029483886 2:0.047395498 3:0.066955574 4:0.004651722 8:0.00053630891 9:0.013932614 10:0.047763851 11:0.042843968 12:0.010605646 17:0.012816329 18:0.049777027 19:0.050200086 20:0.0095951529 24:0.0081031248 25:0.048000909 26:0.046677027 27:0.020938111 28:3.6483568e-006 30:0.0039512184 31:0.041957732 32:0.048825145 33:0.0297758 34:0.0031339645 36:0.010532686 37:0.044517968 38:0.050006792 39:0.014669508 40:0.00052901224 42:0.009161042 43:0.049146086 44:0.048712086 45:0.010733326 49:0.020620655 50:0.047814909 51:0.046607733 52:0.0060235416 
-312.5 -312.5 -312.5 -312.5 312.5 312.5 0 312.5 0.1748725004691227 199.6516203650101 312.5 0 312.5 312.5 312.5 312.5 312.5 312.5 0:0.0036384512 1:0.027660903 2:0.045447357 3:0.066870697 4:0.001703298 8:0.00089030276 9:0.017663706 10:0.058230408 11:0.045061119 12:0.005479265 17:0.013664255 18:0.052571304 19:0.060416229 20:0.0072628427 24:0.0088717844 25:0.039679535 26:0.046588905 27:0.016386859 28:2.8627046e-006 30:0.0016260063 31:0.0346613 32:0.04618264 33:0.026315346 34:0.0037987598 36:0.0057569649 37:0.045910843 38:0.057927139 39:0.016624479 40:0.00075575535 42:0.0072599798 43:0.056387909 44:0.054471023 45:0.012871236 49:0.016083393 50:0.046179779 51:0.039854057 52:0.0091036782 
-312.5 -312.5 -312.5 -312.5 312.5 312.5 260.9261440788505 134.1524765360069 0 312.5 312.5 312.5 312.5 312.5 312.5 0 312.5 312.5 0:0.0052947314 1:0.041655138 2:0.046963744 3:0.047990344 4:0.0039170203 8:0.00099951483 9:0.016681034 10:0.052731618 11:0.04499159 12:0.0064968518 17:0.009468385 18:0.047301441 19:0.055851944 20:0.0064833448 24:0.0069020609 25:0.039331779 26:0.04750406 27:0.028417783 28:1.3506942e-005 30:0.0041061179 31:0.039169684 32:0.043505721 33:0.032078035 34:0.0068210191 36:0.0059565729 37:0.040898696 38:0.050259672 39:0.016505456 40:0.00093197997 42:0.00449782 43:0.045842588 44:0.057648495 45:0.014411937 49:0.020165592 50:0.052434444 51:0.044100069 52:0.011670021 
-312.5 -312.5 -312.5 -312.5 312.5 312.5 254.0987692580807 312.5 59.77704017832318 72.44945499800819 312.5 312.5 312.5 312.5 312.5 299.5926521442237 312.5 312.5 0:0.011400102 1:0.031612705 2:0.038269639 3:0.038274307 4:0.003095078 8:0.0014081382 9:0.016452501 10:0.055444434 11:0.043181486 12:0.0029952985 17:0.012990696 18:0.056692734 19:0.045796782 20:0.0049984897 24:0.012307778 25:0.041548427 26:0.04400235 27:0.033485822 28:6.651448e-007 30:0.0031975184 31:0.037853539 32:0.042264599 33:0.033184417 34:0.011203272 36:0.0030957432 37:0.045173299 38:0.058341131 39:0.017256442 40:0.001313015 42:0.0054932232 43:0.048072662 44:0.058262445 45:0.01302461 49:0.035302259 50:0.04362626 51:0.038529702 52:0.011301687 
-0 -0 -0 -0 312.5 312.5 312.5 312.5 312.5 312.5 49.67837858858465 312.5 277.1310263529433 148.8404979271431 0 312.5 0 0 1:0.013348578 2:0.045114581 3:0.063531302 4:0.010865859 5:3.3101624e-005 8:2.8963919e-005 9:0.0065128235 10:0.043856386 11:0.046972901 12:0.025126945 13:0.00072409684 17:0.011056201 18:0.044307515 19:0.045673318 20:0.020766616 21:4.1377029e-006 24:0.009682429 25:0.044535149 26:0.047498528 27:0.010857583 29:3.7239326e-005 30:0.010270006 31:0.049518261 32:0.044270266 33:0.014503043 35:0.00069099531 36:0.028138634 37:0.05048674 38:0.048988495 39:0.0080231447 40:1.6550812e-005 42:0.020568043 43:0.05096684 44:0.049654841 45:0.013725124 49:0.010154146 50:0.04879811 51:0.049807977 52:0.010915513 
-256.2080753664541 -0 -275.7272094997064 -264.9960948639115 309.7190024717511 312.5 293.5910457667267 312.5 312.5 312.5 312.5 0 312.5 312.5 0 312.5 312.5 0 1:0.014767402 2:0.044539642 3:0.086711481 4:0.0075658895 5:3.1612442e-005 8:4.9174912e-005 9:0.0075448146 10:0.044862833 11:0.047852352 12:0.024726611 13:0.00049877341 17:0.0093363831 18:0.045056045 19:0.057084382 20:0.021016937 24:0.0046470161 25:0.041876826 26:0.047711834 27:0.0099476362 28:3.5124938e-006 29:2.1074962e-005 30:0.0073867529 31:0.039737441 32:0.045417879 33:0.016042601 35:0.00050931086 36:0.02509547 37:0.049201325 38:0.046120469 39:0.0085951509 40:3.5124936e-005 42:0.021515775 43:0.056810372 44:0.048864082 45:0.010622122 49:0.011180681 50:0.049679086 51:0.042231634 52:0.0051738885 
-56.39271725530114 -312.5 -312.5 -312.5 312.5 312.5 128.8840408963423 312.5 312.5 312.5 0 249.5509461426492 312.5 160.7539831915902 312.5 312.5 312.5 312.5 0:0.0043666642 1:0.020689771 2:0.041067719 3:0.038017958 4:0.0047132233 8:0.00062380859 9:0.012233615 10:0.053959891 11:0.049489219 12:0.012164302 17:0.017882604 18:0.055484772 19:0.063317023 20:0.0063073952 24:0.0070698252 25:0.04134497 26:0.044290762 27:0.014139716 28:3.4656037e-005 30:0.0045745997 31:0.044360075 32:0.043632291 33:0.023323655 34:0.0033962955 36:0.010258202 37:0.054826301 38:0.057633467 39:0.014209028 40:0.00065846462 42:0.0093224794 43:0.058603846 44:0.061480325 45:0.018471763 49:0.01802123 50:0.041206345 51:0.042003442 52:0.0068272338 
-312.5 -113.9011978955631 -312.5 -312.5 269.7190415975887 312.5 0 312.5 312.5 312.5 0 0 312.5 40.36932466881567 312.5 312.5 312.5 120.732890558887 1:0.020693256 2:0.044597607 3:0.080692403 4:0.0059868186 8:0.00013686837 9:0.0074569918 10:0.045105271 11:0.048102695 12:0.022688596 13:4.8566199e-005 17:0.021920478 18:0.046482585 19:0.06484434 20:0.019112876 24:0.0050861719 25:0.04503464 26:0.052755546 27:0.01231831 28:4.4151084e-006 29:8.8302168e-006 30:0.0049625537 31:0.038006805 32:0.045630593 33:0.023085898 35:3.973598e-005 36:0.019134948 37:0.04540104 38:0.042222623 39:0.0096690701 40:0.00013686837 42:0.016768793 43:0.050592456 44:0.044526976 45:0.010812659 49:0.012159356 50:0.049532983 51:0.040730532 52:0.0034526223 
-312.5 -312.5 -312.5 -312.5 0 312.5 0 312.5 312.5 312.5 312.5 0 312.5 312.5 3.687365812555724 312.5 312.5 88.77631944058965 1:0.019669769 2:0.039637931 3:0.11460567 4:0.0040203659 8:0.0001161969 9:0.0078919623 10:0.043771036 11:0.048536427 12:0.018875081 13:5.1126648e-005 17:0.024586612 18:0.047764666 19:0.069025286 20:0.01960006 24:0.0062605888 25:0.0428598 26:0.055933245 27:0.011694215 30:0.0029374363 31:0.035290964 32:0.044166215 33:0.023020472 35:9.2957534e-006 36:0.014538933 37:0.043199189 38:0.045830615 39:0.0098442193 40:0.00013943629 42:0.013218835 43:0.040312059 44:0.043552525 45:0.0092678387 49:0.010992332 50:0.048475988 51:0.035895355 52:0.0044665514 
-0 -0 -0 -0 312.5 312.5 312.5 312.5 312.5 312.5 0 312.5 0 0 144.7908963396766 312.5 257.821079879022 0 1:0.017899251 2:0.04780807 3:0.066030234 4:0.0096013676 5:4.1403064e-006 8:1.6561225e-005 9:0.0081728399 10:0.042175166 11:0.048693772 12:0.026950734 13:0.00054238056 17:0.011336304 18:0.042183444 19:0.049521532 20:0.019758407 21:4.1403064e-006 24:0.0085744839 25:0.044488754 26:0.052191056 27:0.010963645 30:0.0098208226 31:0.04760113 32:0.047733571 33:0.016586661 35:0.0007121333 36:0.026971437 37:0.050398957 38:0.041930977 39:0.0078954156 40:1.6561225e-005 42:0.020805994 43:0.050730061 44:0.043077424 45:0.0088808928 49:0.011990529 50:0.055009577 51:0.046218771 52:0.0066409269 
-0 -0 -0 -312.5 0 0 312.5 312.5 312.5 312.5 89.14938218564235 312.5 0 0 0 312.5 0 209.9925230781822 1:0.01365428 2:0.052292984 3:0.068778723 4:0.010519894 5:0.00035355086 9:0.0061255805 10:0.037453774 11:0.038429964 12:0.024087263 13:0.0023205429 17:0.0099446485 18:0.039254677 19:0.042556331 20:0.02432009 21:2.8059621e-006 24:0.010856623 25:0.056284703 26:0.058450274 27:0.0085865082 29:0.00028059594 30:0.011291564 31:0.054901768 32:0.05377971 33:0.013202501 35:0.0022588093 36:0.024984909 37:0.040668469 38:0.037136793 39:0.0055531412 42:0.021787046 43:0.042486202 44:0.040847998 45:0.0099586789 49:0.0093974639 50:0.058265135 51:0.057572264 52:0.011212994 
-0 -0 -0 -0 -312.5 312.5 312.5 312.5 312.5 312.5 0 149.2109153381859 0 0 0 312.5 0 0 1:0.010508308 2:0.036161996 3:0.043346077 4:0.010647625 5:0.00025872709 9:0.006985609 10:0.04505752 11:0.050410755 12:0.033455528 13:0.0035624786 17:0.014050929 18:0.051127173 19:0.056241602 20:0.029176725 21:1.9902081e-005 24:0.0091549475 25:0.041176923 26:0.043027669 27:0.006189533 29:0.00073637685 30:0.014369367 31:0.047962993 32:0.032301299 33:0.0090156309 35:0.0053735552 36:0.042589858 37:0.053176925 38:0.040400803 39:0.0040401281 42:0.027883071 43:0.057614736 44:0.055425681 45:0.013971319 49:0.006388552 50:0.047067471 51:0.042052545 52:0.0090554357 
-0 -0 -312.5 -312.5 -312.5 312.5 312.5 312.5 312.5 312.5 0 312.5 216.2182495391969 138.1564718052648 312.5 312.5 312.5 312.5 1:0.024083534 2:0.050058495 3:0.051327236 4:0.008056744 5:1.4774157e-005 8:5.0021205e-005 9:0.011168068 10:0.044238213 11:0.044926837 12:0.023097862 13:0.00021760362 17:0.010790067 18:0.042173617 19:0.047972452 20:0.016384637 24:0.0088582002 25:0.047878172 26:0.055442415 27:0.012806498 28:2.1105953e-007 29:1.7095808e-005 30:0.00833348 31:0.044974402 32:0.048794426 33:0.023593118 35:0.00022456863 36:0.023445573 37:0.046139307 38:0.044957839 39:0.011212887 40:5.4453485e-005 42:0.015558636 43:0.049605783 44:0.043912269 45:0.011438039 49:0.012434627 50:0.057962485 51:0.04970983 52:0.0091634765 
-312.5 -312.5 -312.5 -312.5 -312.5 312.5 120.930569367448 312.5 0 0 312.5 249.6088652253121 312.5 312.5 312.5 68.99548429461908 312.5 312.5 0:0.0067450665 1:0.033559464 2:0.044656903 3:0.049973041 4:0.002923978 8:0.00093035639 9:0.020235274 10:0.065323703 11:0.055687889 12:0.0091373958 17:0.025518483 18:0.055422083 19:0.057016924 20:0.0063131182 24:0.0090709422 25:0.044523999 26:0.04724852 27:0.023258997 28:3.3227006e-005 30:0.0013955347 31:0.028508978 32:0.040935606 33:0.03262914 34:0.0065789325 36:0.00421983 37:0.039008506 38:0.047348198 39:0.016181491 40:0.00073099422 42:0.0092038494 43:0.045288194 44:0.043361094 45:0.0077086436 49:0.029239988 50:0.049109168 51:0.036317211 52:0.0046517784 
-312.5 -312.5 -312.5 -312.5 -312.5 312.5 312.5 312.5 312.5 312.5 312.5 25.47255797383748 312.5 312.5 312.5 312.5 312.5 312.5 0:0.0059505678 1:0.029808899 2:0.039910004 3:0.11804746 4:0.00088065787 8:0.00079423818 9:0.015407809 10:0.052638054 11:0.039461311 12:0.0043991944 17:0.012028972 18:0.05245693 19:0.051839463 20:0.0082468139 24:0.0064690639 25:0.032273997 26:0.04395647 27:0.0260564 28:4.1152266e-006 30:0.00075720117 31:0.02768166 32:0.040366929 33:0.02989942 34:0.0059793731 36:0.0042345924 37:0.039840024 38:0.055918861 39:0.016506452 40:0.0009218101 42:0.0078064548 43:0.048616286 44:0.055037942 45:0.013053735 49:0.025262285 50:0.044170525 51:0.035772976 52:0.0075389766 
-312.5 -312.5 -312.5 -312.5 -312.5 312.5 312.5 312.5 18.79132725737489 312.5 312.5 312.5 312.5 312.5 312.5 312.5 312.5 312.5 0:0.0036729695 1:0.032334525 2:0.044595748 3:0.042713277 4:0.003678696 8:0.00050394109 9:0.014208332 10:0.04994924 11:0.043137576 12:0.0091130286 17:0.013567982 18:0.047490362 19:0.049137238 20:0.0075047091 24:0.0094727241 25:0.04174345 26:0.048330955 27:0.024545565 28:1.1453179e-006 30:0.0036134142 31:0.03596909 32:0.043476101 33:0.031409301 34:0.0036157048 36:0.0091897789 37:0.047489218 38:0.053525478 39:0.015869346 40:0.00054746226 42:0.008250447 43:0.054832686 44:0.054950483 45:0.012940234 49:0.026294785 50:0.056226812 51:0.047054626 52:0.0087728072 
-312.5 -312.5 -312.5 -312.5 -312.5 312.5 282.3914174928815 312.5 140.7098001108907 256.6902125603922 236.4430996636243 282.8538739417931 312.5 312.5 312.5 312.5 312.5 312.5 0:0.0046949931 1:0.025806524 2:0.042541783 3:0.041328181 4:0.0013733627 8:0.00079846685 9:0.011977034 10:0.042829216 11:0.039252281 12:0.0068668299 17:0.010571728 18:0.048354302 19:0.054805558 20:0.0095816255 24:0.0044714217 25:0.039028723 26:0.050110832 27:0.021271218 30:0.0032896872 31:0.038102552 32:0.045064799 33:0.026189789 34:0.0039923401 36:0.01756632 37:0.053464208 38:0.055284612 39:0.011977034 40:0.00041520287 42:0.0099648908 43:0.069241829 44:0.058382493 45:0.026732748 49:0.020983769 50:0.053975198 51:0.041168496 52:0.0085276458 
-312.5 -312.5 -312.5 -312.5 -312.5 312.5 312.5 312.5 312.5 312.5 312.5 312.5 312.5 312.5 312.5 312.5 312.5 312.5 0:0.0015852541 1:0.025298089 2:0.043279767 3:0.067003943 4:0.0074828211 5:6.0737843e-006 8:0.00030976307 9:0.011163692 10:0.049637385 11:0.047542468 12:0.017748 17:0.011133322 18:0.048265062 19:0.056037508 20:0.010422654 24:0.0075739254 25:0.040346883 26:0.046692356 27:0.015931848 30:0.0064988947 31:0.041288078 32:0.044852473 33:0.028620614 34:0.0018889409 36:0.016284145 37:0.048507951 38:0.055108458 39:0.012159842 40:0.00035835343 42:0.00805376 43:0.052151285 44:0.050985418 45:0.013095251 49:0.01303451 50:0.04678344 51:0.044755317 52:0.0080598341 
-312.5 -312.5 -312.5 -312.5 -312.5 312.5 312.5 312.5 312.5 312.5 244.670895463012 312.5 312.5 312.5 312.5 312.5 312.5 108.163666549458 0:0.00053566473 1:0.022257533 2:0.042535346 3:0.052316926 4:0.0072856238 5:2.2982162e-005 8:0.00016617848 9:0.010959685 10:0.049826283 11:0.049137626 12:0.017752353 17:0.012094516 18:0.050800115 19:0.054366123 20:0.012946524 24:0.0091770096 25:0.043267265 26:0.049539343 27:0.016115554 28:8.8392943e-007 29:1.2375013e-005 30:0.0067022992 31:0.041778706 32:0.043381158 33:0.023274118 34:0.0005754421 36:0.018282322 37:0.050147656 38:0.051219489 39:0.01153152 40:0.00018120524 42:0.013251443 43:0.054758128 44:0.051432267 45:0.012383527 49:0.016219955 50:0.049110256 51:0.045204334 52:0.0093307951 
-312.5 -312.5 -312.5 -312.5 -312.5 312.5 312.5 312.5 312.5 312.5 312.5 312.5 312.5 312.5 312.5 312.5 312.5 312.5 0:0.00043094213 1:0.02538579 2:0.045713466 3:0.055124823 4:0.0059899078 8:0.0001774066 9:0.011061704 10:0.045583967 11:0.042522106 12:0.01648635 17:0.011589959 18:0.041395944 19:0.052037198 20:0.0097067319 21:6.7971723e-007 24:0.006721443 25:0.048490565 26:0.05258977 27:0.016154576 29:6.7971723e-007 30:0.0062183426 31:0.042137001 32:0.048519041 33:0.026673455 34:0.00046424841 36:0.017784214 37:0.045573797 38:0.052109744 39:0.013165887 40:0.00022634644 42:0.01173749 43:0.055187199 44:0.045933817 45:0.016608046 49:0.017664557 50:0.053013522 51:0.051501576 52:0.0077392017 
-5.39353808291886 -0 -60.02232860021626 -181.1807226348678 -312.5 312.5 312.5 312.5 312.5 312.5 0 312.5 285.2777522633725 103.0154265971209 0 312.5 253.3405838550716 0 1:0.0095189977 2:0.041600868 3:0.06005441 4:0.0083146999 9:0.0057320707 10:0.052299414 11:0.052956399 12:0.038283739 13:0.0025568742 17:0.018097563 18:0.051017649 19:0.05597724 20:0.033420764 24:0.005506651 25:0.044924438 26:0.050502367 27:0.0088749882 29:1.2880954e-005 30:0.0082180984 31:0.042006653 32:0.043320622 33:0.010736176 35:0.0020287482 36:0.028512703 37:0.049446039 38:0.041034058 39:0.0053649587 42:0.02190421 43:0.047623228 44:0.047049977 45:0.013659979 49:0.0075998334 50:0.042914838 51:0.041439842 52:0.0075289872 
-280.1978257060387 -312.5 -312.5 -312.5 -312.5 -312.5 312.5 312.5 312.5 312.5 312.5 312.5 312.5 213.7163415113046 312.5 312.5 312.5 312.5 0:0.0012315153 1:0.025944585 2:0.046226181 3:0.076464601 4:0.0050269584 8:0.00028459492 9:0.011179354 10:0.04690193 11:0.04544428 12:0.013851946 17:0.010871476 18:0.048250839 19:0.051272292 20:0.011921884 24:0.0076141725 25:0.044359457 26:0.053967521 27:0.015647473 28:2.5872284e-006 30:0.0055754478 31:0.040633775 32:0.045167249 33:0.024513856 34:0.0011771838 36:0.014969623 37:0.045237154 38:0.04493941 39:0.01065415 40:0.00026907164 42:0.011958105 43:0.053369444 44:0.048030768 45:0.011564849 49:0.01639259 50:0.054029658 51:0.046878628 52:0.0083592907 
-312.5 -312.5 -312.5 -312.5 -312.5 -312.5 4.358247686696783 312.5 0 296.682321995003 312.5 0 312.5 312.5 312.5 312.5 312.5 312.5 0:0.0027071412 1:0.027393743 2:0.045388449 3:0.072383784 4:0.0028355615 8:0.00060526497 9:0.015374308 10:0.05331273 11:0.045655217 12:0.012658906 17:0.01004012 18:0.051723555 19:0.058993619 20:0.0088883629 24:0.0049820305 25:0.038364828 26:0.04833433 27:0.01904311 28:1.2715658e-006 30:0.0031407187 31:0.032124996 32:0.045095004 33:0.026999366 34:0.0027389284 36:0.012588987 37:0.046271324 38:0.054655463 39:0.015938975 40:0.00064213981 42:0.0096371323 43:0.057810947 44:0.050614562 45:0.011191878 49:0.02017154 50:0.04801802 51:0.037462898 52:0.0060617216 
-0 -0 -0 -0 -312.5 -312.5 312.5 312.5 312.5 312.5 0 312.5 84.5034209877559 0 0 312.5 0 0 1:0.014999419 2:0.041670755 3:0.056947626 4:0.0090747019 5:0.00013144457 9:0.0082810326 10:0.04653893 11:0.046260893 12:0.027273491 13:0.0012436692 17:0.012668963 18:0.044289358 19:0.051012799 20:0.024154421 24:0.0090696467 25:0.041599981 26:0.049197976 27:0.0092668002 28:5.0555605e-006 29:0.00017694455 30:0.010025083 31:0.047246661 32:0.044147812 33:0.014200694 35:0.0014206141 36:0.03002353 37:0.050249461 38:0.046599593 39:0.008038382 40:2.5277803e-005 42:0.023138322 43:0.055971969 44:0.04803022 45:0.012021895 49:0.0096509969 50:0.050719596 51:0.044850487 52:0.0097268252 
-312.5 -0 -49.31196169104687 -312.5 -312.5 -104.9187290619553 312.5 312.5 312.5 312.5 312.5 312.5 312.5 0 0 312.5 312.5 1.989100749793098 1:0.021935878 2:0.04713241 3:0.10029253 4:0.0064881714 8:0.00010189618 9:0.0087762196 10:0.040868446 11:0.04427528 12:0.019065646 13:1.1075668e-005 17:0.0085237455 18:0.043419693 19:0.047741961 20:0.016301719 21:2.2151337e-006 24:0.0049840841 25:0.045529846 26:0.054269694 27:0.012842381 30:0.0066388017 31:0.041136649 32:0.04688194 33:0.021754274 35:2.2151338e-005 36:0.019428855 37:0.044224299 38:0.042318068 39:0.010286635 40:0.00012626268 42:0.016111257 43:0.050583575 44:0.045079887 45:0.0095934384 49:0.01303063 50:0.055444464 51:0.048451256 52:0.0063596927 
-280.736410661404 -312.5 -312.5 -312.5 -312.5 -312.5 288.7473669046124 139.7874378260669 0 0 36.32685508086532 296.4920045171602 312.5 275.5913675896778 312.5 74.64920405174944 312.5 312.5 0:0.0047305231 1:0.028011205 2:0.046212677 3:0.041947071 4:0.0025454166 8:0.00074386603 9:0.016690494 10:0.054964725 11:0.043899719 12:0.0061833863 17:0.014540256 18:0.054371957 19:0.078582473 20:0.010774435 24:0.0091239819 25:0.040912632 26:0.047293607 27:0.018945338 28:1.1622907e-005 30:0.0016620756 31:0.03498495 32:0.043411557 33:0.027790369 34:0.0053465371 36:0.0043469672 37:0.04034311 38:0.05418599 39:0.01763195 40:0.00096470123 42:0.0081127891 43:0.053256158 44:0.057614747 45:0.013401211 49:0.018387439 50:0.048235063 51:0.040761534 52:0.0090774903 
-194.082261595373 -312.5 -312.5 -312.5 -312.5 -312.5 312.5 312.5 312.5 312.5 312.5 312.5 312.5 306.7629772128103 312.5 312.5 312.5 312.5 0:0.0012576684 1:0.025241951 2:0.04629321 3:0.069132991 4:0.0047049467 8:0.0003401892 9:0.01339812 10:0.052331321 11:0.045603082 12:0.013703289 17:0.011620721 18:0.049865399 19:0.053664196 20:0.011317614 24:0.0088556483 25:0.042811666 26:0.052337501 27:0.016691051 28:2.0617538e-006 30:0.0054204427 31:0.041538533 32:0.044280507 33:0.023973852 34:0.0012164341 36:0.014934272 37:0.045495957 38:0.048839476 39:0.012101155 40:0.00027421338 42:0.011901146 43:0.052343681 44:0.047263511 45:0.011247508 49:0.017581813 50:0.050065227 51:0.043124799 52:0.0090597812 
-312.5 -312.5 -312.5 -312.5 -48.61130660745489 -0 0 65.19408450146175 47.99813337148341 233.2810386509211 312.5 0 312.5 227.9694048678556 0 209.5428568632086 312.5 124.079055469224 0:0.0030279148 1:0.023920447 2:0.038418807 3:0.20713031 4:0.0013858064 8:0.0012839272 9:0.019219477 10:0.047212664 11:0.034716308 12:0.0072424165 17:0.0097252838 18:0.043311033 19:0.040738635 20:0.0069997702 24:0.0023528964 25:0.034501988 26:0.045220222 27:0.016531199 28:5.6289576e-007 30:0.0015220204 31:0.026004579 32:0.039031953 33:0.02423827 34:0.0031168663 36:0.0079426616 37:0.035995476 38:0.049125228 39:0.019533362 40:0.001259161 42:0.007552621 43:0.04312259 44:0.045054842 45:0.010615189 49:0.017144907 50:0.047035471 51:0.036469117 52:0.0027582452 
-312.5 -312.5 -312.5 -312.5 -312.5 -312.5 312.5 312.5 0 78.76553687399621 312.5 312.5 312.5 312.5 312.5 158.7896421603241 312.5 312.5 0:0.0077771693 1:0.034281705 2:0.045634914 3:0.039676029 4:0.0039253123 8:0.0014444551 9:0.017046299 10:0.051386576 11:0.041926112 12:0.0041423873 17:0.012426828 18:0.053196106 19:0.046708558 20:0.0058430801 24:0.010771363 25:0.042090911 26:0.049733687 27:0.027601618 28:1.6321708e-006 30:0.0038894052 31:0.038515907 32:0.045292262 33:0.033332068 34:0.0078081801 36:0.004858898 37:0.043118868 38:0.051856499 39:0.015798066 40:0.0013383658 42:0.0059752837 43:0.048402239 44:0.053711716 45:0.012013778 49:0.030486424 50:0.052293789 51:0.045331422 52:0.0102375 
-0 -0 -123.0072707090494 -290.9530468393429 -312.5 -312.5 312.5 312.5 312.5 312.5 42.45133058696739 312.5 312.5 312.5 49.03567024478268 312.5 196.0054138499265 0 1:0.01868419 2:0.047220938 3:0.057269096 4:0.010345047 5:0.00015612468 8:4.5507499e-005 9:0.0094450638 10:0.045341279 11:0.044967178 12:0.024021599 13:0.00039440385 17:0.010958439 18:0.045147188 19:0.047072377 20:0.01644529 21:2.3337178e-007 24:0.0096968254 25:0.047820345 26:0.051690906 27:0.012141508 29:0.00019206351 30:0.010833376 31:0.046899643 32:0.04748309 33:0.018021554 35:0.0004478487 36:0.025137324 37:0.047697835 38:0.046269257 39:0.0094665699 40:4.0840045e-005 42:0.017509559 43:0.049761962 44:0.047446243 45:0.011064099 49:0.012499631 50:0.051809192 51:0.04960284 52:0.01013022 
-0 -203.4473396075454 -292.4820211769678 -312.5 -225.2845400938184 -33.02978553938169 0 0 0 0 0 0 21.27410861173111 0 40.86732903748558 0 174.0965150615021 0 0:0.0037666508 1:0.026400363 2:0.043967325 3:0.044500668 4:0.0017250035 8:0.00073333387 9:0.014858501 10:0.065366402 11:0.046092361 12:0.0080000516 17:0.017750217 18:0.055800859 19:0.093612581 20:0.01245846 24:0.0061083534 25:0.040800605 26:0.048950743 27:0.01953358 28:8.3333334e-006 30:0.0014083359 31:0.030742103 32:0.044434 33:0.025192009 34:0.0035416533 36:0.0065500275 37:0.038850572 38:0.049442418 39:0.01418349 40:0.0004666665 42:0.012100121 43:0.054467503 44:0.051367451 45:0.0085583944 49:0.018283559 50:0.048000727 51:0.037400547 52:0.0045749941 
-0 -0 -0 -312.5 -312.5 -312.5 312.5 312.5 312.5 312.5 0 312.5 0 0 143.9436580897721 312.5 168.9845785192359 160.5341757038754 1:0.022815963 2:0.048530567 3:0.051859889 4:0.0091166114 5:2.5000001e-005 8:0.00011388892 9:0.0092082899 10:0.046485174 11:0.048311021 12:0.02509327 13:5.5555556e-006 17:0.010789049 18:0.042452749 19:0.05301876 20:0.014514528 24:0.0099778334 25:0.049600508 26:0.056637105 27:0.011958644 28:2.7777778e-006 29:5.5555556e-006 30:0.0070359181 31:0.048019219 32:0.047938626 33:0.022954823 34:0.00083611259 36:0.022782637 37:0.047238301 38:0.044256363 39:0.0082303863 40:0.00014722219 42:0.012136444 43:0.050562065 44:0.043033574 45:0.01102519 49:0.00990838 50:0.051865447 51:0.050384205 52:0.011211325 
-312.5 -312.5 -312.5 -312.5 -312.5 -0 312.5 312.5 0 312.5 312.5 0 312.5 312.5 312.5 312.5 312.5 312.5 0:0.0036737898 1:0.03161123 2:0.047435403 3:0.081297442 4:0.003660999 8:0.00067079795 9:0.015059008 10:0.051562831 11:0.041169036 12:0.0097124605 17:0.008927959 18:0.048247263 19:0.052261144 20:0.0064763925 24:0.0040987278 25:0.041455742 26:0.051616766 27:0.020499354 28:1.4211812e-006 30:0.0040873582 31:0.032323737 32:0.046911668 33:0.031019064 34:0.0038201732 36:0.0099284826 37:0.042717531 38:0.052732363 39:0.015054745 40:0.00067364034 42:0.0065630856 43:0.052246951 44:0.050904259 45:0.01150317 49:0.020769382 50:0.049389828 51:0.044082932 52:0.0055185049 
-312.5 -0 -312.5 -0 -312.5 -174.551485398663 0 312.5 312.5 312.5 312.5 0 312.5 79.03563718165607 78.28575460934823 312.5 312.5 0 0:0.0032162622 1:0.021382505 2:0.042506035 3:0.10774843 4:0.0027199255 8:0.00035736262 9:0.011296706 10:0.044650059 11:0.045186065 12:0.012170279 17:0.0096091218 18:0.045761775 19:0.048957959 20:0.011137875 24:0.0046258587 25:0.034545355 26:0.039746597 27:0.013500493 28:1.9853482e-005 30:0.0035736247 31:0.034426242 32:0.041771509 33:0.019317696 34:0.0032559691 36:0.017133763 37:0.056084853 38:0.055429734 39:0.011951886 40:0.00033750915 42:0.012150425 43:0.064164959 44:0.057534054 45:0.012646774 49:0.0150491 50:0.049136627 51:0.042823669 52:0.0040699616 
-312.5 -312.5 -312.5 -312.5 -312.5 -312.5 73.47255700483541 312.5 212.7596114863164 153.952202167924 233.7553863381952 101.2261725555623 312.5 312.5 312.5 312.5 312.5 280.3222413731987 0:0.0035624786 1:0.025693811 2:0.036798812 3:0.045714237 4:0.0031843381 8:0.00043784574 9:0.012598056 10:0.055823691 11:0.045157023 12:0.010786941 17:0.038729161 18:0.066589862 19:0.061913244 20:0.0084981695 24:0.003323653 25:0.041196823 26:0.043246575 27:0.020439588 30:0.004836204 31:0.032898314 32:0.043425679 33:0.028400533 34:0.005811397 36:0.011602938 37:0.050689362 38:0.052759014 39:0.016299896 40:0.00051745406 42:0.0078612939 43:0.05498787 44:0.056380905 45:0.0089957286 49:0.018887203 50:0.043763988 51:0.035306275 52:0.002865904 
-312.5 -312.5 -312.5 -312.5 -312.5 -312.5 -312.5 312.5 312.5 312.5 312.5 312.5 312.5 312.5 312.5 312.5 312.5 312.5 0:0.0018539393 1:0.027483746 2:0.045935646 3:0.058696806 4:0.0057450072 8:0.00022966297 9:0.010787755 10:0.0460421 11:0.044095989 12:0.014369272 17:0.010761127 18:0.046986878 19:0.051264994 20:0.011450136 24:0.0093564801 25:0.040084008 26:0.0525125 27:0.019149065 28:3.3284516e-006 30:0.0056651221 31:0.04106538 32:0.044525132 33:0.02717752 34:0.0015676942 36:0.015384478 37:0.047994863 38:0.048420679 39:0.010687899 40:0.00023299141 42:0.013726862 43:0.055785958 44:0.050805911 45:0.011340294 49:0.022810467 50:0.053896401 51:0.042675495 52:0.0093032233 
-0 -0 -0 -0 -312.5 -90.82198686032942 -54.07817159614456 312.5 312.5 312.5 28.85558892900773 312.5 108.4820321939967 0 0 312.5 0 0 2:0.033260901 3:0.067520164 4:0.021340327 5:0.0015835663 9:0.0017446071 10:0.035547603 11:0.040946532 12:0.0347551 13:0.010631025 17:0.013437009 18:0.041803014 19:0.039536949 20:0.030016588 21:2.0646141e-006 24:0.014741926 25:0.069179468 26:0.034038957 27:0.0035469355 29:0.0018870663 30:0.023274118 31:0.067687333 32:0.031510789 35:0.011409433 36:0.037124354 37:0.040738087 38:0.033198986 39:0.0016929915 42:0.030315841 43:0.040657599 44:0.043610912 45:0.013862346 49:0.0033590652 50:0.034980055 51:0.076056086 52:0.014799739 
-312.5 -312.5 -312.5 -312.5 -312.5 -312.5 -312.5 312.5 278.4181821322878 312.5 312.5 312.5 312.5 312.5 312.5 312.5 312.5 312.5 0:0.00082668947 1:0.025399992 2:0.049591314 3:0.055267166 4:0.0079399943 5:1.7424301e-005 8:0.00017230683 9:0.010561636 10:0.048539441 11:0.043865096 12:0.017674321 17:0.01642606 18:0.04928137 19:0.050340991 20:0.011384529 24:0.0083891973 25:0.048026096 26:0.056295794 27:0.015105943 29:1.7424301e-005 30:0.0074559399 31:0.040480893 32:0.049676549 33:0.024314296 34:0.00087702664 36:0.017927844 37:0.044320326 38:0.04281516 39:0.010848196 40:0.00014713843 42:0.013400134 43:0.051935267 44:0.045013826 45:0.009347626 49:0.01773238 50:0.058176767 51:0.044227343 52:0.0062632286 
-0 -0 -0 -193.2313787014376 -312.5 -312.5 -312.5 312.5 312.5 312.5 0 312.5 0 0 0 312.5 247.2048941901156 0 1:0.017136917 2:0.056127314 3:0.060399022 4:0.0093157841 8:2.9535815e-005 9:0.0071654986 10:0.040889781 11:0.042987231 12:0.022281433 13:0.00044894475 17:0.0098120039 18:0.038839597 19:0.046089094 20:0.020674879 21:5.9071631e-006 24:0.0087663978 25:0.04676855 26:0.054673869 27:0.0099596884 30:0.0087782126 31:0.049456831 32:0.051554281 33:0.015926095 35:0.00055527355 36:0.02333278 37:0.0466622 38:0.044996057 39:0.0080752345 40:2.3628652e-005 42:0.02145453 43:0.050591227 44:0.043406721 45:0.011548773 49:0.011477885 50:0.056712236 51:0.052895468 52:0.010213706 
-189.2904927550557 -0 -312.5 -312.5 -312.5 -312.5 -312.5 312.5 312.5 312.5 0 312.5 312.5 248.3882597887669 312.5 312.5 312.5 267.645589313301 0:0.0010744028 1:0.021910956 2:0.048150666 3:0.053787839 4:0.0078205224 5:1.0330792e-005 8:0.00011880414 9:0.0095301755 10:0.041170079 11:0.043061193 12:0.020340761 17:0.010253292 18:0.043138698 19:0.049959108 20:0.014344063 24:0.0094475336 25:0.048341844 26:0.054671392 27:0.01375524 28:5.165396e-006 29:1.5496189e-005 30:0.0079858061 31:0.047499627 32:0.050222624 33:0.022768365 34:0.001136387 36:0.021601049 37:0.047153439 38:0.046559237 39:0.010304943 40:0.00016529266 42:0.015201472 43:0.054170195 44:0.046223383 45:0.011043554 49:0.014540337 50:0.054516383 51:0.048977382 52:0.0090859756 
-0 -0 -0 -0 -312.5 -312.5 -312.5 312.5 312.5 312.5 0 312.5 0 80.45209274439497 0 312.5 0 0 1:0.010316562 2:0.038415018 3:0.049776092 4:0.0088947518 5:0.00020535696 9:0.0055244076 10:0.034237459 11:0.037605029 12:0.027454793 13:0.0028742447 17:0.012135983 18:0.046468686 19:0.054481823 20:0.031036464 21:3.1789145e-007 24:0.011927333 25:0.054442558 26:0.057502344 27:0.010079329 29:0.00018850897 30:0.0091110244 31:0.040094845 32:0.040089145 33:0.010932987 35:0.0028643925 36:0.027922051 37:0.038924824 38:0.036554385 39:0.0059474097 42:0.032410391 43:0.060317043 44:0.052191813 45:0.013230368 49:0.010243201 50:0.057514694 51:0.055994458 52:0.011545918 
-312.5 -312.5 -312.5 -312.5 -312.5 -312.5 -312.5 312.5 312.5 312.5 312.5 312.5 312.5 312.5 312.5 312.5 312.5 312.5 0:0.0059320498 1:0.033068329 2:0.045568615 3:0.050179556 4:0.0017795539 8:0.0011973281 9:0.018025273 10:0.059762865 11:0.044756316 12:0.0022175922 17:0.014513219 18:0.058859296 19:0.048821464 20:0.0055286381 24:0.0094842631 25:0.042116798 26:0.045849726 27:0.02499097 28:1.8251905e-006 30:0.0013123131 31:0.034318723 32:0.044882268 33:0.034103326 34:0.0062478427 36:0.0018160571 37:0.041059896 38:0.059277311 39:0.019511143 40:0.0013816692 42:0.0055943523 43:0.046004884 44:0.058676757 45:0.012039812 49:0.024908828 50:0.04703258 51:0.041534498 52:0.0077391881 
-312.5 -312.5 -312.5 -312.5 -312.5 -312.5 -312.5 312.5 312.5 312.5 312.5 174.7662552154435 312.5 312.5 103.2005972774452 312.5 312.5 310.9227076516846 1:0.022775132 2:0.047470152 3:0.1085187 4:0.0067689121 5:3.3058125e-006 8:5.454589e-005 9:0.010204049 10:0.04241544 11:0.04697229 12:0.019954884 13:4.9587175e-005 17:0.012027415 18:0.045614332 19:0.04974775 20:0.015722034 24:0.0056729084 25:0.042498142 26:0.054843813 27:0.014303731 28:1.6529062e-006 29:4.9587188e-006 30:0.0062680235 31:0.042876914 32:0.050487101 33:0.0240853 35:1.9834877e-005 36:0.018104458 37:0.045774773 38:0.042119369 39:0.010661957 40:5.6198794e-005 42:0.014520287 43:0.044537559 44:0.04170917 45:0.007377252 49:0.012721716 50:0.052154362 51:0.037656799 52:0.0033569962 
-312.5 -312.5 -312.5 -312.5 -312.5 -312.5 -312.5 312.5 0 312.5 312.5 312.5 312.5 312.5 312.5 312.5 312.5 312.5 0:0.0013091248 1:0.030805226 2:0.050548419 3:0.055880181 4:0.0051127826 8:0.00026645791 9:0.011142146 10:0.044774756 11:0.043176964 12:0.014808415 17:0.010839037 18:0.045531198 19:0.050367028 20:0.010734783 24:0.0093756178 25:0.043171175 26:0.054313265 27:0.018188257 30:0.0050664474 31:0.042526655 32:0.05228129 33:0.031982772 34:0.0014829026 36:0.014155862 37:0.044415832 38:0.047418445 39:0.011981971 40:0.0002452184 42:0.010638251 43:0.051065579 44:0.046920583 45:0.011358377 49:0.017910112 50:0.05505234 51:0.044653185 52:0.010404645 
-182.9144314966202 -220.0177575042446 -312.5 -312.5 -312.5 -312.5 -312.5 312.5 0 312.5 288.0000134592474 312.5 312.5 312.5 312.5 136.1723440355501 312.5 312.5 0:0.00086174003 1:0.026833868 2:0.050274536 3:0.048240449 4:0.008084802 5:2.7888091e-006 8:0.00018406156 9:0.010332236 10:0.044373173 11:0.04203216 12:0.017551351 17:0.011204999 18:0.04457128 19:0.049456995 20:0.011734791 24:0.010293199 25:0.046384938 26:0.054716602 27:0.016151585 28:2.7888091e-006 29:8.3664272e-006 30:0.0082604699 31:0.046451904 32:0.051234379 33:0.027517021 34:0.00097886915 36:0.018959483 37:0.045059573 38:0.046569094 39:0.01078953 40:0.00012828523 42:0.012116799 43:0.051161833 44:0.046811845 45:0.011904882 49:0.016391385 50:0.054183666 51:0.047746576 52:0.010505116 
-230.5558147503944 -2.989831088311769 -312.5 -312.5 -312.5 -312.5 -312.5 -312.5 0 312.5 311.7566760193329 312.5 312.5 210.7489581744364 312.5 312.5 312.5 312.5 1:0.023830919 2:0.046996422 3:0.064055942 4:0.004958191 8:9.0043002e-005 9:0.0083568012 10:0.039182924 11:0.045520313 12:0.01975099 13:3.1950742e-005 17:0.010953688 18:0.04006917 19:0.046978988 20:0.014410394 21:2.9046125e-006 24:0.0070176907 25:0.043285809 26:0.056265689 27:0.012830186 30:0.0062450152 31:0.046383314 32:0.049986415 33:0.022535795 35:7.5519936e-005 36:0.023383724 37:0.053019993 38:0.045142569 39:0.0086530903 40:7.5519936e-005 42:0.017756036 43:0.054098018 44:0.047595002 45:0.011798983 49:0.014154772 50:0.060627185 51:0.047368355 52:0.0065674474 
-0 -0 -0 -55.00010306455382 -312.5 -312.5 -195.0977992755982 -312.5 312.5 312.5 0 312.5 0 0 0 256.8462896169718 0 0 1:0.013705377 2:0.041993164 3:0.049533412 4:0.010907423 5:0.0003556778 9:0.0054774499 10:0.039124075 11:0.047589071 12:0.034286935 13:0.0042918529 17:0.012804341 18:0.043344717 19:0.046830304 20:0.031939499 21:2.3711855e-005 24:0.011168249 25:0.050363313 26:0.05593551 27:0.0090105049 29:0.00023711853 30:0.010290924 31:0.053161267 32:0.050553005 33:0.01391878 35:0.00241861 36:0.031512693 37:0.049035471 38:0.043652967 39:0.0068053184 40:2.3711855e-005 42:0.025181729 43:0.043463275 44:0.042965334 45:0.0098404065 49:0.0092476197 50:0.049082894 51:0.042680796 52:0.0072321333 
-312.5 -312.5 -312.5 -312.5 -312.5 -312.5 -312.5 -312.5 130.2634498414134 312.5 312.5 312.5 312.5 312.5 312.5 86.64567583203971 312.5 312.5 0:0.0074179126 1:0.036832511 2:0.046398871 3:0.04478658 4:0.0038110793 8:0.0012542218 9:0.018211005 10:0.05420018 11:0.039488405 12:0.0034706693 17:0.012595211 18:0.051807456 19:0.043933548 20:0.0051954133 24:0.010889147 25:0.044313177 26:0.047061332 27:0.027577719 28:1.5129325e-006 30:0.004041045 31:0.038886443 32:0.048463389 33:0.03820432 34:0.0076932665 36:0.0036325532 37:0.041248918 38:0.056307048 39:0.018974802 40:0.0012239631 42:0.0053769653 43:0.044974126 44:0.052542515 45:0.01253925 49:0.027576206 50:0.046168976 51:0.04233487 52:0.010334072 
-0 -0 -0 -0 -0 -0 -0 -0 312.5 312.5 27.34076565855912 0 0 0 0 312.5 0 0 1:0.0047088014 2:0.033451304 3:0.096839637 4:0.0097489236 5:1.5919157e-005 9:0.0039797281 10:0.033043608 11:0.042713642 12:0.0315466 13:0.0039510746 17:0.010783786 18:0.03980881 19:0.043003488 20:0.02807349 21:3.1838313e-006 24:0.0058167381 25:0.045723584 26:0.036770202 27:0.0052213813 29:2.228682e-005 30:0.011723123 31:0.048252571 32:0.038076103 33:0.0043267542 35:0.0059886593 36:0.038878754 37:0.056635816 38:0.043194596 39:0.00439998 42:0.038107954 43:0.056368265 44:0.054823481 45:0.019497786 49:0.0061924178 50:0.042882454 51:0.049163517 52:0.0062911133 
-312.5 -312.5 -312.5 -312.5 -312.5 -305.6720549438069 -312.5 -0 281.1190691727554 312.5 312.5 0 312.5 312.5 111.8505532143072 312.5 312.5 192.0043445664946 0:0.00094277895 1:0.023083456 2:0.041576765 3:0.10357744 4:0.0062209629 8:0.0001948272 9:0.015558487 10:0.045378417 11:0.046723995 12:0.019013137 17:0.022154313 18:0.053127248 19:0.052265272 20:0.010330722 24:0.0078534689 25:0.048609149 26:0.043524608 27:0.013567277 28:2.2393908e-006 30:0.0065187984 31:0.041724533 32:0.037842281 33:0.021872211 34:0.00085768307 36:0.01837505 37:0.046372488 38:0.038419917 39:0.0097326869 40:0.00021946053 42:0.011965798 43:0.052952614 44:0.041652888 45:0.011179618 49:0.016301829 50:0.041330487 51:0.042396203 52:0.0065635857 
-312.5 -312.5 -312.5 -312.5 -312.5 -312.5 -312.5 -147.4726419468556 110.7739645243945 213.96281340192 312.5 312.5 312.5 312.5 312.5 312.5 312.5 312.5 0:0.0078480793 1:0.030875411 2:0.037851185 3:0.050576277 4:0.0010833201 8:0.0019276481 9:0.019305581 10:0.055513252 11:0.039389689 12:0.00037683087 17:0.013740027 18:0.066224657 19:0.040515333 20:0.0038039326 24:0.0074396231 25:0.044559356 26:0.043870732 27:0.024928503 28:5.24109e-007 30:0.0010398197 31:0.031479184 32:0.039823033 33:0.031547468 34:0.0080777379 36:0.00031813147 37:0.042755593 38:0.063553847 39:0.021587096 40:0.0021619217 42:0.0040104748 43:0.044630792 44:0.07353092 45:0.017057041 49:0.025674352 50:0.046265945 51:0.047849096 52:0.0089927018 
-244.2016533549058 -312.5 -312.5 -312.5 -312.5 -312.5 -312.5 -312.5 0 312.5 0 119.736398701845 312.5 312.5 312.5 312.5 312.5 312.5 0:0.00088338944 1:0.022856882 2:0.044272382 3:0.049139258 4:0.0058839801 8:0.00019665626 9:0.010728716 10:0.048215207 11:0.050825026 12:0.020406274 17:0.012848414 18:0.044156875 19:0.048989411 20:0.012377023 21:3.1215272e-006 24:0.0082125505 25:0.041331653 26:0.048121553 27:0.012892119 30:0.0055624833 31:0.041131858 32:0.044159997 33:0.023347003 34:0.00087090343 36:0.021486415 37:0.055798043 38:0.053659614 39:0.014428041 40:0.00018417013 42:0.015633052 43:0.055351626 44:0.053394262 45:0.013363509 49:0.015427015 50:0.052913506 51:0.043598074 52:0.0074071879 
-150.2425318946998 -39.14220392483075 -12.80107767102374 -312.5 -312.5 -239.8071847476194 -297.8759475322377 -0 258.4471564130382 167.0651337390913 0 0 198.6360966697149 53.97797971869691 0 166.7567376428734 177.413177792346 0 1:0.011869312 2:0.041959878 3:0.068414919 4:0.009735466 8:1.6670279e-005 9:0.0060012857 10:0.048828196 11:0.052995864 12:0.037575491 13:0.0012169306 17:0.047511213 18:0.065231532 19:0.055479795 20:0.02989031 21:1.6670279e-005 24:0.005701222 25:0.045010611 26:0.044410467 27:0.0067181047 30:0.0073682428 31:0.035758387 32:0.039409265 33:0.011369192 35:0.0007168217 36:0.025022473 37:0.049211621 38:0.036425214 39:0.0063513601 40:1.6670279e-005 42:0.01852091 43:0.048594806 44:0.041693147 45:0.0070181685 49:0.0078683505 50:0.045527402 51:0.038392354 52:0.0021671376 
-0 -0 -0 -0 -312.5 -0 -312.5 -0 279.3408211698505 312.5 312.5 0 312.5 100.9322715118838 0 312.5 0 0 1:0.008510693 2:0.039926652 3:0.089821838 4:0.0076372018 9:0.0049513998 10:0.037121471 11:0.043326706 12:0.023485862 13:0.002058079 17:0.01058527 18:0.045258678 19:0.042066012 20:0.023201972 21:5.459111e-006 24:0.0064635281 25:0.04293922 26:0.046541203 27:0.0084779365 30:0.0083359918 31:0.046290156 32:0.042857356 33:0.0086853942 35:0.0025384868 36:0.029622242 37:0.052402612 38:0.044265404 39:0.0055409661 42:0.034987569 43:0.056386624 44:0.055447925 45:0.013587947 49:0.0081995064 50:0.051343847 51:0.049215402 52:0.0078719417 
-312.5 -312.5 -312.5 -312.5 -312.5 -0 -312.5 -312.5 275.9279656155765 312.5 312.5 37.86221713275636 312.5 312.5 214.7860338355883 312.5 312.5 312.5 0:0.0006118046 1:0.028741796 2:0.050168872 3:0.13063896 4:0.0031686756 8:0.00015040685 9:0.0092170211 10:0.035025239 11:0.037522376 12:0.011150391 17:0.01400522 18:0.042862058 19:0.050183594 20:0.011255539 21:1.1308789e-006 24:0.0035395971 25:0.040130496 26:0.059300125 27:0.01761644 30:0.0039161751 31:0.037885904 32:0.05083704 33:0.029065154 34:0.00056657026 36:0.012333025 37:0.039667308 38:0.036285698 39:0.0094996775 40:0.00016171558 42:0.011978009 43:0.048646808 44:0.04361403 45:0.009842257 49:0.01792397 50:0.059488118 51:0.040370584 52:0.0029730371 
-312.5 -312.5 -312.5 -312.5 -312.5 -312.5 -312.5 -312.5 306.8679769015504 312.5 311.5690323978212 312.5 312.5 312.5 312.5 312.5 312.5 312.5 0:0.002906729 1:0.026921686 2:0.043354005 3:0.040066756 4:0.0051858355 8:0.0003648086 9:0.013133287 10:0.048575159 11:0.050650284 12:0.014769066 17:0.013478488 18:0.050132483 19:0.056185257 20:0.0097322799 24:0.0081278831 25:0.042420395 26:0.045366365 27:0.018421128 28:3.9226761e-006 30:0.0047543352 31:0.03613618 32:0.042432163 33:0.029118415 34:0.003373534 36:0.013152901 37:0.051395603 38:0.052250758 39:0.016863804 40:0.00065116369 42:0.010634508 43:0.058205463 44:0.055420324 45:0.013745233 49:0.018942852 50:0.051144548 51:0.043561909 52:0.0084338561 
-0 -0 -183.5212312300211 -0 -312.5 -312.5 -312.5 -312.5 312.5 312.5 0 312.5 15.48136322835126 35.62700320328789 79.2842397398319 312.5 245.2259863595228 0 1:0.014105453 2:0.044004533 3:0.044492643 4:0.0086524803 5:1.5341187e-005 8:3.0682375e-005 9:0.007775601 10:0.044763532 11:0.049777519 12:0.02806581 13:0.00093837263 17:0.011070911 18:0.048619855 19:0.053920064 20:0.021516278 21:2.5568647e-006 24:0.0079903519 25:0.044960309 26:0.049841408 27:0.0085297693 29:0.00020966274 30:0.011081137 31:0.045540418 32:0.042578537 33:0.012819543 35:0.0013755914 36:0.033301894 37:0.052164402 38:0.046138417 39:0.0070034033 40:2.5568645e-005 42:0.022485537 43:0.056623835 44:0.05040874 45:0.012356821 49:0.0094245374 50:0.052371401 51:0.046782415 52:0.0081335148 
-312.5 -312.5 -312.5 -312.5 -312.5 -312.5 -312.5 -192.5984913938954 0 312.5 312.5 312.5 312.5 312.5 312.5 312.5 312.5 312.5 0:0.007506704 1:0.035172153 2:0.045590054 3:0.088414513 4:0.0064242855 8:0.00042172754 9:0.011372484 10:0.0443669 11:0.037435692 12:0.0072536711 17:0.017684249 18:0.040064771 19:0.041639406 20:0.0055386703 24:0.0077878516 25:0.039614875 26:0.037927765 27:0.026427941 28:1.405758e-005 30:0.0053559244 31:0.039572697 32:0.043326516 33:0.036325011 34:0.0072396137 36:0.0073942449 37:0.04156911 38:0.048697148 39:0.013916871 40:0.00053418812 42:0.0065226872 43:0.05648597 44:0.049189221 45:0.019877201 49:0.027622819 50:0.04362176 51:0.042665731 52:0.0094466228 
-0 -0 -0 -0 -134.1524765360069 -0 -0 -284.928866659249 232.2595963614211 312.5 0 236.9796020849672 0 0 0 134.3423706853002 0 0 1:0.0022160485 2:0.033844024 3:0.061032217 4:0.01772836 5:0.0010060947 9:0.0025448403 10:0.038597848 11:0.046869371 12:0.03748665 13:0.010060962 17:0.014677363 18:0.046606366 19:0.047783315 20:0.034435786 21:6.575789e-006 24:0.012579597 25:0.061347824 26:0.036875162 27:0.0039060384 29:0.0010587014 30:0.018070268 31:0.05640332 32:0.034041278 33:0.0020845318 35:0.010245092 36:0.037480075 37:0.046376236 38:0.035034124 39:0.0023738686 42:0.032680225 43:0.047664963 44:0.047388807 45:0.01081721 49:0.0038074008 50:0.035869166 51:0.05948706 52:0.00946254 
-0 -0 -0 -0 -312.5 -79.52076030857373 -24.50777551969276 -312.5 312.5 312.5 0 312.5 0 0 0 312.5 0 0 1:0.0054112268 2:0.044282164 3:0.07014104 4:0.01194327 5:0.00014299009 9:0.0044467379 10:0.0409749 11:0.045426663 12:0.031443022 13:0.0041243071 17:0.011721811 18:0.042840321 19:0.048105575 20:0.030778516 21:2.803728e-006 24:0.008147628 25:0.048105575 26:0.044991866 27:0.0057588913 29:6.7289468e-005 30:0.011747041 31:0.052083269 32:0.045213472 33:0.0058794525 35:0.0035887915 36:0.033232704 37:0.047306109 38:0.043000214 39:0.0053691706 42:0.028614383 43:0.050215043 44:0.045118097 45:0.012972075 49:0.0056719752 50:0.048543178 51:0.053623293 52:0.0090166451 
-0 -0 -0 -0 -312.5 -276.886974168794 -204.6116040018991 -312.5 -312.5 312.5 0 312.5 0 0 0 312.5 0 0 1:0.0080799954 2:0.042538606 3:0.055727012 4:0.014163977 5:0.00043114446 9:0.0038483555 10:0.039776385 11:0.04603529 12:0.033277981 13:0.0051258313 17:0.012295668 18:0.042810038 19:0.044103332 20:0.027641354 21:1.5968319e-005 24:0.0085590491 25:0.050745435 26:0.048366413 27:0.0062436233 29:0.00054292276 30:0.014834653 31:0.056828707 32:0.043528534 33:0.0093095666 35:0.0049661468 36:0.03286285 37:0.048063047 38:0.043368869 39:0.0042795031 42:0.027114395 43:0.045811757 44:0.045715958 45:0.013780735 49:0.0073294784 50:0.050521903 51:0.051400065 52:0.0099323364 
-106.1369418284007 -0 -216.0307081362159 -168.4078026944884 -312.5 -312.5 -312.5 -312.5 -312.5 312.5 0 312.5 208.5098679655686 312.5 99.03463003665033 312.5 232.0326569058614 2.567856458462878 1:0.01121425 2:0.038773507 3:0.045439158 4:0.0078616226 5:2.3282346e-005 9:0.0055178879 10:0.043150023 11:0.049862232 12:0.037237071 13:0.0041364813 17:0.014574638 18:0.050677009 19:0.06568595 20:0.038532954 24:0.0066043874 25:0.042940509 26:0.044965811 27:0.0094913719 30:0.0083195046 31:0.044554543 32:0.039409809 33:0.011183207 35:0.0024058428 36:0.028359188 37:0.053245496 38:0.049668238 39:0.0077684941 42:0.026046218 43:0.048193879 44:0.048356835 45:0.014628963 49:0.010833975 50:0.042723235 51:0.041194558 52:0.0064181304 
-0 -0 -0 -0 -312.5 -117.4885702517091 -0 -56.74360584534912 -312.5 155.1049952660232 0 0 0 0 0 205.2282076435429 0 0 1:0.010112887 2:0.033420503 3:0.049304545 4:0.0086842114 9:0.0061069643 10:0.05443114 11:0.060958445 12:0.040648162 13:0.0035016919 17:0.026809158 18:0.049864829 19:0.073172629 20:0.051937878 21:2.8013557e-005 24:0.0030534761 25:0.042272985 26:0.037062347 27:0.0056307311 30:0.0091884499 31:0.041880786 32:0.035437524 33:0.010813219 35:0.002297112 36:0.036305964 37:0.05342263 38:0.0342049 39:0.0067232661 42:0.024876179 43:0.05429107 44:0.045242488 45:0.0055747037 49:0.0049864156 50:0.036137879 51:0.038967311 52:0.0026612873 
-312.5 -117.7819438343351 -203.4109559714571 -312.5 -312.5 -77.6255829477624 -312.5 -312.5 -312.5 312.5 312.5 312.5 312.5 312.5 0 312.5 312.5 2.513395422944043 1:0.0087300939 2:0.047264002 3:0.14271715 4:0.0085189203 5:1.1530658e-005 9:0.005650769 10:0.039179079 11:0.040768474 12:0.02664852 13:0.0020826615 17:0.0096808029 18:0.038969588 19:0.041512191 20:0.019146007 21:4.2706134e-007 24:0.0042143026 25:0.046314649 26:0.047322694 27:0.0067537394 29:1.9644815e-005 30:0.0085343095 31:0.046333928 32:0.047499198 33:0.0085980035 35:0.0019951242 36:0.026873736 37:0.043160278 38:0.041700263 39:0.0059214942 42:0.020987405 43:0.044567171 44:0.044296417 45:0.012290978 49:0.0073810192 50:0.04913272 51:0.048724018 52:0.0068745837 
-0 -0 -0 -0 -129.7644547214465 -0 -56.14614085590065 -35.35240559805645 -312.5 312.5 236.2336567997105 0 291.2910071529951 0 0 312.5 72.50393405887718 0 1:0.0074350401 2:0.042661909 3:0.11022893 4:0.0062662172 9:0.0035714286 10:0.036818046 11:0.043830682 12:0.024123468 13:0.0022727272 17:0.015032493 18:0.044772193 19:0.052077021 20:0.030227408 21:3.2467531e-005 24:0.0041883099 25:0.040486693 26:0.040291898 27:0.006136348 30:0.0074025728 31:0.042726841 32:0.041752864 33:0.0076947785 35:0.0036363637 36:0.03409091 37:0.053667851 38:0.039317921 39:0.0033441558 42:0.043960545 43:0.051492635 44:0.047531795 45:0.017370172 49:0.0076298439 50:0.041915193 51:0.04035683 52:0.0056493385 
-312.5 -312.5 -312.5 -312.5 -312.5 -312.5 -312.5 -312.5 -312.5 312.5 312.5 312.5 312.5 312.5 312.5 312.5 312.5 312.5 1:0.01760626 2:0.040735472 3:0.040552903 4:0.0081583131 5:0.0001483341 8:1.1410315e-005 9:0.0081583131 10:0.046577681 11:0.046383701 12:0.026540732 13:0.00075308094 17:0.012380222 18:0.048757099 19:0.058410436 20:0.021018019 21:1.1410315e-005 24:0.0063555036 25:0.039046708 26:0.051598329 27:0.011182113 29:0.00017115474 30:0.0085576829 31:0.041157663 32:0.042230256 33:0.019135276 35:0.00069602928 36:0.028845666 37:0.052191678 38:0.049453143 39:0.0091624428 40:3.4230943e-005 42:0.020766987 43:0.061605394 44:0.053207219 45:0.01455964 49:0.011284808 50:0.05141576 51:0.042766552 52:0.0083865244 
-0 -0 -0 -78.11382086957113 -312.5 -312.5 -312.5 -312.5 -312.5 312.5 58.68075333820966 312.5 0 19.29584664572464 0 312.5 0 61.76241266653919 1:0.0083159236 2:0.041610014 3:0.055316642 4:0.014303959 5:0.00062791008 9:0.0034611668 10:0.040078547 11:0.046449449 12:0.032650933 13:0.0050079552 17:0.012022073 18:0.042957705 19:0.045622457 20:0.028255623 21:1.5314874e-005 24:0.0081474623 25:0.04799623 26:0.048180006 27:0.0071060648 29:0.00055133557 30:0.014548994 31:0.055745453 32:0.045086443 33:0.0096176704 35:0.003889984 36:0.033186946 37:0.047490846 38:0.043524347 39:0.0047629206 42:0.026371919 43:0.045607142 44:0.046035953 45:0.014717455 49:0.0078411689 50:0.05124294 51:0.051794268 52:0.0098473905 
-312.5 -312.5 -312.5 -312.5 -312.5 -312.5 -312.5 -312.5 -312.5 312.5 312.5 312.5 312.5 312.5 312.5 312.5 312.5 312.5 0:0.0083049312 1:0.035593938 2:0.046891004 3:0.038925435 4:0.001437473 8:0.0015902909 9:0.019324398 10:0.05493981 11:0.039479859 12:0.001526286 17:0.012513367 18:0.058408055 19:0.042062711 20:0.0045020496 24:0.010320791 25:0.051433414 26:0.046852853 27:0.026463533 28:4.9620007e-007 30:0.0013223634 31:0.035890721 32:0.04769861 33:0.03631781 34:0.0087551614 36:0.0013967877 37:0.038573161 38:0.055678546 39:0.019397726 40:0.0015858255 42:0.0046187025 43:0.043064538 44:0.05916661 45:0.012627042 49:0.026025048 50:0.046729978 51:0.049732488 52:0.010104363 
-312.5 -312.5 -312.5 -312.5 -312.5 -312.5 -312.5 -186.3221706888822 -312.5 312.5 312.5 5.176419451856697 312.5 312.5 312.5 312.5 312.5 294.9890790181973 1:0.011165213 2:0.042964354 3:0.16320714 4:0.0057848245 9:0.0062182029 10:0.035738826 11:0.044011179 12:0.020596378 13:0.001183241 17:0.0076692901 18:0.041381944 19:0.042122025 20:0.021015108 21:4.8693078e-006 24:0.0038419259 25:0.040627256 26:0.04368009 27:0.0084629431 30:0.0057069138 31:0.039745975 32:0.043241885 33:0.011725143 35:0.0011686331 36:0.024486672 37:0.04885092 38:0.040787932 39:0.0072846059 42:0.02300651 43:0.047677502 44:0.049070023 45:0.010303408 49:0.0091056451 50:0.047653157 51:0.046216816 52:0.004319129 
-312.5 -312.5 -312.5 -312.5 -312.5 -312.5 -312.5 -312.5 -312.5 312.5 312.5 312.5 312.5 312.5 312.5 312.5 312.5 312.5 0:0.0045281844 1:0.03540783 2:0.043098535 3:0.035591587 4:0.003809633 8:0.000867108 9:0.017915426 10:0.05864457 11:0.047914095 12:0.0084863678 17:0.013488718 18:0.056361355 19:0.056287613 20:0.0069722119 24:0.0089134704 25:0.045907114 26:0.042994101 27:0.02391498 28:3.9721266e-007 30:0.0041790376 31:0.033730097 32:0.041897137 33:0.034180123 34:0.0039828164 36:0.0073968284 37:0.044839647 38:0.056021743 39:0.017588113 40:0.00086512195 42:0.0075275102 43:0.049341105 44:0.052122977 45:0.015378469 49:0.026630688 50:0.041935004 51:0.041757226 52:0.010273518 
-0 -0 -0 -269.4023779904422 -220.0114064783425 -0 -312.5 -0 -68.52794714101128 -94.28022597383176 0 0 226.6612626320973 0 0 312.5 196.2532598617865 0 1:0.017831843 2:0.045432646 3:0.097814642 4:0.0081788506 5:1.1040453e-006 8:9.9364079e-006 9:0.006864042 10:0.037869323 11:0.044117142 12:0.023350168 13:0.00034225421 17:0.0092548775 18:0.042255808 19:0.044676203 20:0.016843272 21:1.1040453e-006 24:0.0078179678 25:0.051513959 26:0.052625466 27:0.0094325598 30:0.0088498499 31:0.050725538 32:0.048276473 33:0.018834773 35:0.00031244475 36:0.023060776 37:0.046201218 38:0.040881861 39:0.0080397949 40:1.8768769e-005 42:0.017646279 43:0.045464624 44:0.044988263 45:0.0088255703 49:0.0095760301 50:0.053529669 51:0.050931741 52:0.0072990507 
-312.5 -312.5 -312.5 -312.5 -312.5 -312.5 -312.5 -312.5 -312.5 -49.85719248629187 312.5 312.5 312.5 312.5 312.5 312.5 312.5 312.5 0:0.0019589148 1:0.024476422 2:0.047474392 3:0.04869502 4:0.0050628344 8:0.00034068021 9:0.011819931 10:0.053870864 11:0.049816296 12:0.015103973 17:0.014294793 18:0.050549619 19:0.058947355 20:0.010916109 24:0.0097520249 25:0.049333721 26:0.050592199 27:0.014223812 28:4.7316671e-006 30:0.0050344449 31:0.046868809 32:0.049224906 33:0.022560319 34:0.0016750129 36:0.012752145 37:0.046566017 38:0.046901926 39:0.010722095 40:0.00025077845 42:0.010736291 43:0.051510036 44:0.047663637 45:0.0090658776 49:0.015387896 50:0.052555613 51:0.04658021 52:0.0066573783 
-312.5 -312.5 -312.5 -312.5 -312.5 -238.0744067776252 -312.5 -0 -312.5 -312.5 312.5 0 312.5 312.5 40.25977623369641 312.5 312.5 54.60675198254891 0:0.0022098576 1:0.022908879 2:0.042766314 3:0.11441 4:0.0037405416 8:0.00026356071 9:0.01147489 10:0.04394215 11:0.045077439 12:0.013319735 17:0.0081095668 18:0.045543719 19:0.052274365 20:0.011505299 24:0.0037608156 25:0.04304 26:0.044621296 27:0.016451919 28:1.0136951e-005 30:0.0042473907 31:0.03838734 32:0.046486415 33:0.023324477 34:0.002524104 36:0.013137278 37:0.048493445 38:0.048037302 39:0.013613694 40:0.00042575193 42:0.011454617 43:0.054808494 44:0.048888769 45:0.0081906589 49:0.016502602 50:0.047418974 51:0.04417529 52:0.0044399933 
-312.5 -312.5 -312.5 -312.5 -312.5 -0 -312.5 -244.9442413621895 -312.5 -0 312.5 0 312.5 312.5 312.5 312.5 312.5 312.5 0:0.00075014285 1:0.02502341 2:0.047320701 3:0.098017491 4:0.0064482274 8:0.00026435754 9:0.011628534 10:0.045292526 11:0.041885294 12:0.013507689 17:0.0095523698 18:0.042573981 19:0.047740817 20:0.011611695 24:0.0079114763 25:0.044223294 26:0.047803961 27:0.01664635 28:8.419039e-007 30:0.0075284052 31:0.046499833 32:0.048398353 33:0.024112457 34:0.00070131174 36:0.014943155 37:0.044673719 38:0.046186641 39:0.011206734 40:0.00018269278 42:0.0129234 43:0.049860761 44:0.045234434 45:0.0082305623 49:0.017878914 50:0.049690694 51:0.046024151 52:0.0075342986 
-0 -0 -0 -0 -309.6784345506473 -0 -0 -198.0401187054611 -312.5 -276.4172298605416 0 312.5 0 0 0 0 0 0 1:0.015919233 2:0.047001008 3:0.057641089 4:0.014161145 5:0.00021873492 8:1.8316103e-005 9:0.008110987 10:0.041733876 11:0.044848926 12:0.026018202 13:0.00061605417 17:0.010997362 18:0.041707687 19:0.04391887 20:0.019448785 24:0.013145862 25:0.049679697 26:0.049062137 27:0.010678766 28:3.5223275e-007 29:0.00023705083 30:0.013565846 31:0.05744715 32:0.04716805 33:0.01608962 35:0.00061711081 36:0.026136488 37:0.046004064 38:0.044495732 39:0.0089259595 40:1.796387e-005 42:0.019690989 43:0.045709971 44:0.042413015 45:0.011236398 49:0.011189928 50:0.051100615 51:0.050669916 52:0.013260627 
-0 -0 -0 -32.10951326550141 -0 -0 -312.5 -0 -312.5 -312.5 312.5 0 312.5 0 0 312.5 54.57361693059826 0 1:0.013914544 2:0.041961506 3:0.12367722 4:0.0076510017 8:1.9821213e-005 9:0.0043210168 10:0.033973131 11:0.041842572 12:0.025232077 13:0.0011892731 17:0.023190575 18:0.041505594 19:0.043408532 20:0.021149073 24:0.0040236968 25:0.040970393 26:0.043249954 27:0.0075320737 28:1.9821213e-005 30:0.0068185055 31:0.043686043 32:0.047313519 33:0.015302038 35:0.00099106086 36:0.025549203 37:0.053180911 38:0.044260889 39:0.0066401134 42:0.025152795 43:0.052447487 44:0.046917073 45:0.0060256519 49:0.010188133 50:0.0488993 51:0.044756446 52:0.0030326403 
-0 -0 -0 -0 -312.5 -18.61580578276697 -0 -262.6192943891381 -312.5 -312.5 0 243.5184141108291 0 0 0 294.0371064473831 0 0 1:0.011319994 2:0.045641389 3:0.061984356 4:0.010449925 5:4.1625033e-005 8:8.3250088e-006 9:0.006755488 10:0.042896736 11:0.045633059 12:0.028020613 13:0.0014006912 17:0.010770476 18:0.048329815 19:0.048604697 20:0.023980137 24:0.011182615 25:0.055455916 26:0.049754202 27:0.0080561927 29:3.5381279e-005 30:0.009731805 31:0.051559675 32:0.045058306 33:0.011178452 35:0.0012570834 36:0.026021181 37:0.04417327 38:0.04209708 39:0.0069178091 40:1.6650018e-005 42:0.023270661 43:0.045466464 44:0.048308991 45:0.011386602 49:0.0088492464 50:0.049737543 51:0.053629618 52:0.01109311 
-0 -0 -0 -0 -312.5 -312.5 -312.5 -312.5 -312.5 -312.5 0 312.5 0 21.87421098507348 87.63162303202243 312.5 1.79111285276515 0 1:0.015288673 2:0.044477724 3:0.046518393 4:0.0093696639 5:0.00018162389 8:9.6153846e-005 9:0.0094658211 10:0.04852701 11:0.04286442 12:0.02758611 13:0.0011858987 17:0.011570595 18:0.046336763 19:0.046700023 20:0.023109458 21:1.0683761e-005 24:0.0091880336 25:0.050033472 26:0.04563161 27:0.010683812 29:7.4786323e-005 30:0.0097649768 31:0.047918014 32:0.046197869 33:0.015886985 35:0.00095085549 36:0.029893883 37:0.047672279 38:0.048783429 39:0.0091773495 40:3.2051281e-005 42:0.022457726 43:0.04808896 44:0.051315568 45:0.014433943 49:0.009455137 50:0.045097403 51:0.053997286 52:0.010000028 
-312.5 -0 -269.341785766126 -312.5 -312.5 -312.5 -312.5 -312.5 -312.5 -0 312.5 312.5 312.5 310.0339366404395 0 312.5 312.5 0 1:0.020384984 2:0.046563633 3:0.077635549 4:0.0080722272 8:5.2831783e-005 9:0.0080916872 10:0.042494263 11:0.043545231 12:0.020312632 13:0.00011400563 17:0.011469385 18:0.041676123 19:0.04689293 20:0.016109688 21:9.2687344e-007 24:0.0082010338 25:0.044299368 26:0.053626359 27:0.01308271 30:0.0086412001 31:0.048589505 32:0.048723079 33:0.021378441 35:0.00011029813 36:0.02098885 37:0.046457887 38:0.045502461 39:0.0089062266 40:7.1369293e-005 42:0.016669957 43:0.048118286 44:0.044559095 45:0.012218131 49:0.012822317 50:0.056340508 51:0.048006047 52:0.0095743528 
-0 -0 -0 -0 -312.5 -312.5 -0 -312.5 -312.5 -0 0 312.5 0 0 0 0 0 152.2989508582014 1:0.02067136 2:0.046891052 3:0.046457298 4:0.0098720184 5:0.00014957519 8:8.9745117e-005 9:0.0086005908 10:0.040145427 11:0.040429611 12:0.023363627 13:0.00031410786 17:0.0094531951 18:0.040489439 19:0.045096207 20:0.019355141 21:1.495752e-005 24:0.011472521 25:0.054324701 26:0.052440114 27:0.010575043 29:0.00031410786 30:0.012489663 31:0.055521265 32:0.053950775 33:0.019654281 35:0.0011666857 36:0.027775954 37:0.044243656 38:0.040713795 39:0.0078975661 40:5.9830079e-005 42:0.025667012 43:0.049762804 44:0.046098329 45:0.0089147082 49:0.013357226 50:0.052335415 51:0.050420914 52:0.0094382372 
-0 -0 -0 -0 -312.5 -312.5 -73.99957235044508 -312.5 -312.5 -312.5 0 312.5 0 0 0 312.5 0 0 1:0.015181448 2:0.046266258 3:0.051702 4:0.01179141 5:0.00010768536 8:1.3224513e-005 9:0.0073376135 10:0.040518876 11:0.045945175 12:0.028680364 13:0.0012147553 17:0.010336377 18:0.04278912 19:0.047108628 20:0.021499442 21:1.8892163e-006 24:0.010495108 25:0.047507148 26:0.051530126 27:0.010032143 29:6.2344152e-005 30:0.012490582 31:0.051685002 32:0.04735605 33:0.014888552 35:0.0012279797 36:0.030421766 37:0.048245639 38:0.043841138 39:0.0077815726 40:1.7002945e-005 42:0.022774329 43:0.048113428 44:0.045076363 45:0.01195392 49:0.0098904185 50:0.053284749 51:0.049016237 52:0.011712044 
