svm_type c_svc
kernel_type rbf
gamma 0.50625
nr_class 19
total_sv 248
rho 0.168286 0.637146 1.11367 0.598846 -0.0221784 0.399841 0.649786 1.01221 -0.38136 0.140555 0.219952 1.13207 1.11481 0.261986 0.0350699 0.773352 0.937928 0.193886 0.701563 0.223286 -0.0439622 0.0108853 -0.121424 0.404947 0.324294 0.0478231 0.0461934 0.925265 0.0122916 -0.100108 -0.865269 -0.694582 0.121335 -0.149305 0.905828 0.22874 -0.386938 -0.347639 -0.508415 0.106237 0.302153 -0.562737 -0.349588 0.0858419 -0.275532 -0.284366 -0.822994 -1.14844 -0.28534 -0.509331 -0.121629 0.0136662 -0.0560208 -0.0831522 0.564056 0.452526 -0.704128 0.175536 0.0316985 -0.00379421 -0.427855 -0.805517 -1.06153 0.05362 -0.614114 -0.183903 -0.967865 -0.0697952 -0.637889 0.631003 -0.432964 -0.0113344 -0.0367239 0.0454485 -0.0995919 0.018999 -0.229107 -0.00526384 -0.29028 -0.050351 0.962221 0.406025 1.2037 0.145269 0.391729 -0.00929274 0.527244 0.590639 0.00199303 -0.0890009 0.936221 0.348938 -0.100875 -0.555994 0.285299 -0.0657439 0.0896005 0.147264 0.198105 0.0311807 0.147408 -0.120854 0.0238307 -0.00747852 0.0475757 0.900022 -0.260213 0.189882 -0.369632 -0.0895543 -0.251714 -0.401696 -0.548527 0.444906 -0.473131 -0.531403 -1.08907 -0.39763 -0.398178 -0.827648 -0.55052 -0.282854 -0.471853 -1.18097 -0.891236 -0.429619 -0.081664 -0.233579 0.968678 0.686804 -0.131441 -0.19273 0.735396 0.427846 -0.0250172 -0.0911802 0.0704583 0.0630207 -0.0989959 -0.0838395 0.128595 -0.0913969 -0.156216 0.179391 -0.0283569 -0.916456 -0.87551 0.126247 -0.12112 -0.124091 0.126181 -0.0262974 -0.208203 0.0448916 -0.130534 -0.0574179 -0.108333 -0.383509 0.11652 -0.345552 0.0194125 0.47382 0.0492949 -0.205083 0.833651 0.349361 0.139829 1.05636 -0.378022 -0.185899 0.178939
label 0 1 2 3 4 5 6 7 8 9 10 11 12 13 14 15 16 17 18
probA -0.796007 -0.46681 0.7716 1.25063 0.635287 0.265733 0.00451714 0.326089 0.0248125 -2.78715 -0.0918394 -2.12201 1.09113 0.576698 -0.303197 1.08844 1.36517 0.408608 1.16639 1.65698 -1.71867 -1.28624 -1.82926 -1.68595 -1.60139 -1.79179 -2.38314 0.645882 -1.31291 0.104241 0.913584 0.973701 -1.66713 -1.06758 1.15964 1.47235 -1.31104 -0.6551 -1.29668 -1.24065 -1.43723 -1.30857 -1.7052 0.702458 -0.317009 -0.0388588 3.50215 1.04404 -1.218 0.969961 0.346055 -1.17303 -0.868115 -1.17945 -0.787191 -0.252938 -0.55608 -2.52109 0.810633 1.14476 0.988379 1.7937 1.58023 -0.93694 0.133488 0.403778 1.85643 0.95478 4.16821 0.554616 -0.588541 1.56352 -1.52385 0.608828 -0.608117 -1.4538 -1.04192 1.15336 -0.526081 -1.63143 10.1227 1.28565 1.39571 0.256902 1.21988 -1.85539 -0.426396 2.76278 -1.33011 -2.2547 5.42426 -0.210004 -0.649378 2.78745 0.922162 -1.73289 0.509032 -1.92844 -0.638223 -0.176674 -1.74395 -1.70702 0.672651 -0.0974107 -1.42734 1.35482 -0.224035 -5.50494 -1.52746 -1.15965 -0.223747 -1.21328 -1.75531 1.39751 -0.614118 -1.70363 0.547661 -1.03264 -1.39266 1.50028 -0.706614 -1.40223 -0.656302 0.681448 0.317924 -1.84317 -2.62476 -0.626751 3.19337 -2.05683 0.039858 -2.08041 0.441526 -3.60017 -1.27894 -2.69892 -1.97435 -1.81126 -2.59916 -2.84294 -1.2453 -3.08855 -2.58761 -1.00618 0.10003 1.61057 0.584187 -1.4022 0.0248868 1.22083 1.03586 -0.236791 -0.772234 0.850556 0.625777 -1.23378 0.166205 0.275344 0.549852 0.748995 0.137335 0.854902 -1.2813 0.784013 1.63765 -1.08186 0.248861 0.732639 -1.18698 -1.55103 0.179146
probB 0.0617916 0.0928245 0.81325 0.733902 -0.221477 0.394095 -0.0938773 0.477293 -0.0963294 -1.14692 0.209157 -1.4116 1.08107 -0.030994 0.0146038 0.782674 1.31469 0.384323 0.420266 0.434103 0.0196318 -0.00285877 -0.124702 0.235334 0.0575245 -0.0072838 -0.568879 0.174374 0.0664592 0.0929883 -0.586223 -0.363517 -0.0717007 -0.0144911 0.204089 1.02216 -0.046534 -0.110702 -0.144594 -0.25342 0.0607186 0.112591 -0.505624 0.106438 0.0594926 0.000174137 -3.46176 -0.596723 -0.0687467 -0.147645 0.074644 -0.206494 -0.0297311 -0.210456 -0.17132 0.031285 -0.0652749 -1.03852 -0.449458 -0.071558 -0.494363 -1.78914 -1.40313 -0.172788 -0.101777 -0.094217 -1.65816 -0.278813 -4.12089 0.262796 -0.038718 0.905854 0.0629867 0.0150801 0.110044 0.103065 -0.124673 0.105866 -0.0186145 0.0678929 10.235 -0.230811 1.68365 0.0145274 1.35575 -0.166906 0.0242274 1.97111 0.138717 -0.496913 5.49817 0.180235 0.133113 -2.86161 0.0139733 0.376658 0.222882 0.108366 0.0324231 0.0123133 0.175392 0.0660938 0.0721171 -0.00568536 0.157922 1.5911 0.00572297 -4.89709 -0.0185637 -0.306843 0.218963 -0.131604 -0.354956 1.27024 0.0310819 0.150536 -0.864005 -0.406222 -0.0434542 -0.305498 0.183517 0.249431 -0.0569797 -0.126532 -0.0845339 -0.0245574 -0.925058 0.112362 2.99477 -1.09565 0.0942281 -0.234344 0.579051 -2.11575 -0.119995 0.69403 0.594119 0.549428 0.946187 0.655484 0.711849 1.15774 0.798892 -0.0619713 -0.0207992 -1.41021 -0.506098 -0.0880421 0.00397313 -0.163822 -0.1431 -0.140846 0.0558004 0.105984 0.0731401 0.0867546 -0.306954 -0.24598 0.118989 -0.148174 0.0247412 0.635386 -0.0670152 0.566389 1.46634 0.0927675 0.270923 0.550645 0.132293 0.097596 -0.0415029
nr_sv 11 13 14 15 14 10 14 10 15 10 15 14 14 14 11 12 14 14 14
SV
62.5 62.5 62.5 62.5 62.5 62.5 62.5 62.5 62.5 62.5 62.5 62.5 62.5 62.5 62.5 62.5 62.5 62.5 0:0.16616489 1:0.14830756 2:0.10018162 3:0.063192539 4:0.019937441 5:0.002206862 8:0.0098798918 9:0.010181266 10:0.011932534 11:0.014929506 12:0.021303061 13:0.020708527 14:0.018336032 15:0.016964795 16:0.017835299 17:0.018374112 18:0.020678729 19:0.020907402 20:0.015695846 21:0.012070925 22:0.010331477 23:0.0094229123 24:0.0099460157 25:0.010263479 26:0.012020698 27:0.015040576 28:0.02144723 29:0.020821825 30:0.018447716 31:0.017062303 32:0.01798572 33:0.018532576 34:0.020849539 35:0.020856004 36:0.015577991 37:0.011988671 38:0.010248998 39:0.0093500214 
62.5 62.5 62.5 62.5 62.5 62.5 62.5 62.5 62.5 62.5 62.5 62.5 62.5 62.5 62.5 62.5 62.5 62.5 0:0.14523816 1:0.1313225 2:0.092356421 3:0.068370476 4:0.046418708 5:0.015059123 6:0.0012342645 8:0.0091037918 9:0.009235776 10:0.010810161 11:0.013651654 12:0.020642377 13:0.02294529 14:0.019867554 15:0.018205326 16:0.019192155 17:0.019826537 18:0.022856569 19:0.020190805 20:0.01425863 21:0.010944712 22:0.0093399109 23:0.0084506581 24:0.0092020687 25:0.0093426025 26:0.010932671 27:0.013812006 28:0.020877253 29:0.02312373 30:0.020022105 31:0.018344665 32:0.019335346 33:0.01998109 34:0.023034925 35:0.019968322 36:0.01409524 37:0.010822231 38:0.0092330845 39:0.0083499039 
62.5 62.5 62.5 62.5 62.5 62.5 0 62.5 62.5 62.5 62.5 62.5 62.5 62.5 62.5 62.5 62.5 62.5 0:0.13379861 1:0.11808545 2:0.093609683 3:0.066990353 4:0.055215184 5:0.024993701 6:0.0072588893 7:4.8176742e-005 8:0.0093160383 9:0.0090800524 10:0.010587369 11:0.013146974 12:0.020489627 13:0.02281652 14:0.019873209 15:0.018521732 16:0.019995308 17:0.019839318 18:0.022836169 19:0.020083839 20:0.014255174 21:0.010856105 22:0.0093101952 23:0.0082744854 24:0.0094569363 25:0.0092370985 26:0.010774008 27:0.013384954 28:0.02085017 29:0.023085987 30:0.020103479 31:0.018730721 32:0.020209245 33:0.020069638 34:0.023105575 35:0.0197515 36:0.014010757 37:0.010669481 38:0.00915315 39:0.0081260279 
58.0152027334024 62.5 62.5 62.5 62.5 62.5 62.5 62.5 62.5 62.5 62.5 62.5 62.5 33.00200710460963 62.5 62.5 62.5 62.5 0:0.17471488 1:0.15608793 2:0.11190232 3:0.045954943 4:0.011292744 5:4.5644225e-005 8:0.010748049 9:0.011295344 10:0.01325279 11:0.016774526 12:0.021882076 13:0.018912848 14:0.016478583 15:0.015175191 16:0.015710417 17:0.016535016 18:0.019006904 19:0.021664957 20:0.017179109 21:0.013308224 22:0.011370319 23:0.010445268 24:0.010799543 25:0.011351185 26:0.013317851 27:0.016856674 28:0.021976691 29:0.018991817 30:0.016548095 31:0.01523966 32:0.015775966 33:0.016604643 34:0.019085815 35:0.021665335 36:0.017096305 37:0.013243115 38:0.011314467 39:0.010392593 
62.5 62.5 62.5 62.5 62.5 62.5 62.5 62.5 0 62.5 62.5 62.5 62.5 62.5 62.5 62.5 62.5 62.5 0:0.16836928 1:0.14889635 2:0.09929166 3:0.061933011 4:0.019375302 5:0.0021320947 8:0.009929101 9:0.010320498 10:0.012007639 11:0.014925043 12:0.021217154 13:0.020606603 14:0.018363897 15:0.016970297 16:0.017761875 17:0.018449273 18:0.020651601 19:0.020777538 20:0.015632374 21:0.012139902 22:0.01041762 23:0.0093891574 24:0.0099950414 25:0.010397816 26:0.012090162 27:0.015035123 28:0.021336855 29:0.020721743 30:0.018490024 31:0.017072622 32:0.017908223 33:0.018592244 34:0.02083342 35:0.020728013 36:0.015520764 37:0.012055346 38:0.01034533 39:0.009315826 
62.5 62.5 62.5 62.5 0 62.5 39.37139130370582 62.5 62.5 0 62.5 62.5 62.5 62.5 62.5 62.5 62.5 62.5 0:0.13062996 1:0.11681531 2:0.083379671 3:0.060592942 4:0.050161026 5:0.040438749 6:0.015324453 7:0.0026741321 8:0.0078649502 9:0.0082689291 10:0.0096568754 11:0.012314928 12:0.018089361 13:0.024552155 14:0.022553097 15:0.021145025 16:0.021579837 17:0.022630665 18:0.024682941 19:0.018068267 20:0.01264161 21:0.0097646778 22:0.0083623035 23:0.0076752352 24:0.0078960629 25:0.0083029522 26:0.0096963914 27:0.012367029 28:0.018162897 29:0.024622507 30:0.022609845 31:0.021200171 32:0.021635531 33:0.022687476 34:0.024703402 35:0.017995084 36:0.012589156 37:0.0097251544 38:0.0083282515 39:0.0076435907 
62.5 62.5 62.5 62.5 62.5 62.5 62.5 62.5 62.5 62.5 62.5 62.5 62.5 62.5 62.5 62.5 62.5 62.5 0:0.15711057 1:0.13815092 2:0.094101891 3:0.066809118 4:0.034920935 5:0.0087817684 6:0.00012464629 8:0.0093597509 9:0.0095965229 10:0.011221037 11:0.013722965 12:0.020507341 13:0.021868164 14:0.019572398 15:0.017783692 16:0.019250322 17:0.019656841 18:0.021994554 19:0.019964648 20:0.014936683 21:0.011500889 22:0.0097683277 23:0.008569614 24:0.0094975503 25:0.0097636282 26:0.011413801 27:0.013967743 28:0.020820703 29:0.0221141 30:0.01981527 31:0.018001702 32:0.019478187 33:0.019899759 34:0.022240493 35:0.019702571 36:0.014684193 37:0.011308112 38:0.0096012317 39:0.0084169535 
62.5 62.5 62.5 62.5 62.5 62.5 62.5 62.5 62.5 62.5 62.5 62.5 62.5 62.5 62.5 62.5 62.5 62.5 0:0.1630519 1:0.14666872 2:0.10014042 3:0.065008119 4:0.022039402 5:0.0030842687 8:0.009626599 9:0.010208083 10:0.011980739 11:0.015233572 12:0.021400252 13:0.020867502 14:0.018291568 15:0.016961902 16:0.017390579 17:0.018333275 18:0.020890282 19:0.021255806 20:0.015589707 21:0.012066753 22:0.010291073 23:0.0094080335 24:0.0096682776 25:0.010252411 26:0.012033843 27:0.015300464 28:0.02148396 29:0.020932898 30:0.01835168 31:0.017019063 32:0.017448602 33:0.018393468 34:0.020955943 35:0.021208985 36:0.015522192 37:0.012013682 38:0.010246788 39:0.0093656732 
62.5 62.5 62.5 62.5 62.5 62.5 62.5 62.5 62.5 62.5 62.5 62.5 62.5 62.5 62.5 62.5 62.5 62.5 0:0.16832706 1:0.14423609 2:0.098490737 3:0.064950272 4:0.02145455 5:0.0025464371 8:0.010043716 9:0.010552322 10:0.01207247 11:0.014744344 12:0.021007096 13:0.020162651 14:0.018344101 15:0.017274406 16:0.017918278 17:0.01841327 18:0.020194143 19:0.020865325 20:0.015336848 21:0.012270947 22:0.010725501 23:0.0097153299 24:0.010117109 25:0.010634741 26:0.01216192 27:0.014853505 28:0.0211599 29:0.020278595 30:0.018448424 31:0.017376613 32:0.018022401 33:0.018517554 34:0.020310152 35:0.020791592 36:0.015226045 37:0.012181522 38:0.010643072 39:0.0096402932 
62.5 62.5 62.5 62.5 62.5 62.5 62.5 62.5 62.5 62.5 62.5 62.5 62.5 62.5 62.5 62.5 62.5 62.5 0:0.14861323 1:0.12859903 2:0.10164358 3:0.066696003 4:0.039209921 5:0.01324948 6:0.001987397 8:0.010611382 9:0.010314094 10:0.011881329 11:0.014582735 12:0.020489022 13:0.020008724 14:0.01809747 15:0.017387962 16:0.018569011 17:0.018413378 18:0.020432411 19:0.020431094 20:0.015657809 21:0.012191397 22:0.010600964 23:0.0099155484 24:0.010709486 25:0.010415288 26:0.011993179 27:0.014716867 28:0.02065252 29:0.020137714 30:0.018219976 31:0.017514642 32:0.018699545 33:0.018535793 34:0.020561326 35:0.020342231 36:0.015521542 37:0.012079545 38:0.010499766 39:0.009814891 
0 62.5 62.5 62.5 62.5 62.5 62.5 62.5 62.5 62.5 7.40509282864941 62.5 62.5 0 28.80475188054339 62.5 62.5 31.87488797292991 0:0.19127761 1:0.17030106 2:0.10556535 3:0.029759524 4:0.0030982955 8:0.013615748 9:0.014128139 10:0.016476564 11:0.020641332 12:0.019654937 13:0.01523445 14:0.013038895 15:0.011882438 16:0.012500904 17:0.01301635 18:0.015202141 19:0.019186007 20:0.02116628 21:0.01659066 22:0.014206889 23:0.013076107 24:0.013694554 25:0.014211635 26:0.01657475 27:0.020763092 28:0.019774176 29:0.015327463 30:0.013120958 31:0.01195628 32:0.012576854 33:0.0130984 34:0.015295158 35:0.019303948 36:0.021074176 37:0.016492488 38:0.014123469 39:0.01299577 
-62.5 62.5 62.5 62.5 45.57755942879356 62.5 0 62.5 0 0 62.5 62.5 62.5 0 62.5 62.5 62.5 62.5 0:0.12747392 1:0.10825135 2:0.07489951 3:0.054958727 4:0.045606095 5:0.039767481 6:0.035209551 7:0.015570289 8:0.0070583727 9:0.0074634915 10:0.0087479614 11:0.011241189 12:0.016593404 13:0.024899401 14:0.025207508 15:0.024218062 16:0.024435844 17:0.025114037 18:0.02482543 19:0.016497705 20:0.011340784 21:0.0087534096 22:0.0074678748 23:0.0069406671 24:0.0070754183 25:0.0074816314 26:0.0087694339 27:0.011268953 28:0.016633885 29:0.02491783 30:0.025239021 31:0.024250286 32:0.024467956 33:0.025145655 34:0.024806609 35:0.016457224 36:0.011312905 37:0.0087318765 38:0.0074497079 39:0.0069234692 
-62.5 62.5 62.5 62.5 62.5 62.5 62.5 62.5 62.5 62.5 62.5 62.5 62.5 62.5 62.5 62.5 62.5 62.5 0:0.15264799 1:0.13245738 2:0.091516532 3:0.066822387 4:0.036184859 5:0.009646344 6:0.00014701579 8:0.008752252 9:0.0093326662 10:0.010846803 11:0.01382513 12:0.020190522 13:0.02184939 14:0.019275928 15:0.018089509 16:0.018216696 17:0.019284122 18:0.021934574 19:0.020207684 20:0.013979897 21:0.010866698 22:0.009336275 23:0.0086554568 24:0.0087641589 25:0.0093456898 26:0.010861911 27:0.013844838 28:0.020220222 29:0.021870473 30:0.019296587 31:0.018109014 32:0.018240955 33:0.019309778 34:0.021965234 35:0.020184241 36:0.013960355 37:0.010852009 38:0.00932338 39:0.0086434297 
-62.5 62.5 62.5 62.5 62.5 62.5 62.5 62.5 62.5 62.5 62.5 62.5 62.5 62.5 62.5 62.5 62.5 62.5 0:0.1493008 1:0.13504331 2:0.092122577 3:0.064632624 4:0.044172417 5:0.01335151 6:0.0013766335 8:0.0094707981 9:0.0092760716 10:0.010891124 11:0.012828291 12:0.019851347 13:0.022326212 14:0.020202724 15:0.018069442 16:0.020439237 17:0.020363972 18:0.02259754 19:0.019166529 20:0.014563547 21:0.011175998 22:0.0095968517 23:0.0081954021 24:0.0096624391 25:0.0094928332 26:0.011160756 27:0.013156172 28:0.02027165 29:0.022675134 30:0.020527042 31:0.018390404 32:0.02078129 33:0.020688307 34:0.022931386 35:0.018758621 36:0.014223254 37:0.010906356 38:0.0093800928 39:0.0079795299 
-62.5 62.5 62.5 62.5 62.5 62.5 62.5 62.5 62.5 62.5 62.5 62.5 62.5 62.5 62.5 62.5 62.5 62.5 0:0.19794773 1:0.16823699 2:0.10145763 3:0.029227439 4:0.0031267572 8:0.011874555 9:0.01230731 10:0.014283692 11:0.017789103 12:0.021372644 13:0.017518291 14:0.015306099 15:0.014069946 16:0.014722181 17:0.015340603 18:0.017495323 19:0.020945497 20:0.018343775 21:0.014439916 22:0.012445994 23:0.011373793 24:0.011947234 25:0.012388364 26:0.014378143 27:0.017904226 28:0.021497255 29:0.017620509 30:0.015398633 31:0.014157089 32:0.014811141 33:0.015433191 34:0.017597519 35:0.020997612 36:0.018227119 37:0.014345539 38:0.012364948 39:0.011298805 
-58.0152027334024 62.5 62.5 0 0 0 0 62.5 62.5 0 62.5 62.5 62.5 43.03597042921545 62.5 0.7574995540117461 62.5 62.5 0:0.1153604 1:0.10337338 2:0.080242336 3:0.057061773 4:0.04696567 5:0.040359166 6:0.035662137 7:0.020979213 8:0.0074868812 9:0.0076702139 10:0.0090063438 11:0.01135388 12:0.017325709 13:0.02424366 14:0.024492223 15:0.022609523 16:0.023619462 17:0.024403892 18:0.024278862 19:0.017176261 20:0.012080851 21:0.0092051253 22:0.0078002419 23:0.0070027742 24:0.0075605819 25:0.0077562919 26:0.0091076829 27:0.011488582 28:0.017516276 29:0.024289081 30:0.024598105 31:0.022749802 32:0.023762397 33:0.024509804 34:0.024233319 35:0.0169881 36:0.011943744 37:0.0091037955 38:0.0077141761 39:0.0069262893 
-62.5 62.5 62.5 62.5 62.5 62.5 62.5 62.5 62.5 62.5 62.5 62.5 62.5 38.8433881934782 62.5 62.5 62.5 62.5 0:0.13901922 1:0.12323681 2:0.092973202 3:0.063870385 4:0.051106911 5:0.023215944 6:0.0064904117 7:8.0121717e-005 8:0.0089126304 9:0.0092997169 10:0.010833769 11:0.013690162 12:0.019931151 13:0.022847602 14:0.020420408 15:0.019027576 16:0.019535935 17:0.020200083 18:0.02263171 19:0.019580001 20:0.014012518 21:0.010904584 22:0.0093304897 23:0.0085955095 24:0.0089659113 25:0.0093553551 26:0.010901219 27:0.013772179 28:0.020045009 29:0.022934631 30:0.020501781 31:0.019102896 32:0.019612432 33:0.020281477 34:0.022717895 35:0.019467099 36:0.01392967 37:0.010837132 38:0.0092748646 39:0.0085409833 
-62.5 62.5 62.5 62.5 62.5 62.5 62.5 62.5 62.5 62.5 62.5 62.5 62.5 62.5 62.5 62.5 62.5 62.5 0:0.15165341 1:0.12574583 2:0.087036245 3:0.062662356 4:0.045694679 5:0.016277106 6:0.0022481682 8:0.0086213816 9:0.0090898285 10:0.010535683 11:0.013445135 12:0.019561119 13:0.02232198 14:0.019615253 15:0.018804897 16:0.019030746 17:0.019900694 18:0.022665149 19:0.01981999 20:0.01373647 21:0.010691359 22:0.0091805933 23:0.0085523874 24:0.0086304042 25:0.0091020418 26:0.010549766 27:0.013463254 28:0.019587547 29:0.022339707 30:0.019629676 31:0.018817926 32:0.019043418 33:0.019914089 34:0.022682708 35:0.01978864 36:0.01371501 37:0.010675262 38:0.0091664847 39:0.0085378867 
-62.5 62.5 62.5 62.5 62.5 62.5 62.5 62.5 62.5 62.5 62.5 62.5 62.5 62.5 62.5 62.5 62.5 62.5 0:0.13073446 1:0.12586664 2:0.099042788 3:0.069946833 4:0.051520333 5:0.019203292 6:0.0036827663 8:0.0091652861 9:0.0094776042 10:0.011062861 11:0.014025443 12:0.020747183 13:0.022279179 14:0.019625034 15:0.018219316 16:0.01895312 17:0.019584071 18:0.022207681 19:0.020436326 20:0.01447956 21:0.01113208 22:0.0095596667 23:0.0087348167 24:0.0092198541 25:0.0095586535 26:0.011156972 27:0.014141045 28:0.020912051 29:0.022397265 30:0.019736333 31:0.01832887 32:0.019063031 33:0.019696349 34:0.022327993 35:0.020282283 36:0.014352741 37:0.011024613 38:0.0094683729 39:0.0086406022 
-62.5 62.5 62.5 62.5 62.5 62.5 62.5 62.5 62.5 62.5 62.5 62.5 62.5 43.75727133666719 62.5 62.5 62.5 62.5 0:0.13305512 1:0.11223213 2:0.083426878 3:0.058029685 4:0.047376998 5:0.021356663 6:0.0059398636 7:5.8423328e-005 8:0.0081698466 9:0.0086132511 10:0.0099716308 11:0.012612112 12:0.017964324 13:0.020780804 14:0.018876322 15:0.018248657 16:0.018442092 17:0.018913392 18:0.020756368 19:0.017869664 20:0.012649131 21:0.0099722203 22:0.0086149527 23:0.0080960793 24:0.008179727 25:0.0086237844 26:0.009983601 27:0.012627123 28:0.017985012 29:0.02079729 30:0.018891448 31:0.018263683 32:0.018457377 33:0.018928563 34:0.020772133 35:0.017849052 36:0.012633812 37:0.0099600181 38:0.0086044492 39:0.0080862585 
-62.5 62.5 62.5 44.13555020604697 0 38.49791389163372 9.677287630402374 62.5 23.92732689869204 0 62.5 62.5 62.5 62.5 62.5 62.5 62.5 62.5 0:0.122584 1:0.10568036 2:0.077154405 3:0.053926434 4:0.043307897 5:0.036714967 6:0.032078754 7:0.028551348 8:0.0077926726 9:0.0075517627 10:0.0087554641 11:0.01064307 12:0.016173027 13:0.022632919 14:0.024476724 15:0.025721541 16:0.027075358 17:0.024807779 18:0.023071777 19:0.01594829 20:0.011706629 21:0.0090099871 22:0.0076993941 23:0.006935643 24:0.0079117939 25:0.0076774317 26:0.0088957893 27:0.010827924 28:0.016436512 29:0.022706531 30:0.024476754 31:0.025721524 32:0.027075324 33:0.024807764 34:0.022998147 35:0.015690843 36:0.011515705 37:0.0088696601 38:0.0075737326 39:0.0068107857 
-0 62.5 62.5 0 0 0 0 0 0 0 62.5 0 62.5 62.5 62.5 0 62.5 62.5 0:0.11650888 1:0.10297249 2:0.077183805 3:0.055183403 4:0.045676336 5:0.03959785 6:0.035454031 7:0.027423847 8:0.00739044 9:0.0075100502 10:0.0087500475 11:0.010997383 12:0.016731668 13:0.023896439 14:0.025042593 15:0.023908466 16:0.025049401 17:0.025052888 18:0.023905855 19:0.016477073 20:0.0117019 21:0.0089635784 22:0.0075950422 23:0.0068068118 24:0.0074763699 25:0.0076094121 26:0.0088692745 27:0.011142257 28:0.016934466 29:0.023963435 30:0.025093552 31:0.024077667 32:0.025222791 33:0.025103908 34:0.023838822 35:0.016277147 36:0.011554146 37:0.0088443607 38:0.0074956743 39:0.0067177741 
-0 62.5 62.5 0 0 0 0 10.75026540810661 31.77912642315306 0 62.5 32.38043676257513 0 62.5 62.5 0 0 62.5 0:0.10814264 1:0.1024847 2:0.081654876 3:0.057956822 4:0.048092041 5:0.041614342 6:0.037179586 7:0.022880999 8:0.0076215887 9:0.0077018286 10:0.0090292944 11:0.011419918 12:0.017209124 13:0.023819545 14:0.024267495 15:0.022900617 16:0.023997637 17:0.024500318 18:0.024108056 19:0.017028585 20:0.012040432 21:0.009217809 22:0.0078191021 23:0.007068695 24:0.0077016992 25:0.0077952696 26:0.0091355927 27:0.011560048 28:0.017402573 29:0.0238657 30:0.02437138 31:0.023049943 32:0.024150336 33:0.024604127 34:0.024061967 35:0.016837528 36:0.011897863 37:0.0091115125 38:0.0077256477 39:0.0069840397 
-0 62.5 62.5 0 0 0 0 0 0 0 62.5 0 49.26178745602815 61.86337004063917 0 0 33.09780632791823 62.5 0:0.11540494 1:0.10383039 2:0.076550923 3:0.055521566 4:0.045569032 5:0.038951587 6:0.033955533 7:0.030217096 8:0.0069487602 9:0.0072628907 10:0.0085076522 11:0.010858714 12:0.016257124 13:0.023474876 14:0.025295813 15:0.025845349 16:0.026639549 17:0.025493853 18:0.023625925 19:0.016093312 20:0.011216319 21:0.0085603679 22:0.0072821975 23:0.0066386573 24:0.0069937655 25:0.0073125847 26:0.0085661607 27:0.010933101 28:0.016365696 29:0.023511965 30:0.0252959 31:0.025845461 32:0.02663948 33:0.025493585 34:0.023588836 35:0.015985325 36:0.01114128 37:0.0085018491 38:0.0072325156 39:0.0065919426 
-62.5 -62.5 62.5 62.5 62.5 62.5 62.5 62.5 62.5 62.5 62.5 62.5 62.5 0 62.5 62.5 62.5 62.5 0:0.13884355 1:0.12078845 2:0.08336395 3:0.059082292 4:0.047484018 5:0.036143932 6:0.012586175 7:0.0017043413 8:0.0086201476 9:0.008534071 10:0.0098287975 11:0.011984636 12:0.018205663 13:0.024047058 14:0.022298321 15:0.02037474 16:0.02220617 17:0.022232132 18:0.024067091 19:0.017645676 20:0.013035492 21:0.010069131 22:0.0086096777 23:0.0075963694 24:0.0087569859 25:0.0086867269 26:0.010013177 27:0.012193805 28:0.018523971 29:0.024311168 30:0.022534976 31:0.020613702 32:0.022456404 33:0.022468738 34:0.02413716 35:0.017334159 36:0.012819499 37:0.0098847514 38:0.0084570246 39:0.007449972 
-62.5 -62.5 62.5 10.71989138146143 0 3.626040202417474 6.157555912556398 62.5 0 0 62.5 62.5 62.5 62.5 2.940562242569385 36.5347339420841 62.5 62.5 0:0.13382697 1:0.11333051 2:0.077899761 3:0.05622451 4:0.044866476 5:0.037931263 6:0.027337765 7:0.0085858945 8:0.0080590658 9:0.0079162903 10:0.0091726929 11:0.011165338 12:0.016949583 13:0.024057675 14:0.023924703 15:0.022500575 16:0.024417305 17:0.024056673 18:0.024310347 19:0.016395705 20:0.012174556 21:0.009346881 22:0.0079233125 23:0.0071172509 24:0.0081766127 25:0.008057165 26:0.0093194339 27:0.011355399 28:0.017220611 29:0.024246056 30:0.024149191 31:0.022719024 32:0.024645684 33:0.02428118 34:0.024261998 35:0.01613038 36:0.011978745 37:0.009200139 38:0.0077824402 39:0.006991093 
-62.5 -62.5 62.5 62.5 62.5 62.5 62.5 62.5 62.5 62.5 62.5 62.5 62.5 59.15644572395456 62.5 62.5 62.5 62.5 0:0.15640058 1:0.13055156 2:0.086831152 3:0.062512614 4:0.045998875 5:0.015647423 6:0.002077485 8:0.0088215992 9:0.009241485 10:0.010709419 11:0.013468418 12:0.019385772 13:0.02278435 14:0.020508429 15:0.019515056 16:0.019944644 17:0.020659948 18:0.022906983 19:0.019379303 20:0.013784144 21:0.01079922 22:0.0093035735 23:0.0086535085 24:0.0088530332 25:0.0092748003 26:0.010747879 27:0.013516608 28:0.019453248 29:0.02283668 30:0.020555897 31:0.019562071 32:0.019992288 33:0.020707767 34:0.022953251 35:0.019312209 36:0.01373579 37:0.010760721 38:0.0092702666 39:0.008621579 
-62.5 -62.5 62.5 62.5 62.5 62.5 2.748945072198568 62.5 62.5 53.44310364093301 62.5 62.5 62.5 62.5 62.5 62.5 62.5 62.5 0:0.12724973 1:0.11752795 2:0.087362401 3:0.063880719 4:0.053874977 5:0.03684279 6:0.012221153 7:0.0010362086 8:0.008279725 9:0.0084464438 10:0.0098988982 11:0.012310067 12:0.019111913 13:0.024575474 14:0.021407129 15:0.019650539 16:0.021123575 17:0.021554628 18:0.024664292 19:0.018826788 20:0.013349656 21:0.010039429 22:0.0085661309 23:0.007536984 24:0.0084016975 25:0.008562264 26:0.010053797 27:0.012546854 28:0.019414734 29:0.024859773 30:0.021599974 31:0.019781768 32:0.021411495 33:0.021806413 34:0.024832079 35:0.018497216 36:0.013137506 37:0.0098936614 38:0.0084383888 39:0.0074164579 
-62.5 -62.5 62.5 62.5 62.5 62.5 62.5 62.5 62.5 0 62.5 62.5 62.5 62.5 62.5 62.5 62.5 62.5 0:0.12953141 1:0.11378784 2:0.087148681 3:0.062204145 4:0.052836701 5:0.038523212 6:0.014034543 7:0.0019341955 8:0.0092259385 9:0.0084114894 10:0.0099252779 11:0.011743883 12:0.019096531 13:0.024279095 14:0.021032522 15:0.018862553 16:0.021145234 17:0.021617284 18:0.024709471 19:0.018420456 20:0.013727086 21:0.010348668 22:0.0088098953 23:0.0074632405 24:0.0094163585 25:0.0086867381 26:0.010250342 27:0.012106544 28:0.019702712 29:0.024794826 30:0.021426832 31:0.019259281 32:0.02156283 33:0.022011606 34:0.024989646 35:0.017829537 36:0.013349145 37:0.010023601 38:0.0085346447 39:0.0072372328 
-62.5 -0 62.5 62.5 62.5 62.5 62.5 62.5 62.5 62.5 61.6216266187561 62.5 62.5 0.002523321011650167 25.90171032379261 62.5 62.5 62.5 0:0.22207594 1:0.18964349 2:0.074408785 3:0.013865552 4:6.0392795e-006 8:0.013798008 9:0.013999679 10:0.015859077 11:0.018692372 12:0.019702053 13:0.015823716 14:0.013817249 15:0.012342931 16:0.013511096 17:0.01381976 18:0.015850788 19:0.018732496 20:0.019996256 21:0.016243344 22:0.014217027 23:0.012766064 24:0.013971824 25:0.014196246 26:0.016074393 27:0.018934 28:0.019952036 29:0.016030949 30:0.014010912 31:0.012525148 32:0.013702556 33:0.014013405 34:0.016058009 35:0.0189764 36:0.019754618 37:0.016028054 38:0.014020446 39:0.012578908 
-62.5 -62.5 62.5 62.5 62.5 62.5 62.5 62.5 62.5 62.5 62.5 62.5 62.5 62.5 62.5 62.5 62.5 62.5 0:0.16633844 1:0.14895773 2:0.10006403 3:0.06216751 4:0.020083135 5:0.0023854966 8:0.010268555 9:0.010661162 10:0.012289973 11:0.014854199 12:0.021119516 13:0.020201661 14:0.017956639 15:0.016690521 16:0.017660758 17:0.018035922 18:0.020250838 19:0.020690612 20:0.015764853 21:0.012490276 22:0.01078883 23:0.0097373072 24:0.01038498 25:0.010797057 26:0.012438854 27:0.015035868 28:0.021344593 29:0.020371983 30:0.018119775 31:0.016843561 32:0.017815728 33:0.018199129 34:0.020421177 35:0.020571947 36:0.015579555 37:0.012341371 38:0.010652947 39:0.0096163396 
-62.5 -62.5 62.5 62.5 62.5 62.5 62.5 62.5 62.5 62.5 62.5 62.5 62.5 62.5 62.5 62.5 62.5 62.5 0:0.13283609 1:0.12051886 2:0.093511157 3:0.066491999 4:0.054690495 5:0.025122099 6:0.0067943935 7:3.7690668e-005 8:0.009339991 9:0.0090357596 10:0.010640537 11:0.012921643 12:0.020566754 13:0.023049133 14:0.020128774 15:0.017852254 16:0.020268792 17:0.020049125 18:0.02315259 19:0.019701868 20:0.014215454 21:0.010822327 22:0.0091709802 23:0.0080104908 24:0.009539579 25:0.0092629697 26:0.010938822 27:0.013258938 28:0.021071708 29:0.0234378 30:0.020482589 31:0.018183667 32:0.020621907 33:0.020402938 34:0.023536015 35:0.019212939 36:0.01386215 37:0.010524052 38:0.0089437664 39:0.0077964901 
-0 -62.5 62.5 0 0 0 0 0 0 0 62.5 0 11.66220845628335 62.5 33.657727433638 0 0 62.5 0:0.11374976 1:0.10386053 2:0.073984772 3:0.054651204 4:0.045761708 5:0.039935961 6:0.035767019 7:0.032288376 8:0.0072796927 9:0.0071684299 10:0.0084023727 11:0.010388276 12:0.016095886 13:0.023912378 14:0.025611687 15:0.02574363 16:0.026935926 17:0.025472658 18:0.023881245 19:0.015651006 20:0.011211677 21:0.0084904823 22:0.0072709736 23:0.006485594 24:0.0073935585 25:0.0072908285 26:0.0085498737 27:0.01056557 28:0.016365562 29:0.024032369 30:0.0256117 31:0.02574366 32:0.0269359 33:0.025472686 34:0.023761271 35:0.015385953 36:0.011029797 37:0.0083429823 38:0.0071485746 39:0.0063672275 
-62.5 -62.5 62.5 62.5 0 62.5 0 62.5 62.5 0 62.5 62.5 62.5 3.341030955033784 62.5 62.5 62.5 62.5 0:0.12878332 1:0.11623118 2:0.083318353 3:0.061635815 4:0.051750474 5:0.040924635 6:0.01510878 7:0.0022278398 8:0.0078390036 9:0.0081998752 10:0.0096102506 11:0.012334759 12:0.018441843 13:0.025104027 14:0.022421304 15:0.020849112 16:0.021335803 17:0.022352388 18:0.02504589 19:0.018209802 20:0.012593314 21:0.0096651232 22:0.0082282983 23:0.0075629195 24:0.0078792991 25:0.0082431156 26:0.0096610598 27:0.012399955 28:0.018538406 29:0.025196884 30:0.022490762 31:0.020915525 32:0.021402735 33:0.022421852 34:0.025072848 35:0.018113878 36:0.012527543 37:0.0096144015 38:0.0081850551 39:0.0075218128 
-62.5 -62.5 62.5 62.5 62.5 62.5 62.5 62.5 62.5 62.5 62.5 62.5 62.5 62.5 62.5 62.5 62.5 62.5 0:0.19552787 1:0.17155881 2:0.10262423 3:0.02754602 4:0.002744064 8:0.012593035 9:0.012974663 10:0.015176721 11:0.018779997 12:0.020910218 13:0.016824109 14:0.014697683 15:0.0132945 16:0.014103417 17:0.014526747 18:0.016585127 19:0.019926721 20:0.019302802 21:0.015046353 22:0.013007875 23:0.011797851 24:0.012696501 25:0.01309415 26:0.015306841 27:0.01895793 28:0.021070622 29:0.016949255 30:0.014814064 31:0.013411897 32:0.014220243 33:0.014652588 34:0.016719384 35:0.020047767 36:0.019096553 37:0.014885895 38:0.012867187 39:0.011663318 
-0 -62.5 62.5 0 0 0 0 31.00530632276499 0 0 62.5 62.5 62.5 62.5 62.5 0 62.5 62.5 0:0.11951746 1:0.10798629 2:0.079311363 3:0.057343286 4:0.04708514 5:0.040485814 6:0.034239359 7:0.014028582 8:0.0074034058 9:0.0077050356 10:0.0090682991 11:0.011544037 12:0.017193696 13:0.02487791 14:0.024186712 15:0.02252613 16:0.023228763 17:0.024247963 18:0.024908256 19:0.017025303 20:0.011920109 21:0.0091011645 22:0.0078064883 23:0.0070512062 24:0.0074558984 25:0.0077630547 26:0.0091378419 27:0.011631843 28:0.017318025 29:0.024931051 30:0.024287377 31:0.022622235 32:0.023326343 33:0.024348618 34:0.024870032 35:0.016902095 36:0.011831127 37:0.009031605 38:0.0077484548 39:0.0069972766 
-62.5 -62.5 62.5 62.5 62.5 62.5 62.5 62.5 62.5 62.5 62.5 62.5 62.5 62.5 62.5 62.5 62.5 62.5 0:0.13381195 1:0.11924215 2:0.092530876 3:0.065537438 4:0.054742098 5:0.026330886 6:0.0076915734 7:0.00011542487 8:0.0091750473 9:0.0091840038 10:0.010716285 11:0.013217943 12:0.020408642 13:0.023306599 14:0.020142633 15:0.018022629 16:0.019789444 17:0.020025671 18:0.023092799 19:0.019630561 20:0.014220283 21:0.010853491 22:0.0092601245 23:0.0081658904 24:0.0093178255 25:0.0093625011 26:0.010931276 27:0.013480675 28:0.020803073 29:0.023598401 30:0.020400662 31:0.018263033 32:0.02004154 33:0.020283677 34:0.023379156 35:0.019243341 36:0.013950384 37:0.010638496 38:0.009081617 39:0.0080143297 
-0 -62.5 62.5 0 0 0 0 0 0 0 62.5 2.861716768653586 62.5 62.5 62.5 0 62.5 62.5 0:0.11681699 1:0.10335076 2:0.075169452 3:0.054660056 4:0.045137852 5:0.039005551 6:0.03466158 7:0.031191334 8:0.007051182 9:0.0072754594 10:0.0085852491 11:0.010849374 12:0.016321713 13:0.023607219 14:0.025036154 15:0.025526835 16:0.026443137 17:0.025179287 18:0.023871278 19:0.016162105 20:0.011380794 21:0.0086638592 22:0.0073565505 23:0.0066860365 24:0.0071069291 25:0.0073327953 26:0.0086515406 27:0.01094427 28:0.016464338 29:0.023639007 30:0.024993477 31:0.02551668 32:0.026453812 33:0.025213661 34:0.023842903 35:0.016020274 36:0.011299998 37:0.0085903658 38:0.0073006488 39:0.0066271015 
-0 -62.5 -62.5 0 0 0 0 0 0 0 62.5 0 0 62.5 27.46708097732204 0 0 62.5 0:0.11907713 1:0.10194989 2:0.073477007 3:0.053840525 4:0.045190629 5:0.039552674 6:0.035204735 7:0.031640206 8:0.0070173563 9:0.0072399187 10:0.0084076412 11:0.01076954 12:0.016234564 13:0.024124099 14:0.02538495 15:0.025220737 16:0.02553761 17:0.025560884 18:0.024278486 19:0.016241271 20:0.011121023 21:0.008585942 22:0.0073850942 23:0.00685794 24:0.0070407731 25:0.00726408 26:0.0084359404 27:0.010805272 28:0.016288621 29:0.024144365 30:0.025385162 31:0.02522102 32:0.02553759 33:0.025560766 34:0.024258476 35:0.016187392 36:0.01108502 37:0.0085576223 38:0.0073608877 39:0.0068342448 
-61.97187969330488 -0 -0 62.5 62.5 62.5 62.5 62.5 62.5 62.5 56.35991812476127 62.5 62.5 59.8554899302866 0 62.5 62.5 62.5 0:0.17502685 1:0.15971757 2:0.11461753 3:0.04178926 4:0.0088469973 8:0.015952088 9:0.015955729 10:0.018416006 11:0.021051167 12:0.017778466 13:0.0137348 14:0.011646113 15:0.0099372566 16:0.011575842 17:0.011733584 18:0.01380191 19:0.016492877 20:0.022450225 21:0.0183574 22:0.01561989 23:0.014309143 24:0.016152836 25:0.016192563 26:0.018707499 27:0.021401765 28:0.018106468 29:0.013975817 30:0.011842404 31:0.010147434 32:0.01179187 33:0.011978366 34:0.014078483 35:0.016876122 36:0.022387799 37:0.018071443 38:0.015392537 39:0.014082546 
-62.5 -62.5 -62.5 62.5 62.5 62.5 62.5 62.5 62.5 62.5 62.5 62.5 62.5 62.5 62.5 62.5 62.5 62.5 0:0.16986333 1:0.14161226 2:0.09268707 3:0.064237162 4:0.026017861 5:0.0055820458 8:0.010433842 9:0.01072468 10:0.012212854 11:0.014700546 12:0.020343671 13:0.020601802 14:0.018557072 15:0.017492935 16:0.018112486 17:0.018312965 18:0.020345468 19:0.019909639 20:0.015057928 21:0.012141729 22:0.010805775 23:0.0099750618 24:0.010498918 25:0.010792898 26:0.012288957 27:0.014791993 28:0.020454001 29:0.020689862 30:0.018641137 31:0.017576482 32:0.018197497 33:0.018397119 34:0.020433491 35:0.019831439 36:0.014965456 37:0.01206561 38:0.010737567 39:0.0099086622 
-62.5 -62.5 -62.5 62.5 62.5 62.5 62.5 62.5 62.5 62.5 62.5 62.5 62.5 62.5 62.5 62.5 62.5 62.5 0:0.15167545 1:0.13587487 2:0.10192713 3:0.071470395 4:0.031161364 5:0.007888061 6:1.6675294e-006 8:0.010087341 9:0.010225611 10:0.011896859 11:0.014509528 12:0.021655405 13:0.020632247 14:0.018860497 15:0.016192127 16:0.017211808 17:0.018376701 18:0.021268815 19:0.021803796 20:0.015475528 21:0.011726307 22:0.010247781 23:0.0093045486 24:0.010194556 25:0.010348234 26:0.012035375 27:0.014679791 28:0.021883037 29:0.020805653 30:0.019024745 31:0.016331203 32:0.017355861 33:0.018540947 34:0.021442231 35:0.021676267 36:0.015301645 37:0.0115878 38:0.010125151 39:0.0091916369 
-62.5 -62.5 -62.5 62.5 62.5 62.5 62.5 62.5 0 62.5 62.5 62.5 62.5 0 35.03291902267795 62.5 62.5 62.5 0:0.176595 1:0.15740949 2:0.10563163 3:0.048406616 4:0.011867038 5:8.9742301e-005 8:0.010899961 9:0.011446168 10:0.013518534 11:0.016511386 12:0.022185769 13:0.019503623 14:0.016748374 15:0.015074498 16:0.016233204 17:0.016289884 18:0.018857671 19:0.02094 20:0.016659306 21:0.013139506 22:0.011296653 23:0.010310591 24:0.011013575 25:0.01160332 26:0.013646853 27:0.016674876 28:0.022359973 29:0.019660862 30:0.016857786 31:0.01519042 32:0.016345093 33:0.016419834 34:0.019022351 35:0.02085441 36:0.016446 37:0.012969545 38:0.01112783 39:0.010191544 
-0.5281203066951229 -62.5 -62.5 0 0 0 0 62.5 62.5 0 62.5 62.5 62.5 62.5 62.5 18.99389122683769 62.5 62.5 0:0.11428472 1:0.10466333 2:0.085675851 3:0.060441229 4:0.049793988 5:0.042712662 6:0.030859334 7:0.01156777 8:0.0083320048 9:0.0081634931 10:0.0095917648 11:0.012001561 12:0.018569067 13:0.024684103 14:0.022547768 15:0.020380039 16:0.021605898 17:0.022530252 18:0.02462087 19:0.018091561 20:0.012849388 21:0.0097957933 22:0.0083498117 23:0.007354097 24:0.0084552038 25:0.008303917 26:0.0097580981 27:0.012210258 28:0.018869596 29:0.024811419 30:0.022788551 31:0.020583816 32:0.021816395 33:0.022771053 34:0.024668017 35:0.017795434 36:0.012636291 37:0.0096294498 38:0.0082093962 39:0.0072247349 
-62.5 -62.5 -62.5 62.5 47.54377431906615 62.5 0 62.5 15.37674659232862 54.86895819964968 62.5 62.5 62.5 62.5 62.5 62.5 62.5 62.5 0:0.12189814 1:0.11105578 2:0.081797615 3:0.059050001 4:0.048615608 5:0.042098623 6:0.027192032 7:0.0082900152 8:0.0079521658 9:0.0080442065 10:0.0093659777 11:0.011588611 12:0.017810576 13:0.024899077 14:0.023274893 15:0.021366224 16:0.022856647 17:0.023422094 18:0.024895541 19:0.017137647 20:0.012295715 21:0.0094271256 22:0.0081081977 23:0.007147742 24:0.0080844928 25:0.0081716999 26:0.009515807 27:0.011766282 28:0.018062118 29:0.02508314 30:0.023465106 31:0.021568028 32:0.023061696 33:0.023622727 34:0.024863662 35:0.016847955 36:0.012094161 37:0.0092507023 38:0.0079521928 39:0.0069960128 
-62.5 -62.5 -62.5 62.5 62.5 62.5 62.5 62.5 47.12325340767138 62.5 62.5 62.5 62.5 2.6445100697134 62.5 62.5 62.5 62.5 0:0.16443969 1:0.14624003 2:0.099728994 3:0.065118268 4:0.021548545 5:0.0029267741 8:0.0095577817 9:0.010136958 10:0.011868166 11:0.015071425 12:0.021079624 13:0.02072715 14:0.018376566 15:0.017242977 16:0.017677575 17:0.018541925 18:0.02102886 19:0.021186424 20:0.015552747 21:0.012090066 22:0.010252599 23:0.0094104074 24:0.0095986333 25:0.010181683 26:0.011921871 27:0.015137673 28:0.021159543 29:0.020790553 30:0.018436821 31:0.017301686 32:0.017736793 33:0.018602097 34:0.02109248 35:0.021141445 36:0.015485949 37:0.012036415 38:0.010207845 39:0.0093688173 
-62.5 -62.5 -62.5 51.9760793525591 0 36.1754175279717 0 62.5 62.5 0 62.5 62.5 62.5 62.5 62.5 62.5 62.5 62.5 0:0.11614048 1:0.10906851 2:0.082166947 3:0.060267393 4:0.050502159 5:0.044511896 6:0.028462281 7:0.0088744424 8:0.0079712747 9:0.0079871304 10:0.0093517751 11:0.011678018 12:0.018024823 13:0.025644563 14:0.02271693 15:0.020359982 16:0.021873502 17:0.022847367 18:0.025719937 19:0.017849484 20:0.012621938 21:0.0095055923 22:0.0081389472 23:0.0071905935 24:0.0080782594 25:0.008115666 26:0.0094979499 27:0.011861749 28:0.018313171 29:0.025865363 30:0.022924261 31:0.020550167 32:0.022069756 33:0.023054603 34:0.025733342 35:0.017565856 36:0.012433418 37:0.0093594156 38:0.0080104312 39:0.0070791864 
-62.5 -62.5 -62.5 62.5 62.5 62.5 62.5 62.5 62.5 62.5 62.5 62.5 62.5 0 62.5 62.5 62.5 62.5 0:0.15618519 1:0.14501265 2:0.1037254 3:0.068649217 4:0.023632469 5:0.002796958 8:0.0095643969 9:0.010074701 10:0.011879024 11:0.015010371 12:0.022010775 13:0.020853499 14:0.017793695 15:0.016551476 16:0.017094146 17:0.017930131 18:0.020982612 19:0.022320516 20:0.015828662 21:0.012112856 22:0.010295854 23:0.0093211075 24:0.0096386252 25:0.010157933 26:0.011973844 27:0.015131842 28:0.022176161 29:0.020979552 30:0.017903119 31:0.016652733 32:0.017196706 33:0.018039562 34:0.021108726 35:0.022238478 36:0.01570558 37:0.012018014 38:0.01021263 39:0.0092447549 
-62.5 -62.5 -62.5 62.5 62.5 62.5 62.5 62.5 62.5 62.5 62.5 62.5 62.5 62.5 62.5 62.5 62.5 62.5 0:0.14902495 1:0.13545382 2:0.096290551 3:0.06966576 4:0.038542751 5:0.01074185 6:0.00026860813 8:0.0094773257 9:0.0098293135 10:0.011308986 11:0.014189579 12:0.020805456 13:0.021791337 14:0.019441353 15:0.01803389 16:0.0184284 17:0.019047299 18:0.021677153 19:0.020488938 20:0.014681541 21:0.011523536 22:0.0098784203 23:0.0091591775 24:0.009525327 25:0.0098763108 26:0.011367792 27:0.014261423 28:0.020899123 29:0.021860005 30:0.019499291 31:0.018076165 32:0.018528882 33:0.019130347 34:0.021767113 35:0.020415872 36:0.014608226 37:0.011467613 38:0.0098309014 39:0.009110867 
-62.5 -0 -62.5 62.5 62.5 62.5 62.5 62.5 62.5 62.5 0 62.5 62.5 0 0 62.5 62.5 0 0:0.18679892 1:0.1656549 2:0.11039931 3:0.032444227 4:0.0047019529 8:0.015456534 9:0.014980753 10:0.016997244 11:0.02010431 12:0.019275883 13:0.014334195 14:0.012390505 15:0.011454506 16:0.013396199 17:0.01237263 18:0.014243589 19:0.017696433 20:0.021167047 21:0.016692508 22:0.014852882 23:0.013484743 24:0.015699128 25:0.015269859 26:0.017304994 27:0.020482911 28:0.019611899 29:0.014606073 30:0.012615512 31:0.011679936 32:0.013634855 33:0.012597634 34:0.014515454 35:0.018018851 36:0.020884646 37:0.016384752 38:0.014563769 39:0.013228773 
-62.5 -62.5 -62.5 62.5 62.5 62.5 62.5 62.5 62.5 62.5 62.5 62.5 62.5 62.5 62.5 62.5 62.5 62.5 0:0.15311968 1:0.13759047 2:0.10558342 3:0.069194391 4:0.027463429 5:0.0070344745 6:7.5147541e-006 8:0.010271207 9:0.010695715 10:0.012381553 11:0.015433153 12:0.021293059 13:0.02042732 14:0.017860677 15:0.016756643 16:0.017094666 17:0.017679323 18:0.019985031 19:0.021034909 20:0.015770063 21:0.01242445 22:0.010766279 23:0.010000931 24:0.010294014 25:0.010738377 26:0.012425741 27:0.015488224 28:0.021360513 29:0.020476861 30:0.017905075 31:0.016803419 32:0.017141605 33:0.017726962 34:0.020035582 35:0.020994866 36:0.015701054 37:0.012369036 38:0.010714864 39:0.009944357 
-0 -62.5 -62.5 62.5 14.95622568093385 62.5 53.06212000292419 62.5 0 5.77588593050808 62.5 62.5 62.5 62.5 62.5 62.5 62.5 62.5 0:0.12281545 1:0.10530175 2:0.078997619 3:0.05441238 4:0.043978043 5:0.038130283 6:0.034318916 7:0.020702465 8:0.00748601 9:0.0079577388 10:0.009270424 11:0.011735994 12:0.016855482 13:0.023259616 14:0.024028387 15:0.023664625 16:0.023952626 17:0.024152022 18:0.023389699 19:0.016907994 20:0.01192721 21:0.0093196221 22:0.0079994239 23:0.0073998733 24:0.0074992622 25:0.0079731168 26:0.0092876842 27:0.011757049 28:0.016884599 29:0.023262722 30:0.024041107 31:0.023685914 32:0.023973575 33:0.02416498 34:0.023376642 35:0.016871467 36:0.011901611 37:0.0093001639 38:0.0079824394 39:0.0073824967 
-0 -62.5 -62.5 0 0 0 0 18.87084010871905 0 0 62.5 59.20886910942634 62.5 62.5 62.5 0 62.5 62.5 0:0.11961673 1:0.10325196 2:0.075061634 3:0.05413489 4:0.044660158 5:0.038529452 6:0.034099478 7:0.030639393 8:0.0069687869 9:0.0071955621 10:0.0084367841 11:0.010761421 12:0.015872141 13:0.022978254 14:0.025158176 15:0.026826657 16:0.027507354 17:0.02562141 18:0.023318848 19:0.015825838 20:0.011029514 21:0.0085058017 22:0.0072837542 23:0.0067653349 24:0.0069910875 25:0.0072315047 26:0.0084753036 27:0.010810459 28:0.015941512 29:0.022995774 30:0.02514603 31:0.026810676 32:0.027490128 33:0.025608897 34:0.023285273 35:0.015744733 36:0.010974921 37:0.0084623825 38:0.0072472794 39:0.0067256875 
-0 -0 -0 -62.5 62.5 62.5 62.5 62.5 62.5 62.5 0 62.5 62.5 0 0 62.5 62.5 0 0:0.18451029 1:0.15815626 2:0.10837404 3:0.040191546 4:0.008765934 8:0.016811689 9:0.016755119 10:0.018684437 11:0.020647055 12:0.016607411 13:0.013108183 14:0.01148095 15:0.010397124 16:0.01118506 17:0.011357053 18:0.012985795 19:0.016084548 20:0.021465722 21:0.018935874 22:0.016951283 23:0.015948176 24:0.016947359 25:0.016897377 26:0.018831622 27:0.020820601 28:0.016761765 29:0.013237583 30:0.011595548 31:0.010504581 32:0.011296677 33:0.011471661 34:0.013115161 35:0.016236555 36:0.021470115 37:0.018788667 38:0.016809046 39:0.015809163 
-62.5 -62.5 -62.5 -62.5 62.5 62.5 41.34072593767854 62.5 0 62.5 62.5 62.5 62.5 62.5 62.5 62.5 62.5 62.5 0:0.1739319 1:0.1551837 2:0.10624681 3:0.051235981 4:0.013177734 5:0.0002263654 8:0.010862238 9:0.011204361 10:0.012995067 11:0.016282525 12:0.021986848 13:0.019366469 14:0.016647676 15:0.015279712 16:0.016009234 17:0.016617738 18:0.019271273 19:0.021469217 20:0.01680981 21:0.01312306 22:0.011317926 23:0.010397209 24:0.010940072 25:0.011291946 26:0.013095133 27:0.016403904 28:0.022127459 29:0.019479007 30:0.016748497 31:0.015372125 32:0.016104087 33:0.016718553 34:0.019383794 35:0.021442167 36:0.016686862 37:0.013022973 38:0.011230327 39:0.010317467 
-62.5 -44.13555020604696 -62.5 -62.5 16.05122886667309 62.5 62.5 62.5 62.5 62.5 62.5 62.5 62.5 32.95452265966883 62.5 62.5 62.5 62.5 0:0.17675705 1:0.156326 2:0.11123922 3:0.04486889 4:0.010811513 5:5.0911905e-007 8:0.015825327 9:0.01634647 10:0.018816279 11:0.021548701 12:0.0171519 13:0.013179758 14:0.011288056 15:0.010429851 16:0.010996436 17:0.011363731 18:0.01319013 19:0.016608896 20:0.022083851 21:0.01891554 22:0.016429104 23:0.01532557 24:0.015927229 25:0.016457619 26:0.018944202 27:0.02170719 28:0.017290963 29:0.013285679 30:0.011380126 31:0.010515139 32:0.01108359 33:0.011455798 34:0.013296061 35:0.016746001 36:0.022086529 37:0.018787598 38:0.016317969 39:0.015220692 
-62.5 -62.5 -62.5 -62.5 62.5 62.5 0 62.5 62.5 62.5 62.5 62.5 62.5 62.5 62.5 62.5 62.5 62.5 0:0.16414709 1:0.14716323 2:0.1082595 3:0.059897043 4:0.018631361 5:0.0018950155 8:0.010634655 9:0.011047146 10:0.012881956 11:0.016160801 12:0.021734135 13:0.019529883 14:0.017003883 15:0.015560891 16:0.016202295 17:0.01694309 18:0.019501897 19:0.021451458 20:0.016724095 21:0.01297261 22:0.011140745 23:0.010140325 24:0.010710262 25:0.011132267 26:0.012975288 27:0.016279763 28:0.021875573 29:0.019643089 30:0.017107513 31:0.015654471 32:0.016297817 33:0.017046696 34:0.019615119 35:0.02142304 36:0.016603611 37:0.012879339 38:0.011055619 39:0.010063002 
-62.5 -62.5 -62.5 -62.5 62.5 62.5 0 62.5 62.5 62.5 62.5 62.5 62.5 62.5 62.5 62.5 62.5 62.5 0:0.15726839 1:0.13515425 2:0.092367493 3:0.064321764 4:0.038920335 5:0.011288019 6:0.00067346927 8:0.0096618235 9:0.0099723181 10:0.011401346 11:0.014074376 12:0.019963352 13:0.021532087 14:0.019560004 15:0.018579183 16:0.019151876 17:0.019446611 18:0.021470452 19:0.019682316 20:0.014518187 21:0.011454091 22:0.0100029 23:0.0092269424 24:0.009725716 25:0.010042643 26:0.011480314 27:0.014171642 28:0.02009079 29:0.021632371 30:0.019656017 31:0.018671725 32:0.019245762 33:0.019542729 34:0.021570638 35:0.019577069 36:0.0144198 37:0.011375086 38:0.0099325785 39:0.0091615282 
-62.5 -62.5 -62.5 -62.5 62.5 62.5 39.1446822921347 62.5 62.5 62.5 62.5 62.5 62.5 62.5 62.5 62.5 62.5 62.5 0:0.1338532 1:0.11987139 2:0.085390657 3:0.06377247 4:0.053892978 5:0.033030782 6:0.0098576602 7:0.00032822124 8:0.0087570995 9:0.0085695172 10:0.010042716 11:0.012440309 12:0.019176804 13:0.024474004 14:0.021148056 15:0.019023499 16:0.020684576 17:0.021086851 18:0.024582831 19:0.018971728 20:0.013540708 21:0.010232232 22:0.0087440507 23:0.0078695789 24:0.0088619674 25:0.0087051941 26:0.010186191 27:0.012672002 28:0.019515114 29:0.024766255 30:0.021371052 31:0.019185498 32:0.020934731 33:0.021290485 34:0.02477283 35:0.018645408 36:0.013309411 37:0.010087523 38:0.0086000497 39:0.00774928 
-62.5 -62.5 -62.5 -62.5 3.486349877633336 62.5 62.5 62.5 62.5 62.5 62.5 62.5 62.5 62.5 62.5 62.5 62.5 62.5 0:0.13309312 1:0.11665744 2:0.083637103 3:0.059362501 4:0.048222527 5:0.039510857 6:0.016130574 7:0.0034285658 8:0.007912958 9:0.0083345966 10:0.0097387545 11:0.012407696 12:0.018128015 13:0.02446365 14:0.022384912 15:0.02134598 16:0.021707362 17:0.022350095 18:0.024472144 19:0.018054616 20:0.012640894 21:0.0097872345 22:0.0084098261 23:0.0077467491 24:0.0079413084 25:0.0083661983 26:0.0097747399 27:0.012454105 28:0.01819393 29:0.024526492 30:0.022432566 31:0.02139283 32:0.021754734 33:0.022397583 34:0.024490491 35:0.017988838 36:0.012594373 37:0.0097512007 38:0.0083782077 39:0.0077179587 
-62.5 -62.5 -62.5 -62.5 0 62.5 62.5 62.5 62.5 62.5 62.5 62.5 62.5 62.5 62.5 62.5 62.5 62.5 0:0.16905563 1:0.15553513 2:0.11938571 3:0.044654258 4:0.011357047 5:9.449217e-006 8:0.01471767 9:0.015320163 10:0.017825617 11:0.021539837 12:0.018207014 13:0.014059897 14:0.012046112 15:0.011051018 16:0.011644196 17:0.012000676 18:0.013973218 19:0.017704977 20:0.022106372 21:0.017816057 22:0.015399503 23:0.014098445 24:0.014814417 25:0.015430253 26:0.01795223 27:0.021696372 28:0.018347763 29:0.014168955 30:0.012139662 31:0.011143186 32:0.011738696 33:0.012094192 34:0.014082266 35:0.017843807 36:0.022056559 37:0.017689407 38:0.015289398 39:0.013998968 
-0 -0 -0 -51.97607935255911 42.9624212556936 62.5 62.5 62.5 0 62.5 0 62.5 62.5 0 0 62.5 62.5 0 0:0.19042818 1:0.16528833 2:0.10611634 3:0.033126056 4:0.005045516 8:0.014711977 9:0.01521469 10:0.017735131 11:0.021029543 12:0.018200478 13:0.014332082 14:0.012312413 15:0.011305687 16:0.012029875 17:0.012374947 18:0.014302017 19:0.01768323 20:0.021495126 21:0.017616604 22:0.015209638 23:0.014026823 24:0.014796068 25:0.015309364 26:0.017843282 27:0.021160539 28:0.018317631 29:0.014427681 30:0.01239962 31:0.011384196 32:0.012110857 33:0.012462126 34:0.014397612 35:0.017798999 36:0.021451894 37:0.017508477 38:0.015114965 39:0.013940311 
-62.5 -62.5 -62.5 -62.5 62.5 62.5 0 62.5 62.5 62.5 62.5 62.5 62.5 62.5 62.5 62.5 62.5 62.5 0:0.16021796 1:0.1398771 2:0.10089272 3:0.067218974 4:0.025895074 5:0.0058967881 8:0.010810598 9:0.01029219 10:0.012109003 11:0.014342108 12:0.02112408 13:0.020181092 14:0.018114556 15:0.016659526 16:0.019027138 17:0.018133532 18:0.020312535 19:0.019938584 20:0.015895406 21:0.012266956 22:0.0106144 23:0.0091542192 24:0.011021594 25:0.010564518 26:0.012399661 27:0.014687948 28:0.021558743 29:0.020500334 30:0.018411692 31:0.016955828 32:0.019348184 33:0.018430676 34:0.02063184 35:0.019728655 36:0.015535781 37:0.011976287 38:0.010342078 39:0.0089287739 
-0 -0 -0 -0 62.5 62.5 62.5 62.5 0 62.5 0 7.054398317069365 0 0 0 62.5 0 0 0:0.20494415 1:0.17825779 2:0.093254112 3:0.022604575 4:0.00093361951 8:0.013518709 9:0.013849787 10:0.016063351 11:0.01977584 12:0.019908119 13:0.015590144 14:0.013466531 15:0.012449732 16:0.013185329 17:0.013452926 18:0.015584816 19:0.019386653 20:0.020421505 21:0.016093431 22:0.013939963 23:0.012847711 24:0.013614735 25:0.013949588 26:0.01617931 27:0.019913765 28:0.020048894 29:0.015707221 30:0.01357049 31:0.012546915 32:0.013285418 33:0.013556905 34:0.015701901 35:0.019525258 36:0.02029328 37:0.01597748 38:0.013840157 39:0.012749397 
-62.5 -0 -10.71989138146143 -0 62.5 62.5 62.5 62.5 0 62.5 0 62.5 44.49945624943057 0 0 62.5 62.5 0 0:0.19630452 1:0.17017585 2:0.10291415 3:0.027824692 4:0.0027824354 8:0.013320916 9:0.013708292 10:0.015798971 11:0.019452784 12:0.020033158 13:0.015836531 14:0.013696259 15:0.012591547 16:0.013306959 17:0.013672731 18:0.015866369 19:0.019486357 20:0.020212458 21:0.015987393 22:0.013824495 23:0.012753752 24:0.013415983 25:0.01381173 26:0.015913349 27:0.019589109 28:0.020174047 29:0.015950959 30:0.013797946 31:0.01268835 32:0.013406247 33:0.013774426 34:0.015980739 35:0.019625274 36:0.020076182 37:0.015872987 38:0.013720998 39:0.012655657 
-62.5 -0 -62.5 -62.5 0 62.5 62.5 62.5 62.5 62.5 18.1299647078595 62.5 62.5 0 40.12134514398242 62.5 62.5 35.45887767787006 0:0.18064454 1:0.1577048 2:0.11234643 3:0.039406303 4:0.0098574543 5:3.3859305e-005 8:0.014931777 9:0.015486781 10:0.017791713 11:0.020930491 12:0.018239986 13:0.014373187 14:0.012367425 15:0.011244874 16:0.011886142 17:0.012241774 18:0.014109332 19:0.017402457 20:0.021138085 21:0.017727079 22:0.015408999 23:0.014285069 24:0.015019377 25:0.015582263 26:0.017901611 27:0.021058606 28:0.018359851 29:0.0144741 30:0.012454999 31:0.011328422 32:0.011972131 33:0.012329324 34:0.014210258 35:0.017520687 36:0.021092596 37:0.017617147 38:0.015313536 39:0.014194661 
-62.5 -62.5 -62.5 -62.5 62.5 62.5 44.51459177018677 62.5 62.5 62.5 62.5 62.5 62.5 62.5 62.5 62.5 62.5 62.5 0:0.1536455 1:0.13664606 2:0.10307132 3:0.070202656 4:0.029192947 5:0.0072415103 6:7.4561344e-006 8:0.017867042 9:0.018207669 10:0.020748936 11:0.02092522 12:0.015368235 13:0.011820365 14:0.010120381 15:0.0092657963 16:0.0097563006 17:0.010096818 18:0.011859158 19:0.015049463 20:0.021468125 21:0.020980828 22:0.01851471 23:0.017556878 24:0.017949693 25:0.018297121 26:0.020845022 27:0.021045694 28:0.015465718 29:0.011898841 30:0.010187822 31:0.0093298638 32:0.0098216347 33:0.010164252 34:0.011937682 35:0.01514589 36:0.021530407 37:0.020884654 38:0.018425237 39:0.017472405 
-62.5 -62.5 -62.5 -62.5 -62.5 62.5 62.5 62.5 62.5 62.5 62.5 62.5 62.5 62.5 62.5 62.5 62.5 62.5 0:0.15552902 1:0.13556224 2:0.10074499 3:0.069941834 4:0.030383671 5:0.007837859 8:0.017906068 9:0.018035971 10:0.020720059 11:0.020520495 12:0.015365566 13:0.012021474 14:0.01031414 15:0.0092777554 16:0.010776773 17:0.010406547 18:0.011995428 19:0.014498463 20:0.021664429 21:0.02092826 22:0.018035026 23:0.016382122 24:0.018108912 25:0.018281182 26:0.02101044 27:0.020883853 28:0.015657386 29:0.012230643 30:0.010507527 31:0.0094520627 32:0.010962593 33:0.010599926 34:0.012204609 35:0.014781451 36:0.021874446 37:0.020637901 38:0.017789844 39:0.016168198 
-62.5 -0 -62.5 -62.5 -62.5 62.5 62.5 62.5 62.5 62.5 62.5 62.5 62.5 37.2025017278831 62.5 62.5 62.5 33.78493214769287 0:0.19391346 1:0.16064082 2:0.10857206 3:0.033511613 4:0.0052726083 8:0.013961894 9:0.014629705 10:0.016835984 11:0.020968156 12:0.019100524 13:0.015031454 14:0.012931338 15:0.012013899 16:0.012185789 17:0.012941353 18:0.015026803 19:0.018913735 20:0.021044444 21:0.016815886 22:0.01463194 23:0.013814251 24:0.01398317 25:0.014652091 26:0.016861707 27:0.021000663 28:0.019131785 29:0.015056551 30:0.012952727 31:0.012033775 32:0.01220595 33:0.012962564 34:0.015052026 35:0.018944738 36:0.021024341 37:0.016790425 38:0.01460931 39:0.013792913 
-62.5 -62.5 -62.5 -62.5 -62.5 62.5 62.5 62.5 62.5 62.5 62.5 62.5 62.5 62.5 62.5 62.5 62.5 62.5 0:0.1518501 1:0.13322994 2:0.090894826 3:0.064532004 4:0.044267248 5:0.01391839 6:0.0013069905 8:0.0092093023 9:0.0092471214 10:0.01085236 11:0.012870764 12:0.020161606 13:0.022619717 14:0.020221204 15:0.017802501 16:0.020339906 17:0.020152863 18:0.022941805 19:0.019406728 20:0.014657018 21:0.011088457 22:0.0094954455 23:0.0079791006 24:0.0093801897 25:0.0094528096 26:0.01111151 27:0.013186428 28:0.020613471 29:0.022965789 30:0.020539571 31:0.018100906 32:0.020659888 33:0.020471245 34:0.023273515 35:0.018970784 36:0.014325419 37:0.010829298 38:0.0092897462 39:0.007783127 
-62.5 -62.5 -62.5 -62.5 -62.5 62.5 62.5 62.5 62.5 62.5 62.5 62.5 62.5 62.5 62.5 62.5 62.5 62.5 0:0.15528211 1:0.1350715 2:0.090614252 3:0.064687423 4:0.041375134 5:0.012168526 6:0.00080757926 8:0.0089033004 9:0.009277639 10:0.010786773 11:0.013556941 12:0.019883662 13:0.022604091 14:0.020307954 15:0.018893303 16:0.019781955 17:0.020400498 18:0.02267183 19:0.019646741 20:0.014155315 21:0.010910495 22:0.0093835527 23:0.0084880292 24:0.0089562964 25:0.0093321642 26:0.010868927 27:0.013647749 28:0.02000417 29:0.022681931 30:0.020416148 31:0.018979087 32:0.019910727 33:0.020539751 34:0.022836678 35:0.019520929 36:0.014071958 37:0.010831801 38:0.0093240095 39:0.0084343581 
-62.5 -62.5 -62.5 -62.5 -62.5 62.5 62.5 62.5 62.5 62.5 62.5 62.5 62.5 62.5 62.5 62.5 62.5 62.5 0:0.16556342 1:0.14293018 2:0.1057608 3:0.06120624 4:0.020923454 5:0.0036084894 8:0.010628756 9:0.0111113 10:0.012895276 11:0.016109087 12:0.02138163 13:0.019300016 14:0.016984563 15:0.015834136 16:0.01629358 17:0.017138857 18:0.019517958 19:0.021349095 20:0.016667927 21:0.013026511 22:0.011233399 23:0.010335833 24:0.010668946 25:0.011155101 26:0.012946299 27:0.016172199 28:0.021453861 29:0.019358624 30:0.017037012 31:0.015885057 32:0.016345104 33:0.017191149 34:0.019576661 35:0.021334281 36:0.01660439 37:0.012975593 38:0.011189582 39:0.010294849 
-62.5 -62.5 -62.5 -62.5 -62.5 62.5 62.5 62.5 62.5 62.5 62.5 62.5 62.5 62.5 62.5 62.5 62.5 62.5 0:0.1568176 1:0.13752356 2:0.10051457 3:0.068541139 4:0.029509181 5:0.0070829606 6:9.6499161e-006 8:0.010602934 9:0.010194664 10:0.011789268 11:0.014277628 12:0.021396035 13:0.020687958 14:0.018045982 15:0.016108621 16:0.018438004 17:0.018259848 18:0.020980101 19:0.020682961 20:0.015817739 21:0.01224013 22:0.010357872 23:0.0091427956 24:0.010804495 25:0.010430035 26:0.012048739 27:0.014587383 28:0.021812072 29:0.021026153 30:0.018335454 31:0.016372541 32:0.018719833 33:0.01854931 34:0.021318287 35:0.020444522 36:0.015495569 37:0.011980657 38:0.0101225 39:0.0089286845 
-62.5 -62.5 -62.5 -62.5 -62.5 62.5 62.5 62.5 62.5 62.5 62.5 62.5 62.5 62.5 62.5 62.5 62.5 62.5 0:0.19234914 1:0.1667328 2:0.10495041 3:0.032078519 4:0.0038928711 8:0.012148094 9:0.012200402 10:0.014167199 11:0.017630169 12:0.021653466 13:0.017523389 14:0.015344396 15:0.014231088 16:0.014997931 17:0.015237155 18:0.017463764 19:0.020987613 20:0.018297676 21:0.014055327 22:0.012224552 23:0.011324137 24:0.01225228 25:0.012321941 26:0.014295923 27:0.01780013 28:0.021844558 29:0.017668309 30:0.015470334 31:0.014348733 32:0.01511968 33:0.015363151 34:0.017608637 35:0.021052374 36:0.018124854 37:0.013926624 38:0.012102999 39:0.011216234 
-62.5 -45.57755942879356 -62.5 -62.5 -62.5 62.5 62.5 62.5 62.5 62.5 12.28321512420745 62.5 62.5 0 62.5 62.5 62.5 62.5 0:0.19303831 1:0.16921516 2:0.10560845 3:0.029091537 4:0.0030434467 8:0.01268941 9:0.013233365 10:0.015221642 11:0.018931735 12:0.020442152 13:0.016389962 14:0.014388322 15:0.01341464 16:0.013728959 17:0.014399556 18:0.01644068 19:0.020268019 20:0.019274008 21:0.015321015 22:0.013313119 23:0.012413982 24:0.012706481 25:0.013273818 26:0.015268064 27:0.01898469 28:0.020497685 29:0.016436953 30:0.014428804 31:0.013452118 32:0.013766443 33:0.014440781 34:0.016485933 35:0.020309184 36:0.019204838 37:0.015263385 38:0.013264254 39:0.012345764 
-62.5 -0 -0 -62.5 -62.5 62.5 62.5 62.5 0 62.5 0 62.5 62.5 0 0 62.5 62.5 0 0:0.21438588 1:0.1822691 2:0.084145874 3:0.018894406 4:0.00032839083 8:0.012952302 9:0.013544343 10:0.015325345 11:0.018713707 12:0.020156251 13:0.016356507 14:0.014451612 15:0.013461011 16:0.013759314 17:0.014413374 18:0.01630581 19:0.019863294 20:0.018884927 21:0.015311311 22:0.01356017 23:0.012781759 24:0.012990155 25:0.013584202 26:0.015368979 27:0.018765889 28:0.020210434 29:0.016401088 30:0.014492448 31:0.013500154 32:0.013799046 33:0.014454085 34:0.016350439 35:0.019904641 36:0.018832432 37:0.015267636 38:0.013520285 39:0.012743449 
-62.5 -62.5 -62.5 -62.5 -62.5 62.5 62.5 62.5 62.5 62.5 62.5 62.5 62.5 62.5 62.5 62.5 62.5 62.5 0:0.14777499 1:0.13167411 2:0.10387057 3:0.072858572 4:0.033700474 5:0.0099517312 6:0.00016774985 8:0.017484546 9:0.017761854 10:0.020459946 11:0.021200197 12:0.015486686 13:0.011985348 14:0.010367214 15:0.009631386 16:0.010296076 17:0.010362861 18:0.011989634 19:0.015142612 20:0.021959953 21:0.020605715 22:0.017926505 23:0.016688468 24:0.017609408 25:0.017899716 26:0.020619128 27:0.021404708 28:0.015644874 29:0.012111926 30:0.010476468 31:0.0097325332 32:0.010400764 33:0.010472116 34:0.012116227 35:0.015298028 36:0.022069348 37:0.0204465 38:0.017788641 39:0.01655975 
-62.5 -0 -3.626040202417469 -62.5 -62.5 -0 62.5 62.5 0 62.5 0 62.5 62.5 0 0 62.5 62.5 0 0:0.19021948 1:0.16717373 2:0.10553136 3:0.032465309 4:0.0046073487 8:0.011784772 9:0.012147439 10:0.014161994 11:0.017717892 12:0.021453073 13:0.017586825 14:0.015206517 15:0.013984295 16:0.014611922 17:0.015348336 18:0.017836519 19:0.021390241 20:0.018478131 21:0.014408739 22:0.012313642 23:0.011372892 24:0.011815299 25:0.012214688 26:0.014240092 27:0.017804757 28:0.021549061 29:0.017659489 30:0.015270511 31:0.014042505 32:0.01467184 33:0.015406977 34:0.017912742 35:0.021407796 36:0.018360404 37:0.014323774 38:0.012239657 39:0.011272257 
-62.5 -62.5 -62.5 -62.5 -62.5 -0 0 62.5 62.5 62.5 62.5 62.5 62.5 62.5 62.5 62.5 62.5 62.5 0:0.16862737 1:0.14766406 2:0.09916015 3:0.062410973 4:0.019850818 5:0.0022752432 8:0.0097512947 9:0.010262948 10:0.011940218 11:0.015061989 12:0.021088202 13:0.020519052 14:0.018399587 15:0.017360192 16:0.01782899 17:0.018537782 18:0.02065324 19:0.021004679 20:0.015463397 21:0.012036781 22:0.01033685 23:0.0095361378 24:0.0097941896 25:0.010310493 26:0.011994158 27:0.015129697 28:0.02117214 29:0.020586174 30:0.018463647 31:0.017421035 32:0.017890653 33:0.018601727 34:0.020720363 35:0.020963004 36:0.015395037 37:0.011982834 38:0.010289275 39:0.0094924103 
-62.5 -62.5 -62.5 -62.5 -62.5 -62.5 62.5 62.5 62.5 62.5 62.5 62.5 62.5 62.5 62.5 62.5 62.5 62.5 0:0.17204419 1:0.15523446 2:0.11791774 3:0.043315992 4:0.011404237 5:8.4969666e-005 8:0.01444013 9:0.015138469 10:0.017534606 11:0.021074207 12:0.018370645 13:0.014311929 14:0.012343881 15:0.011191158 16:0.011921826 17:0.012363721 18:0.014405134 19:0.017850414 20:0.02176352 21:0.017736608 22:0.015222786 23:0.013814178 24:0.014536824 25:0.015247965 26:0.017660612 27:0.021228001 28:0.018514469 29:0.014434802 30:0.01245045 31:0.011284612 32:0.012018644 33:0.012470308 34:0.014528039 35:0.017992171 36:0.021713467 37:0.017610541 38:0.015113268 39:0.013714621 
-0 -0 -0 -0 -62.5 -62.5 62.5 62.5 0 62.5 0 62.5 26.71733952761468 0 0 62.5 60.64438692409537 0 0:0.20009191 1:0.17245598 2:0.098840527 3:0.026356272 4:0.0022570468 8:0.014140113 9:0.01457383 10:0.016838435 11:0.020430036 12:0.018788883 13:0.014832547 14:0.012724224 15:0.011745037 16:0.012317409 17:0.012802546 18:0.015005567 19:0.018701095 20:0.021266082 21:0.017158741 22:0.014792998 23:0.01371048 24:0.014164289 25:0.014634952 26:0.016910153 27:0.020506987 28:0.018862218 29:0.014888338 30:0.012774097 31:0.011793431 32:0.012366201 33:0.012849014 34:0.015063881 35:0.018773908 36:0.021182805 37:0.017072976 38:0.014717776 39:0.013608877 
-62.5 -62.5 -62.5 -62.5 -62.5 -62.5 39.42176662583896 62.5 62.5 62.5 62.5 62.5 62.5 62.5 62.5 62.5 62.5 62.5 0:0.15192734 1:0.12972066 2:0.090082258 3:0.065872326 4:0.045843985 5:0.015066368 6:0.0014864901 8:0.0093704639 9:0.0093614636 10:0.010863525 11:0.013256532 12:0.020318002 13:0.022634579 14:0.019940114 15:0.018261591 16:0.019720051 17:0.01995736 18:0.022724887 19:0.019856205 20:0.014310158 21:0.010972948 22:0.009419715 23:0.008412634 24:0.0094655007 25:0.009455218 26:0.011006098 27:0.013415544 28:0.020590868 29:0.02280952 30:0.020123007 31:0.018400108 32:0.019934317 33:0.020207793 34:0.023005258 35:0.019612467 36:0.01413653 37:0.010836579 38:0.0093212202 39:0.0082993796 
-62.5 -0 -62.5 -62.5 -62.5 -0 62.5 62.5 0 62.5 0 62.5 62.5 0 27.00595936378889 62.5 62.5 23.28815760830128 0:0.18654427 1:0.16510771 2:0.10926584 3:0.033993166 4:0.0051002107 8:0.011778481 9:0.012234551 10:0.01420434 11:0.017883021 12:0.021564873 13:0.017639635 14:0.01533823 15:0.014191123 16:0.014726946 17:0.015249995 18:0.017538343 19:0.021135889 20:0.018220725 21:0.014256074 22:0.012311194 23:0.011425951 24:0.011826891 25:0.012290195 26:0.014270408 27:0.017964378 28:0.021653526 29:0.017712176 30:0.015409692 31:0.014244939 32:0.014821529 33:0.01532878 34:0.017635785 35:0.021196678 36:0.018135017 37:0.014192073 38:0.012254789 39:0.011374996 
-62.5 -62.5 -62.5 -62.5 -62.5 -62.5 28.44555932632296 62.5 62.5 62.5 62.5 62.5 62.5 62.5 62.5 62.5 62.5 62.5 0:0.16453721 1:0.14527264 2:0.10458292 3:0.062355101 4:0.020690726 5:0.0025612598 8:0.010220985 9:0.0107644 10:0.012447523 11:0.015692085 12:0.021584785 13:0.019817771 14:0.017622711 15:0.01667265 16:0.01697265 17:0.017620122 18:0.019810192 19:0.021406604 20:0.015902132 21:0.012481378 22:0.010799025 23:0.010039288 24:0.010250788 25:0.010796329 26:0.012483901 27:0.015738897 28:0.021644343 29:0.019862866 30:0.017663626 31:0.016711408 32:0.017011678 33:0.017660806 34:0.019855507 35:0.021387821 36:0.01585504 37:0.012444998 38:0.010767074 39:0.010009254 
-62.5 -62.5 -62.5 -62.5 -62.5 -42.36183001878857 62.5 62.5 62.5 62.5 62.5 62.5 62.5 62.5 62.5 62.5 62.5 62.5 0:0.13879833 1:0.12371328 2:0.087051429 3:0.061387639 4:0.049264941 5:0.030451601 6:0.0089113675 7:0.00041720452 8:0.0083228713 9:0.0087055396 10:0.010198501 11:0.012915994 12:0.018777225 13:0.023809837 14:0.021419423 15:0.02019286 16:0.020671729 17:0.02155523 18:0.024019968 19:0.018731529 20:0.013370452 21:0.010285951 22:0.0087809414 23:0.0080200573 24:0.0083553661 25:0.0087464834 26:0.010243674 27:0.012971197 28:0.018862339 29:0.023886377 30:0.021481531 31:0.02024911 32:0.020763243 33:0.021642333 34:0.024089301 35:0.01864502 36:0.013314068 37:0.010239056 38:0.0087438766 39:0.0079853283 
-0 -0 -0 -36.17541752797169 -62.5 -62.5 62.5 62.5 62.5 62.5 0 62.5 62.5 0 0 62.5 62.5 0 0:0.19500048 1:0.16507556 2:0.10583593 3:0.032211822 4:0.0037613774 8:0.014056867 9:0.014942329 10:0.017342558 11:0.021601848 12:0.018765369 13:0.014592095 14:0.012521124 15:0.011578895 16:0.011723895 17:0.012501842 18:0.014573079 19:0.018633844 20:0.021747464 21:0.017377635 22:0.014953584 23:0.013910335 24:0.01407476 25:0.014962044 26:0.017367741 27:0.021636343 28:0.018797431 29:0.01461614 30:0.012542695 31:0.01159837 32:0.011747757 33:0.012526292 34:0.014601513 35:0.018670129 36:0.021732057 37:0.017352654 38:0.014933865 39:0.013892084 
-62.5 -62.5 -62.5 -62.5 -62.5 -62.5 0 62.5 62.5 62.5 62.5 62.5 62.5 62.5 62.5 62.5 62.5 62.5 0:0.16767533 1:0.14489134 2:0.099587746 3:0.064077079 4:0.021253418 5:0.0025178334 8:0.010192026 9:0.010399804 10:0.012026469 11:0.01490307 12:0.021634156 13:0.020442007 14:0.017932637 15:0.016484022 16:0.017462101 17:0.018152522 18:0.020570925 19:0.021237506 20:0.015839851 21:0.012232498 22:0.010462962 23:0.0094731869 24:0.010300882 25:0.010526689 26:0.012170762 27:0.015079756 28:0.021867495 29:0.020627946 30:0.018098457 31:0.016632043 32:0.017614875 33:0.01831834 34:0.020756822 35:0.021122469 36:0.015658626 37:0.012088167 38:0.010336068 39:0.0093575465 
-0 -0 -0 -0 -62.5 -51.32556847743914 57.13267404783809 61.61759258643507 0 62.5 0 0 0 0 0 62.5 0 0 0:0.21567222 1:0.18957867 2:0.078853868 3:0.015888153 4:8.5211263e-007 8:0.01346385 9:0.013979037 10:0.01623627 11:0.02011741 12:0.020327114 13:0.015759574 14:0.013366235 15:0.012433779 16:0.012825093 17:0.013208637 18:0.015426758 19:0.01946668 20:0.020197695 21:0.016005315 22:0.013912686 23:0.012910751 24:0.013540681 25:0.014063938 26:0.016331878 27:0.020234365 28:0.020443907 29:0.015849307 30:0.013445728 31:0.012508719 32:0.012901168 33:0.013288134 34:0.015516579 35:0.019582674 36:0.020080809 37:0.015909778 38:0.013827741 39:0.012831995 
-62.5 -62.5 -62.5 -62.5 -62.5 -58.9643265195036 0 62.5 62.5 62.5 62.5 62.5 62.5 62.5 62.5 62.5 62.5 62.5 0:0.16164872 1:0.14162137 2:0.096543543 3:0.067404211 4:0.027172508 5:0.005611253 8:0.009619385 9:0.0098924404 10:0.011563379 11:0.01468689 12:0.021055788 13:0.021426633 14:0.018900508 15:0.017561888 16:0.018133419 17:0.018855751 18:0.021401513 19:0.020862728 20:0.015008266 21:0.011602816 22:0.009977405 23:0.0092412326 24:0.0096626412 25:0.0099405367 26:0.011618803 27:0.014755394 28:0.021146446 29:0.021498557 30:0.018965071 31:0.01762276 32:0.018195082 33:0.018920451 34:0.021473343 35:0.020800363 36:0.014939408 37:0.011547437 38:0.0099293292 39:0.0091971382 
-62.5 -38.49791389163372 -62.5 -62.5 -62.5 -34.84827498426869 62.5 62.5 50.99229769504224 62.5 62.5 62.5 62.5 18.82328703572541 62.5 62.5 62.5 62.5 0:0.17806046 1:0.16065712 2:0.11456308 3:0.039160438 4:0.0075577437 8:0.012123683 9:0.011992117 10:0.014026415 11:0.017134394 12:0.021981172 13:0.017625026 14:0.01536301 15:0.013742569 16:0.015447166 17:0.015120456 18:0.017637312 19:0.0209415 20:0.018727044 21:0.014250431 22:0.012193229 23:0.011037852 24:0.012167759 25:0.012176708 26:0.014249963 27:0.017425641 28:0.022322824 29:0.017853692 30:0.01558573 31:0.013931149 32:0.015642283 33:0.015334799 34:0.017908577 35:0.021056386 36:0.018374708 37:0.013988402 38:0.011949643 39:0.010686399 
-62.5 -62.5 -62.5 -62.5 -62.5 -62.5 62.5 62.5 62.5 62.5 62.5 62.5 62.5 62.5 62.5 62.5 62.5 62.5 0:0.15051891 1:0.13494805 2:0.10212848 3:0.072933562 4:0.031489454 5:0.0079811523 8:0.0099509759 9:0.0098727932 10:0.011701055 11:0.014487617 12:0.021833044 13:0.021203289 14:0.01836524 15:0.016611695 16:0.018449204 17:0.01830603 18:0.021028731 19:0.021077188 20:0.015581753 21:0.011791518 22:0.010055635 23:0.0088336514 24:0.010108971 25:0.01006452 26:0.011909083 27:0.014779945 28:0.022216691 29:0.021494335 30:0.018616771 31:0.01683858 32:0.018687829 33:0.018557567 34:0.021319808 35:0.020861294 36:0.015279802 37:0.011583489 38:0.0098638935 39:0.0086674411 
-62.5 -62.5 -62.5 -62.5 -62.5 -62.5 -62.5 62.5 62.5 62.5 62.5 62.5 62.5 62.5 62.5 62.5 62.5 62.5 0:0.1734027 1:0.15992106 2:0.11781447 3:0.040452555 4:0.0084056165 8:0.011720267 9:0.012150631 10:0.01423323 11:0.018063087 12:0.021906702 13:0.017460968 14:0.014955051 15:0.013738176 16:0.014366283 17:0.015081216 18:0.017514337 19:0.021685617 20:0.01877718 21:0.014446734 22:0.012285684 23:0.011221945 24:0.011796902 25:0.012235581 26:0.014336812 27:0.018190421 28:0.022049325 29:0.017568009 30:0.015052247 31:0.013826611 32:0.014456583 33:0.015178396 34:0.017621387 35:0.021740686 36:0.018648267 37:0.014343184 38:0.012200716 39:0.011143207 
-62.5 -62.5 -62.5 -62.5 -62.5 -62.5 -62.5 62.5 62.5 62.5 62.5 62.5 62.5 62.5 62.5 62.5 62.5 62.5 0:0.11226305 1:0.10290883 2:0.075268336 3:0.055230711 4:0.045983616 5:0.039992332 6:0.035804879 7:0.032553833 8:0.026712712 9:0.025409115 10:0.023684882 11:0.015821161 12:0.011018644 13:0.0084280474 14:0.0072084218 15:0.0065573431 16:0.0069299634 17:0.00720945 18:0.0084562469 19:0.010781481 20:0.016139511 21:0.023692235 22:0.025393605 23:0.026134644 24:0.026710352 25:0.025409188 26:0.023732673 27:0.015941653 28:0.011102874 29:0.0084936945 30:0.0072649396 31:0.0066082873 32:0.0069824858 33:0.0072659804 34:0.00852188 35:0.010864693 36:0.016261008 37:0.023740174 38:0.025393626 39:0.026134644 
-62.5 -62.5 -62.5 -62.5 -62.5 -62.5 -62.5 62.5 62.5 62.5 62.5 62.5 62.5 62.5 62.5 62.5 62.5 62.5 0:0.18534032 1:0.17518389 2:0.1075941 3:0.029509092 4:0.0023761888 8:0.01243598 9:0.01307456 10:0.01529491 11:0.01938802 12:0.02112747 13:0.016408157 14:0.013959206 15:0.012680077 16:0.013168193 17:0.014011332 18:0.016427273 19:0.020835746 20:0.01997482 21:0.015488186 22:0.013262708 23:0.012145888 24:0.012500285 25:0.013145862 26:0.015376421 27:0.019490486 28:0.021233989 29:0.016491584 30:0.014032958 31:0.012747462 32:0.013236714 33:0.014085057 34:0.016510732 35:0.020917363 36:0.019871451 37:0.01540661 38:0.013191449 39:0.012080045 
-62.5 -62.5 -62.5 -62.5 -62.5 -62.5 -62.5 62.5 62.5 62.5 62.5 62.5 62.5 62.5 62.5 62.5 62.5 62.5 0:0.1762915 1:0.16382012 2:0.11290763 3:0.039924182 4:0.0070635444 8:0.015682228 9:0.016059624 10:0.018466132 11:0.021844342 12:0.017556196 13:0.013379217 14:0.011344683 15:0.010322131 16:0.011037084 17:0.011299623 18:0.01332919 19:0.016970277 20:0.022515871 21:0.018591393 22:0.016178936 23:0.014810523 24:0.015805101 25:0.01619746 26:0.018618299 27:0.022043409 28:0.017726313 29:0.013515431 30:0.01146196 31:0.010427769 32:0.011146721 33:0.011416883 34:0.013465403 35:0.017137483 36:0.022492141 37:0.0184392 38:0.016041158 39:0.014684301 
-62.5 -0 -8.906500984754967 -62.5 -62.5 -62.5 -62.5 62.5 27.10701799439497 62.5 0 62.5 62.5 0 0 62.5 62.5 0 0:0.1882209 1:0.18456593 2:0.10098963 3:0.025466494 4:0.00075543177 8:0.013126794 9:0.013397163 10:0.015700554 11:0.02017211 12:0.020707386 13:0.015636306 14:0.013319656 15:0.012048183 16:0.01293827 17:0.013295003 18:0.015624395 19:0.020201785 20:0.02098107 21:0.016029123 22:0.013712248 23:0.012562154 24:0.013230988 25:0.013520717 26:0.015841788 27:0.020350849 28:0.020888576 29:0.015776191 30:0.013439816 31:0.012155512 32:0.013048613 33:0.013415182 34:0.015764259 35:0.020381136 36:0.020802381 37:0.015887951 38:0.013588716 39:0.012453778 
-62.5 -62.5 -62.5 -62.5 -62.5 -62.5 -62.5 62.5 62.5 62.5 62.5 62.5 62.5 62.5 62.5 62.5 62.5 62.5 0:0.17328914 1:0.14785175 2:0.096918121 3:0.060108967 4:0.01925881 5:0.002206367 8:0.017075418 9:0.017670741 10:0.019807186 11:0.020350661 12:0.015041513 13:0.012002355 14:0.010530126 15:0.0098929927 16:0.010181978 17:0.010884333 18:0.012616395 19:0.015709095 20:0.021432644 21:0.020803997 22:0.018471979 23:0.017207239 24:0.017104408 25:0.017700963 26:0.019839844 27:0.020391898 28:0.015075065 29:0.012029592 30:0.010554266 31:0.0099156406 32:0.01020486 33:0.010908615 34:0.012643651 35:0.015742341 36:0.021453589 37:0.020770881 38:0.018441832 39:0.017178176 
-62.5 -62.5 -62.5 -62.5 -62.5 -62.5 -62.5 62.5 62.5 62.5 62.5 62.5 62.5 62.5 62.5 62.5 62.5 62.5 0:0.13019659 1:0.11758354 2:0.084145382 3:0.059756245 4:0.04758653 5:0.039505817 6:0.017157484 7:0.0040652794 8:0.0078334864 9:0.0082015498 10:0.0096325744 11:0.012232549 12:0.018062476 13:0.024612907 14:0.022883097 15:0.02139378 16:0.021954538 17:0.022825683 18:0.024480088 19:0.01777453 20:0.012523469 21:0.0096409908 22:0.0082192924 23:0.0075155264 24:0.0078772856 25:0.0082503892 26:0.0096887285 27:0.012304531 28:0.018162508 29:0.024707522 30:0.022961257 31:0.02146895 32:0.022030771 33:0.022903835 34:0.024501503 35:0.017675234 36:0.012450725 37:0.0095848236 38:0.0081704557 39:0.0074704504 
-39.37139130370583 -0 -0 -53.06212000292419 -62.5 -62.5 -62.5 62.5 0 62.5 0 62.5 62.5 0 0 62.5 62.5 0 0:0.19526613 1:0.18180746 2:0.097521529 3:0.024566857 4:0.00083191617 8:0.013404488 9:0.014214596 10:0.016517553 11:0.020985818 12:0.01986655 13:0.01532002 14:0.01307379 15:0.01194135 16:0.012234501 17:0.012946016 18:0.015125227 19:0.019244567 20:0.021129146 21:0.016439443 22:0.014191283 23:0.01305717 24:0.01346588 25:0.014283439 26:0.016595084 27:0.021082995 28:0.019962618 29:0.015393666 30:0.013138709 31:0.012001617 32:0.012295739 33:0.013010986 34:0.015198831 35:0.019339945 36:0.021054933 37:0.016361913 38:0.014122515 39:0.012995074 
-62.5 -62.5 -62.5 -62.5 -62.5 -62.5 -62.5 62.5 62.5 62.5 62.5 62.5 62.5 62.5 62.5 62.5 62.5 62.5 0:0.1776495 1:0.16075459 2:0.1161317 3:0.037984166 4:0.0074839024 8:0.012263914 9:0.012984469 10:0.01508384 11:0.018950939 12:0.021310225 13:0.016824899 14:0.014525049 15:0.01321057 16:0.013646432 17:0.01437833 18:0.016783711 19:0.020810997 20:0.019236621 21:0.014960304 22:0.012898817 23:0.011835622 24:0.012326145 25:0.013051976 26:0.015161769 27:0.019047687 28:0.021411471 29:0.016905293 30:0.014595211 31:0.0132744 32:0.013711326 33:0.014448447 34:0.01686403 35:0.020875122 36:0.019139178 37:0.01488226 38:0.012831259 39:0.01177254 
-62.5 -9.677287630402374 -62.5 -62.5 -62.5 -62.5 -62.5 62.5 62.5 62.5 29.47612586836766 62.5 62.5 5.304008736126867 59.66360426450927 62.5 62.5 54.55944314748467 0:0.19052471 1:0.17540801 2:0.10388645 3:0.028188447 4:0.0019959568 8:0.012599528 9:0.013206203 10:0.015349769 11:0.019394632 12:0.021128474 13:0.016339757 14:0.01399804 15:0.012754578 16:0.013306111 17:0.013997949 18:0.016380252 19:0.02065221 20:0.019868763 21:0.015393008 22:0.013207525 23:0.012114315 24:0.012671067 25:0.013284949 26:0.015438297 27:0.019505415 28:0.021243464 29:0.01642927 30:0.014076303 31:0.012826812 32:0.013378545 33:0.014075704 34:0.016465098 35:0.02074899 36:0.019729543 37:0.015298733 38:0.01311227 39:0.012028582 
-0 -0 -0 -18.87084010871905 -62.5 -12.92031309669802 -62.5 -62.5 0 62.5 0 62.5 6.554476629361422 0 0 62.5 16.52400429655957 0 0:0.19557488 1:0.17079182 2:0.10187387 3:0.029327797 4:0.0024330541 8:0.01414692 9:0.014629772 10:0.01704184 11:0.021273453 12:0.019019889 13:0.014624958 14:0.012477448 15:0.011364435 16:0.01191333 17:0.012417952 18:0.014633282 19:0.018607145 20:0.021875784 21:0.017173106 22:0.014789125 23:0.013610661 24:0.014211156 25:0.014698618 26:0.017127194 27:0.021386808 28:0.019131206 29:0.014713965 30:0.012555418 31:0.011437792 32:0.012007831 33:0.012495401 34:0.014727134 35:0.018734645 36:0.021823678 37:0.017088629 38:0.014715674 39:0.013546609 
-62.5 -62.5 -62.5 -62.5 -62.5 -62.5 -62.5 -62.5 62.5 62.5 62.5 62.5 62.5 62.5 62.5 62.5 62.5 62.5 0:0.15722452 1:0.13880341 2:0.10875848 3:0.066417411 4:0.024277851 5:0.0045176474 8:0.017028667 9:0.016884241 10:0.019307693 11:0.021121347 12:0.016684344 13:0.012728859 14:0.010982773 15:0.010041475 16:0.01161695 17:0.010913052 18:0.012557225 19:0.015201732 20:0.021953082 21:0.019422635 22:0.016917598 23:0.01545153 24:0.017261503 25:0.01714793 26:0.019599184 27:0.021485066 28:0.016989768 29:0.012970096 30:0.011202741 31:0.010243145 32:0.011835804 33:0.011133015 34:0.012798447 35:0.015496834 36:0.022030199 37:0.019131161 38:0.016653916 39:0.015207213 
-62.5 -62.5 -62.5 -62.5 -62.5 -62.5 -62.5 -35.74285830675493 62.5 62.5 62.5 62.5 62.5 62.5 62.5 62.5 62.5 62.5 0:0.12404999 1:0.115714 2:0.082928263 3:0.061731555 4:0.052018698 5:0.043153826 6:0.017313093 7:0.003092841 8:0.0077439696 9:0.008118609 10:0.0095527237 11:0.01229214 12:0.01847351 13:0.025618469 14:0.022616789 15:0.020684667 16:0.021065246 17:0.02243642 18:0.025408154 19:0.018147347 20:0.012491637 21:0.0095190275 22:0.0081549427 23:0.0074557289 24:0.0077875527 25:0.0081681274 26:0.0096089477 27:0.012366612 28:0.018583797 29:0.025726223 30:0.022696665 31:0.02076013 32:0.021141626 33:0.022516456 34:0.02543328 35:0.018037833 36:0.012416376 37:0.0094628325 38:0.0081054233 39:0.007411195 
-0 -62.5 -62.5 -62.5 -62.5 -0 -61.61759258643507 -0 62.5 62.5 62.5 62.5 62.5 62.5 62.5 62.5 62.5 62.5 0:0.13827181 1:0.12041891 2:0.085893758 3:0.061553817 4:0.050863426 5:0.032453366 6:0.0099437507 7:0.0006024203 8:0.020708058 9:0.021215515 10:0.023783984 11:0.018387808 12:0.013164722 13:0.010204105 14:0.0088462057 15:0.0081282882 16:0.0086393375 17:0.0088065304 18:0.010228516 19:0.012834069 20:0.019010663 21:0.024051696 22:0.021470854 23:0.020014212 24:0.0208089 25:0.021322249 26:0.023913184 27:0.018535094 28:0.013270569 29:0.010286246 30:0.0089197848 31:0.0081953024 32:0.008708694 33:0.0088801701 34:0.010310672 35:0.012938549 36:0.019159243 37:0.023981404 38:0.021364152 39:0.019911734 
-62.5 -62.5 -62.5 -62.5 -62.5 -62.5 -62.5 -62.5 0 62.5 62.5 62.5 62.5 62.5 62.5 62.5 62.5 62.5 0:0.19369343 1:0.16958208 2:0.1040915 3:0.029007055 4:0.0036222083 8:0.012531595 9:0.013052671 10:0.014887955 11:0.018365368 12:0.020511473 13:0.016730556 14:0.014683023 15:0.013851356 16:0.014385064 17:0.014729938 18:0.016748941 19:0.020235896 20:0.018855115 21:0.015012677 22:0.012998908 23:0.012125715 24:0.012585182 25:0.013104017 26:0.014950558 27:0.01844017 28:0.020583265 29:0.01679893 30:0.014747723 31:0.013874084 32:0.014485043 33:0.014814527 34:0.016843306 35:0.020309133 36:0.018783523 37:0.014952051 38:0.01294476 39:0.012073562 
-62.5 -62.5 -62.5 -62.5 -62.5 -20.58891087569924 -62.5 -7.140371917786527 0 14.2066468001887 62.5 62.5 62.5 62.5 62.5 62.5 62.5 62.5 0:0.12782013 1:0.1049879 2:0.072363652 3:0.053307042 4:0.044186842 5:0.038382355 6:0.034426916 7:0.024402227 8:0.0069009131 9:0.0071795313 10:0.0083623938 11:0.010702162 12:0.015973868 13:0.024105836 14:0.025373269 15:0.024754839 16:0.025433341 17:0.026110219 18:0.024833454 19:0.016355356 20:0.011176417 21:0.0085442169 22:0.0072925882 23:0.0067742313 24:0.0069245799 25:0.0072048316 26:0.0083922409 27:0.010740332 28:0.016030787 29:0.024132507 30:0.025393743 31:0.024799967 32:0.025478747 33:0.026130961 34:0.024806792 35:0.016298523 36:0.011137902 37:0.00851434 38:0.0072673452 39:0.0067501869 
-0 -10.75026540810661 -62.5 -0 -62.5 -62.5 -62.5 -62.5 0 62.5 0 0 55.94552337063858 0 0 62.5 62.5 31.68851275565 0:0.21339516 1:0.18189527 2:0.085368991 3:0.019087814 4:0.0002586112 8:0.013159561 9:0.013794054 10:0.01623565 11:0.020427726 12:0.021063184 13:0.016602654 14:0.014206024 15:0.01285858 16:0.013348668 17:0.013612589 18:0.015451432 19:0.018776959 20:0.019111246 21:0.015190702 22:0.013347155 23:0.012435023 24:0.013231738 25:0.013876053 26:0.016330514 27:0.02054413 28:0.021181613 29:0.016702255 30:0.014291229 31:0.012937411 32:0.013429133 33:0.013697821 34:0.015551016 35:0.018894117 36:0.018994743 37:0.015095741 38:0.013265144 39:0.012361083 
-62.5 -0 -0 -62.5 -62.5 -48.98496517356967 -62.5 -62.5 62.5 62.5 0 62.5 62.5 0 0 62.5 62.5 0 0:0.17747667 1:0.15984887 2:0.10983055 3:0.043236393 4:0.0096030077 8:0.015748065 9:0.01593357 10:0.018678673 11:0.021253936 12:0.017257491 13:0.013200284 14:0.011384214 15:0.010435384 16:0.012139746 17:0.011434999 18:0.01319599 19:0.016379012 20:0.022522943 21:0.019101731 22:0.016135693 23:0.014444636 24:0.015897684 25:0.016142322 26:0.018899033 27:0.021516623 28:0.017540868 29:0.01335987 30:0.011519065 31:0.010597242 32:0.012299769 33:0.011572747 34:0.013373408 35:0.016622491 36:0.022500329 37:0.018846497 38:0.015906097 39:0.014154876 
-62.5 -62.5 -62.5 -62.5 -62.5 -0 -62.5 -0 62.5 62.5 62.5 62.5 62.5 62.5 62.5 62.5 62.5 62.5 0:0.15083541 1:0.12938994 2:0.090803124 3:0.063599892 4:0.046672467 5:0.01622211 6:0.0024770226 8:0.020019861 9:0.02013965 10:0.022335663 11:0.019152164 12:0.01403975 13:0.010942304 14:0.0093212975 15:0.008512117 16:0.0092954608 17:0.0094666276 18:0.01107656 19:0.01360331 20:0.01960733 21:0.022478152 22:0.020340754 23:0.019066472 24:0.020140985 25:0.020266552 26:0.022469001 27:0.019327145 28:0.014175382 29:0.011050473 30:0.0094154999 31:0.0085998438 32:0.0093871988 33:0.0095608104 34:0.011184744 35:0.013736936 36:0.019784318 37:0.02234667 38:0.020213846 39:0.018942002 
-62.5 -0 -31.00530632276499 -62.5 -62.5 -62.5 -62.5 -62.5 0 62.5 0 62.5 62.5 0 5.355526209518368 62.5 62.5 0 0:0.20632115 1:0.17735706 2:0.093160413 3:0.022101408 4:0.0010630698 8:0.013557148 9:0.014096887 10:0.016007787 11:0.019424787 12:0.01942642 13:0.015655741 14:0.013708476 15:0.012799216 16:0.013165809 17:0.013727564 18:0.015672414 19:0.019206107 20:0.019749532 21:0.016129648 22:0.014189568 23:0.013269828 24:0.013607578 25:0.014150484 26:0.016065378 27:0.019491144 28:0.019490678 29:0.015710952 30:0.013758005 31:0.012846246 32:0.013213623 33:0.013776967 34:0.015727555 35:0.019269874 36:0.019683313 37:0.016072018 38:0.014135979 39:0.013218775 
-62.5 -62.5 -62.5 -62.5 -62.5 -62.5 -62.5 -62.5 62.5 62.5 62.5 62.5 62.5 62.5 62.5 62.5 62.5 62.5 0:0.16022927 1:0.14435616 2:0.11379772 3:0.060091857 4:0.01952664 5:0.0019999235 8:0.010772507 9:0.011094634 10:0.013029555 11:0.016656088 12:0.022250267 13:0.018935136 14:0.01638058 15:0.015085717 16:0.015819177 17:0.016479075 18:0.019011766 19:0.021945029 20:0.017346483 21:0.013244184 22:0.011303613 23:0.010248299 24:0.010846541 25:0.011180021 26:0.013125202 27:0.016779937 28:0.022401299 29:0.019056093 30:0.016483964 31:0.015185525 32:0.015920812 33:0.016582476 34:0.01913273 35:0.021945011 36:0.017220996 37:0.013148508 38:0.011218216 39:0.010171939 
-62.5 -0 -0 -62.5 -62.5 -62.5 -62.5 -62.5 62.5 62.5 48.81690854785504 62.5 62.5 0 62.5 62.5 62.5 30.81148724435 0:0.16909561 1:0.15462208 2:0.10885763 3:0.053335607 4:0.013937141 5:0.00014435886 8:0.015952101 9:0.016676579 10:0.019420858 11:0.021908021 12:0.01657285 13:0.012789029 14:0.010992983 15:0.010091824 16:0.010575915 17:0.011036109 18:0.012880147 19:0.016325388 20:0.022461969 21:0.019593632 22:0.016781807 23:0.015523309 24:0.016031906 25:0.016764846 26:0.019523587 27:0.022041062 28:0.016679564 29:0.012874724 30:0.011065627 31:0.010160192 32:0.010645752 33:0.011108759 34:0.01296582 35:0.016431041 36:0.022489479 37:0.019490954 38:0.016693573 39:0.015442329 
-62.5 -62.5 -62.5 -62.5 -62.5 -62.5 -62.5 -29.93987012659668 62.5 62.5 62.5 62.5 62.5 62.5 62.5 62.5 62.5 62.5 0:0.15704338 1:0.13695015 2:0.1014263 3:0.066792205 4:0.029451542 5:0.0082066441 6:0.00012850211 8:0.010897668 9:0.010877309 10:0.012510629 11:0.015063312 12:0.021275382 13:0.020210976 14:0.017840872 15:0.016083706 16:0.017464032 17:0.017712716 18:0.019924544 19:0.020136554 20:0.01602768 21:0.012593328 22:0.010900075 23:0.0098591344 24:0.011033817 25:0.011028581 26:0.012688724 27:0.015259066 28:0.021540781 29:0.020404488 30:0.018032981 31:0.016254295 32:0.017642349 33:0.017904798 34:0.020118035 35:0.020008566 36:0.015826112 37:0.012415239 38:0.010748796 39:0.0097137811 
-0 -62.5 -62.5 -62.5 -0 -0 -0 -52.17689964886186 62.5 2.638068101312382 62.5 62.5 62.5 62.5 62.5 0 45.97599570344043 62.5 0:0.11436063 1:0.10365967 2:0.078165941 3:0.055259738 4:0.045263693 5:0.038647454 6:0.034065545 7:0.030579507 8:0.026086267 9:0.02448979 10:0.023045497 11:0.016022215 12:0.011481158 13:0.0088083623 14:0.0075431345 15:0.0068512792 16:0.0074677072 17:0.0075827711 18:0.0088781528 19:0.011068459 20:0.016687592 21:0.023402985 22:0.024807824 23:0.02509941 24:0.026079506 25:0.024489794 26:0.023099778 27:0.016218729 28:0.011619856 29:0.0089182649 30:0.0076363082 31:0.0069386042 32:0.0075594936 33:0.0076759458 34:0.0089880424 35:0.011204684 36:0.016886568 37:0.023457218 38:0.024807811 39:0.025099391 
-62.5 -62.5 -62.5 -62.5 -62.5 -42.50581085403305 -62.5 -0 62.5 62.5 62.5 62.5 62.5 62.5 62.5 62.5 62.5 62.5 0:0.14660214 1:0.13184306 2:0.095035195 3:0.068602629 4:0.043739013 5:0.013248134 6:0.00092672079 8:0.019016553 9:0.019807244 10:0.022557644 11:0.020124635 12:0.014189986 13:0.010860086 14:0.0093491264 15:0.0086660078 16:0.0091974791 17:0.0093888799 18:0.010933138 19:0.013876827 20:0.020479701 21:0.022680447 22:0.020013567 23:0.018409668 24:0.019093178 25:0.019893149 26:0.022654619 27:0.020260673 28:0.014284208 29:0.01093666 30:0.0094084507 31:0.0086931325 32:0.0092981989 33:0.0094637563 34:0.011014568 35:0.013990475 36:0.020620422 37:0.022576466 38:0.019927602 39:0.018331379 
-62.5 -62.5 -62.5 -62.5 -62.5 -62.5 -62.5 -0 -62.5 62.5 62.5 62.5 62.5 62.5 62.5 62.5 62.5 62.5 0:0.13466658 1:0.12313291 2:0.095159471 3:0.066504888 4:0.05215532 5:0.022518339 6:0.0058564558 7:5.8427936e-006 8:0.018992564 9:0.019780692 10:0.023069737 11:0.019957267 12:0.014396207 13:0.010976978 14:0.009277055 15:0.0081372159 16:0.0091525372 17:0.0092368638 18:0.010836852 19:0.013507141 20:0.020806596 21:0.023250023 22:0.020017372 23:0.017574118 24:0.019187434 25:0.020015232 26:0.023311825 27:0.020277977 28:0.014634278 29:0.01116357 30:0.009433927 31:0.0082765408 32:0.0092992065 33:0.0093937274 34:0.011023436 35:0.013738026 36:0.0211147 37:0.023007922 38:0.019782782 39:0.017369717 
-62.5 -62.5 -62.5 -62.5 -62.5 -62.5 -62.5 -62.5 -62.5 62.5 62.5 62.5 62.5 62.5 62.5 62.5 62.5 62.5 0:0.14713027 1:0.13501325 2:0.10303102 3:0.072832823 4:0.033084478 5:0.0088873748 6:2.3051633e-005 8:0.017162871 9:0.017925669 10:0.020974293 11:0.021433018 12:0.015649362 13:0.012009767 14:0.010259761 15:0.0091898218 16:0.009971709 17:0.010330467 18:0.01193892 19:0.014971654 20:0.022216359 21:0.021125861 22:0.017921744 23:0.016169446 24:0.017302157 25:0.018083869 26:0.021161785 27:0.021671386 28:0.015835779 29:0.012147621 30:0.010385678 31:0.0093010906 32:0.010087636 33:0.010456369 34:0.012076771 35:0.015154882 36:0.022356892 37:0.020938363 38:0.017763535 39:0.01602699 
-62.5 -62.5 -62.5 -62.5 -62.5 -62.5 -62.5 -62.5 -62.5 62.5 62.5 62.5 62.5 62.5 62.5 62.5 62.5 62.5 0:0.14788958 1:0.12879185 2:0.10911396 3:0.072278254 4:0.031547759 5:0.010117201 6:0.00026107789 8:0.017007401 9:0.016398257 10:0.019275134 11:0.021097574 12:0.016631244 13:0.012935499 14:0.011188944 15:0.010111269 16:0.011654484 17:0.011135999 18:0.012841464 19:0.015543399 20:0.022105081 21:0.019234298 22:0.016682232 23:0.014841506 24:0.017177692 25:0.016606633 26:0.019514676 27:0.021447048 28:0.016965581 29:0.013114039 30:0.0114384 31:0.010205241 32:0.012051917 33:0.011391486 34:0.013153487 35:0.015923062 36:0.022220997 37:0.019018339 38:0.016442481 39:0.014644874 
-62.5 -55.70645332184511 -62.5 -62.5 -62.5 -62.5 -62.5 -62.5 -62.5 62.5 62.5 62.5 62.5 58.05667354396409 62.5 62.5 62.5 61.01768364133486 0:0.14811835 1:0.136849 2:0.096473508 3:0.068678901 4:0.038978636 5:0.01061647 6:0.00038927418 8:0.018537775 9:0.019743342 10:0.022559198 11:0.020666098 12:0.014480818 13:0.011130573 14:0.0094414987 15:0.0086737024 16:0.0088317683 17:0.0093853762 18:0.011022686 19:0.014232509 20:0.02068729 21:0.022504292 22:0.019725528 23:0.018265978 24:0.018563829 25:0.019773841 26:0.022590799 27:0.020710792 28:0.014518415 29:0.011159651 30:0.0094663044 31:0.0086935433 32:0.0088593112 33:0.0094114216 34:0.011053511 35:0.014271729 36:0.020735953 37:0.022471786 38:0.019695146 39:0.018239008 
-62.5 -62.5 -62.5 -62.5 -62.5 -0 -50.99229769504224 -27.10701799439496 -62.5 18.32023676870125 62.5 62.5 62.5 62.5 62.5 62.5 62.5 62.5 0:0.13830325 1:0.11871629 2:0.088816397 3:0.062658809 4:0.05294187 5:0.029356951 6:0.0089310957 7:0.00027161336 8:0.020959316 9:0.020339346 10:0.023644457 11:0.018430738 12:0.013717125 13:0.010568505 14:0.0089952545 15:0.0076231998 16:0.0094681159 17:0.0090951035 18:0.010601767 19:0.012515302 20:0.019588092 21:0.023691917 22:0.020670274 23:0.018564282 24:0.021216026 25:0.020593002 26:0.023996497 27:0.018881109 28:0.014009119 29:0.010813193 30:0.009148458 31:0.007847908 32:0.0096703926 33:0.0093276566 34:0.010855861 35:0.01287756 36:0.020160509 37:0.023445999 38:0.020401636 39:0.018278757 
-62.5 -62.5 -62.5 -62.5 -62.5 -62.5 -62.5 -62.5 -62.5 62.5 62.5 62.5 62.5 62.5 62.5 62.5 62.5 62.5 0:0.17694168 1:0.16551124 2:0.1141406 3:0.037244961 4:0.0061591286 8:0.014071008 9:0.014623614 10:0.017398586 11:0.021278394 12:0.018848501 13:0.014484622 14:0.012279407 15:0.010957911 16:0.012000304 17:0.012424898 18:0.014479917 19:0.018096413 20:0.022466091 21:0.017684672 22:0.014903945 23:0.013192192 24:0.014220223 25:0.014798691 26:0.01760143 27:0.021541461 28:0.019083565 29:0.014672719 30:0.012443085 31:0.011104329 32:0.01215337 33:0.012588568 34:0.014668028 35:0.018327309 36:0.022355082 37:0.017481795 38:0.014728885 39:0.013038352 
-62.5 -62.5 -62.5 -62.5 -62.5 -62.5 -62.5 -62.5 -62.5 62.5 62.5 62.5 62.5 62.5 62.5 62.5 62.5 62.5 0:0.14168993 1:0.12947474 2:0.094522633 3:0.067100942 4:0.047918487 5:0.016924199 6:0.0023705165 8:0.019015029 9:0.019714499 10:0.023048079 11:0.01996723 12:0.014345348 13:0.010979702 14:0.0092970245 15:0.0081418529 16:0.0092042787 17:0.0092454497 18:0.010803259 19:0.013506026 20:0.020767456 21:0.023363 22:0.019966023 23:0.017599683 24:0.019210316 25:0.019949919 26:0.023293871 27:0.020294247 28:0.014585703 29:0.011162042 30:0.0094583631 31:0.0082784006 32:0.0093482239 33:0.009406765 34:0.010985595 35:0.013739762 36:0.021081168 37:0.02311716 38:0.019730581 39:0.017395357 
-62.5 -62.5 -62.5 -62.5 -62.5 -62.5 -62.5 -62.5 -62.5 54.45754187140246 62.5 62.5 62.5 62.5 62.5 62.5 62.5 62.5 0:0.13010803 1:0.11354496 2:0.07869494 3:0.055296559 4:0.044984397 5:0.039034024 6:0.028765848 7:0.0095701609 8:0.0076978793 9:0.0080863293 10:0.0094225071 11:0.011917911 12:0.017162746 13:0.02443783 14:0.023593668 15:0.022325151 16:0.022668984 17:0.023648081 18:0.024524391 19:0.017127214 20:0.012161354 21:0.0094767483 22:0.0081215799 23:0.0075287446 24:0.0077232085 25:0.0081134476 26:0.0094538843 27:0.011957384 28:0.017217245 29:0.024472918 30:0.023636131 31:0.022366518 32:0.022710582 33:0.023690544 34:0.024516121 35:0.017073028 36:0.012121744 37:0.0094453376 38:0.0080944952 39:0.0075031752 
-62.5 -0 -62.5 -62.5 -62.5 -62.5 -62.5 -62.5 -62.5 62.5 51.70140052302541 62.5 62.5 0 62.5 62.5 62.5 62.5 0:0.1622235 1:0.14295574 2:0.099791102 3:0.066979878 4:0.024215706 5:0.00383671 8:0.017488141 9:0.018007144 10:0.020922145 11:0.021142323 12:0.015456926 13:0.011899722 14:0.010147218 15:0.0092414785 16:0.0099689597 17:0.010200102 18:0.011928317 19:0.015062472 20:0.021798408 21:0.021132573 22:0.018268118 23:0.01677434 24:0.017599072 25:0.018124333 26:0.021058906 27:0.021316357 28:0.015593672 29:0.012009049 30:0.010241238 31:0.0093265744 32:0.010057098 33:0.010294104 34:0.012037699 35:0.015197051 36:0.021902345 37:0.020995768 38:0.018150995 39:0.016660435 
-62.5 -62.5 -62.5 -62.5 -62.5 -62.5 -62.5 -62.5 -62.5 62.5 62.5 62.5 62.5 62.5 62.5 62.5 62.5 62.5 0:0.15832949 1:0.14322029 2:0.097745612 3:0.068364039 4:0.027140154 5:0.00555825 8:0.0093917763 9:0.0099964524 10:0.011615777 11:0.014828952 12:0.02101774 13:0.021444872 14:0.019012842 15:0.017788453 16:0.018008074 17:0.019004369 18:0.021385353 19:0.020811684 20:0.014933184 21:0.011653217 22:0.0099807456 23:0.0092298705 24:0.0094045894 25:0.010021509 26:0.011645564 27:0.014863269 28:0.021061406 29:0.021475535 30:0.019042196 31:0.017817028 32:0.018036574 33:0.019034013 34:0.02141713 35:0.020772154 36:0.014891493 37:0.011621202 38:0.0099534011 39:0.0091927983 
-0 -0 -0 -0 -62.5 -0 -0 -62.5 -62.5 -0 0 0 0 0 0 62.5 0 0 0:0.18318798 1:0.16772071 2:0.10930146 3:0.034443036 4:0.0053449473 8:0.015065995 9:0.015764205 10:0.018157259 11:0.021548109 12:0.017896231 13:0.013843761 14:0.011783537 15:0.0108732 16:0.011141065 17:0.011715396 18:0.013722867 19:0.017522797 20:0.021763965 21:0.018245406 22:0.015909707 23:0.01480643 24:0.015117409 25:0.01582112 26:0.018219698 27:0.021623109 28:0.01796508 29:0.013898101 30:0.01182972 31:0.010915984 32:0.01118446 33:0.011761589 34:0.013777294 35:0.017591223 36:0.021743467 37:0.01818319 38:0.015852848 39:0.014754183 
-62.5 -62.5 -62.5 -62.5 -62.5 -62.5 -62.5 -20.7357991054182 -62.5 -62.5 62.5 62.5 62.5 62.5 62.5 62.5 62.5 62.5 0:0.17427993 1:0.15597433 2:0.11293044 3:0.045174524 4:0.011605876 5:3.5384801e-005 8:0.011443508 9:0.011778645 10:0.013642429 11:0.016946115 12:0.021885457 13:0.018284621 14:0.015839398 15:0.014612933 16:0.015664695 17:0.015887808 18:0.018224981 19:0.021458138 20:0.017532097 21:0.013719419 22:0.011804793 23:0.010836083 24:0.01153596 25:0.011882445 26:0.013757918 27:0.017093154 28:0.022053592 29:0.018414913 30:0.01595604 31:0.01471852 32:0.015771829 33:0.016004484 34:0.018355222 35:0.02146598 36:0.017382994 37:0.013603985 38:0.011701007 39:0.010741631 
-62.5 -62.5 -62.5 -62.5 -62.5 -62.5 -62.5 -62.5 -62.5 -62.5 62.5 62.5 62.5 62.5 62.5 62.5 62.5 62.5 0:0.17080827 1:0.15332054 2:0.1121759 3:0.04981273 4:0.013590387 5:0.00028960491 8:0.011486564 9:0.011512623 10:0.01342235 11:0.016662475 12:0.02211865 13:0.018474812 14:0.015850043 15:0.014510541 16:0.015708471 17:0.015993111 18:0.018662874 19:0.021718383 20:0.017620813 21:0.013562721 22:0.011571171 23:0.010509716 24:0.011612071 25:0.011656787 26:0.013583753 27:0.016859474 28:0.022352193 29:0.018662181 30:0.016011948 31:0.014657867 32:0.015862342 33:0.01615504 34:0.018850166 35:0.021721736 36:0.017419316 37:0.013401303 38:0.01142703 39:0.010380019 
-0 -0 -0 -0 -62.5 -62.5 -62.5 -62.5 -0 -0 0 0 7.219798799164473 0 0 0 42.17389896836615 0 0:0.20056866 1:0.17190555 2:0.098786674 3:0.026284426 4:0.0024494024 8:0.012627268 9:0.01318421 10:0.01508085 11:0.018509705 12:0.020592157 13:0.016743869 14:0.01456031 15:0.013542129 16:0.013904382 17:0.014569822 18:0.016762024 19:0.02038276 20:0.018770291 21:0.015079226 22:0.013178788 23:0.012328514 24:0.012667537 25:0.013225827 26:0.015126907 27:0.018564897 28:0.020650093 29:0.016793186 30:0.014604537 31:0.013583415 32:0.013946262 33:0.01461402 34:0.01681124 35:0.020419808 36:0.018714791 37:0.015033257 38:0.013137181 39:0.012287827 
-0 -0 -0 -0 -62.5 -0 -62.5 -0 -62.5 -0 0 57.71616869099062 0 0 0 62.5 0 0 0:0.18861909 1:0.16045518 2:0.10591674 3:0.037406642 4:0.0079224985 8:0.015635757 9:0.016421534 10:0.018486235 11:0.021331677 12:0.01732306 13:0.013719632 14:0.011894742 15:0.011048269 16:0.011187518 17:0.011804536 18:0.01352528 19:0.01688296 20:0.021097356 21:0.018138716 22:0.016179292 23:0.015352771 24:0.015656989 25:0.016444618 26:0.018510304 27:0.021363623 28:0.017354563 29:0.013745957 30:0.0119177 31:0.01106743 32:0.011215938 33:0.011831676 34:0.013558103 35:0.016923536 36:0.02110007 37:0.018112663 38:0.016156135 39:0.015330927 
-62.5 -62.5 -62.5 -62.5 -62.5 -62.5 -62.5 -50.86353238337525 -62.5 -62.5 62.5 62.5 62.5 62.5 62.5 62.5 62.5 62.5 0:0.16033743 1:0.14133136 2:0.11501107 3:0.060440432 4:0.020533027 5:0.0023453354 8:0.016658904 9:0.01615811 10:0.018561801 11:0.020853041 12:0.017114906 13:0.013124907 14:0.011446577 15:0.01048723 16:0.011778323 17:0.011237082 18:0.013064767 19:0.016088318 20:0.022112409 21:0.018692831 22:0.016439997 23:0.015149562 24:0.016877715 25:0.016403887 26:0.018819312 27:0.021182962 28:0.01739184 29:0.013358898 30:0.011630535 31:0.010671823 32:0.0119761 33:0.011421056 34:0.013298771 35:0.016357986 36:0.022088455 37:0.018435303 38:0.016194228 39:0.014921891 
-62.5 -62.5 -62.5 -62.5 -62.5 -62.5 -62.5 -62.5 -62.5 -62.5 62.5 62.5 62.5 62.5 62.5 62.5 62.5 62.5 0:0.16708189 1:0.15156864 2:0.10577754 3:0.058423132 4:0.016442122 5:0.00071424711 8:0.016668132 9:0.01738183 10:0.019793635 11:0.021341296 12:0.015812285 13:0.012254822 14:0.010605893 15:0.0097804191 16:0.010288331 17:0.010721967 18:0.012473617 19:0.015830321 20:0.022208368 21:0.020396376 22:0.01776913 23:0.016384611 24:0.016732426 25:0.017457865 26:0.01987379 27:0.02144107 28:0.015898991 29:0.012321043 30:0.010662945 31:0.0098331878 32:0.010339059 33:0.010778848 34:0.012538712 35:0.015908943 36:0.02223617 37:0.020293145 38:0.017677641 39:0.016303772 
-62.5 -0 -48.50959550979254 -62.5 -62.5 -62.5 -62.5 -0 -62.5 -62.5 38.30986729844453 62.5 62.5 0 62.5 62.5 62.5 31.71232543213155 0:0.17368548 1:0.15442488 2:0.10729236 3:0.051379357 4:0.0130723 5:0.00014794485 8:0.016804615 9:0.017022662 10:0.019313818 11:0.021187948 12:0.016389519 13:0.012721909 14:0.011037724 15:0.0099385353 16:0.010666485 17:0.010860124 18:0.012587601 19:0.015679702 20:0.022139981 21:0.019744009 22:0.017260646 23:0.015851058 24:0.016964642 25:0.01719486 26:0.019514665 27:0.021428341 28:0.016595231 29:0.012889083 30:0.011182823 31:0.010066332 32:0.010799835 33:0.011005234 34:0.012754778 35:0.015880523 36:0.02220129 37:0.019543123 38:0.017088434 39:0.015686654 
-0 -0 -0 -0 -0 -0 -62.5 -62.5 -16.84471490150108 -0 0 0 0 0 0 38.49459310929734 0 0 0:0.18597265 1:0.17020327 2:0.10676999 3:0.032665584 4:0.0044005597 8:0.014517972 9:0.015395355 10:0.017928788 11:0.021672819 12:0.01833811 13:0.014180455 14:0.012036929 15:0.011007917 16:0.011333443 17:0.011967108 18:0.014082969 19:0.017966991 20:0.021835461 21:0.017932115 22:0.015406139 23:0.014186186 24:0.014552452 25:0.015434886 26:0.0179771 27:0.021730065 28:0.018396858 29:0.01423034 30:0.012079208 31:0.011041701 32:0.011376215 33:0.012012716 34:0.014135437 35:0.018034229 36:0.021822495 37:0.017883046 38:0.015367262 39:0.01415005 
-0 -0 -0 -0 -62.5 -0 -62.5 -0 -62.5 -62.5 0 62.5 62.5 0 0 62.5 15.58595865051219 0 0:0.17513669 1:0.15859941 2:0.11556797 3:0.041757774 4:0.0089407554 8:0.015521251 9:0.015627069 10:0.018318951 11:0.021395827 12:0.01788949 13:0.013661109 14:0.011615157 15:0.010319934 16:0.011455113 17:0.011589079 18:0.013602762 19:0.017069131 20:0.022510702 21:0.018434228 22:0.015811004 23:0.014240862 24:0.01570194 25:0.015829911 26:0.018554332 27:0.021697083 28:0.018160315 29:0.013877766 30:0.011793248 31:0.010477587 32:0.011621471 33:0.011767147 34:0.013819437 35:0.017333435 36:0.022446342 37:0.018198874 38:0.015608141 39:0.014053572 
-62.5 -0 -0 -60.64484413015777 -62.5 -51.19917407876906 -62.5 -62.5 -62.5 -62.5 0 62.5 62.5 0 0 62.5 62.5 0 0:0.17266609 1:0.15921478 2:0.11127266 3:0.045275573 4:0.011487066 5:7.8799523e-005 8:0.015925648 9:0.016556948 10:0.018766265 11:0.021408275 12:0.017112626 13:0.013406818 14:0.011620116 15:0.010727216 16:0.011155948 17:0.011626613 18:0.013345495 19:0.016519511 20:0.021333253 21:0.018474881 22:0.016376268 23:0.015409883 24:0.015958278 25:0.016621875 26:0.018834751 27:0.021496635 28:0.017183036 29:0.013471637 30:0.011679787 31:0.010781038 32:0.011210103 33:0.011686812 34:0.01340961 35:0.016597675 36:0.021322358 37:0.018379321 38:0.01629018 39:0.01530779 
-62.5 -62.5 -62.5 -62.5 -62.5 -62.5 -62.5 -62.5 -62.5 -62.5 62.5 62.5 62.5 62.5 62.5 62.5 62.5 62.5 0:0.17059921 1:0.14959574 2:0.1054078 3:0.055903267 4:0.016944634 5:0.0015478402 8:0.011825397 9:0.011550505 10:0.013257001 11:0.015298349 12:0.021284467 13:0.01897618 14:0.016816366 15:0.015310337 16:0.017347487 17:0.016761683 18:0.018917633 19:0.019985503 20:0.016777424 21:0.013203311 22:0.011467475 23:0.010174898 24:0.01204828 25:0.011821423 26:0.013535784 27:0.015636468 28:0.021688124 29:0.01928295 30:0.017117713 31:0.015585755 32:0.01763944 33:0.017063016 34:0.019224396 35:0.019915344 36:0.016426055 37:0.012924519 38:0.011196565 39:0.0099388603 
-62.5 -62.5 -62.5 -62.5 -62.5 -62.5 -62.5 -53.40066851120654 -62.5 -62.5 62.5 62.5 62.5 62.5 62.5 62.5 62.5 62.5 0:0.17182705 1:0.14729477 2:0.10435458 3:0.059738047 4:0.018210392 5:0.0013815112 8:0.016735511 9:0.017617038 10:0.020282162 11:0.022079907 12:0.01617842 13:0.012550045 14:0.010778819 15:0.0099761402 16:0.01008953 17:0.010700892 18:0.012419716 19:0.01585889 20:0.021925129 21:0.020078611 22:0.017517513 23:0.016533731 24:0.01674569 25:0.017639749 26:0.020306656 27:0.022111632 28:0.016202908 29:0.012569102 30:0.010794605 31:0.0099903047 32:0.010104353 33:0.010716318 34:0.012439203 35:0.01588412 36:0.021931386 37:0.020044405 38:0.017489012 39:0.016494943 
-62.5 -0 -4.933508131140475 -62.5 -62.5 -11.30082592123095 -62.5 -0 -62.5 -0 0 62.5 62.5 0 0 62.5 62.5 0 0:0.17729342 1:0.16344577 2:0.11648427 3:0.03683902 4:0.0059408522 8:0.013109525 9:0.012921118 10:0.01504829 11:0.018785702 12:0.021087412 13:0.016065851 14:0.013802989 15:0.012854335 16:0.014573051 17:0.01388256 18:0.01608639 19:0.02001415 20:0.020320104 21:0.015415333 22:0.01332094 23:0.011866694 24:0.013243201 25:0.013125689 26:0.015291104 27:0.019122297 28:0.021440661 29:0.016319623 30:0.014050982 31:0.013029974 32:0.014760521 33:0.014115389 34:0.016329907 35:0.020291971 36:0.019968133 37:0.015118676 38:0.013054537 39:0.011586118 
-62.5 -62.5 -62.5 -62.5 -62.5 -62.5 -62.5 -62.5 -62.5 -10.27777864010371 62.5 62.5 62.5 62.5 62.5 62.5 62.5 62.5 0:0.16951354 1:0.16151373 2:0.11437657 3:0.044622991 4:0.009998681 8:0.010775165 9:0.011397285 10:0.013308105 11:0.016912993 12:0.022072071 13:0.018848181 14:0.016349133 15:0.015227465 16:0.015457755 17:0.016306857 18:0.018795054 19:0.021848684 20:0.017136732 21:0.013328234 22:0.011446856 23:0.01060357 24:0.010814219 25:0.011440719 26:0.013358351 27:0.016976334 28:0.022146197 29:0.018906323 30:0.016402101 31:0.015276927 32:0.015507425 33:0.016359914 34:0.01885302 35:0.021849336 36:0.017073059 37:0.01327812 38:0.011403486 39:0.010563713 
